  -77
  -23
  -16
   11
  107
  105
  108
  -91
   27
  -87
   78
  104
  -59
  -27
  -44
    3
 -117
  -22
  -40
   18
   92
   44
  -30
  -22
  -61
 -108
  -25
  104
  119
   49
  -44
 -103
  -85
  -91
    7
   45
    1
  -75
  -34
   25
  108
  103
  -82
   37
   45
  117
  -60
  -12
   92
   49
   68
 -116
  -28
   94
   93
  -84
 -106
  -74
  -98
  -37
  -42
  -91
  -16
 -113
  104
  -45
   22
    7
  -29
  -41
   98
   30
   41
 -102
   93
  127
  -66
  -38
  -17
  -85
  102
   12
  -33
 -114
   51
   26
   93
    2
   80
 -100
  112
  -89
   55
   23
  -50
  -26
  -35
    0
  -44
    9
  -46
   39
  -88
 -115
  114
    1
  -17
   14
  119
   83
 -116
   61
   93
   39
   -5
  108
  -77
  -17
  104
   61
  -67
    2
   31
  114
  -38
   66
   -9
   33
 -107
  -31
 -100
   39
   64
   14
  -79
   45
  -32
   82
   47
   55
    0
  102
  -36
  -99
  -40
   89
  -30
  109
  -56
   56
   21
   16
  -85
  -68
  -54
  -43
  -93
   95
  -75
   26
 -108
   57
 -121
   40
 -120
  -37
 -123
  -78
  -84
 -104
  -10
   42
   12
   66
   96
  -27
  -37
   62
  -23
   -1
   25
  -78
  104
  -93
  123
 -104
  -61
  106
  -87
  -71
  -78
   40
    6
 -113
  -84
  101
  -52
  -42
  -18
   79
    8
 -125
  127
  -34
  -44
   30
   99
   -4
  -73
  -36
 -117
   64
   11
   29
   83
   93
  -57
  -51
   86
   11
   35
  -83
   55
  107
 -126
  -85
   64
  -39
  -32
   43
  -43
 -107
  -43
  -88
  -62
 -118
  -16
  -24
   32
  -85
  -66
 -114
   59
   14
   44
   73
   29
  -27
  -60
  102
  -38
  106
 -123
   98
  -55
    5
  -96
   44
  -58
   56
 -120
   41
 -117
 -124
  -50
   20
 -125
 -118
  -68
  -79
   29
   36
   92
  -51
   33
  108
  -17
  -82
   -6
 -108
   14
  -31
  -24
   98
   17
   66
  -70
  -76
    4
  -28
  -28
  123
   53
    4
   -9
   47
   70
  -41
 -125
  -73
  -65
  -20
  -53
   74
   43
  -75
   33
   88
  -29
   70
  -49
   22
  -36
  -69
   36
   82
  110
  118
  -62
  -54
   27
   47
   18
  -36
   79
   48
   98
 -105
  105
  -54
 -121
   42
  -58
   29
  -88
   72
  -74
   -8
  -85
  -81
   92
   55
  -77
  -14
  123
   86
  -40
   -6
  -50
    1
   98
   91
 -118
    4
   72
   19
 -120
  -84
   91
   28
  116
   70
  103
    3
   46
   69
   41
   10
  -75
  -59
   45
   26
  119
 -124
  121
   11
   37
    0
  -34
   69
  -83
  -51
   18
    4
  -90
   13
   83
    5
  -44
 -110
    7
  -92
 -127
  -60
  102
   52
  -77
  104
   17
   99
 -119
  -69
   24
  -89
  122
  -52
   84
  -87
  -75
   33
    5
   43
   34
  -77
   23
  105
   62
  123
   11
 -118
   66
 -119
  -32
  118
   15
  -58
   10
  -25
   33
   44
  -73
  -87
   49
   22
  -89
  -52
  -39
    8
  -16
   96
  -22
   51
 -107
 -113
  -26
  108
   47
  101
   35
   74
    4
  -46
  -93
  -22
    7
   56
  -19
  116
   -8
   11
   52
   90
    1
   65
 -101
   72
    2
 -126
 -103
  102
  -35
   41
  -39
 -124
  102
  125
 -119
   62
  -81
  119
  -80
   -2
   28
  -98
  -78
   36
   12
   21
  -91
  -61
   49
   10
  -47
  110
   80
  124
   48
  -92
    9
   79
   63
  117
   11
  -96
   72
  -42
 -110
   97
  -35
    8
   62
  -69
  -27
   69
   41
  122
    7
 -124
   -5
 -127
  -35
  -34
   53
  -36
  -17
 -115
  -17
   -2
  -49
  -49
  119
 -111
  -70
    3
   36
 -109
   75
   62
 -119
   15
   14
   64
   37
  -67
  -74
  -24
   83
  -23
   32
  116
  111
  -86
   76
   51
 -100
   80
   31
 -125
   13
    3
   60
  -56
   72
  -18
   99
 -123
  124
  -13
   64
   75
  118
  -79
   57
   61
  -69
  -68
  -96
   91
   95
  119
  -51
   76
   51
  -53
   19
   92
  -17
  -22
  -58
  124
   29
  -92
 -120
  -83
  -20
  -74
  119
  -65
   35
   20
 -113
   55
  -12
 -121
   47
  -30
 -103
  -12
  -90
 -105
  -82
 -117
   11
   41
   64
   -3
   62
  121
   61
    3
   19
  -41
  -74
  -81
  104
  -41
   48
  101
   72
   43
  101
    9
  -29
  -64
   41
  -58
  -87
  -70
   40
  -72
  -66
 -112
  -96
  116
   34
   41
  -15
  -13
  -89
  -94
   58
  -43
   35
  -71
    8
   16
    5
  -60
   90
   33
    5
 -102
  123
   49
  -22
  -54
 -104
   38
  101
  -77
  -12
    2
   51
 -127
   76
   69
  -70
   67
  -34
   44
  -22
  -93
   27
  -74
  -55
   87
 -114
 -116
   -3
  -19
  -20
  -13
  -87
   98
  -73
  -26
   50
  115
   11
   24
  -64
   76
  -25
  -44
  -64
   54
  -48
   56
   36
   54
 -106
  -55
   38
   17
  126
  -49
   78
   28
 -124
  -21
  -25
   28
   -5
  116
  100
   17
  -87
  125
   55
 -102
  113
  -22
   26
  -54
  -27
    9
  -67
   69
   83
  122
   15
 -114
  -67
  104
  -56
  -22
 -127
  -86
  -10
  -11
 -122
    5
   85
  -52
   63
  104
  -57
    7
  -24
   19
   92
 -104
  -80
  125
    2
  -44
  -39
  -50
   11
  -70
   89
  -30
  -55
  -72
   16
   29
  -46
   18
 -118
   74
  -18
  -10
  109
   41
  104
   44
  -11
  -40
  -15
  -95
   89
  -90
   -2
   32
   -2
  -10
   12
    8
  -21
  -67
    9
   82
  -99
  -48
   76
  -41
   -8
   -1
   -8
  -27
 -119
  -35
  -10
  -66
  -31
  111
  124
  -69
  -79
 -108
   10
   26
  -49
  105
   83
  -95
  -73
   58
  -66
  -15
  104
  -11
   38
    4
  124
  -24
  -42
  118
  -10
  -32
  125
  -62
  -72
   33
  -44
  108
  -35
   80
   72
  -20
   87
   96
  -61
   75
  114
    9
    6
  -10
  -55
   38
 -120
  -43
  -95
   48
  108
  -13
   57
  -27
  -17
  -43
  -29
    2
  -34
   19
  -50
   27
   74
  -87
   28
  -73
  -22
  -50
  125
  -25
   43
  -83
  -75
   37
  -27
  -86
  -30
  -43
   37
  -19
  -73
  -27
   57
   -5
  110
   70
 -120
 -113
   -4
  -23
   -1
   21
 -112
   34
  -58
  -62
  120
   82
   91
 -124
  -81
  122
   89
 -107
  -92
  -50
  -15
    6
  -90
   22
   93
  126
   93
  -42
  -25
  -94
  -42
  112
  -10
 -102
   70
 -113
 -107
 -126
  100
   28
   54
   35
   61
  -10
    4
   34
   74
  -48
 -125
  -19
  -29
  121
  -16
  -43
   -2
   25
  -22
   59
    3
  -46
   89
  103
  -95
  -38
   75
  -39
   62
  -88
   47
   33
   72
  -46
   18
  -90
  -66
  123
   94
   33
   28
   84
   13
   74
   87
  116
   66
  -45
  -19
   51
   75
    2
 -126
  101
  -82
   75
   57
  -26
  118
  -23
  -10
  109
   33
   45
 -101
   -8
   49
  -79
  -19
  -82
  -51
  -12
  -92
  -71
  -64
  113
  -93
  -67
  -79
    3
 -110
 -119
  -42
  -34
  -71
  -53
   17
 -106
   35
    8
  -60
  105
   63
   87
  -43
   56
  -34
   50
  -13
  -19
   27
   50
  -75
 -106
   16
  -28
  -64
  -86
   27
  124
  -25
  -54
   13
  -39
  -59
   92
  -23
   48
   19
   49
    6
   99
  -36
  100
  -82
   74
  -45
   46
   69
  100
  -96
   41
   44
   -1
   68
   88
   72
   89
 -119
   17
  -85
   -5
   98
   46
  124
  -71
  -35
  121
  -28
  -74
  -61
  -11
   61
  101
  -26
  -73
  -23
   73
   -5
  101
  -42
  -25
  -21
  -88
  -32
  -53
  120
 -122
    7
  -34
   75
  -46
 -109
   54
  -85
   87
  -38
  124
  -91
  -94
  -84
 -126
   89
    4
   -1
  -24
   18
  106
  118
  -57
   50
   55
   26
   47
   73
  -51
   68
  -61
   88
  113
   16
  -42
 -113
  -76
 -124
   -8
  125
   76
  -91
  -26
   29
 -114
  -54
    6
   58
   56
  -39
  -16
  -97
   18
   87
 -124
  -83
    3
    2
   12
   42
   95
  -86
 -105
    2
    9
  -59
   38
   77
   -6
  -74
  102
   59
   51
  112
   25
  121
  -40
   54
    6
  -51
   52
   83
   89
 -110
  -50
   15
  -37
   17
    9
  -33
  -69
   80
  -46
  -17
    8
 -107
    3
   64
  -96
   84
   48
  -82
  -25
   76
  -81
  -71
   32
 -112
  -35
  -75
  -72
 -120
   50
  126
  -71
  -14
  -29
   25
  -83
   72
  -94
  112
  -16
   12
  -76
  -16
   57
  -42
   77
  -56
 -110
  -64
   43
   60
   -7
   53
  113
  109
  114
   81
   43
  -41
 -113
  -71
  100
  -70
  -69
   27
  102
    5
    1
  103
  113
  -24
  -96
  -35
   96
   -5
  -33
  101
  -45
 -108
  -31
   52
  -19
  -87
  -22
  -30
 -121
   26
   76
    3
    0
  -42
  105
  -78
  -42
   37
  110
   70
  118
   22
  -55
   97
  118
   54
  -78
   36
 -122
  107
   59
   34
   96
   65
   43
    6
  -13
  -80
  -94
   54
  -89
  -90
 -114
  -30
  -66
   67
  103
   19
  -76
  -14
  -89
 -105
   61
  -20
  -29
  -41
  101
   15
   16
   -2
   94
 -111
  -20
    9
  105
    8
   50
   34
  -50
 -126
   55
 -127
   59
   93
  -10
  -85
   29
  -97
  -80
   18
   35
  -96
  -10
   21
  103
  -17
   96
  -18
   34
  109
    4
 -126
  122
 -103
 -124
   58
 -112
  -58
   26
    6
  -85
  -65
  -67
  109
   80
 -105
  -82
   65
  -81
  -19
   55
  -54
  -71
   47
    8
 -101
  -49
   15
   79
  100
  -99
  -97
  -52
  -26
   17
   60
   60
  108
   34
  122
    0
 -100
   60
   50
   26
   35
   10
  -31
  -33
  -86
   85
   -9
    7
   92
  119
  -31
   34
  -19
 -102
  -60
   72
  -83
   55
  -77
   53
  -45
   80
  115
  107
   11
   97
  114
  -15
   97
    0
 -105
   30
   -1
  113
   74
  -17
  -35
  -91
  -49
   13
   30
  -59
  -88
 -106
   83
  -65
  112
   90
   19
 -115
 -105
   85
   56
   87
   79
  -18
   49
   60
  -19
  -63
   10
   -2
  -62
   27
  -97
  -56
   78
   81
   19
   34
  105
   50
  -83
 -118
   91
  -74
   31
  121
 -101
   29
  -16
   93
    0
   72
 -120
   -8
  -96
  -93
   85
  -39
    3
   94
    0
    2
    9
  -60
  -53
  106
   49
  -53
  -64
   74
  -39
   50
    0
  -92
  -54
  123
   98
   23
  -73
  -79
  -14
  110
 -123
   66
  103
  -76
  118
  -86
   29
   28
   60
  -58
 -101
   -4
    7
  -64
  -22
   24
  102
   30
  -65
   87
   37
  126
   -5
   47
 -108
  -56
 -106
   54
  -38
    2
   93
  -12
 -106
    1
   34
   23
   -6
  -12
  -26
 -125
  121
   60
   93
  106
   -6
   33
  -15
  124
 -105
   15
   84
   38
  -83
  -96
  111
   50
  -31
  -16
   71
  -58
 -114
  -34
  119
  105
   23
  -72
  -51
    1
   74
 -118
   43
  -55
  -44
    5
   73
   23
   84
   39
  -78
  -82
 -120
   13
   28
  -87
  -67
  -67
  -33
  -17
   62
  100
   32
 -103
   33
  -60
 -101
  -59
   81
  112
  121
  -89
  -53
  111
 -125
   82
  104
  123
  -95
   42
  -85
  -25
 -102
   71
  -26
  -63
   45
  -39
  119
  -78
  107
   26
  -58
  -68
 -120
  103
   54
    6
 -102
   60
   97
   41
    6
   76
 -115
  104
   63
  -33
   67
   66
   42
   75
  -81
   46
  -83
  -14
  -50
   -8
  -61
   85
   82
   66
   82
  -39
  -21
   -9
   54
   19
 -102
   92
  -24
   48
  -17
   79
  -14
   56
   65
    8
  -26
  126
   51
  -26
  112
 -107
  125
  -13
   59
    4
  -40
  -76
    6
 -112
   84
  -58
 -120
  -28
    4
  -15
  -60
  -69
   59
  -32
   34
  -60
  -20
 -102
 -123
  -83
  -80
   59
   46
  -50
   95
   67
  -52
   57
   95
    4
   24
  -58
   95
  -42
  105
   51
   26
  -85
   29
  -59
   67
   47
   17
   57
  -91
  -87
 -101
   45
  110
  -52
   89
   32
 -109
  120
    0
  -20
 -119
   70
  -74
   61
   82
 -110
   63
   85
  101
   11
   84
  -67
  -32
  -60
   91
  -48
  -32
  -81
   28
   15
  -68
   53
  -52
  -37
  -76
  -24
  -50
   61
   33
  -47
   -8
  -92
  -20
   18
   59
   39
 -104
  106
   45
  -21
 -126
  -21
   11
  -26
   79
    5
  -33
  -30
   11
  -34
  -80
 -118
   22
   48
  102
   37
   68
  116
 -107
   -2
  120
  -41
 -101
  -12
   84
  -96
   24
  107
  103
  -16
    6
  -75
  -61
   14
  -81
  -40
   68
   57
   66
   96
   70
   70
  -63
   35
  -22
  -76
 -117
   40
   76
  -97
  -24
  -28
   39
  -94
  -83
   42
  -50
  -52
   98
  -15
   50
   55
 -100
   34
  -86
  -28
  -25
  105
  -47
  -69
   62
 -111
  -33
   44
   24
   27
   56
   97
 -126
   56
  -44
  113
 -111
  -91
  -91
    6
  -42
   93
  119
   66
   91
   46
   93
   -1
  -80
    5
   40
  -17
   93
  127
   23
   52
   67
   88
  -17
   63
   21
 -121
   34
  101
  -65
   96
   95
   57
  -59
  111
   29
  -43
   77
  -90
  -96
  105
  -78
   23
  -74
   -5
   15
  101
   -7
   75
  -80
   44
  -23
   94
  -29
  127
   67
  126
   73
   71
   97
  -22
  -15
   36
  -30
   52
  -38
   24
   67
  -45
   91
 -127
  -22
   16
  -22
   19
  117
 -107
 -101
   44
  122
   26
   58
  -35
   60
 -114
   -2
  -20
  -21
 -104
  -25
   46
   17
  -55
  -46
 -118
  -10
   49
 -104
  -11
  -54
    9
   27
  -99
  124
  -37
 -109
   66
  -79
  -21
 -121
  -60
  125
   24
  -32
  -68
  -58
   72
 -103
  -89
   61
  115
  -96
  -29
  -93
  -73
  110
  -58
   50
   69
  -74
   46
   91
  -58
   26
  -39
  -71
 -101
  -32
   74
   -7
  -22
  112
 -100
  -78
   59
  -45
   -8
  106
   -8
  108
  -10
  107
  117
  -29
  -92
   17
  123
  -14
 -108
  125
  114
  -55
 -120
  -16
   81
  -26
   24
  -17
  -40
  -78
  -10
   62
   94
   -1
  -18
   45
   37
  -64
  106
  -90
  -90
  -18
  -88
   97
  -43
  -91
   40
  -96
 -110
 -121
  -16
   89
   31
  124
 -107
 -101
 -103
   38
  -62
  117
  118
    1
    0
  -67
  111
   25
   60
  -68
 -100
   61
  -98
  -95
  -21
  -13
   89
 -124
 -102
  -42
   27
  127
  -94
  -18
  115
  -68
   31
  -67
  117
 -123
   45
  -17
  127
  112
   -8
    3
 -121
   61
  -95
   32
 -115
   96
  125
   49
    1
    3
   78
    5
  -41
   77
 -109
  -72
   78
 -118
 -101
 -118
 -113
  -40
   67
   38
  -63
   -2
  102
  102
   54
  -16
  -71
  117
  -45
   -7
  118
   -9
  -95
   -2
 -110
   87
   58
   -8
  115
   33
  126
  112
   74
   73
   43
  101
  -70
    5
   41
  -41
   -4
  -27
  -33
   59
   85
   81
   -1
  -48
   38
  -31
 -114
  -98
    8
  -78
  -66
 -100
    6
  -99
  -11
  107
  -42
   21
   13
  -36
 -115
 -118
   31
  -69
  123
   67
  -85
 -103
   11
   47
   35
   12
 -117
   -4
   43
   89
   16
   27
   74
  -80
   56
  -45
  121
  -65
 -117
   55
  -13
  -83
  -48
   80
   25
   39
  110
   80
   53
 -113
  -89
  -63
   89
  -16
   72
    8
   75
 -126
   10
  114
   52
   33
 -121
  -44
 -104
   95
  100
 -108
  -76
  -81
  -20
  -69
   56
 -113
  -84
  -96
 -112
  -49
   -2
  -93
   94
   55
    8
  -35
   87
  -42
   -5
   29
  -32
   28
  -13
  -13
   94
   56
  -13
  -88
 -112
    5
   16
  120
  -62
  125
  -40
   99
   92
   27
   29
  124
  -52
  -57
   29
   59
  -62
  -98
    1
  -54
  -83
  -47
   33
  -58
   -9
   51
 -111
  -20
   73
   54
  -30
   -8
   45
  -14
   20
  -65
   91
  122
 -124
   64
   84
   21
   22
  126
  -64
  -19
  -30
  -66
   85
  -75
  -47
  -10
   67
   72
   25
 -101
   92
 -117
   68
    8
   16
  -81
  -45
   98
  125
   25
  -71
   52
  -31
   46
  -40
   25
   26
   48
   85
   13
  -40
   90
  -45
  -32
   51
  -82
  -63
  -92
  -17
   22
  -97
    2
    2
   -2
   14
   -9
   24
   77
 -122
 -104
  -49
   88
 -117
  -15
  119
   -1
   36
   94
  -68
  -90
  -68
  -55
  -16
   30
 -127
  -84
  -76
   77
  -84
   34
  -51
  -29
  -89
 -111
  -54
  -90
   94
  -38
   36
   94
   94
  -33
   28
   -2
   15
  -56
   28
  -44
   27
  -80
   41
  105
  -24
  -57
   49
   94
 -122
  -18
 -104
  120
   16
  127
   27
  105
   54
 -102
   58
  -82
  111
   94
  -22
  -29
   57
   47
   11
  122
   16
  -60
  122
  116
   62
   50
   88
 -108
 -108
  -38
  104
   80
   86
  -44
   38
   50
  -34
  -31
   96
   74
 -120
   17
 -120
  -79
    5
  -69
  -76
   18
   81
  -36
  -21
   81
 -100
  115
   24
  -50
  -33
  116
  -55
   54
   -1
   54
   27
 -112
   71
  -59
  -85
  -93
 -113
  -67
   29
   34
   -7
  -98
   19
   46
   87
  -24
  -26
 -124
   38
   89
  -59
  -11
    2
  -64
   23
  126
   14
   85
 -106
  -87
   51
  -46
  -72
   89
 -108
  -31
  116
   97
  -50
   97
   10
   82
   60
  -64
   79
  115
   88
   69
   55
   33
   71
  -88
  -68
  114
 -107
  121
    8
   89
   78
 -117
   42
    4
  -64
  -96
 -114
  -29
 -100
   77
  -93
  109
   88
  -31
  -13
  107
   97
   65
   43
   -9
  -22
   17
   16
   14
   31
   97
   99
  -79
  110
   20
   94
   78
  103
 -117
   83
   92
  -75
  -66
   56
   79
 -106
  -29
   29
   70
   70
   97
 -100
  105
   86
   -5
  119
   -1
  -35
   80
  -76
   -6
  108
  -58
 -126
  -69
  -98
  -68
  -63
  -41
   17
  -31
  -80
   69
 -110
  -89
  -79
   45
   16
  -74
   82
   78
  121
   36
   72
  -59
   19
   75
   24
  -87
   92
  -73
  -23
  -15
  -43
 -100
   70
 -102
   24
   94
   79
  -78
 -114
   86
   39
  -57
    5
  -35
   66
  127
  -33
  119
  103
  -96
    0
   31
  -42
    8
  111
  -79
   99
   50
  -24
  126
 -106
  109
   68
   31
   -7
  -22
  -53
  -88
  -58
 -126
   51
 -111
  -15
   36
   53
  -69
  111
   72
  -62
  -37
 -121
   33
   25
  -49
   54
  -75
   -1
  -30
   56
  -11
   29
  -32
    9
   55
 -113
 -124
  -13
  -43
   81
   -9
   61
   33
 -110
   97
 -107
   95
    4
   54
   63
  109
   59
  -23
  -62
   45
  -53
  -19
  -94
   65
   97
   10
   55
  111
   61
  -38
   16
  -24
   -7
   29
   87
  -48
  -15
 -103
   29
  -33
  102
 -113
   39
  -10
  -23
  -54
   17
 -127
  -63
   27
    9
   36
  -28
    6
  -50
  104
  -13
  -72
  106
   72
    3
   18
  -95
   48
   57
   94
   75
   44
  -97
   39
 -118
   98
  -71
   35
  -75
  122
   48
  -33
   89
   47
  -17
  -69
   90
   78
  -72
   34
  -69
  -51
   -6
  -21
  -76
 -121
  -40
  -94
  -35
  -92
  -37
   47
   73
  110
  106
  -22
  -44
  -61
   11
  -81
 -110
  106
  -35
   -6
 -126
  -10
    5
   -9
   56
  -46
  -80
  -12
  -96
    9
  100
  -40
   29
   94
  -66
  -85
  -32
   76
  -47
    9
  -84
   85
   70
  -89
  122
   17
  -85
   27
 -102
   42
  -34
   56
  -21
   92
   50
 -115
  -57
   -3
  -23
    3
    1
    2
   10
  -94
  -29
   -6
   49
   16
  -82
   -8
   58
   67
   83
   40
  -92
   -8
  127
  -34
  115
   68
   43
  -14
  -66
  114
  -48
  -67
  -34
    7
  -69
   94
   23
   92
 -101
  -80
  -57
   64
  109
   31
   -6
   93
   79
   55
 -124
    9
   62
  -31
   57
   68
    3
 -122
   88
   67
  -64
   43
   -2
   21
   17
   49
 -108
  -58
 -101
   66
  -88
   16
   21
  -36
   92
   34
  -71
   18
  -67
   -8
   48
   -9
   46
    5
   66
 -123
  -61
   47
    8
  -91
   75
  -11
   64
   50
   39
  102
  -15
  127
 -103
  -46
   41
  109
  -86
   62
   58
  124
   71
  -28
  -15
   98
   86
 -125
   -6
  -16
   30
   47
  -58
   21
   81
   66
   46
   78
   54
   10
  -53
   62
   94
  120
  119
  -29
  -87
  109
   52
   41
   77
   -3
 -125
  -56
   70
 -100
  -52
  -99
  -74
   42
  125
  126
  -48
   91
   91
  -44
  -84
   12
  -37
   81
  113
  -48
  -29
  -90
   89
 -113
  -75
  -21
  -19
  -93
   24
  -12
    7
   23
  -69
  -91
   91
  -68
  -46
   47
   47
    8
   52
  115
  -16
  -52
 -111
  114
   90
   63
   15
  -50
   93
   75
  -95
   21
  -48
   70
   56
  -75
   80
   24
   88
  -14
   -7
  125
    5
 -112
  -27
   33
   80
   26
  -89
  -59
  -23
  -58
  -20
  -32
   69
   92
  105
  -91
  -20
  -51
  -79
 -113
   42
   49
  -52
  -80
  -26
   90
   -6
  101
   57
 -120
 -118
  117
   24
   37
    4
  -45
   27
   78
  -16
 -104
  -36
   98
    2
  -82
   58
   22
  -59
  125
  -88
   87
   39
  -82
 -102
    7
  122
   -7
   34
   -2
   47
  -55
  110
  -36
  100
   -5
  103
  112
  -89
   48
  -92
   20
  -25
   84
   94
 -110
   64
  118
  -17
   24
   19
  125
  108
  -82
   97
 -117
  -70
  -51
   46
 -113
  125
   86
 -108
  -98
 -120
   64
    5
  -61
  -25
  -44
  -66
   88
  -36
  -19
  -21
   47
   -9
   97
  -57
   51
   52
   63
  -28
   85
   88
  -37
  123
   46
 -114
   -4
   22
  -24
   98
  -91
    3
  -12
   28
  -89
   83
  -91
  -21
   61
 -103
   49
   29
 -124
    6
  -26
   73
   69
   30
  -81
   88
  125
   49
  -75
   61
 -108
  -33
    6
   83
  -60
  -88
   92
   67
 -114
   13
 -127
    7
   43
   45
  -43
 -120
  103
  -19
   73
   21
   72
  -48
 -119
   54
  -28
   58
  -97
   60
   18
   64
  -74
   -7
  -38
  102
  -45
  -10
 -108
   84
  -69
  -33
   95
    3
   96
 -126
 -106
   60
  122
   12
  -85
  -24
  -64
  -16
  -43
  -78
    3
   95
  -37
  -85
  -41
  -61
   90
   -7
   55
    7
   86
  -59
  -68
   84
   77
  -65
 -109
 -114
   79
  -91
   -2
 -127
   -5
  -15
   39
  -33
  -49
  -69
   15
  -37
  -88
   62
  -63
  -28
   15
  102
   89
 -107
   11
  -98
   -6
 -125
   54
   22
 -118
  -68
  -28
   76
   61
  109
 -104
  -52
  -78
  123
   79
  -15
 -111
  -38
  -36
  106
  111
   76
   58
 -123
   34
  -25
   69
   12
  -91
  -49
    7
  119
    3
   21
   46
    4
   -1
  -65
  -25
 -106
  -81
   -4
  -77
  -20
   67
    1
   23
  -98
  -14
   17
  108
 -116
  114
   50
  -66
  -37
   41
   -3
  100
   28
  121
   72
  -56
 -107
  -32
 -111
   24
   49
   53
   51
  -48
  -76
 -108
   72
   19
  -40
   76
   19
  108
   96
   39
   42
  120
  -33
 -114
  -26
   53
   42
  -73
   42
  106
    3
  106
  -54
  -85
  -27
   18
    1
   64
  -55
    1
    3
   17
  -29
   56
 -109
 -105
  -66
  -38
  100
   25
  -77
   86
  127
  -39
  116
   46
 -100
 -103
  111
   22
  -76
   44
   13
  -47
   -9
  122
  -69
   64
  -54
  124
   43
  103
  110
 -100
   79
  -79
  -77
 -107
  -75
  -94
   97
  -98
  -17
  101
 -118
  -32
  -58
 -102
    3
  -47
  -80
   75
   45
  120
    8
   76
  -59
  -41
   56
   80
   35
  -60
  -74
  -77
   27
   23
   47
  -32
   17
  -42
   77
 -118
    7
  -29
 -109
  -57
  118
   79
  -31
 -122
 -108
    0
  -29
   65
   28
   32
   78
  -99
   34
    8
    1
 -117
   -3
   28
  -22
   87
   20
   62
   33
  100
   62
   72
  -88
   51
  -65
  -72
  -14
   18
  -75
 -124
    6
   39
  114
  -82
  115
   47
    9
  -90
   13
   49
  -48
 -126
   85
  -18
   83
  -43
 -101
  -88
  -19
  111
 -113
 -106
   37
   51
   97
  -90
  -31
   88
   13
  118
  107
   72
 -110
  -86
  110
   35
    8
  -39
   -1
  115
  -96
 -125
    3
  117
  -98
  -22
  -23
   70
   27
  -87
   82
  -65
  -75
  -99
 -112
   61
  112
   93
  -53
  124
  -15
   35
    1
   37
  -90
  -29
  -29
 -101
  122
  -37
   77
   47
   23
 -110
   76
  -73
  -37
  -50
  108
    8
  -34
    7
   39
    7
  -87
  -46
   -4
 -119
    4
   46
  -82
  -80
  -32
   24
  -70
   17
  101
  -27
  -23
  103
  116
    1
  -22
   28
   41
 -116
  -68
   15
 -122
   43
 -109
   68
   55
  -17
   59
   89
   32
  -67
  -79
   92
   25
  120
  -81
   72
   87
   85
  -34
   -6
  -85
   29
 -123
   61
   57
  -51
  109
  -48
  117
   63
  -61
   71
   71
   73
   -1
   49
  -89
   39
  -69
   94
  117
   46
  -92
   54
  -96
   25
   93
  102
  -50
   85
 -110
   61
  -84
  120
 -120
   81
  121
  -79
   74
   79
  106
  -59
 -114
  -15
   39
 -101
  -96
  114
  -83
   45
  -24
  -32
   43
   -9
   19
   -1
  108
   28
   56
   -2
 -106
  117
  -97
  -87
  -59
   15
   16
  -23
   37
   53
    6
  126
  -98
   20
   86
  -18
    9
    1
  -14
   94
  -48
 -104
 -114
  -14
  -43
   36
   29
  -71
   45
  125
 -104
  108
   22
   97
   81
  -60
   67
   97
 -125
   43
  118
   46
  112
  -59
   91
  115
   45
   73
 -104
   10
   13
   69
  -90
   85
  125
   76
  119
 -124
   80
  -65
   34
   31
  117
   10
   29
   -2
  -21
   12
   44
 -119
  -42
  -14
   37
   14
 -108
  -32
   17
   92
  -22
  -64
  106
  -30
   17
   24
  -21
   77
   72
  -19
   49
  -83
  -70
   74
   63
    7
   76
  -18
   88
 -122
  -33
  -18
   50
   41
 -126
 -107
  -40
  -89
   94
  -66
  121
   15
   12
  -59
  125
   23
   57
  -63
   53
  -36
  118
  -26
 -111
  -61
   -5
   62
  -65
  -65
   82
   61
  -51
   30
  -40
 -115
   -1
  -74
   18
   42
   -1
  -51
   77
  -51
  121
   63
   55
  -36
 -121
  -17
  -64
   23
 -104
 -124
   99
   66
   15
  -17
   13
  -60
   -3
   28
  -79
 -114
   85
 -106
   92
  -27
    8
   81
  -28
  -99
  114
   -5
   15
   61
   40
  -53
  116
   99
   54
  -36
   74
  -91
   76
  -25
   -5
 -119
  -87
  117
   62
  -78
 -113
  -88
 -115
  -18
  126
   32
  -41
  102
   18
  -39
  -34
  -25
   70
   69
  -66
  -55
  -36
  -33
   81
  -97
  111
   92
   -5
  -79
   25
  -29
   16
  -78
   28
   57
  -81
  -29
  -47
   89
  -33
    2
  -68
  114
 -126
   46
  -31
 -102
   42
   98
   64
  -95
  -62
    0
  -84
  -30
   53
 -117
 -109
 -120
 -112
  -28
 -116
    1
  121
  -73
  -92
   98
  -88
  -64
  -78
   13
   45
   57
   78
 -115
   62
   48
 -124
   45
   79
  -56
    9
   68
  -65
   55
  -95
  -78
   98
  -66
   -7
   -3
 -109
 -122
   61
   67
   91
   87
  108
   97
  -59
  -50
  118
   13
   22
 -109
  115
   24
  -48
   98
  117
   36
 -121
   -5
  -40
  -32
  -54
  -97
   11
  -61
   13
  -91
  -62
  108
  -45
   35
   80
  -11
  -74
  -65
   35
  111
  -48
   89
 -114
   78
  -23
   30
  -55
   43
  -15
   30
   31
  -17
    3
  -18
   76
  -73
  -14
   55
   78
  -41
   95
   21
   92
  113
  100
   33
   52
  121
   80
  -34
 -100
  101
  -90
  -81
   83
  -20
  -57
   26
 -118
   36
   19
  -23
   -8
   32
  125
  -56
   29
  -50
   89
  -52
  -29
   84
   44
   16
  -65
  -47
  -92
   95
  -69
  -97
  -71
   91
   79
 -109
  -65
    9
 -113
  -17
  -19
  108
   42
   -2
  -12
    0
  -70
  -66
  -98
 -118
  -81
   26
  124
   55
  -81
  -22
   75
  -20
 -111
  -64
    8
  -58
  123
   40
   30
 -105
 -118
   -9
   80
   55
   23
 -106
   78
   10
  -94
   29
 -126
  -48
   43
   73
   62
  112
  -25
  -86
   87
   33
  -36
  106
  -24
 -105
   -4
  -94
  127
   33
  127
  127
  -50
  -95
 -107
   46
  126
  -14
   -4
  -79
  124
   21
 -105
  -79
  125
 -119
   48
  -34
  -73
   88
  -47
   -7
   20
   40
  -27
   -9
  -93
   46
  -62
   72
  109
   23
   -9
 -107
  -38
  -23
  -78
  -10
  -26
  -63
  -49
  -89
   30
  102
   28
   85
   71
  101
  -12
  -91
  -14
  -81
   70
   66
 -106
   65
 -119
 -110
  -17
  -37
  -47
   42
   61
  -92
 -101
  -24
  -87
 -127
   73
  -62
   37
 -117
  -42
  -13
 -105
  104
   72
 -126
  -96
  -63
  -62
   28
    7
   41
  108
   41
 -116
   46
  -59
 -110
  -39
  -17
  -65
    8
  -35
  -99
   86
   -8
   76
  -92
  -46
   -9
   14
  -50
   34
  -94
  -63
    1
  -12
   28
   29
  -33
   12
  114
   59
   49
  -59
 -127
   92
   16
  -10
  -38
   79
   87
  122
  -83
  -11
  -96
  115
   90
   -7
  118
   17
  107
  116
    1
  -43
   38
   31
   23
  -80
   30
  -83
   67
   34
   -3
 -119
   14
  -98
  107
  -20
  116
  -87
  121
   39
   89
  -75
  -92
 -110
   -6
 -104
  124
   39
  -33
  123
  -52
   35
   79
    1
  -54
   -6
  -71
 -116
  -60
   53
 -106
   23
   11
 -109
  -74
  -93
  -52
   49
  -61
  -91
  -42
  -15
  -64
   83
  -82
  -10
   97
   22
  -16
   95
  -65
  -69
  104
   62
  -29
   55
  -92
  127
  -60
   35
   95
  120
  113
  125
  103
  123
   80
  -20
  -19
  -53
  -35
  -57
   21
 -115
   39
 -107
   68
  117
  127
   18
  -89
   69
   29
  126
 -104
 -127
   65
   48
   46
  -87
  -70
   36
  111
  -18
  -17
  -14
  124
  -67
  104
  -81
   90
  -59
  -71
  -47
  103
  -57
   30
    5
   84
  116
   62
    3
   14
   67
  -93
   -9
 -126
  125
   -8
  -36
   -1
  -91
   84
   19
  -23
   24
   28
  109
 -125
 -107
  -25
   -9
  -13
  -52
  -32
  121
   -4
   46
 -119
   19
  -83
    0
  -81
   82
   -3
   -4
   52
  118
 -110
   14
   61
   71
  -69
  -56
   41
  -54
 -109
  -12
   -6
    8
   92
   11
   16
  108
   85
   81
  -38
 -123
  102
  -71
 -100
  102
  -20
  121
   40
  -32
   54
   31
 -102
   16
   21
 -121
   98
  105
   91
  124
    0
   72
   19
  -37
   35
   10
  -97
   99
   17
   -9
  -66
   88
 -111
  -71
    4
   72
  118
   92
   65
    4
  -63
   47
   98
  -85
   41
   68
  -34
  -18
   29
 -116
  -81
  -60
  -47
   56
  -83
  -48
  -88
   41
  -39
   92
   -3
   83
 -125
  -30
   44
  -92
  -30
    2
  -26
  -45
  -83
  -64
   70
   64
  -47
   86
  -97
   25
   41
  -84
   73
  -72
  -51
   45
 -105
  -16
 -119
  -20
 -106
   61
  -98
  -88
   86
   69
   28
  -38
   -5
   51
  122
 -102
   35
   88
   82
 -102
  -68
   43
  -54
  -19
   15
   -2
  -42
 -116
   48
   12
   24
  -99
  -26
 -120
 -105
  -56
  -45
  -75
  115
 -125
   54
   25
  -34
 -113
   80
 -113
  121
  -35
  -23
    0
    8
   38
   85
  110
   64
  -22
   39
  -76
   93
 -105
  -17
   19
  -82
   55
  -19
   84
  109
   75
   21
  -68
  -34
  -90
  -44
   59
   55
   38
   82
   87
  -24
  -79
 -107
  -63
   44
  -67
  -61
  -47
  -90
    2
   -3
   26
  -49
   14
   13
  -18
    7
  -55
  -45
  -14
  -67
  -11
   25
  -68
  -98
   34
  -48
  120
  -34
  113
  -46
   46
   58
  107
  100
 -127
   17
   17
  -25
   10
   51
    1
   20
   28
  125
 -112
  -46
   37
   19
  -22
   26
   12
 -101
   29
   24
  116
  121
    7
   92
 -112
  -23
  118
  -92
  -53
  -16
  110
  -38
  -74
  -90
   18
  -21
  -18
   64
  -94
   97
   80
   35
   72
  -63
   50
  104
  126
 -122
   -1
  115
  111
  105
  109
  110
   75
   14
  -26
  -88
   80
  -86
   55
    7
  104
 -118
   20
    8
  -67
   32
  101
  -91
 -116
  -28
  -96
  -21
    1
   20
   -5
 -124
  -45
    1
  115
  -82
 -116
   78
  124
  -23
   -5
  -10
   12
  -94
  120
 -127
   13
   30
 -119
   25
   10
   -2
  -15
  122
 -100
   65
  -84
   87
   67
  -79
  -39
   79
   -5
   88
   -1
    2
   45
   78
 -100
  -50
   86
   93
  -57
   34
   18
 -112
  -48
  -17
  -67
   21
  -21
  -33
  118
  109
  -10
   93
   -7
  -50
   19
   21
   11
  -70
  -69
  -80
  -86
  -43
  -28
   80
    0
  -44
  -91
  -29
  -51
  127
  -48
  -33
   18
   73
  -49
   21
   42
   -2
 -106
  -63
   53
    0
    8
  -66
   92
  -57
   29
   64
  -55
   61
 -104
  -49
   69
  -67
   80
  -32
   43
  -61
   21
    0
  -10
  104
   31
 -114
   12
 -116
  -17
   33
  127
    1
  -65
  -10
  101
  -15
  -72
  -70
   34
  123
  106
  -93
  -18
   63
  -57
   39
  126
  -87
  -24
    1
 -101
 -105
  -40
  -23
  -33
 -113
   41
  -12
 -118
  -17
   62
  112
  -27
  -65
  -87
   68
   53
   21
  112
  -41
   60
  126
  -11
   64
  -91
  -95
  117
  -54
   93
   33
   61
  -87
  -81
  -97
  -73
  -57
  -25
  -50
  -60
  -21
   80
  -17
   28
  -81
  126
 -106
   87
  123
 -123
 -119
  -97
   -9
  115
  -64
  109
  -46
  -32
 -121
  -14
   90
  -35
   -7
   95
   84
   83
  121
  -78
  113
  -15
 -105
  114
   77
   66
  -30
   75
  -31
   17
  -97
  -25
   20
 -102
   97
 -109
   58
  -42
   -1
   49
   65
   64
  -41
 -126
  -64
  -23
    6
 -118
   51
    6
  -98
   34
   46
    9
   67
   71
 -104
   64
  -92
   57
   24
 -125
   94
 -121
   61
  122
   40
 -109
   36
  -14
  -39
    2
   18
   16
  -26
  -12
   26
  -26
  -11
  -93
 -120
   11
  -40
   86
   28
  105
  -61
 -101
  -62
  110
  -70
   20
   44
   17
   73
   41
   48
   34
  100
   85
    2
  101
   82
  123
   38
   49
   -4
   34
  102
    6
 -126
  -47
   89
 -125
    7
   53
 -114
 -122
    4
   36
   24
 -122
   -3
  -71
   35
  -43
   66
   12
   91
  -51
  -20
  -23
   86
   96
  -63
   50
 -127
  -23
   61
  113
   40
   54
   23
   34
  -76
  -51
  -73
  109
  -67
   99
 -127
   97
  -43
  -65
  119
  -81
   43
   34
  -86
   27
  -90
 -117
   78
  -32
  -23
   -6
   50
 -102
   89
  101
  -67
  119
  -17
  -57
  124
  -32
  -79
  -65
  -74
  -71
   97
   56
   -8
 -110
  -56
  -10
    2
   66
  -40
   93
   32
  104
    0
  -31
   71
   26
  114
  -59
  -60
 -106
 -105
   69
 -109
   20
   28
    7
 -125
  -72
  -78
  113
  -43
   93
 -105
   98
 -111
  105
  124
   37
   72
  -34
   77
 -112
  108
   48
  101
 -110
   25
 -127
  -57
  -41
  116
  -88
  -92
  -74
   87
  -42
  -48
 -122
 -104
   40
  -71
   69
  102
    4
   71
 -103
  -63
  122
   -6
  -44
 -101
   87
  109
 -115
  -85
  126
  100
 -106
   52
  -76
    4
   84
   97
   70
 -125
    2
   88
  -65
   69
 -127
   26
  -75
 -105
  124
  -31
  -51
 -118
 -124
  -37
   94
    4
  -77
 -117
  -12
  -11
   71
  -90
  115
 -127
   54
 -108
    9
   77
   93
  -78
  -66
  -31
    1
   45
  116
  -95
  -53
  114
   34
 -127
  -99
  -87
  -23
    9
    7
   52
 -106
  -92
  120
  -83
   -1
  -10
 -106
   35
  -36
  -45
 -116
  -69
   72
  -29
  -60
  -37
  -86
  102
  -46
   90
   16
    8
 -123
   42
   79
   56
  -30
  -23
  -62
   48
   70
  -33
   12
  -39
   97
 -109
  -89
  -55
  -38
   99
  -24
   57
   86
 -111
  -28
   16
  -42
   -6
  -46
   -9
  102
  -38
   76
  116
   -3
   54
   -9
   85
   -8
   72
 -104
   92
  -73
 -105
   63
  -69
  119
  101
   99
  -21
   92
   49
 -126
   90
  112
    4
  108
   78
  -65
   84
   88
 -109
  -28
    4
  -85
    6
  -35
  -34
  126
  104
   11
   78
  -86
   79
  -10
  -88
  111
 -104
  -10
   -8
   86
    3
  -27
 -111
 -121
 -106
  -43
   76
   89
 -119
  -49
  -69
  -77
   94
   82
   38
   -5
 -103
   46
  -17
  -53
 -102
  -21
   48
   99
   31
 -111
   56
   39
    4
  -19
   79
   57
  -88
   14
  -26
   63
    2
  -29
  -68
   77
  -29
  -23
 -113
  -14
  101
    9
   49
   72
  -89
   49
   64
   -6
  -14
  -82
  -71
  -13
   35
   63
   29
  -26
  115
   72
  117
  -76
   68
   41
  -22
    7
   17
  -12
  -21
  -82
  -95
  -19
   46
   16
   73
   26
  -89
   97
  -99
   -4
   73
  -14
   17
  -57
    7
  -47
   91
  -45
  -13
  110
   71
   30
   53
  -69
 -106
  -33
   69
   34
   42
 -110
   27
  -43
   40
   73
 -111
   32
  -35
  -67
  -76
   17
   -5
  -12
  -76
 -114
 -116
   27
    4
  119
  -71
    9
  -12
  -67
  -79
 -105
   92
  -26
   -9
  -31
   98
  -52
   52
  -16
   52
   24
    3
    0
   38
 -127
  -41
  100
  -93
   36
  -39
  100
   48
  -68
   -1
  -92
  -70
  -24
    5
  -87
  -55
   54
   -4
  105
  -86
  -16
  -24
 -125
  -91
  -50
   28
  -96
 -108
  101
  -14
   11
  101
  119
  -88
  -44
  -13
  103
 -125
  -78
   38
    8
   53
  -36
  -35
   13
 -103
  -68
   61
   46
 -122
   20
  -75
  118
   15
   92
  -95
  -95
   -6
  -44
   85
   61
 -118
  -98
    0
  125
   57
   38
 -117
  -60
   60
  -70
  -35
  -37
   42
   43
  -23
  -74
   14
  111
  106
  118
   14
   99
  -72
   11
   21
  -11
   87
  -51
  -99
  114
 -125
   18
   64
  101
   20
  -63
  -43
   25
  -80
   99
  -90
  -79
  -77
  125
   25
 -126
  115
  -16
   46
   85
   26
   49
   67
 -114
   48
 -122
   56
  105
  -51
 -127
  -16
 -111
  -20
  -70
   54
   24
    3
  -21
   32
   99
  -93
  -85
   38
  -92
    4
  101
  -66
 -105
   77
   43
 -112
  115
   16
  115
   44
   21
 -123
   89
   98
  -51
   42
  116
   92
   25
    7
   47
  -86
  -36
  -35
   19
  -65
   10
   63
  121
 -119
  -99
  109
  -91
 -125
  -11
  -63
   19
  -15
   12
  -16
  122
  107
  -33
  -81
   86
  -61
  -46
  122
   90
    0
  -18
  125
  -66
  -11
  -61
   34
  108
   73
   90
  -15
   94
  -57
   48
  108
  -33
   99
  -63
  -63
  -70
 -104
  -37
  -41
  127
   68
  -93
 -120
 -118
  -90
  -10
   -4
  -32
  -52
  -48
  -70
   10
   51
  -81
    7
  -11
   74
 -120
  -21
   -4
 -108
  -22
   20
   30
   62
  -58
  -93
    6
  -93
  107
 -108
  -57
  -57
 -101
  -82
 -117
   33
  -98
    0
  -63
  -22
  -51
   48
   -5
   84
   75
 -119
  -59
 -106
   76
  127
    7
    5
   31
   67
  -31
  -34
  -54
   46
  -92
  -23
   32
  -56
   72
   69
  105
  -42
  -40
   41
    2
   58
  107
   49
  -82
   62
   67
  -33
   39
  -21
  -77
  -33
  -47
  -50
  -74
   27
 -103
    5
  -97
   81
   21
   17
  -72
   -2
  -67
  -13
   56
 -110
   32
  -86
   51
 -108
   34
  -24
 -108
  -16
  -97
   70
   68
   40
 -109
  -41
   75
  -39
 -115
  -17
   22
   99
 -119
   71
   87
  -80
   81
 -123
   22
   -3
  -57
   37
  -18
   79
  102
  -77
   52
    3
  -52
   89
   24
  -36
 -110
  -21
   82
  -44
 -125
    4
 -100
   72
  -40
  -60
   17
  -96
   38
  -82
   -8
 -104
 -117
   73
 -107
   48
  108
  103
 -117
  -51
   51
  -19
   99
  -24
   90
  -26
   16
   55
   -1
  -12
   43
  -10
   50
  -51
 -118
  -80
  127
  -18
  109
  -58
  127
   56
   45
  -93
   18
  -17
  113
   43
   58
  -97
  -32
  -17
   25
  120
   64
  -50
  -13
  -82
  -71
  -96
   20
   16
   76
 -125
  -92
 -123
   14
   31
 -106
   90
 -103
  -85
   94
  -39
   87
    7
  -73
  -87
   25
   53
  -37
  -98
   27
  -50
  123
   31
  -88
  -31
  112
  -12
  -78
  108
   38
  -29
  -15
  -25
  -69
   72
   -5
   65
  -13
   70
    0
  111
    3
 -118
  -26
   32
  107
   54
   59
  127
   -9
  -70
  -64
   19
   53
   44
   60
   -1
    4
  -24
  -71
   59
  -72
 -107
   36
  -41
  -32
  -41
   -6
  -62
  -46
   89
  126
  109
  108
  104
  -86
   74
 -118
   59
  126
  -25
  -65
  119
  -73
   57
   22
   60
 -111
  -84
 -120
  116
  -67
  124
   55
   29
   54
  -50
  -15
   99
    6
   72
   91
  -23
  110
  -80
  -50
  -30
   26
   28
  -16
   17
  -95
  -76
   95
  -12
 -107
  -58
   21
  -68
  -84
   79
   -8
  -82
    2
  -47
   14
 -106
  -20
  -44
   75
  109
   14
  -66
  112
  -18
  -74
   -6
  -17
   25
  113
   38
   64
   14
  -55
   60
  -42
  -90
   28
  -19
  -88
   38
    5
    6
 -121
   -8
  -63
   78
   89
   30
   22
  -31
   66
  -41
  -76
  -43
    6
  118
   65
  -86
  120
 -114
  111
 -123
   48
    9
   -5
 -102
   55
  -50
  -60
   46
  -25
 -113
  126
 -122
  -36
   59
  -43
  -67
  -54
 -120
   10
   30
  -27
  -11
  105
  126
   48
  115
  -19
  123
  -68
 -102
   96
   83
  -87
  -61
  114
   59
  -92
  -91
   -5
  -91
   43
   61
  -83
  -86
   77
 -108
  -36
   82
   29
 -105
  105
   16
   47
 -106
  -49
  -20
  -44
  -32
 -107
   52
 -100
   45
  -60
 -119
 -117
   97
   46
  -89
  -78
 -112
  -76
   42
   49
  -22
   47
   74
  -93
   94
 -113
   46
   21
  -51
  -93
   12
 -104
  -23
  -45
   61
  -80
   14
   99
   11
  -68
  109
  -87
  126
  -93
   65
  -19
  124
   95
 -111
  -93
   84
   89
 -118
 -127
  -29
   35
  -82
   24
  -48
 -116
   -2
  -74
  -94
 -120
 -118
  -84
  -33
   51
   96
 -125
  -38
  110
  -13
  -85
  -41
  -77
 -111
  -22
   61
  -48
  104
   64
 -112
   66
  -76
   -9
  -66
  120
  -71
  -98
  -98
  -53
   81
   94
  -16
   18
  -15
  109
   13
  -32
  -17
   56
   77
   46
    2
  -72
  -85
  101
  -50
  113
   99
  -98
  -67
   -2
  -59
   12
   -1
 -109
  -71
  -24
   50
   99
  -27
   23
   35
  -27
  -49
   26
  -54
   52
  108
   48
  -62
   44
   55
   72
   74
  -24
   85
   68
   -3
   50
 -100
 -127
  115
   95
  -97
 -108
  -60
  -80
  -79
  -39
  -97
   20
 -116
  126
   20
   71
  116
  -72
 -113
   38
   78
 -121
  111
  109
   66
 -121
   43
  100
  -21
  -84
  -43
   93
   55
  -31
   39
   71
  -79
   22
   52
 -114
   76
  -88
  -48
   -1
  -74
    8
  -21
   72
  -41
  -79
 -125
  121
   10
   27
 -101
 -103
    8
  -58
  -27
  -50
   78
   26
   43
   -8
  -46
  -86
   92
    8
   67
  -76
   -2
 -118
 -104
  -36
  -72
   71
  -78
   16
   17
  -19
   28
 -105
   44
   96
  -80
  126
   57
  -28
   47
  -91
   16
   19
  103
   22
  106
  -22
 -102
   52
  -22
  102
   44
  -99
  -47
 -123
  127
  -31
   19
  -83
   98
   90
 -109
   65
   32
   57
   67
  -65
   85
  114
   39
   75
   94
   52
  -18
   55
   73
   95
   67
 -116
  -15
  -30
  -75
  -49
  101
  109
  -14
  111
  -15
  105
   -8
 -118
   13
   66
   -3
  -59
  -56
  -82
  -41
  -51
  115
  -34
   29
   40
  -76
  -91
    1
   25
 -106
  -87
   14
  -52
  -79
  115
   64
  -26
   63
  123
   65
   55
  -99
   89
   86
  -54
  -85
  -52
   21
   28
  127
   31
   60
 -121
  -69
 -124
 -101
  110
   13
  -98
  -60
  114
   32
 -125
  -85
   91
 -107
  -94
  -34
  -81
    3
   27
   43
  -83
 -102
   85
   19
 -107
   36
   80
 -114
  105
  -15
   82
  -22
   37
   -5
   21
  122
   47
   -8
   56
   23
  107
  -61
   67
 -108
  -96
 -121
   13
 -112
   81
    5
    6
  -83
 -108
  -77
   71
   23
  103
  -56
   90
 -115
   43
   58
 -122
  -76
  -48
   16
 -125
  -91
  -85
   -3
  -16
   16
   37
   60
 -110
  -72
   65
  -77
    9
   53
   39
 -102
  -20
  125
   60
 -102
  -53
   28
    3
  -43
    9
 -112
  126
   80
    8
  -28
  -21
  -81
   10
  -99
 -108
   21
   75
  -47
 -105
   59
  100
   81
   27
    5
   81
  -57
   70
 -110
   21
 -108
   46
   13
   58
   72
 -122
  -36
  113
   62
   18
  -17
  122
  -29
  -35
   60
   77
   67
  -84
  118
   98
 -116
  113
  -23
  -67
  -53
  110
 -121
  102
  121
 -110
  113
   37
  101
  -39
  -68
  112
  -94
  103
    6
   65
  123
   87
   62
  -68
   26
    5
    9
  -70
   92
  -97
  -96
   88
   84
  -66
   61
  -47
   79
  -36
   23
  109
 -125
 -108
  117
  -77
  117
   48
  -14
   75
   27
   41
  -41
   53
  -90
   43
  100
  -47
   76
  -28
  124
   86
    6
 -125
   75
   67
   47
   19
    6
  -90
   -8
  -44
   19
  -32
   99
  114
  -59
  -62
  -30
   25
  -47
   42
  -99
  -37
   50
   -8
 -102
   33
  -96
   37
  -79
   32
   63
  -37
   38
  -14
  -29
 -109
   73
   38
  -40
  -49
  -22
   95
  -48
  -57
   83
  -93
  113
    1
   73
   11
   74
  -30
  -42
  -48
  -11
 -117
   19
  127
   90
   60
   80
   99
 -119
  -78
  116
  123
   53
  -42
  -38
  -20
 -119
  100
   58
   20
   91
  -68
   28
   20
   27
 -102
   93
  -17
   37
  -57
   68
  -76
    8
  -35
  115
 -103
  -65
   -5
  -49
  -95
  -93
   36
   12
  -47
   41
   93
   22
  -53
  -49
   89
   65
   96
  -96
   72
   61
  -52
  -66
 -107
  101
  -67
    3
   14
   38
  -36
   11
  110
 -110
   11
   96
  -13
 -110
   -9
   89
  -82
  -33
  -82
  -52
   87
  -95
 -101
   49
   72
   -7
  -60
   -2
    0
 -106
  -71
  -69
   50
  -88
   94
   -5
   88
 -117
  -45
   23
  -31
 -108
  -31
 -118
  -36
  -43
   22
  -82
   38
  -16
  -97
  106
  -35
   64
  105
 -124
   24
  -35
  -68
   -1
  120
   63
   75
  108
 -106
   -6
   99
  -24
  -82
 -117
   20
   70
   16
  -66
 -101
   82
   42
 -118
  -41
  114
   73
  -34
   90
    9
   31
   64
  -53
   15
  -88
   91
  -72
  -82
  124
   65
  115
  -80
  120
 -116
  -40
   40
   34
  -88
  100
   44
  -39
   22
  -71
  -20
   97
   87
  -56
   28
   77
   41
   -7
    0
    4
  100
    8
  -22
 -112
  -28
  -91
 -122
  -13
  100
 -125
  -62
  -40
  -20
  -28
   73
   30
   38
  -25
  -20
   30
   53
 -109
   95
  -76
   52
 -107
   -4
  -89
  -14
   88
  -91
    2
   34
   59
   81
   22
   89
 -110
   60
  -73
  -94
    0
   68
  -21
   77
   31
   95
  -84
  -14
  -55
  -52
  -46
  -73
  -98
   12
  -14
  -66
  -95
  -37
   27
 -103
  -29
   40
  -84
   70
    1
  -69
   63
  114
   91
   70
  -48
  -14
  -29
   80
   -5
   72
 -107
  -70
   60
  103
  -75
   46
  -70
  117
    5
  -78
  -14
   14
  -91
  -63
  -85
   21
  -20
  109
  -84
 -105
  -78
   27
   41
   67
  -62
   49
  -83
  -31
  -97
  -12
   23
  122
 -117
  111
  -31
  -32
  -24
  -44
    0
  124
    2
   83
   34
   26
   96
  -38
  116
  -99
  -64
    3
   20
 -120
 -115
  -69
  101
 -122
  -90
  -14
   76
 -104
   -5
   19
  -41
 -114
  117
  106
  -53
   39
  -28
   56
   98
  -91
  127
   62
  -76
  -33
  -17
   13
  -63
   99
   77
  101
  -32
   82
   62
  -39
  108
  -69
   38
   54
  109
 -126
  -83
   75
    5
  -54
   17
   -7
 -106
   95
  -54
 -110
   32
  -80
 -122
   13
 -110
  -14
   75
  124
 -124
 -106
  -79
  -82
    4
  -33
   11
 -121
  -36
   54
   -8
   72
  -21
   58
  -99
  -50
   31
  -59
   15
   57
  -95
  110
  111
  -49
 -103
  -39
  -72
  -45
   45
  -48
   27
  -92
   50
   29
  -26
  -80
 -104
  -48
  127
  -88
   44
  125
  120
 -112
   87
   31
  -50
   36
   86
   55
   -4
 -120
   37
   28
   89
   -7
   80
  -89
  -82
 -120
  101
  -95
   75
  -34
   66
  100
   67
   32
   87
  -47
  -10
  -64
 -102
   47
  -37
   -1
  -47
   -6
 -101
 -125
 -108
  -69
  -72
  -16
  -14
   -6
  102
   81
  106
  -40
   47
  -28
 -108
  112
 -114
   -1
   19
 -113
  103
  -17
  -17
 -116
   17
  127
   72
   18
  -59
   57
 -118
  -18
  115
   10
  -10
   16
   58
   11
  111
  -47
   -5
   45
   36
  -83
  -17
   69
  114
  -89
  -19
   55
  -42
  109
   86
  -93
   81
  118
  108
   30
  -91
  121
   77
   96
  -34
  -98
  114
 -109
   24
  -10
  -99
  -88
    3
  -35
  -25
  -27
   82
    7
   -3
   12
    5
  114
  -28
  103
  -40
 -112
   -9
  100
   34
 -104
  -58
  -93
 -126
  102
 -123
   75
   67
   90
   87
  -87
 -113
  -91
  114
  -44
    4
   68
  116
    9
 -103
    3
   43
 -117
  -85
   -3
   11
  -12
  -61
  114
  -93
    7
  -64
  -54
   43
   94
   11
   25
    5
   49
   53
  112
  -47
  -41
  -11
   23
  -83
  -98
 -101
  -54
  -15
  -82
   57
  -90
   80
 -112
   41
   94
   22
  -55
  -35
  120
 -122
   33
   50
  -13
  -70
   -8
 -112
    9
  114
  -58
 -113
  -66
  111
  116
 -111
   16
 -121
  110
  -56
  -63
   39
  -53
  -89
   -2
   54
  -21
  -37
  -63
   62
  101
   32
  110
   -3
  -84
    1
  -31
  -14
   38
 -106
    0
   57
    4
   95
  120
  -99
  102
   95
  105
  -83
  -30
  -92
  -18
   90
   -5
   21
  -55
 -107
 -102
 -115
  -49
   -9
  102
   66
  101
 -122
  103
   26
 -117
  -66
   72
  -11
   73
   87
  -16
 -107
  126
    4
  -71
   18
   37
   13
  126
   -9
   84
   80
  -67
  120
    1
 -104
   86
  -55
  -87
  120
  105
   96
 -100
   79
   73
  -55
    8
 -125
  -77
  -25
  -14
   85
  104
  -70
   20
  105
   40
   44
   59
 -119
  -82
    2
 -122
   61
    3
  -88
   81
   72
  -97
  -99
  -26
  109
   84
  -10
  -53
  121
  126
   51
  -41
 -123
   32
  -24
  -13
  105
  -99
  -30
  -41
   71
   -2
   36
   63
   27
   52
  115
   -4
  -69
  120
 -125
  -46
   21
 -107
  119
   21
  -44
   94
  113
   91
 -111
  112
   18
   76
   99
   87
   79
  -51
  -40
  -60
   97
  -24
 -104
  -55
  108
  -26
  -70
  -40
  -13
   25
   99
   84
  -89
 -124
   77
 -125
  105
   33
  -71
   65
   33
  -17
   33
  -30
  -96
  -72
  -17
   46
  -52
   47
  -19
  -92
   25
   48
  123
    9
   40
  119
 -118
 -101
  -63
  -15
   85
   80
  114
   98
  -20
 -126
  -37
  -81
 -105
  111
  -73
  -86
  -65
  -96
  -37
  -78
    1
   72
  -90
   78
 -110
  -54
  112
   68
  -51
  -42
  -60
 -110
   -1
 -121
   32
  -76
   25
   -5
  -64
  -47
   98
   27
  -32
  108
  101
  -37
  -31
  -71
    4
 -101
  -10
  -92
 -119
 -113
   55
  -43
  -75
   41
  -95
  106
  -86
  105
  -91
  -32
  -96
   28
   68
  -66
  127
  116
  -11
   30
  -15
   -5
   79
  -37
 -113
  -28
   45
   23
 -115
  112
  -70
  -96
 -108
 -120
  -28
   26
    0
   -8
    7
   15
   89
  100
 -122
  -91
   29
  -69
  -25
   56
   98
  -92
  -71
  -57
   49
   72
   44
   97
   22
  -67
  119
   36
    3
  -89
   39
  -44
 -127
   47
   64
   78
   44
 -124
  -86
  109
  -22
   -4
   33
  115
  106
 -108
 -100
  -18
   36
    1
   -4
   27
 -119
   33
  109
  101
  122
  -33
  113
  119
   14
  111
    0
   -3
  -90
   74
    2
   89
   -6
  105
  -82
  113
  -28
    5
 -119
  -62
  -62
   22
   -3
  -41
  -86
  -44
   93
 -105
  -23
   55
  -55
 -101
    0
   -3
 -122
  -19
  -94
  -93
   56
  -50
   70
 -119
   32
  -15
   42
  117
  121
   71
  -43
   97
  -38
   62
  -56
 -109
 -116
  -90
  -38
   -3
   14
  -20
  -44
  -70
   26
   56
   68
 -122
   65
    6
  -67
   82
  -55
 -125
  102
   32
   75
  108
  -51
  -18
  -37
   88
  -15
 -117
  -80
 -104
  -53
   86
  -65
   -2
   47
  102
   95
  -22
  -91
  -29
 -117
   93
  -39
  -20
  -11
 -114
  112
  -38
   38
   26
  -63
  -93
  -22
  -14
  -40
   -1
   97
    4
   95
 -108
  124
  -85
  -35
   58
   99
 -122
  -63
 -103
   41
  -91
  -52
   56
  -15
   51
  -98
 -105
   25
   16
  -69
   55
  -96
  119
   89
   17
   86
   64
  116
   -2
   59
  -49
   93
   80
  -36
 -112
 -100
   33
 -106
  -50
  107
 -127
   47
   47
   82
   26
   20
   47
   -6
  -84
    4
  -91
   53
  -85
   80
  -17
  -25
   21
  -43
  -42
  103
 -127
 -124
   52
  -46
  -56
  -55
  102
   27
  -51
   14
 -115
  106
   21
  -88
   84
  -35
  102
   55
   27
  -96
  -90
  -95
   -4
   42
   59
   34
  -66
   67
  -19
   74
  -95
   76
    8
  -96
  114
    6
  -75
  -81
   97
   10
  118
  -51
 -122
  -65
  -20
 -123
  -81
   54
  -85
  -53
  -71
  -53
  -16
    6
  -51
    7
  -97
 -110
   60
  -63
   97
  -45
  -31
  -23
  -99
   60
 -113
   33
  -27
   58
    6
  -38
   21
  -20
 -116
  122
 -122
  104
   28
  -27
  -16
 -102
 -125
   22
  -68
   57
  -35
   16
   14
   71
   99
 -116
 -117
  -22
   80
 -108
  -75
   64
 -127
  -60
  -25
   42
 -124
  -15
  106
  -57
  -21
   90
  109
  -25
 -127
  -28
 -113
   75
   -2
 -113
   92
   12
  -66
   83
   95
  -53
  -41
 -100
   57
   47
  102
  127
  123
  -23
   90
 -110
  -64
  108
   84
  -13
  -73
  -59
   84
   20
  -71
   94
    6
  -33
   19
   38
  -80
  -91
   -8
  106
   18
   40
  -75
   13
  -39
  -66
   40
  -47
   81
   45
   20
    2
   -5
  -40
  -34
  -82
  -66
  -68
    6
  -20
   79
  -44
  126
  112
  -47
   56
   50
   12
   13
  -82
  -54
   -8
  105
  -49
  105
   13
 -106
   -9
  -80
  -91
  -11
   44
  -25
  -42
  107
   73
   67
  -80
  -14
  -89
  -56
 -127
  -10
   25
   97
  -31
  -48
  -61
  -36
  -65
   16
   67
  -15
   39
  -14
  -70
    7
  -67
   42
   56
 -112
  -89
   83
   46
  -36
  -36
   80
  -47
  -93
  -72
 -124
   58
   18
  -20
   -8
    2
  108
   15
    8
   57
  -88
   56
  -83
  -86
   89
  122
  -59
   60
 -102
  -39
  -22
   61
   87
  -41
   32
 -119
  -80
  -58
  -67
   92
  -99
    6
   54
  -75
 -111
  -84
 -107
   74
  115
  -55
    5
   -2
  -93
    8
   70
  -33
 -119
   63
   92
   47
 -105
   48
  100
  -48
  -23
  -62
 -121
  -92
   27
   68
   71
   -6
  -32
   51
  -63
  105
   23
 -107
   66
 -127
  110
   87
  -53
   33
   49
   33
   87
   13
  105
   20
  -64
  -10
  -57
  -53
  -27
  -91
   25
  -60
    4
  -31
   49
   45
   41
    5
   54
  103
  -85
  -99
   72
 -117
   88
  117
   88
  -26
  113
  123
  118
   26
  -75
  -16
   66
  -28
  117
   40
  -11
 -103
  115
 -125
  108
  -35
  126
    7
   86
   99
  -20
  -22
  -31
   41
  -77
  -52
 -125
  126
  -46
   38
   35
 -104
 -105
   97
  -23
  102
   97
  -22
  -70
  -43
  117
   64
   81
  -99
  -21
  -49
 -127
   -1
   34
   99
   79
  -58
   -6
  -71
   20
 -103
    2
   96
  127
   79
  126
   -5
    3
  -20
  -72
  -93
  -57
  -79
   14
    3
  108
    7
   49
   89
  -83
  -33
   18
  -13
   83
 -116
   73
  -72
  -16
   16
  101
   72
   39
  -47
  -19
  -69
   26
   33
  -29
  -51
  114
  -38
  -12
  -83
  -28
   81
  -61
   44
  -80
   25
  -42
  -35
  -73
  -39
 -111
   62
   14
  -75
   -1
 -109
  -79
  -75
  -50
   37
 -115
  -19
 -119
   41
    2
  -91
  -82
  -98
   71
  -29
  -12
  -24
   26
  -32
  -69
   76
  -68
   18
  -51
   67
  101
   41
  -35
   26
  100
   12
   57
   19
   13
   66
   90
 -102
 -108
   65
   37
   51
  -20
  -86
  126
    4
   89
   47
  102
   78
 -114
   82
   16
  -78
  111
 -104
  -45
    1
   53
  113
   97
   15
   18
   25
  -89
  -98
   48
   40
  -19
  -74
   81
 -113
   40
  109
  -29
   76
  -21
   76
  -20
 -121
 -107
   27
 -109
   47
   23
    7
  -60
  -84
   41
   17
   36
  -30
  124
  -20
  -67
  -28
   -1
  -95
  -57
  118
  -62
  -28
  -67
   81
  109
   21
   92
   -2
   49
 -103
   18
  107
   41
  -98
  110
   17
  102
   36
  -62
 -123
 -109
   77
   45
  114
   -7
    8
 -101
  -19
  -49
  -17
   45
   30
   -5
  -80
   35
  -42
  -49
  -11
    3
  -83
   38
   83
 -116
   68
  -99
  -52
  123
  -76
   48
  104
  113
   57
    9
  -26
  -29
  -40
  -33
   62
  -19
  -26
  -19
  -73
   47
   76
  -71
   -1
   63
  -91
   62
 -120
 -108
   60
   27
  -23
   69
   35
  -73
   23
    4
  -84
  -42
   37
   15
  -74
   86
   32
  -66
 -122
   91
    8
  116
   48
  -18
   40
 -120
 -106
 -115
   69
  -37
  -36
  -49
 -120
   49
   -5
   46
  -75
    2
   15
  -24
  121
  -96
  -55
 -109
 -100
   96
  110
  -86
   89
   39
   19
 -126
   93
  -51
   45
   43
  -35
   15
  -90
    9
  -79
  -62
  -21
   -8
   91
  -38
  108
  126
   43
  124
 -116
  -77
 -121
  -88
   74
  125
  -30
  -89
  115
  115
  -59
   -5
   13
  105
  -86
  111
   69
 -124
 -117
   28
    6
  -79
   52
  -40
    1
   34
  -84
  -73
 -114
   76
  -45
  -16
  -47
  101
  -46
   96
   -7
   10
  116
   64
   72
  -51
  -74
    4
   77
  -94
    5
 -112
   55
   15
  -38
  -10
  -44
  -47
  -28
   62
   81
   49
   52
 -102
  117
  -99
   95
  -59
  -59
   27
  -37
   50
  -65
   15
  105
  -60
    5
  -43
 -116
  117
  -17
   48
  109
   38
   64
    3
 -105
   38
   19
   97
  -89
   -4
   29
 -112
  -10
  107
   -9
  114
    7
   41
  -52
   55
   94
  -51
 -110
   52
  100
   28
  -82
  -49
 -115
   82
    4
  122
   48
  -35
  -88
 -127
   71
  119
   38
  -85
 -115
   42
   36
 -112
   29
  -60
  123
  -84
  -99
  -82
   22
  114
   54
   14
   16
  107
  117
  -13
  121
   42
  100
   65
    7
  -23
   71
   -1
   90
  -77
  117
   23
  -40
   25
   88
  -69
   34
   -9
  -59
   94
  108
  -36
   67
   40
  -85
  -67
    9
   64
 -116
  -49
   67
   33
   31
  -60
    1
  -27
  -95
  -12
   22
  -32
   -5
   12
  -52
  -64
  -65
  -33
  -93
  -17
   74
  -90
   23
   -1
 -117
 -125
   -8
  -43
  -79
 -116
  -78
  -93
  -23
 -117
  -10
  -15
   89
  -66
   87
   52
   -5
  126
  -47
 -116
  106
   38
  -94
   29
   84
  -19
  -16
  -69
   24
   53
  -63
   31
   45
 -111
   34
  -24
  -11
   12
 -126
  -43
  -84
    9
   23
  -10
  125
   43
  -32
  -23
 -125
   -3
   -3
   84
  -76
 -112
  -97
  -89
  123
  -17
   63
   -2
   60
    2
  -16
  -30
  -25
  -61
   41
 -120
 -104
  -69
   32
   86
  -78
  -67
  -86
  104
   82
 -126
  -10
 -105
  -22
   -1
   89
   23
  -15
  106
 -111
  119
  100
  127
  -99
  127
  -71
   54
  -44
   16
   31
   25
   85
   45
   46
  -18
  -34
  -59
   48
   13
  -23
  -57
   93
   19
   18
  114
    3
 -104
  112
  -26
 -119
   61
  -93
  -85
    7
   -6
  -27
 -107
  104
  -40
   -4
   95
  -76
  -26
 -121
  -53
  -79
   -5
   13
 -104
 -110
 -104
  -15
  -19
  -22
 -114
 -100
  -81
   -8
   77
   83
   -6
    1
 -105
  109
 -106
   98
  123
   17
 -104
   47
   17
   81
  -11
  106
  -91
   -9
   41
   56
   16
  -14
   68
  -54
  101
  -74
   55
  112
  -60
  109
  -34
 -115
   36
  121
  -35
  -60
  120
   45
  114
  -59
  -68
   59
   22
   62
   18
   32
  123
 -100
 -101
 -102
  110
  -19
  -83
   98
   46
  -43
   98
   49
   51
  121
  -95
   49
  -27
   35
   88
   70
  -99
   46
   97
 -119
  119
  -42
   45
  -73
  -41
   36
   38
   97
  -37
   47
   84
   24
   86
   14
  -43
   22
 -127
   51
   68
    4
  -21
  -88
 -121
  -88
    4
  -59
   86
 -115
   46
  -54
  -39
  122
 -125
  -12
   94
   60
  -88
 -126
   89
   16
  -91
   39
   10
   65
  -73
 -122
  -83
  -31
  -79
  114
   31
   69
   23
  -14
   30
 -104
  -17
  -15
  -85
  112
 -102
   38
   35
   88
   44
  -19
  -25
   10
   97
   33
   69
   95
  110
  -75
   61
  -94
    6
   60
 -116
   -1
 -117
  -90
   68
  -21
  -11
   75
  -39
 -106
  -90
  -59
  125
 -121
  -42
    5
  -21
   68
   61
   45
  -63
  -52
  106
  -70
   70
  -76
   92
  -47
   61
 -100
   59
   28
  -44
 -108
  -32
  -37
  -31
  -61
   52
   70
   83
  -56
  121
  -29
  -94
   80
  -10
   -8
   18
  -46
 -113
  -41
   18
  -90
   80
 -108
   74
   30
  -35
  -57
  124
   39
   77
  115
   71
  -61
  -81
  -43
   78
   73
  -91
  -10
  116
  -99
   55
  -27
 -100
  -63
   34
   79
 -120
   51
  -87
 -116
   35
  -85
 -108
  -48
   57
   61
  -87
   70
  -65
   99
 -119
   78
   31
  119
   77
 -106
    7
  100
  -65
   -5
   96
   32
   -6
   47
 -109
  -32
    0
 -113
   13
   66
  -80
  -33
   33
   78
   99
   46
 -113
  -48
  -61
  -38
  -34
  -44
  -99
  -94
   87
  110
  -29
  -79
  -95
   74
  -31
 -124
 -124
  -20
   87
  -53
  -27
   99
  -55
   82
   35
   99
  -80
   58
  -55
 -112
  -18
  -92
  -71
 -100
  -45
   24
   15
   -8
  -35
   58
    3
   85
    7
  -62
   77
   12
   -2
    9
   17
   89
  103
  -45
   89
  118
  -15
   46
 -114
   42
   81
   65
  119
  -73
  -87
   71
  -65
 -113
   49
  -26
  111
   57
   -1
  -24
   79
  -20
  -80
   73
  -57
    9
   27
  -98
  -27
  104
  111
 -117
  -43
   27
  125
   67
  121
   41
  -49
  -72
  126
  -38
   59
  -30
 -107
  -28
  -46
   79
  -78
  -61
  -50
   57
   12
  -92
  108
  -49
  108
   -7
   24
  -17
    2
  -50
  -19
  -35
    1
   -9
  -57
   78
  -28
   27
   20
  -98
  118
   -8
   55
  100
  -97
   44
 -107
   22
  119
   70
    8
   61
 -111
 -127
   43
   41
  -60
 -101
  -33
   24
   78
  -64
   45
   27
  105
  -99
  -35
  126
  -42
 -116
 -110
 -117
 -107
   66
  124
   73
  -48
  -10
 -115
 -124
  -34
  121
  -82
  -40
   12
  -61
  -65
  107
  -96
  -38
   12
  -83
  -69
  112
 -104
  -33
   41
   69
  -52
  -34
   18
   67
  -32
  -27
   96
  -36
  -12
 -117
  -15
  -14
   -2
   21
   59
   24
   -3
   92
   60
 -122
   92
 -105
  -26
  115
  -53
  -92
   63
  -84
   37
   35
  -91
  -63
  -87
   84
  -87
  -33
   81
   66
 -100
  108
   31
  125
  102
 -103
  -17
  -83
  -73
  -81
   -9
  -66
   41
  -29
   49
   84
  -54
  109
   61
   51
 -114
  -92
   -5
  -65
   90
  124
    3
  -79
   34
   29
   59
 -121
   27
  -20
  -36
 -123
  -29
  126
    1
   88
   74
   36
   91
   58
  101
  -69
  -40
   16
  -88
   86
   94
  -76
   54
  116
  -13
  -24
   34
 -107
  -52
   45
   76
   49
   92
  117
   -3
  -45
   84
  -12
  100
 -124
   31
  -38
  -27
  -11
  108
   36
  101
   73
   -7
  -90
   85
   71
   12
   45
   38
  124
  122
  -19
   46
  123
   44
   94
  108
  -19
  -47
   77
  110
   48
  -51
   24
 -123
  -71
   79
   70
  -32
    9
   -4
   17
   29
   49
   64
  -81
   11
  -53
   52
  123
  -52
  120
   43
  -68
  -82
  110
  -25
   61
  -83
   29
   20
  116
    4
  109
 -111
  -19
  -97
  -37
  -12
  126
   61
 -101
   49
   82
  -66
  -13
   -8
   25
 -123
 -116
   19
  101
  -52
   10
   52
  111
  -38
 -110
   93
   -1
   67
   42
   55
  -67
  -20
  123
   32
  -25
 -100
   32
   96
   80
  -59
  -82
  -73
    3
  -25
  -99
  -42
    3
  121
    6
  -40
   98
  -76
   79
  -27
  -58
  -73
  -49
   11
   -6
   92
  108
   49
  -48
  -20
   58
  -88
  -40
    8
  -53
   26
 -122
  -33
   81
   16
   -2
  -57
   66
   14
  -25
   -5
   42
  -34
   75
    3
  -48
  -34
  110
   36
  -92
  -30
  -21
   -4
 -107
   48
  -42
  -47
  -13
   25
    3
 -110
  -19
   63
   69
  -53
  -66
  -97
  -76
  -99
 -113
   46
  -74
   97
   66
  -51
  -94
  124
 -124
  -64
  124
  123
   68
 -125
   30
   93
   31
   21
  -26
    2
  -13
   67
  -25
   79
 -108
    4
  125
  -46
  -79
  -42
  -72
  -47
  126
  107
   13
  -78
   57
  -34
  -70
  -13
    6
   83
  -97
  -65
 -123
  -99
  -12
   77
   12
  -59
    5
   76
  -73
   10
  113
   88
   59
    8
 -103
  122
   40
   76
   27
  -57
 -115
   43
  -70
   58
 -111
  100
   18
   93
   68
  -14
   30
   86
 -105
  -59
   21
   31
   19
  -74
  -45
 -118
  -92
  -53
   95
   42
  -84
   60
   98
  -56
   23
   76
 -107
 -104
  107
  -29
  102
  118
  120
  -70
    6
  -76
   27
  -50
 -105
  120
  -32
   82
   18
   61
  105
 -112
  -46
   22
    1
  -73
   91
   68
   15
  -62
   78
   20
   43
   -5
   29
   34
  -61
   67
   97
   90
    3
   89
  -17
   -3
  -28
   83
  -68
  -76
  -65
   25
   65
  -82
  -46
  -90
  121
   20
   10
  -47
   70
  126
    2
   16
 -104
  -71
   47
 -127
   81
   -9
   98
   47
   60
  -16
  -94
   56
 -124
  -56
  -79
  -51
   42
  -62
   67
   93
   65
   89
 -121
  -38
 -100
 -110
  124
   24
   59
  -75
  -83
   92
   18
  -84
  -65
   77
   -7
 -120
  110
  -48
 -121
 -108
 -103
   -2
  -54
  -72
  -56
    8
  -26
  103
   -9
 -119
   42
  108
  124
   -9
  -82
 -123
 -118
   31
  108
  -83
 -105
   96
 -107
   99
   14
   84
  -96
   24
   75
  -64
  103
  111
  -90
 -120
   31
   19
   35
   81
   82
  -88
   91
   -2
   98
   21
  -13
  -54
  -85
  -16
   22
   60
   -1
 -115
   38
  -68
  104
 -105
  -52
  -96
    9
   82
  125
  -67
   54
 -124
  -15
    7
  -97
   -4
   30
   -6
   75
 -107
  -54
   -3
  -28
  116
   25
  -24
  -42
  120
  -97
   57
  -57
  112
  -91
    2
   54
  119
   40
  -12
 -102
    6
  -78
  -94
 -104
  -83
  -96
  -54
   -6
   88
   20
   24
   26
   47
  -36
 -116
  -25
  -17
    3
  110
 -124
  -50
  -24
  116
  -93
  -23
    3
  120
   75
 -113
  -20
   72
  -89
   84
  -88
 -114
 -109
  -94
   19
  -41
  112
   34
 -123
  -70
 -108
   23
   30
  -89
  123
   78
   48
   -1
  -27
  -14
  -51
   89
   50
  -96
   90
  108
  -48
  -46
 -126
   34
   53
  -94
    2
   84
  -67
   55
   77
   74
  -13
  101
   92
    0
   30
  -75
   69
  -60
  101
    5
   62
 -124
   99
 -111
   17
  -91
  -13
   85
  112
   97
  122
  122
   -8
   31
  106
   57
  -55
  114
  -39
  103
  -45
  -79
  -40
  -11
  -10
  -81
   55
   43
   24
 -111
  -61
   51
  -15
 -120
   28
  -71
    1
  -11
  -73
  -93
  -79
  -42
 -112
   94
    3
  -54
  109
  -39
  -94
   81
  -44
  -69
   76
  -39
  -28
   67
   87
  -16
   66
  -83
  -74
  120
  -94
   16
  -87
   46
 -125
   94
   37
   68
  108
   24
  -15
  -33
   46
   89
  103
   54
  -39
 -120
   35
  -60
   34
  -96
   52
  -52
  -22
 -114
  -90
   71
   14
  -16
  -65
  -35
   63
   83
   25
  -11
  -88
   22
 -117
  -93
  -40
  -57
   42
 -105
  104
  -68
    7
   72
 -105
   10
  -33
    5
  -65
   82
  -82
  -18
  125
    1
  -80
  -90
   33
  115
  -63
   79
  -55
   29
 -126
  114
  -53
   39
  115
  -27
  -13
  -44
  -47
   52
   77
   69
  -87
   33
   65
  -45
   14
 -114
   48
   78
  -47
   -5
   10
   17
   22
 -112
  -10
   45
   45
  -31
   84
    7
   13
  -78
   85
   79
  -44
  -86
 -115
  102
  -33
   63
 -124
  -88
  -38
   99
   72
   25
 -117
   62
   -3
   92
  -35
  -27
  -34
   16
 -104
  -14
    1
   68
   76
  -48
 -117
   26
   45
   45
  -98
 -105
   40
  -30
   34
  105
   87
   93
  -19
   99
   85
  -20
  -44
  -67
   74
    2
   99
   10
  126
   94
  -61
 -104
  119
  -94
   52
   16
 -100
   -9
   29
  -59
  -50
    8
   26
   48
   14
  -61
  -97
   75
  -41
 -126
   15
 -118
  -75
    1
  -78
   98
   56
  -50
  -39
  -84
   28
 -123
  -91
  -15
  -97
   89
 -124
   19
  -15
  -15
   -8
 -120
   71
  -70
   13
 -101
   48
  -33
   39
  111
   36
  121
   69
 -106
   98
   72
   29
  -30
  -42
  106
  -57
   13
  -20
   11
  -91
  113
  -99
   71
 -107
   84
   -6
   31
  -19
  -23
  -81
   73
   79
  -53
   16
 -127
  -29
   23
  -31
   55
   13
  -77
  119
  112
   48
   16
  -31
  -40
 -123
  -76
   33
   43
  -55
 -111
   98
   86
  -73
   16
  -57
  -27
  -94
   -7
  -31
   39
  -13
   19
  102
  100
   81
  -30
   -3
  -67
   41
   62
   36
  120
 -114
  -72
  103
   18
  -35
  -80
  -60
   54
    4
 -123
   13
   78
 -108
   93
 -121
 -123
   -6
   63
 -112
  -76
  106
  -65
   82
   81
  112
   97
  -41
   91
  -60
  -52
  -52
  -93
  -12
 -124
  108
   73
  127
  -71
   86
   19
   99
 -103
 -118
  103
   -3
   94
   17
    5
   48
 -109
   16
   36
    6
   75
  -14
  -62
 -124
 -108
   53
  101
   62
   57
   -8
   37
   -1
   42
  -54
  -29
   67
   69
   31
   32
   67
  -32
  -11
  115
  104
  -84
  -61
  -13
  -92
  -24
  -60
   74
   44
   17
   64
  -25
   89
  -11
 -116
  109
   40
   -5
  116
   16
  -78
  -32
  118
 -108
  -93
   -9
  -18
  -19
   96
  125
  -97
  -44
   24
  -77
  -41
   64
  -85
   42
  -62
  -11
   66
   85
  -16
   86
  -72
   92
  -82
  -90
   21
  -89
    6
  -37
  -89
   62
  -61
  119
  -43
  -26
  -51
   57
   93
   56
    1
  -96
  104
   93
  -38
   36
  -77
  -59
 -108
 -106
  -59
  -13
  -13
  126
  -42
  -98
 -118
   -5
 -106
  -97
  123
  109
   84
   -4
   93
   75
   10
 -114
  -83
   25
 -106
   -9
  -87
  -41
  -68
  123
  -81
  -42
   -5
   55
  -26
  -31
  112
 -112
 -119
   25
    2
  -83
   81
 -100
  -61
  -47
  -49
   47
 -106
    1
    2
   46
 -104
   48
   86
  -79
   19
  -97
  -91
  102
   34
  -98
  -59
  -28
  -26
  -56
  -73
  -48
  -36
  -53
   77
   98
   54
  -38
  -46
  -55
  -20
  118
 -121
  -76
  -28
 -117
  -84
  -63
  119
   80
  -12
  -91
  -75
   89
 -125
   12
   29
  -31
  -74
   61
 -124
    2
   54
  -79
   34
  -16
  -20
  125
  -23
   60
 -109
   53
   71
 -126
   80
   15
  119
   19
  -71
  -19
   30
  125
   65
 -112
 -106
   92
  -79
   92
  -76
 -105
  109
  -18
  102
  -65
   -6
   80
   27
  -42
    4
  -31
   -3
  -30
   49
   69
   -1
   93
  -89
   98
  -27
  -33
  -16
   61
  -97
  100
  106
   37
   17
   63
   66
  -61
 -125
 -124
  -60
  -68
  -57
  104
  -44
  -67
 -102
   -3
   84
   35
  122
 -118
  126
   67
  -19
   81
  -26
   77
  -85
 -124
  103
  -85
   96
  -15
  127
  -40
  -35
   59
  126
   -3
  109
  -32
  -87
  -64
  -66
   39
   94
  117
 -100
  -97
 -123
  -14
  -43
   97
   52
   81
  -82
  -70
   71
   98
  -45
  -89
  104
 -119
  -63
  110
  -12
  -52
   37
  121
   20
  -60
   46
   42
   42
  -17
   87
 -103
   18
  -59
 -118
   -1
  -58
   -2
    1
  -77
  115
   49
  -77
   32
   22
   68
  -41
  -34
    6
   11
   78
   25
  -93
  -86
 -118
   92
  -35
  -23
    2
   91
  -30
   87
 -103
  -47
  -66
   96
  -60
  110
 -117
   -5
  124
   -6
 -102
   47
 -123
  -34
  -26
   -1
  -36
    5
   39
  -24
  -77
  -81
  114
  -92
  -67
  118
   85
   -4
  103
  114
  -88
  -36
   62
  107
  108
  -16
  -16
  106
    6
   89
 -108
  115
   68
  -40
 -111
   19
  -14
   92
   22
  -56
 -124
  -76
  101
 -109
  -51
  -67
  -35
   75
  -36
   34
   71
  123
   64
  -49
   21
   98
 -103
 -101
  114
   38
   10
    1
   47
  -55
  -97
  -51
   20
  -65
 -111
   55
  101
  -69
   32
    5
   77
   41
  -90
   53
  -34
 -114
    5
   53
  -21
  -56
   60
   70
 -102
    7
  115
  115
  104
   82
   61
  106
  -10
   37
  -77
  116
  116
  -78
  104
   54
   28
   79
 -116
  -47
   71
   56
 -127
  109
  -32
   71
  102
  -76
  106
  -95
    4
   48
   51
  -13
   48
  -68
  -57
  -33
 -123
  -58
   56
  -78
   59
   90
   99
   95
  -79
   19
  117
    1
  -97
  -91
   42
  -53
   84
  118
   74
   15
  -42
  115
   27
   88
  -33
  -99
 -103
  -47
   40
   71
   51
  -89
  -82
   50
 -108
   41
  -28
   77
  -41
  -93
   78
   82
   83
 -100
   74
   -1
   96
  120
   22
  -31
  117
  -55
  -27
   -1
  -70
   -8
   -2
 -111
  -82
  -22
  -54
   73
  -88
 -112
  -30
  -24
  -94
 -124
    9
   -8
   -9
  -51
   59
   65
  121
   37
   50
  -98
  108
   61
  -94
   24
 -109
  -81
   65
  -43
 -104
  -42
   73
  -39
   19
    2
   76
   65
  -59
  -47
   42
   71
  100
  -66
  -17
   55
   13
  -52
   31
  -92
  -93
 -125
  -99
  -23
 -109
    6
    7
  113
    6
  -99
  -57
  -48
  113
   -8
  -52
  -55
  -87
  -95
 -115
  117
  -63
   -6
  108
   66
   69
  106
  114
   59
   15
   -7
  -45
  111
  -36
  -56
 -124
   35
 -123
    8
   65
  -27
  112
   58
   43
  105
  127
   79
   56
  -45
    4
  -61
  -49
  -88
   86
   61
  -87
   43
   15
   73
    5
 -120
   48
   23
  -76
  -78
  -33
  -68
   64
 -122
 -121
  -66
   55
    1
   28
  -57
  -91
  100
 -123
   24
  -93
   22
  -82
   49
  -69
   97
    0
  -72
   71
 -106
    2
 -112
 -126
  -79
   72
  -29
   19
 -112
   34
   38
  -31
   23
   46
  110
 -123
 -127
  -13
  112
   26
  -20
   -7
   29
   64
    8
   95
  -10
  109
   39
  121
  -99
  103
  109
  -80
   68
 -126
   67
   86
   77
  -10
 -101
  -88
  -43
 -117
  -76
  124
   86
 -101
  -24
  -65
  -27
   -5
  102
  109
   43
   48
  -65
  -34
   41
  -71
   70
  100
  105
 -101
   97
   15
 -100
  -93
   -6
   39
   65
   41
   43
  -39
  111
 -123
   95
   66
  -69
 -123
 -116
  -27
 -113
   71
  107
   21
  101
   43
  -31
  106
  107
 -110
 -123
   84
   49
  -55
  107
  -53
 -101
  -23
  -91
   59
  -55
   22
  -15
   -1
   36
   20
 -117
  -67
   -7
  -52
  -46
   35
  -31
   95
   72
  103
  118
  -40
  -38
    0
   77
  -16
   23
   92
   76
  117
  -94
  -33
   75
   76
  -43
   42
 -118
 -123
   -1
  -98
   -8
  -63
  116
  -54
 -112
   70
   92
  -39
   51
  -23
   19
   69
 -116
   92
  -92
  -28
 -112
  -36
   60
   90
   31
   14
    9
   -4
   80
 -124
  -79
   35
   33
  -41
   74
   20
   79
   66
  -23
   73
   71
  -71
   75
 -127
  -30
 -105
   96
   59
  -18
   57
  -77
 -108
    9
 -109
  -93
   91
  -38
  -48
   41
  -51
   42
  -17
   39
   35
   32
   16
  -74
   37
   31
  -44
  -49
  -62
   49
 -124
   74
   99
  -69
  -14
    0
   60
   28
   45
   33
   37
    9
  -63
  116
   24
    9
  -37
  -88
    6
    8
  -68
 -115
  -86
  -20
   -4
  125
 -118
   67
   68
  -16
   96
   53
   40
  -39
   38
  -51
    9
   -8
   49
   33
 -106
 -116
  -54
  -30
 -112
   64
   31
   47
  -24
    4
  107
   79
  -30
  -69
  -37
  -46
  -43
   61
  -57
   81
  -29
    9
 -101
  115
  119
  -97
  -35
  -54
 -126
  -68
  -15
  -61
   94
  118
   65
   96
    3
   49
  -45
   15
  -54
  101
  -90
  116
  -86
  -54
  -69
  -68
 -103
  -30
   27
  -83
   22
   96
  -10
   48
  -36
 -105
   70
   14
  -87
   -9
  -46
   54
   70
   91
  116
   68
   79
  -37
   66
  -17
  105
   60
  106
 -114
   15
  -53
  -21
   52
 -123
   52
 -101
  118
   64
  -81
   16
 -121
  -32
  -13
   50
  -44
   99
   58
  123
  -78
  -55
  -57
   14
  -74
  112
  -11
 -119
    8
   93
  108
   86
    2
   38
  -17
  -97
   51
   55
  114
  -23
   21
   97
    3
    0
  123
 -114
 -121
  -99
  -67
  -29
   46
  -25
  -82
  -93
 -118
  107
   43
 -120
   37
   44
   78
  -21
   13
  122
   -6
  -54
  -99
   72
  -15
 -105
   70
   24
    8
   82
   46
   92
 -127
 -118
  -59
   29
   17
  -19
  -36
  -51
  -29
   50
  -56
  -53
 -105
   66
  -60
   69
   83
   95
   51
   39
 -111
  104
   -6
   23
  -73
 -118
 -120
 -110
   21
   66
  -41
   -6
  -30
  -84
  -59
  -69
  -76
  -73
   54
  -14
  -57
  -36
  -83
  -71
   20
  109
   38
   98
  -92
  126
   90
   64
  -56
   34
 -115
   -5
   69
  -42
  -80
 -112
   44
   75
   18
 -113
 -116
  -24
  -46
  109
   83
  -83
  -19
  111
  116
 -114
  -50
  111
   41
   63
 -113
  107
  -42
  -50
   96
    7
   13
  -97
   42
   79
  -71
   89
  100
   79
  -36
  125
  -91
   99
  -87
 -110
  -45
   42
   22
  -11
  -85
    7
   24
  -59
  -38
  -21
  -72
   85
  125
  -49
  -48
 -111
   67
   -8
   96
   82
   64
  105
   93
   74
  -69
 -125
   69
  -80
  -55
  -40
  111
  107
   23
  114
  104
    4
   -6
   31
  123
   35
  114
   56
  -50
    6
  112
   25
   78
   95
  -78
   67
  -12
   95
   95
 -103
   -6
 -125
 -103
 -102
  -59
  -93
  -92
   52
  -46
 -123
  -56
  120
   76
  -54
  104
  -23
   50
    0
   13
 -116
 -102
    3
  -33
  -53
   26
  -36
  -30
 -107
 -108
  110
    5
  -41
  110
    3
  -38
  -99
  101
   72
  120
   26
  -52
   -9
  -39
    6
   89
    1
  -23
  113
   57
  -73
  108
 -113
 -108
  124
  -14
   89
   48
  -93
   -2
  102
  -14
   -3
   52
   23
   26
    2
  -54
 -101
  111
   66
   32
  125
  -73
   -4
   77
   20
  -93
 -125
 -119
   24
    2
  107
   51
 -113
    7
   41
  -90
  116
  -84
  117
  -32
   -9
   23
  -25
 -126
  -82
   20
  115
   92
  101
  118
  -11
   74
   82
  -57
 -100
   21
  -34
  -93
   60
  114
   75
  -85
  -69
   37
   90
  -68
   24
  -86
  -55
  -49
  -53
  113
   -9
   73
  -29
  -45
  102
  -77
  -90
  -74
  -59
  106
  -78
   83
    7
  103
   82
  -60
   35
 -113
   84
   38
  107
   94
  -17
   88
  -30
  -67
   67
   -4
   59
    1
  -88
  -45
   82
 -127
    5
    2
   78
   -9
  -13
   52
  113
 -106
  -60
  -25
   75
  102
   47
  116
 -119
 -116
  -37
   16
  -98
   28
 -100
  -74
 -122
  -68
   31
  -38
  -14
  116
  -96
   69
  -11
   89
   79
   34
   69
   88
 -120
    5
   93
  -86
   64
   -1
   92
   59
  127
   45
  125
   32
   49
   14
   -9
   22
   75
   -4
    0
   75
   10
   15
   81
   55
   99
  -93
  102
   56
  -80
   18
   26
  -86
   83
   60
   43
  -52
   41
   67
   99
  -29
   -7
   72
    1
  -98
   33
  -37
  -66
  -85
  -84
  114
   28
 -116
    0
   62
  -22
   13
   27
  -31
  127
  -29
  -23
   69
  -79
  100
  -53
   19
  122
   34
  -47
 -118
   26
   54
   24
  -94
   83
  -98
  -25
   -4
  -51
 -100
  116
  -72
   13
   96
  -89
   22
   91
  -67
    4
   -8
   80
  -11
   53
  -54
   97
  106
  -33
   80
  117
   79
  124
   99
   27
  -41
  -70
   31
  122
  126
   99
   81
   24
   76
  113
   23
   30
   20
    6
  -12
   77
 -123
   75
  109
   45
  -18
  -18
   40
   -9
  119
   20
   38
   87
  -76
   37
  -17
   89
 -115
  -33
 -106
  -40
  -59
  121
 -123
   62
  -12
  -76
  106
   88
   25
   50
   74
   23
   87
   -3
 -122
   57
   69
  -92
   49
  127
  -85
   48
  -77
  -24
  -38
   71
  122
  115
   -6
   98
  -92
   78
  -13
  -48
 -109
  -83
 -105
  118
   33
 -105
   45
 -123
  -13
  -16
    2
  120
  110
   11
  123
  108
  -29
   -2
   64
  -52
 -115
  105
    8
   75
  -79
  -53
  -58
  101
    5
 -116
   84
  -60
   30
 -107
   43
  -79
   90
  -76
   38
   -5
 -124
   75
  -16
  -66
    8
   94
  -29
  -82
   28
   91
   77
  -58
    4
    3
 -109
  126
   -7
  -49
  -77
  100
 -126
   71
  -75
   17
   37
  -32
   99
   48
  100
  -65
  121
  -35
  112
  -97
  -70
   90
  118
   -6
   75
   -8
   51
  -76
   29
   29
   96
 -103
  -77
  101
  -88
   42
  110
    8
 -116
  -52
    4
   85
   67
   29
 -124
 -113
   50
  -98
 -106
  -12
   60
   47
 -126
   -2
  -76
   87
   -3
  104
 -110
   50
   -6
   80
   35
 -117
   94
  113
   30
  119
   44
  116
   58
   93
  -59
   84
  -50
   49
  -85
   37
 -105
  -20
   40
   83
   26
 -120
  -17
  116
   -3
  -55
  120
   32
  -95
   80
   62
   30
  115
  -36
 -124
  101
  -47
  -92
 -100
   -2
   80
  -12
   74
   32
   45
    3
   25
  -57
   69
  119
  -61
   54
   89
  -39
  -51
  111
  -94
  123
  -68
   99
  121
  120
  -60
  -51
   86
  119
 -105
   42
  125
  -38
   -6
  102
  -60
  -13
  109
  -70
  -99
  126
  -45
   29
  -19
  -98
  -19
  -84
   59
   -3
   90
   19
   29
  -49
  -73
 -119
 -109
  -28
  117
   79
  -41
  121
 -123
   22
  -43
  115
  -22
   34
   27
   55
    8
  -84
  -77
   25
  -32
  -93
 -121
   15
 -113
  -81
  -63
   35
 -102
   -7
   50
  122
  -55
   93
  -96
  120
 -104
  -18
  -54
  -33
  -70
   54
   33
   37
  -67
  -42
 -121
  -49
  107
  -34
  -16
   93
   88
   51
   85
 -103
  -76
   26
  -75
  111
  -74
  -90
   32
   59
  -85
  -92
   44
   15
   41
  -28
 -121
   72
  -43
   99
   73
  127
   20
    9
 -111
 -125
  -57
   17
  -35
   32
   31
  -29
   79
   45
   66
  -60
  -58
   -6
    8
   97
 -109
  -79
    5
  -57
   -2
   23
  -89
   53
   39
  -51
   -4
   76
  -97
   71
  -13
  125
   36
   65
  102
  -59
 -104
  -87
 -108
   83
   39
  109
   72
  -98
 -107
   12
  -56
  -23
   97
  -27
  -24
   70
  -41
   98
   90
   57
  -55
   -3
  -19
  -64
  100
  -44
   59
  122
  -36
  -98
  -12
   -4
  -71
  121
  127
  -83
   76
   75
 -108
  103
    2
 -104
  -44
  -25
  -81
  -49
  126
  112
  -50
   52
  120
   87
 -108
  -11
   25
   59
  -74
   50
   80
   -7
  -67
  -14
 -115
  -63
   32
   11
  -10
  -65
  102
   79
   15
   31
   86
  113
  -28
   63
  -65
  102
 -111
   32
   23
   55
   42
 -113
    3
  125
   70
   33
    2
   -4
   46
   15
   32
  -59
  -29
   77
   21
  -29
   -3
 -120
  -90
  -38
  -55
  -55
   65
  -45
 -122
  -60
   22
 -106
  125
  -52
  -96
  -24
  -94
   63
  -33
   37
  -40
 -118
  -94
   98
  -79
  -81
  -98
   -9
   70
  -11
   84
  -58
  -64
   -1
   45
   10
  -88
  -39
  -90
   29
   40
  124
  104
   -8
   50
   22
  -43
 -110
   77
  -46
  -90
  -35
  -86
  -28
   -6
  -60
   60
   17
   34
 -123
  116
 -126
  -31
   53
 -122
   86
   -7
  -62
  -37
   12
   -8
  -48
  -67
   45
   83
   97
  -59
   20
   29
  -96
  -44
  -20
   33
   48
   15
  -26
  -51
    3
   23
  109
   90
   47
   78
   98
 -114
   28
    4
  -49
   65
   26
  -41
  114
   35
  -50
 -125
  -69
   -4
  -74
  -74
  -26
    2
  -26
  -21
  105
  109
   67
  -21
  119
  121
   74
   88
  -34
   97
  121
   17
   -6
 -114
   55
  -15
   22
  -17
   95
  -90
  123
 -112
  -27
   40
   81
  -48
   54
   80
   -4
   61
   24
  107
  -86
  -86
   36
   16
   48
   69
   40
   56
   35
   59
   33
  101
 -106
   83
  -66
  -25
  -70
   98
   57
  -52
   63
   62
  104
   65
  -77
  -75
  -48
 -124
  -82
   61
   53
 -120
  -25
  -76
  124
  -52
  117
   34
   14
  123
   21
  -35
   89
  -64
  -81
  -81
   21
   25
   36
   54
 -110
  -46
 -111
 -117
  -66
   84
  -48
 -107
   75
  118
    3
    8
  -74
  -99
   -1
 -106
   89
 -112
    8
  -32
  108
  112
 -118
   -3
   57
 -117
   45
  109
  -23
   88
  -19
  -21
  -63
  114
   23
   43
   66
   60
   55
   14
   15
   43
  119
  -55
  -40
  -94
  -44
 -106
 -125
   51
  -15
  -59
  -41
   96
  115
   77
  -74
   74
  118
  127
   20
  -52
   46
  -43
  104
 -106
   78
  -79
  124
   50
  -34
  -37
  -27
 -107
   53
 -103
  107
   42
    9
   93
   90
   31
    7
 -111
   58
   66
   78
   -2
  -97
  -43
  -62
 -101
   91
   75
  117
   49
   81
   23
  -35
 -103
   83
  -41
  122
   -2
   81
  -68
   16
   15
   51
   61
  114
    8
   57
 -114
  -42
  -49
   58
  114
 -117
  -64
 -107
   23
  -95
   66
  -80
 -101
   42
  -27
  -75
  -81
  -97
  -48
  -11
  -37
   60
   22
   47
   90
  -91
   78
  119
  -76
 -118
    1
    4
 -118
   90
   57
   26
    7
    6
  110
  -76
   83
  -53
 -111
  -59
   66
  -77
  110
  -39
  -90
  -45
   28
  -88
   38
   35
   96
  -38
    0
   56
  122
  104
  -39
 -117
   31
  -96
    1
   13
   98
  -43
   -8
   48
   70
   15
  -67
  -34
  -43
  -62
   96
    0
 -104
   53
  -64
 -109
  -17
   94
  -69
    5
  118
   -4
    6
  -74
    5
   20
   -2
  119
  -15
   23
  -62
  -79
 -123
  121
   35
  120
  103
  -52
   95
   37
 -125
   54
   59
   53
 -111
  -42
    2
  -84
 -125
  -77
  -36
 -125
  121
    5
   -1
   62
   39
  118
  -15
   82
  -44
  -79
  -46
  -94
   33
  -41
 -124
  104
  -59
   90
  -76
  -37
   47
   67
    1
   27
   66
  -21
  -28
 -124
  -83
  -87
  -41
  -60
  -65
  -10
  -47
   69
   16
 -117
 -118
  -58
  -69
   24
   69
 -124
  126
  -42
  -43
 -106
  -97
 -112
   77
  112
    5
   23
 -104
  111
 -111
   88
 -106
 -121
  -40
 -113
  -20
  116
   46
  -30
  -29
  -35
  -95
   21
  -74
  -50
   62
  -80
  115
   86
  -32
   86
   63
   -8
  116
   -7
   62
   23
   76
    6
  -79
  -23
   52
   55
   69
  -55
   -3
  119
 -100
 -109
   13
    3
  -39
 -105
   39
   63
   14
   47
   52
  -85
  -40
   -2
  126
   80
   55
  -46
 -104
  -18
   -5
   -2
  -14
  -63
   -8
   12
   62
  100
   45
  126
  -24
  -55
   75
   95
   16
 -105
 -125
   87
  -12
   32
  -58
   95
   67
    4
   14
   56
   97
   25
  125
  -35
  -96
 -115
  -56
   80
 -116
   53
  -50
 -124
   94
  121
 -114
   82
   71
  -43
  -41
  -61
   15
   90
   26
  -79
  -81
 -107
 -103
    2
  -90
   90
  125
   37
  116
  120
    0
 -107
   25
  -15
  109
   98
    1
  -15
  124
   21
  118
  -59
  -38
  -93
  -33
   80
   46
   -8
    3
   60
  -11
  -35
   96
    6
   64
 -126
   81
  111
 -101
   73
   96
  -15
   34
  101
   88
   59
   11
   -7
  -38
   63
  -88
   -5
   96
   39
  -43
 -108
   97
   52
  -53
   58
  -95
 -125
   -8
   73
   -7
   76
  -71
  -38
  -22
   48
 -103
  -96
   56
   65
  104
   -4
  -21
  -70
  -59
  106
  -42
  -91
  -23
  -76
  -73
  106
  -74
  123
  -92
  118
  -22
   66
  -11
   71
  -51
   77
   33
  -62
 -110
  -30
  -90
   84
 -102
   84
 -110
  -88
  -35
   18
  -79
   16
   78
  111
   69
   52
  -13
   16
  -74
   40
 -101
   74
   81
  -82
   68
  -54
  -19
 -110
   66
  -85
   12
   75
  116
   54
  -28
   48
  113
   30
  -79
   99
 -108
  -86
  -17
   46
 -101
  -68
   -9
 -109
  -36
  -89
  -52
   -4
   17
   67
   41
   57
   59
   30
   42
  -93
   71
   31
  -87
   97
   77
   86
  -78
  -87
  -56
  -19
  -19
   97
  -95
  -91
   66
 -115
   29
  -76
  -94
  -64
  -84
  -76
   53
   98
 -102
   57
   -3
   82
  -53
   -1
  -86
   90
   38
   -7
  124
   55
  -39
  121
  109
  -29
  116
   19
   79
  -81
   86
   31
   -1
   35
  -38
  -81
   16
  -46
  108
  -12
  -89
  -29
  -25
  -56
   -6
   76
  -74
  -15
   79
  119
   62
  -82
   77
   10
  -31
 -111
  -78
   51
 -103
  -69
   86
   72
  115
   95
   96
  -49
  -82
 -114
  -97
   93
 -121
  101
  -62
    0
  -20
  -82
  -23
   42
    9
   19
   41
  -59
  -64
 -123
 -107
   98
  -93
   18
  -68
   52
  125
   49
   -3
 -115
  -72
 -101
   98
  116
  -82
 -111
 -114
  104
   77
   31
   78
   10
   43
  118
   53
   49
  -44
 -121
    8
   85
  -93
  -19
  -52
  107
  -80
  -69
  -62
   53
   62
 -108
   18
  -80
  -78
   48
    3
  -48
   47
  104
    6
 -112
  -61
 -124
  112
   74
  -33
  -93
  -27
   20
  -52
   54
 -107
   87
    8
    1
   13
 -103
  -29
  -88
  -18
  -95
   90
   82
    9
  -48
 -100
  120
  102
   86
   99
  -90
  115
  -89
  124
  -24
   42
  114
  112
  -95
 -119
  114
  -44
  -12
  -52
  -11
   14
   70
  -83
   -1
   21
  -19
  -60
  -10
  -35
  -91
   -6
  -55
  -98
  118
   51
  -26
   33
  -69
   48
 -107
   40
  -80
   99
   30
 -106
   18
  -66
  -28
  -72
   35
   62
    1
   59
 -113
  -84
   32
  -52
  -90
   61
  -67
   20
  -24
   -9
  115
 -126
    8
   58
   76
   10
  125
 -100
  -51
  101
  -30
   49
  122
   98
  -34
   15
  111
   48
  -64
 -119
   70
  111
  -47
  -87
 -109
 -120
   98
   41
  119
    4
   20
  -44
  -43
  -65
   96
  -73
   45
  -90
   -6
  -52
  123
  107
   73
   -2
  -87
  -22
  -58
   88
  -11
   27
   27
   89
   12
  -29
 -120
  113
 -107
   31
   75
  -49
   51
   86
  -26
  -72
  -72
  102
  -55
   93
   32
  -71
  -77
  125
   65
   -3
   27
  110
  -32
   91
  -58
  -48
   70
  -59
  -32
  -90
   30
  113
   87
   -3
 -118
 -114
  101
   16
 -110
 -125
   99
  124
  -91
   94
   -5
 -119
   -5
   26
  -68
   15
   78
  -25
   12
    9
   37
 -108
   25
   77
   25
  -73
  113
 -104
    5
   49
  -24
   15
   -1
 -119
  -68
   50
   60
   -1
  -26
  -90
   32
   60
   74
   52
 -104
    3
   82
   41
   39
   58
 -105
  -17
   16
  109
   53
   64
  122
  -80
 -120
  111
 -122
   97
  -30
  107
   55
  -19
  -61
  -41
 -102
 -116
  102
  -53
   68
  -61
  -32
    1
   51
 -117
  -42
   -2
  -10
   10
  -22
  100
   54
   35
   40
 -102
   49
  -27
  -50
   60
 -111
 -106
   11
   33
   81
  -46
   40
   22
   12
 -123
   80
  -89
  -99
  115
   29
   70
   15
  110
  -63
   98
  120
  100
  -28
   31
   78
   23
 -101
   35
  -66
  -12
   65
  126
  -22
   73
 -116
   84
  125
  -86
   -2
  -19
 -121
  -68
  -21
   85
    5
  118
  -79
  -83
   93
 -119
   96
   16
  -13
   58
 -107
   52
  -29
  -76
   76
   33
   77
  -28
  -54
  -35
  -66
   93
  -59
 -102
  -80
 -118
   78
  -95
 -124
    6
  -74
  -12
 -122
    3
   49
   81
  106
   59
  -35
   58
 -117
    2
 -125
  -53
   45
  118
   90
 -112
  -58
  -46
   69
  -50
  -84
   -2
   38
   29
   74
   -9
  -15
   39
  110
  100
   94
   70
 -121
  -43
  112
  -20
   22
  122
   43
   -4
   50
  -75
  -47
   31
   -5
 -125
 -122
  -60
   72
  -35
   64
  -67
   75
  126
  -73
 -115
  -15
  -11
   86
   94
  -60
  -41
 -117
   90
  -20
  -62
 -119
  -86
  110
    1
   27
  -42
  -58
  -92
 -122
  -16
   81
  -29
  -63
   89
   91
   16
  118
  -86
   56
 -121
  -30
  -34
   14
  -87
 -100
   72
  -72
  -21
 -120
  -30
  -91
   46
  -59
   62
  -12
  -49
  125
   57
  -66
   30
  -37
   54
 -114
   58
  119
  -54
  -52
   86
   35
   61
  -92
   82
  -94
  -75
   15
   67
   33
  124
   47
  -10
    1
   78
  -80
  106
  -57
   92
   27
 -126
   21
    2
 -101
   28
   21
  -37
  -26
   89
  -36
    3
  113
 -101
  -68
 -100
 -125
  -50
 -125
   52
   97
  -43
   94
   88
  -29
   -7
  -62
  101
 -120
  -81
  -22
    8
  -28
  -93
   47
  -67
  104
   58
  108
   -4
  125
   80
 -124
  110
   81
  -58
  -24
 -123
   58
 -109
  109
   31
   72
  -70
  107
   16
   40
   44
  127
  -50
  -58
  -87
   26
   70
   57
   96
  -64
  -92
  -39
   89
 -109
   -4
    8
   13
  -92
  -78
  -50
  -18
   47
  100
  -61
   38
  -82
   93
   94
  -78
 -112
  -15
  109
   63
   36
 -100
  -22
   66
  119
  -77
 -101
   75
  -67
  -28
  -90
  -95
  -91
   12
   94
  -42
 -122
  -35
  125
 -127
  -23
 -109
  -81
  -12
   79
   77
 -103
  -32
 -121
    1
 -110
    3
  -24
  -46
   11
  -48
  121
  115
   93
  -70
 -121
 -106
  -67
    9
  123
  -93
 -112
   82
   70
   18
  -71
  -61
   29
  -78
  127
    5
 -107
   94
  -63
   70
 -118
   39
   69
  -59
  -32
   -2
  -62
  -85
  -56
   22
   74
  -47
  -63
   18
   37
  121
   89
  -37
    6
   75
   89
   21
  -89
 -112
    7
  -82
  -33
  -87
   99
 -105
   82
  101
  -54
   49
  -14
   60
 -111
  -66
   55
  -92
   64
  111
   56
  -29
   85
   91
  -99
  -24
 -101
  -20
  -85
   -2
  -95
   52
   89
   47
   97
 -111
  100
  110
  -79
  -78
   19
  -79
   14
  -69
   47
  -60
  -20
   82
    6
   49
  -63
  -29
   59
  -17
  -67
  104
  -91
   87
   24
  -71
   28
  -18
  -45
   75
   32
  126
  117
   99
  -20
  -16
  -31
  -26
   -5
  115
  -93
  -41
  109
   72
  -36
  -50
  -17
 -113
   47
  -41
   27
  100
   -1
   27
  -81
  -98
   51
   30
   17
  -65
  -41
  -81
   10
  120
   27
  117
   82
   69
  -77
   59
 -127
  126
   95
 -122
   69
  -32
  109
  110
  -97
   94
  -13
  102
   98
   32
   19
    1
   92
  -70
   -3
 -113
  -42
  -66
   40
   99
  -33
   84
  106
 -125
 -116
 -104
  -79
  -86
  -79
   -7
  -29
  -40
   -2
 -120
   86
    8
   43
 -120
    5
   75
  -71
  -52
 -111
   -8
  -72
   73
  -75
   82
  -41
   95
  -44
  -78
   30
   49
  -48
 -102
  124
   28
   76
   -2
  -71
   72
 -100
   16
  126
   77
   45
  -16
  -61
   66
   92
  -78
   27
 -125
  -68
  -30
   81
  -24
  -44
   81
   22
   17
   -5
 -107
   29
   59
   63
   94
  -69
  -51
  -62
 -105
  -29
  -63
  -75
  115
  -20
   78
  -96
  -47
  127
 -104
    0
  104
  -28
  126
   16
   77
  -33
  -13
  -12
   87
   34
   74
  -11
   -2
  100
  100
   17
   25
  -73
  -46
    6
   19
  -86
  -85
  -86
   24
  -48
  -25
  -56
 -125
  -44
  -51
   34
  -78
   -6
  -20
   24
   37
   65
  -86
   60
  -24
 -107
   -2
   29
  -46
   25
   78
    5
   53
   54
 -118
  114
 -100
  -84
  -68
   81
  -55
  111
  -42
   74
 -103
  -61
  -21
   74
  116
  -15
  -44
   44
  -22
   70
  -70
  -72
   75
  -22
    0
  -77
   76
    8
 -114
   86
  -38
  -79
   61
  -99
 -123
   34
  114
  -11
 -100
   51
   56
  -70
  -90
 -118
   23
  -53
   88
    9
  -77
   -6
  109
  -25
   32
  -28
   69
  -37
  -83
   13
  -22
    6
   11
  -19
   93
   78
   -8
   -5
   87
  -75
   60
  -79
   42
   43
   73
   64
  -77
  -86
   80
 -109
  -41
  -79
  -85
  -90
   59
   82
  -23
   37
  -30
  -56
  -47
  -92
  108
  -30
  121
  -59
   37
  -97
   16
  116
  -45
   82
 -120
  112
  -18
  -25
  -92
  -61
   62
    3
   94
  -77
   39
   67
   46
  -91
  -60
   29
   62
  102
   23
  -19
 -114
  -21
  -37
   64
  112
  116
  -17
  -35
   97
  -23
   97
   31
   31
  126
   79
   34
   92
   93
    0
   31
   59
  -76
  -13
  -84
  -81
  -96
   69
   16
  -56
   47
  -71
    4
   -5
   60
   78
  126
   39
  -57
   18
  -24
 -101
   70
 -101
  122
   19
   89
   40
   33
   89
 -110
  -83
  -75
  -77
   93
   91
  -50
   33
   81
   -8
  109
  -57
  -16
   42
  124
   24
  -38
   37
   91
  -52
  -35
  -79
  102
  117
  -86
 -118
  -40
   72
  116
 -125
   94
  105
  -86
 -114
   66
  -23
    8
  -62
   46
   67
  115
   36
 -105
  -15
   21
  -97
   -7
   41
  -87
  -83
  -54
 -106
  120
 -117
   77
  -71
  107
  116
  101
 -111
   65
  -21
  116
   39
  -41
   51
   69
  102
  -89
  -90
   69
   77
  -23
 -120
  101
   49
 -121
    7
 -110
 -119
   67
   90
  -78
 -123
  -25
  -95
   31
  -39
   -4
   26
   39
 -111
  -21
   91
   28
 -126
   28
   87
  103
  101
 -127
   80
  -72
  -16
   73
  -15
   79
    8
  -71
   87
  107
   98
   18
  -92
  -76
 -122
  113
  107
  -65
   54
  -88
  -92
   95
  -18
  -29
   -8
 -121
  -27
  118
   36
   44
   68
   62
   48
   11
   81
   34
   67
  115
  112
  -87
  -70
   57
   41
  107
   77
  -12
    8
 -112
   87
  -51
   37
  -74
   75
  -79
    5
  -92
 -113
  -13
   62
    3
  -97
   61
  -83
   52
   64
   11
  -88
  -63
 -114
    0
  -63
   86
   55
 -105
  -63
  111
  -50
  -36
  -44
  122
    7
  100
  -40
  127
   21
   53
 -100
   -2
   55
  -27
  -26
  -20
   33
   21
  -96
 -109
 -109
   40
  121
  -68
  -77
   75
  -99
 -123
  -20
   11
 -108
   66
   36
  -52
 -112
  126
 -113
   94
  -80
 -100
   97
  126
 -111
  -35
  -34
  -58
  -68
    1
  123
   96
    9
  -58
  127
 -101
  -76
   22
  -13
  -71
 -111
   25
 -117
  -74
  -12
  -95
   -6
  -50
  -35
  -74
  -41
  -76
 -106
  -39
 -127
   89
   40
   72
 -113
   50
 -122
  -23
  -25
  -45
   90
   64
   14
   96
  109
  107
  -83
   72
   64
   78
  127
  -70
 -100
   70
   39
  110
 -127
  -53
  -90
  -20
 -115
   38
   25
   81
   56
  -86
  -69
  -98
 -102
  -43
   58
    9
   72
 -105
   95
   73
   72
 -110
   52
   68
  111
  -11
   72
   34
  -88
   79
    1
  -65
  -66
  -33
   80
  101
   52
   78
   86
  -44
  -43
  -87
  110
   77
   89
  -43
   24
  -95
  -67
   52
   20
  -37
 -121
  -47
   61
   52
   84
   31
  -60
  -14
   61
  -10
  -35
  -36
   65
 -112
   73
  -78
 -123
 -104
  116
  119
   93
  102
   -4
 -111
  104
   39
  -21
  106
   69
  -32
  -35
 -102
   23
  -60
  -30
  -78
   68
  106
   17
  -93
   90
   96
  102
  -52
   43
  -96
   44
   51
    8
  109
   -1
  -91
  117
   35
 -101
  -41
   97
   -4
  -73
   89
    2
 -113
   16
   47
 -115
  -31
  -22
 -122
  -62
  125
  -71
  -97
  -54
   61
  -82
  -90
   53
  -22
  -27
  -24
   80
 -116
   29
  -38
  118
   69
  -75
   25
   42
   19
  -56
  -77
   38
    7
   41
  -85
   10
  -32
   81
  -64
  104
   57
  -98
   64
  -83
   77
 -103
   38
  -36
 -115
  -86
  -86
   38
   34
   33
   65
  -80
 -124
   58
   96
  -10
   74
    8
  -88
   90
   36
  112
  124
  -24
  120
  -72
   76
  -94
   77
   79
   46
  -17
  -23
  -73
  -21
  -16
   25
  -25
 -121
  -92
  -66
 -112
   -6
  116
    6
   74
  -66
  -72
  -46
  -89
  -43
    1
   53
  -31
  -74
   28
   75
 -123
   39
 -119
   65
   54
 -119
   90
   93
  115
 -109
  -24
   75
  -39
 -114
  -43
   23
   -1
   95
  100
  110
  -61
    9
 -110
  -61
   30
    3
  -78
   -3
   53
   25
  -76
    6
   99
 -115
  -24
  -77
  -19
   77
    1
 -118
   45
  109
  103
 -125
  -86
   64
  -37
  -36
   -6
 -111
   84
   43
   99
   59
  -32
 -119
   61
   91
  -67
   -3
   -4
  -37
   43
   44
   84
   20
   44
   91
  109
  -48
   73
   50
  -14
   86
    7
   14
 -126
  -79
  -14
   38
   70
  104
   33
   -5
 -111
   80
   80
  -39
   -4
   -3
   29
   94
  -91
   60
   25
   47
  -93
  -47
   16
   55
   54
   -8
   42
  -34
   76
   40
  -83
  -31
  -78
   60
  124
 -114
   40
  111
   27
  -27
   59
  116
 -127
 -114
  -82
  -83
  -58
  -13
    3
   22
  -56
   49
   -3
   13
   -3
  -31
 -112
  -44
   86
  -33
  -99
   66
   68
 -103
  -13
   -2
  -39
    5
   50
  -19
  -10
 -122
  -10
 -115
   46
  -22
  -71
  -40
   35
 -121
   86
  114
  -52
   47
   15
   65
  -71
  -97
  -69
   37
   14
  -60
  -99
  -52
  -64
   82
  100
  -31
    8
  101
   57
   -8
  -67
 -101
 -101
   26
  114
   13
  -10
   -8
  -18
 -123
   87
  -53
  -66
   71
  -89
   65
  127
   40
   19
   41
  -11
  -18
 -125
   22
  115
  115
   45
   68
  -55
 -107
   54
   36
  -99
  -72
   64
  -99
   18
  -69
    2
 -106
  -30
  -64
  113
  114
 -122
  -37
   45
   88
  -30
    5
   21
   10
   69
   20
   25
  -93
  -42
   30
  -25
  -81
  -20
   16
  104
 -117
  -73
   73
   50
  104
   -7
 -121
    1
   67
  -94
 -105
  127
  -25
  -43
   17
  -76
  122
  124
   73
 -103
 -125
  -40
 -105
   78
  -92
 -104
  127
  -97
    4
 -109
   22
  -34
 -125
  -88
   47
   28
 -106
   24
  -46
  102
 -108
   53
   72
  -38
  -51
    9
   77
   21
   85
  -40
   56
  -32
  -66
   28
   67
  111
   56
  -57
  127
  -63
  -46
  109
   94
    6
  -30
 -121
 -108
   10
   43
  -23
  -23
 -102
    7
  127
  -54
  -20
   37
   36
  -78
 -107
 -107
  -15
  -25
 -106
   42
    6
 -122
   20
 -112
  107
   55
   64
   62
   12
   56
 -115
  -80
 -123
  -85
  -63
  -22
  -14
  -33
   88
  -46
  -31
  -38
   27
   48
   12
  -80
  -73
   45
   -3
    8
   44
 -102
   19
  -25
   87
   33
    7
  -16
   41
   65
 -119
  -28
   33
   87
  -30
   87
   46
  -10
 -118
  -87
 -119
   64
  -32
   78
  -76
  -84
  -20
  -76
   61
  -64
    9
  -50
   18
  -79
  -85
   78
   71
   -1
   46
  -89
  -38
   93
   27
  -82
  -23
   50
  115
  -56
 -120
   94
   15
  111
   71
  -11
   27
  -85
  -23
   26
  113
   52
   37
  -97
   -9
  -26
  -84
   -5
  122
  -92
 -101
   80
  -32
 -109
   22
   55
  -63
   57
  -49
  -65
   -1
   95
  -93
  -62
  -68
   74
  -71
   79
   53
  -99
  -23
   79
   98
   60
  -57
  125
 -102
  -25
  116
   26
   40
  -95
  -37
    4
  -16
    1
 -103
   59
 -104
  -45
  124
   77
 -105
   42
  117
  -49
   98
  -11
   53
  -32
   15
   86
  -63
 -122
  -25
   -4
   68
  -80
   45
  -26
   31
  -28
  -60
  113
   72
   30
  102
   43
  -65
 -116
  -61
   -6
   92
   91
   -5
  -82
  -39
   78
  -25
  -28
  -43
   51
   63
   55
   83
  -94
  -35
  120
   99
   74
  -60
   38
  -33
   55
  -83
  -84
  -89
  -81
  108
  -39
    7
   10
   -7
   88
  105
 -125
  -66
 -118
   71
 -120
   16
  -59
  -68
  -49
   69
   56
  -66
   76
   50
  121
  -79
   50
   61
  -79
  -52
   14
  -90
 -111
  -80
  -81
  -37
   -1
  -14
  -34
   87
  -94
  -60
   34
 -120
   49
   -3
   74
  116
  -10
 -122
   84
  -49
  -80
  -13
  -88
  -46
    6
   76
  -36
  108
   13
  -80
 -122
  104
 -110
   69
  126
   35
  103
   65
  -19
  -40
   58
    1
  -40
  123
   65
   41
   94
  103
   27
  -57
  115
  -62
   98
  -73
  -93
  111
    5
  -22
   -8
  -26
  -99
   73
  -37
    5
   97
   99
   52
  126
  -13
   58
  -93
    5
   83
  -87
   36
 -127
   23
   57
  -88
  101
  115
   28
  -60
  -38
 -124
   90
   31
   29
   97
    7
  -36
  -12
  -98
  -31
  -33
    9
  -44
  -84
  -51
  -58
   24
   50
  -61
  -11
  -33
  -74
  107
   24
  -26
  -12
  -30
   29
  -77
  -30
  -63
  -53
  -24
  -93
  -77
 -125
    0
 -117
   69
   36
  -17
   23
 -107
  -36
  -48
  112
   15
  -84
   40
  118
   94
  100
  -76
  -26
  -14
  -95
  -64
  121
 -124
   69
  -24
   37
  108
  -46
   59
 -106
  -64
   23
   -7
  -31
   21
   31
   95
  -19
   64
 -124
  -39
 -106
  112
   55
   68
   24
   91
  107
  126
 -108
 -122
   46
 -105
   67
    9
   24
   19
 -127
  -78
 -101
  113
  113
   93
  -59
   54
  127
   48
   66
   15
 -105
   88
   98
 -111
  -13
  -49
  100
  -77
  -46
 -123
 -106
   40
  101
  -80
  -12
  -76
  -91
  -68
 -125
  -83
   -5
   56
   53
  -38
  -63
   69
  -41
   78
   66
   58
  -36
  116
  -24
  -77
  -23
  -87
 -108
   10
  -16
   44
 -102
  116
   31
   40
  -82
   67
  -26
   -7
   52
  109
 -125
  -18
  -30
  -24
   42
   48
   40
  -22
   86
  -47
 -124
  -28
   32
  -92
   15
   34
   14
  108
   90
  -78
  -96
  -94
  124
  -53
 -125
  -79
 -125
  -88
   73
  102
    3
  -67
   73
   44
  -56
  102
  105
   35
  -10
  -64
  -48
  107
   38
  -46
 -126
  -29
  -97
   54
  116
   12
   48
  -86
   -9
   -7
  -10
   52
    3
 -116
 -106
   94
   -8
  -34
  -29
  -82
   78
 -112
  -87
  125
  -73
  123
 -104
  -86
  -54
    6
  -51
  -49
  126
   74
 -107
  -14
   22
   63
 -107
  -47
   96
   73
  -43
  -52
   25
   62
 -107
    1
 -118
    5
  -57
 -106
   -4
  -94
 -126
  -52
  116
  -34
   98
 -127
  121
  -14
   24
   23
   48
   50
  -39
   90
   74
  -12
   28
 -121
   60
   31
  -41
  -10
  -83
  -27
  106
  123
   78
 -121
  115
  -30
  -84
  -24
  -59
 -114
  -34
 -104
   75
   83
  -86
  -63
   99
   80
   82
   39
  109
   52
  -16
  -23
  -75
  -79
  -72
  -47
   99
  122
    4
  -70
   46
   99
  -38
   34
  -32
   68
  114
 -102
   21
  100
   36
   43
  -46
  -49
   34
 -107
   81
  113
  125
   57
 -118
   59
   63
   67
  -64
  -36
   -1
   32
  -51
  -30
   98
 -107
   34
 -102
   34
   72
   96
   -5
   14
  109
  -47
   34
   49
  -68
  -78
  -94
  -57
  -64
   -3
   74
  -74
  -34
   94
 -119
  115
   60
  -15
    0
   12
   14
  -24
  -20
 -121
   66
   10
   53
   37
  -65
   53
   12
    4
 -118
   24
   71
  -91
   -7
  100
   99
   -9
  -45
  -47
   20
  -34
  -88
   87
  -76
  -12
  108
  -65
  109
    9
   -3
   94
  123
   23
   51
 -122
  -10
   13
  -50
   64
  -63
   36
   82
  -27
  -94
  -75
   63
  -85
  -29
 -113
   77
  -40
   42
 -126
   46
 -106
   52
 -125
 -107
   94
 -120
   -8
  -80
  -55
  -53
 -113
  -71
   20
  -81
  -75
   57
  -30
  -84
  -23
  -40
   49
  -30
   78
  -63
  -80
  104
  -91
 -100
   10
   73
   77
   98
  -97
  -76
  -27
  -29
   26
   -5
  -88
  -15
   73
   30
  -94
  125
  -73
  -89
  -83
   22
  -53
  104
   86
   40
   47
  -47
   96
  -14
 -111
   96
  -75
  -89
   80
  -37
   82
  -11
  -75
   -9
 -116
  -62
   59
  -98
  115
  124
 -103
  -30
  -25
  -14
  -41
  -35
   76
   27
  -85
  -65
   47
  114
 -101
   44
   85
  -82
 -118
   89
   86
 -115
  123
   84
   74
    6
  -82
  -28
  -27
   57
  -69
  -61
  -64
   15
    3
   58
   49
  -18
 -103
  -20
  -82
  -56
  102
 -114
 -120
 -107
  -95
  109
  -88
   28
   -1
  -55
   14
   52
   17
  -37
  -64
  -61
   36
   62
 -112
  109
  -12
   95
  -33
  -69
  -31
  -31
  -84
   66
   13
  101
  102
   74
  -98
  122
 -111
 -118
 -127
    3
  -98
 -101
  -72
  -43
    4
  -60
  101
   88
  -22
  124
 -122
   15
  126
  -60
   58
 -117
  -51
   19
  -81
   63
  105
 -120
   22
  -10
 -123
  -14
   31
   23
  109
   31
 -107
   16
  -77
   14
 -118
   19
 -119
  104
   15
  -22
  -92
  -17
   -4
   15
   46
   68
 -117
   93
  109
   91
  -62
   42
  -19
  -15
    5
   64
  -57
  -26
   87
  113
   20
  -81
  -90
   34
   50
  -92
  -49
 -122
  103
  -82
  -86
  108
    2
   30
  107
   67
 -119
   32
   45
  -70
   94
   36
   46
  115
  -77
  120
   89
   70
  103
  -27
  -94
   21
    9
   74
   87
   69
 -123
 -100
   31
  -76
 -108
   59
   28
    7
  126
  119
  106
  -80
   51
  -33
  -74
   13
  -96
 -116
 -102
   79
   92
 -112
   25
  -75
   60
  -10
   69
   26
  -11
  -93
   41
  -68
   17
  -96
  -15
  -88
 -107
  121
   88
 -121
   87
   35
   33
 -105
  106
  -10
  -41
  -47
   99
  107
  -79
  -48
   39
   44
  -54
 -108
  111
  -47
   92
  -30
   92
  -19
  -75
 -118
  -95
   90
  -71
 -120
   26
  108
 -119
 -120
   19
    5
   80
  -21
  -70
  -66
 -107
   90
   48
  -84
   16
   -5
  -68
  -38
  -15
   84
   34
   11
  -61
  -95
   -4
  -63
   79
  -54
  -47
   93
  -44
  -33
 -121
  -96
 -111
   41
   96
  -45
 -122
  108
  -37
   -7
  120
  111
  -26
  -92
   39
   90
 -125
  -29
   35
 -114
  -23
 -117
  -80
   -2
  -20
  -53
  -32
   73
  -87
  -21
  -91
  -90
  106
  -21
  -97
  -50
   32
  -33
 -122
   17
   98
  -26
  -34
   60
 -112
  -36
   74
   46
  -72
   37
  -58
  -99
  121
   36
  -24
  106
 -115
  117
  104
   34
   19
  -98
   91
  -79
  -73
  -50
  -29
   -6
 -125
  -13
 -127
    0
    1
  -95
  -99
  -30
   27
   52
   50
  -87
   -6
  -84
  108
  -57
   -4
  -84
 -115
  -10
    7
  106
   18
  -12
  -10
 -123
   73
  -84
  -70
    9
  -10
   48
 -107
  -76
  -37
  -46
  -60
  -98
   87
  -35
   50
   99
   20
  111
   37
  -93
   41
  -55
   46
   37
  -10
   84
   54
  110
  -41
  106
  -44
  -83
   41
   36
  120
   61
 -125
  -60
  102
  -84
    0
  -77
 -123
  -71
   18
   77
  -36
  -18
  100
   27
    2
  -93
  -45
   72
  -33
  -85
 -107
   47
  -69
  -53
    6
   83
   81
  -46
  -58
  -87
 -123
  127
  -95
  -94
 -114
  121
   42
  -78
  -40
  -58
   53
  -79
   83
 -113
   54
   -8
  -46
  113
  119
   27
  -73
  120
  -85
   77
   80
  -82
  119
  -52
 -108
  -16
   91
 -112
   94
  -99
  105
   84
  -65
  -16
    4
 -124
   37
 -107
    0
  -52
   92
  -54
  111
   20
  -47
  -63
   49
  -53
   -4
   -8
 -109
   12
   23
   -2
   56
   80
  -90
  -66
   50
   29
  -31
  -87
   50
   -8
  -36
 -112
   71
  -39
 -109
   40
  -85
  -69
   30
   77
   75
   -9
   14
   25
 -116
   31
   -7
  -21
   76
  117
   63
   -1
   -4
   79
  -10
 -117
  -47
 -108
   10
  -93
  -16
  -45
  121
   65
  -98
   18
  -16
  -26
  -71
  -18
   23
  -35
  -22
  -21
  127
   90
   17
 -105
  -12
  -35
   40
   55
  -68
  -73
  -36
  -47
    8
   47
   42
  105
