  -80
   48
  -51
   34
  -67
   -3
   66
   31
  -64
   39
  -43
  -97
   40
  114
   87
  -90
   48
   42
    3
  -17
  -30
   87
  -64
  -53
   16
   32
  -13
   93
  116
   81
   56
  -96
 -106
   86
  -38
  103
   20
 -114
  -73
  -90
  -21
   96
 -104
  110
  111
  -60
 -118
   -9
   22
   58
  -42
 -111
  100
   84
  -32
   68
  -16
    5
   15
  -65
  -95
   28
   29
  -68
   91
  -98
   98
  -28
  -51
   64
  -60
    7
  -69
 -113
   84
  -98
   11
   32
 -127
  -86
 -125
   65
   52
  -37
   43
 -104
   82
  -20
 -102
 -103
 -100
   30
  -76
  -20
   79
  -44
  -58
   81
  -75
   39
   19
   16
  -47
  -90
  -94
   87
   -6
  -68
   72
   47
  -86
  -91
   43
   40
   37
  -80
   82
   29
  110
   41
  -64
 -116
 -118
   56
  -65
  -90
 -116
   79
   87
  -69
   63
  -56
  -41
  -44
 -111
 -108
   -1
  -32
  -21
   31
   42
   35
  -41
   62
   50
   22
   98
  117
   92
  -46
   42
  103
   47
  127
    0
  -58
   49
  126
  -74
  -21
  -86
  -64
  -27
  -41
  109
  -12
    7
    0
   79
   78
  -97
   30
   70
  -55
  -59
   -9
  -33
   -5
  -16
  -62
  -92
  -60
  -39
  -63
 -123
  -13
  103
   40
  -91
  -62
   74
   58
   82
  111
  -79
    7
  -56
  -23
  -66
  -36
  -86
 -127
  -24
  -56
  -82
   22
   56
   56
    2
  -44
  -12
  -52
   47
  108
  -53
   -6
  -28
  -46
  -25
   96
  116
 -126
   26
   73
   35
  -98
   54
 -103
   22
   89
  -69
  -78
 -118
   84
 -120
  -34
  -83
    1
   -1
   93
   18
  -84
  104
   42
    1
   82
  -54
   97
    8
 -104
   -4
  -45
   11
  116
  -34
 -121
   61
  -45
   42
   -1
   91
   63
  -26
    4
   21
    2
   60
   58
  -78
  -12
    5
  -89
   72
  -85
   -1
  -61
   31
  -11
  -62
    9
 -104
   16
   90
   58
   10
   44
   92
   13
  105
   14
   91
  -12
  -87
  -67
   28
  -17
   27
  -67
  111
   52
   45
  -27
   38
  -13
  125
 -104
   -8
   49
  113
   34
   30
   37
  -89
  -65
   13
  -66
    1
   77
   42
 -118
  -74
  -25
  107
   28
  -72
  -39
  -59
  -29
   96
   14
  -45
   38
   28
 -105
  -34
  112
  108
  -61
  -60
   71
  -25
   99
  -12
   -1
  -32
  -30
  -11
   56
   59
  -42
   -9
  -31
 -111
  123
   25
  -13
  120
   48
   -3
  -36
  -17
  -75
   11
  117
  -80
   69
   86
  104
   33
   24
   70
  -58
 -125
  -59
    9
  -70
  105
  -99
  -60
   -5
   41
   86
   34
   78
   18
   -2
   77
  -15
 -115
  124
   64
   20
  -42
   24
  102
   87
   94
 -101
   73
  -24
  -49
 -121
   54
   88
 -115
  -65
  115
  -99
  117
  -39
   97
  -57
   55
 -115
 -100
   92
  -19
   16
   59
  118
 -112
  -97
  -94
   77
  -87
    7
   53
  125
   28
  -53
   13
   10
  102
 -109
  123
  103
  112
   44
   58
 -104
  -93
   79
   88
 -101
   65
  -46
  -67
   87
  -20
   41
 -118
   61
  127
  -30
    7
   72
  -86
  102
  -48
   46
  -10
   42
   47
  -66
   11
  -86
  104
   19
   88
  121
   76
   14
   95
  -59
  112
  125
  106
 -118
   22
  -20
 -116
  108
   64
 -112
   57
  -54
  118
  -89
   25
   -9
  -23
   97
  -70
   11
  114
   39
 -119
  -28
   95
  -28
   63
   61
  -69
  108
  -84
   84
  -23
   69
  -41
  100
   91
  -94
   47
  -89
  -23
   13
   13
   70
   61
  104
   -9
  -25
  113
 -103
   15
  -47
  113
   30
   -9
   97
   59
   23
 -102
 -122
 -106
  -11
  -79
 -108
  -44
  -70
  -42
   13
  119
  -70
  -25
  125
  -10
  124
    0
  124
   10
  -94
  -41
   58
  -22
  108
 -110
  -31
   17
   65
   60
  -30
  103
  -78
  100
  -62
  -22
 -127
   12
  -40
   37
  110
   22
  -61
  102
 -123
  -69
   55
 -102
   55
  -66
  -22
  -54
  -89
  -49
   34
 -122
   32
  -76
  -26
   -9
   76
  -71
  -30
  104
  -96
 -116
   48
  -51
  127
  -81
   14
   23
    0
  -10
  -89
  -62
   57
  127
   14
   37
   46
  115
  -34
   -8
  -95
 -107
   11
   44
   88
   25
 -112
   61
  -88
 -106
 -115
 -107
  -73
  -28
  -54
  -89
   34
  -99
   60
   99
  -15
  -23
  -22
   97
    7
  -95
  -74
  -85
  -37
  -35
   13
  -94
   54
  -37
   38
  -19
   66
  -66
  -79
  -89
  125
  121
  108
  -12
  -76
  -32
   62
  102
   92
  121
  -89
  -96
  -78
  -62
   58
  -71
   25
  -83
   19
  -10
   98
 -126
  -34
  -86
 -108
  102
  -18
   12
 -105
   23
  -23
   29
 -117
 -115
  -11
   81
   51
   13
  -76
   35
 -116
   56
  -19
    4
  105
   64
  118
   66
  -16
  -11
    3
  -68
  -15
  -91
    6
  -25
 -113
  -35
 -102
   28
  -71
   21
  -43
   63
   72
  -97
  -18
  -90
 -102
    3
  -80
   57
 -118
  -83
   89
   84
  -75
   -3
    9
  -78
  106
  -55
  115
   47
   30
   12
   71
  -68
  -98
  -37
 -102
  -30
  122
   29
   19
  -13
  -14
  -24
  102
  -21
   46
 -118
  -82
 -104
  -96
  -79
   -9
  -84
    5
   45
   94
   66
  123
  -71
  -83
  108
  102
  -31
  -93
  -91
 -126
   79
   83
  106
  -39
  -11
   37
   44
  121
   29
  109
  109
  127
  -59
  114
  -99
   94
 -100
  102
   34
   26
   -8
    4
   11
   49
   16
  -76
  -32
   33
    4
  -95
   84
   87
  -45
  -87
   91
  -47
  -59
   92
   77
  -61
  102
  -95
   91
   83
  -12
  -95
 -107
  -83
   58
   -3
    2
  107
  -73
  -93
  -15
  -71
  -67
  -57
  -92
  -83
  -33
  124
   92
   60
   23
  -67
  -66
 -123
   81
   54
   70
  -52
   76
    2
  -97
   96
  -75
  -53
  -53
   96
  -86
   57
   78
   62
   74
   50
   71
  -34
  104
   14
   91
  117
   78
  -21
   26
    6
   28
  -83
    5
   -1
   88
   19
  -83
  -94
   40
  -73
  -14
   63
   42
  -51
   70
  -37
 -105
   58
   55
 -107
   60
 -106
  100
   99
   18
   88
  -95
  -75
 -115
   49
  -53
   63
    9
  -44
  107
   84
    6
  -96
 -104
   44
   54
  123
  118
  -25
  -80
  -28
   98
   24
   33
  117
  -66
  -46
  -55
  107
   79
  122
  -83
   78
  -35
   16
  -54
   56
  -44
   45
   85
 -117
  118
  -94
  -93
   39
  -43
  122
   42
  106
  -91
 -101
  112
   60
 -122
 -100
 -100
  -56
   93
 -100
   19
  108
  122
  103
 -115
  -22
  -48
  -20
  106
  -55
   19
   78
   56
  102
 -113
   92
 -126
   56
   54
  -83
   94
  -88
  105
  -68
   47
   36
  -87
  -54
  -77
  110
   10
  115
  -72
   37
   73
  -25
   86
  -86
  -76
  -40
  -64
  -39
  124
   32
   25
   20
  -25
   12
   71
   -8
 -105
  111
 -116
   38
   59
 -104
   73
  108
   16
  -12
   75
  -55
  125
  124
    9
  101
  -67
   -5
  104
   42
  -16
   90
  -27
   -8
  -13
  -45
   95
   98
  -40
  116
  -49
  110
  -86
  115
   97
    2
 -123
   71
  -36
   89
  -17
   27
  -31
   56
  -47
  115
   89
   70
  -51
   95
  -32
   76
   81
  127
 -116
  -67
  -18
   89
  -29
  -96
  106
  -81
   23
   80
  -61
  124
  -15
  -70
  -80
   51
   96
   69
  -61
  124
 -116
  -40
   44
 -113
 -114
   17
   38
  -67
   32
    8
    4
   51
  -32
   29
  -49
 -104
   42
 -120
  -29
 -109
  -53
  -73
   57
   52
   55
  -35
   12
  -36
  112
  -14
  -99
   93
 -118
  -71
  -92
  -50
  -63
   59
   35
  121
  -43
  -20
   -5
  105
   18
  -19
  -12
  115
   21
  -28
   15
  124
   72
 -105
  -31
   69
  -77
  -37
  -72
 -127
  -79
  -13
   46
   -8
  -95
   77
 -108
  -96
   95
   47
    3
   30
   85
 -125
    6
  -30
 -113
   55
   71
   55
  -97
  -45
   93
   45
  -66
 -120
  -60
   63
  -18
  115
 -106
 -123
   29
  -73
   65
   54
  -24
  -66
    7
   75
   69
  -32
  -16
  124
  101
   60
  -71
 -110
 -105
  -61
  -89
  -35
   46
 -101
   99
   -8
    9
 -107
  -92
 -119
  -58
   66
  112
 -124
 -111
   43
   16
  -67
  100
  -10
   27
  -47
  -93
  109
  117
  125
  -71
  -34
   54
 -120
   25
  -39
  -14
  -90
  -82
   21
  -21
  -50
  -11
  -25
  100
  -20
   61
  -59
  -65
  -85
   27
   29
  109
  117
   77
   29
   99
    5
   -9
  -65
   66
   24
 -126
   39
  116
    0
   27
   54
 -111
  -81
   96
   73
  112
  -51
   91
   81
   84
  -16
   10
  105
   25
 -126
  -58
  -92
   53
 -117
  -16
   46
   13
  -82
 -106
  -80
  -33
  110
   50
  -85
   70
  -22
   53
  -43
   13
  127
   43
   99
  -36
  -17
   59
  126
   -6
  -43
   27
   70
  -29
  -76
  -29
 -111
  -17
   48
    2
   55
  -51
   53
  106
   52
  -94
   42
  -32
    1
  -26
  117
  -98
   16
   -8
  -87
    6
  -46
   72
 -111
   31
   35
 -107
   88
   92
   66
  112
   38
  126
   60
 -113
 -125
   84
  -42
  -59
 -100
  -81
  -30
   86
   67
  124
   54
  -40
   10
   62
  109
  -95
  -71
  -44
  -41
   94
   45
 -123
    4
    3
  -27
  107
  125
   14
   18
  -68
   76
  -67
   19
   30
  -12
   65
   17
   71
   60
  119
   67
   17
   25
   23
  118
  -15
   49
  -67
   69
  -87
 -107
  -48
  -45
  -82
  -65
  125
   28
   -4
  -65
  121
   55
   51
  -83
   -8
   78
 -100
   75
   94
 -103
 -111
 -112
  -11
   97
  -39
  -16
  -94
   39
   10
   58
  -94
  101
  -11
 -102
  -25
   94
  117
 -122
  113
  108
   28
   -3
  -14
  -26
  -89
   94
   -4
   92
   58
   11
   33
  -59
   23
   93
  109
  115
 -110
  114
   -1
 -110
  -88
  -52
  -84
   60
   97
   90
   44
   76
 -102
    6
 -113
   80
  -39
   84
   57
  -41
  -74
  -41
  -10
    7
  -25
   64
 -121
  -32
  -80
  -33
  -43
 -123
   47
   44
   85
  -16
   35
   42
  -37
  -46
   48
 -121
  112
   32
  -93
  112
   -8
  110
  121
  -55
   10
 -124
  -87
  -38
   70
  -46
   14
  -31
   64
  124
  -13
 -108
 -102
  -42
  -53
  106
    1
   20
 -114
  -59
   72
   10
  112
   10
  -22
  118
   25
  113
   67
  -99
  -55
  -73
  -22
    0
   87
   71
   21
    5
  -51
   48
   33
   70
   94
 -121
   29
  -77
   93
  109
   89
 -118
    7
  -35
 -110
  -64
 -112
  -69
  111
   78
 -118
  119
  110
 -116
  -43
   55
 -119
  -66
  -49
   85
    6
  -98
  -92
  -24
  -87
  113
  -94
  -69
 -121
  100
   56
  -75
  -41
   25
   29
 -111
  -82
  -83
   91
   20
  -76
   45
 -102
 -126
   16
  -37
  -17
  -58
    1
  -60
 -126
  108
   -1
  -71
   98
  -97
    8
  -84
  119
  114
   -2
  -85
   54
   65
   -5
   86
   86
   18
   72
   -6
   71
  101
  116
  -94
   32
   64
  -79
  -14
  -53
  -16
   46
  -63
   95
    9
  105
   -9
  -32
   49
   66
  104
 -112
   72
  -85
   85
  -94
   -2
   87
   20
  -57
  -35
    9
  112
  -55
   36
 -118
   66
  -80
    2
   23
  -67
   -4
  107
  -35
 -111
   27
  -83
   33
  -37
   49
 -113
  -44
   29
  123
  -12
  -63
 -118
   17
 -116
  112
  -12
   94
  109
   46
  -36
   77
   19
   46
   21
  104
  102
  -11
  -81
  -44
 -121
 -126
   77
  -66
   75
   76
  -75
   -2
   89
   32
  -73
  121
    9
   85
   80
   14
  -18
  -53
   77
  125
    2
  -79
   10
  -64
  -28
  -75
   73
   -7
   -7
   56
  -95
  115
   60
   30
   16
  -69
   98
    4
  -21
   70
   50
  125
   24
  -88
  -94
  -84
 -111
  -32
   58
  -28
 -118
 -126
   40
   64
 -110
  -41
   -1
  -48
   44
   79
   45
  110
   35
   19
  125
 -114
 -106
  118
  -24
   47
  -24
  126
   86
  -65
  -21
  -33
   74
 -119
   76
 -119
 -123
  -13
   86
   75
  111
  -76
   92
  -62
 -112
  120
 -111
  -69
 -119
  -95
   46
 -120
   90
  -56
  -20
   39
  108
  -53
  119
   71
 -105
  -82
  -79
 -102
  105
 -115
  105
  -96
  -37
  -68
   15
   19
  -50
   70
 -124
  -59
  110
   86
 -122
  119
  -26
    4
   59
   14
  123
    9
   36
  -42
  123
   98
 -100
   31
   95
   23
   68
   63
  -95
   35
  103
  -42
   -2
  -70
   67
  -24
  117
   29
  -37
  -74
 -108
   22
  -60
   21
 -118
  101
  -83
   56
  -97
   -6
   62
    9
   34
  117
  -66
   33
   63
   90
   44
  120
 -127
 -107
   17
  -41
   27
  -96
   21
   94
  -94
  -35
 -105
  -81
   29
  109
   61
 -126
  -12
   13
  -36
 -121
   44
   45
  -31
  -17
    8
 -114
  -68
  -19
  -91
  124
   89
  109
   95
  -27
  -31
 -121
   70
  -38
  -77
   48
  -73
  -99
  113
   91
   93
  -95
  -69
   88
   78
  -57
  -48
  -30
  -21
 -111
  114
   74
   39
  121
  -94
    4
    8
  -94
   37
  -24
   49
   50
  -51
   85
   69
  124
   29
  -34
  -89
  121
   53
   68
  -82
  -66
  103
   60
   96
  -59
   90
   84
   97
 -114
  -63
   90
  116
  -94
  -51
 -114
   12
  -16
  -77
  -75
 -105
 -126
  -80
   39
   24
  113
   36
  -13
  -31
 -125
  -72
  -14
  -41
  -92
 -105
 -127
   76
  -53
   54
  -14
  -52
  -61
  -57
 -109
   75
  -51
 -115
  -42
   92
  -89
  -49
    8
   10
   75
 -112
   87
  110
   66
  -97
  -95
  -51
  -31
   40
   88
   71
   51
   -5
  -27
   13
   24
 -112
  107
   -4
 -109
  -40
   10
   27
   71
   41
   40
   20
  -54
   71
    6
   -7
  -96
   87
  -88
   68
 -115
   67
  -38
  -10
 -115
  -53
   63
  109
   64
  -90
  -39
  100
  -91
   90
   -6
  109
   11
    7
   87
  -82
  -57
  -88
   72
   29
   33
   59
  -97
  121
  -96
  102
 -107
   95
   27
   89
   55
  117
  -78
 -108
 -106
  118
  119
  110
   48
  -92
   38
  -24
   52
  -70
  126
 -102
   81
   47
  -27
  100
  -30
  -14
   95
   98
  -75
   75
   49
   31
  -24
  -90
 -116
  -65
  -83
  -61
  116
   28
   28
  -64
   73
 -125
  -96
   37
  102
  -29
   68
   99
 -108
  -38
  118
   15
   89
   90
   57
  114
   50
 -110
  -54
  -77
  -87
  -52
  -62
  -72
    7
  -46
  -55
 -108
   98
  -92
   42
 -127
   99
    0
  112
 -123
   50
   71
   39
   13
    4
  -24
   10
  -58
  -88
   98
  -80
  -16
  -35
   97
   77
 -126
   23
  -24
 -120
  -17
  -22
   98
  -70
  121
    3
   82
  -76
  -79
   99
   59
   64
  -25
   57
  -21
  124
   10
  -19
 -109
   88
   40
  -34
   51
  -58
  -91
  -50
  -99
  123
   79
   -8
  -30
   49
 -101
 -120
  -77
  -60
  124
  -75
 -114
 -106
  -36
   85
 -120
  -94
  -80
  115
  127
  115
  117
  -70
  -61
  -30
   96
  117
   33
  -56
 -104
  -76
   62
   46
    8
   86
   -9
  -45
   22
   36
 -123
 -118
 -113
 -111
 -109
  119
 -106
  -11
  116
    2
  -74
  127
  120
   44
 -108
  -74
 -116
    1
  115
   20
  -15
   26
  -73
   44
  -45
   34
  -37
  -89
 -106
   61
   86
  -34
  -95
 -109
  100
  -68
   68
   -3
   76
  -49
    2
   78
   64
   92
   14
   75
  115
   63
 -112
  -79
   63
 -100
  122
   70
  126
  -47
   60
   80
  -22
  -14
   19
   67
   30
  -47
   77
   67
  -65
    2
  -90
  -94
   41
 -109
  -76
   89
   24
   45
  119
   78
   64
   76
  -58
  -22
  -58
  -73
  -55
   47
  -17
   15
  -76
   28
   74
 -112
  125
   31
  121
   90
 -117
  -14
  -45
  -88
   95
  -38
  -26
  105
  -26
   -6
  101
   48
   41
   70
   79
  -46
 -125
  106
 -103
   93
  117
   93
   44
   14
  -12
  -43
 -105
  -43
   89
 -107
  -92
  -54
   84
   14
  -46
   71
   96
   18
   15
   54
  -43
  112
  -98
   75
  -43
  -98
   13
   38
   29
   64
  -86
   70
   69
   90
   11
   24
  -60
   -1
  125
  -93
  -43
 -124
   79
   58
   77
  -25
   81
   49
  106
   36
   41
 -124
   93
  -80
  -60
  -81
   10
    5
   51
   73
  -62
  106
  -44
  -82
  -69
  -92
   19
   36
  -64
   23
  -36
   56
  -42
   -6
  -70
  -19
   31
 -104
  -89
  -89
 -105
   45
   13
   78
  -25
   19
  -58
   27
  105
   18
  124
 -123
  -10
    1
   55
   49
  126
  -59
   13
 -112
  -63
   10
   -3
  -50
  -92
  -40
   86
   33
  -65
   -5
  126
   58
 -120
   13
   35
  -31
  -62
   15
   65
 -103
  -21
   -1
   91
   24
   36
 -113
   -4
  -95
   44
   68
  -96
   56
   47
 -119
  110
    8
  -76
   18
   48
  -60
  -17
   72
  108
  -27
  -28
   42
  116
  107
  -34
   16
   77
  102
  108
  -22
  -76
  -76
 -127
  123
  107
   70
   75
   13
   54
 -112
 -112
   27
  -65
 -127
   68
  -19
  125
 -110
  -96
  119
   96
  -66
    4
 -107
   35
   30
   46
   87
   69
 -114
 -107
   11
  -45
  -65
 -122
  -84
  115
  -41
   -1
  -33
   41
   -9
  100
  -61
   46
    8
 -116
   45
  -51
 -101
   -8
   46
   71
   84
  -18
    1
   34
   58
  -22
  -37
  -46
  -10
   42
   37
  -40
   23
   88
  -82
  -52
 -116
   76
   76
  -27
  -46
  125
   13
 -124
   92
   24
   92
   71
 -101
  -27
  121
    3
  -27
   14
  121
  -13
   93
  -91
 -103
  -39
 -109
   11
  119
  -56
 -107
  -90
  -86
   10
   -8
  -60
   45
  -96
  -63
   23
  -38
    6
  -42
 -121
  -25
    1
  -94
   29
  118
 -105
  -49
    7
  -13
  112
   56
   61
   35
 -118
   36
  -46
 -102
 -107
  103
  -63
   -1
  -29
  -60
  -60
   51
 -113
   74
  -53
   87
   -4
  -68
  -71
  -47
  126
  -79
   89
   88
    7
   42
  -33
  -47
   79
 -101
  -73
  -14
  -29
   70
   -7
   76
 -121
  127
  -55
   68
 -119
   94
   62
 -100
   93
   82
 -127
   41
   34
  -74
  -17
  110
  -11
  -99
   46
  120
  -16
  -67
   99
  115
  -28
   67
 -102
  -70
 -101
 -122
    4
  -62
 -119
   64
   11
   97
   16
  120
   64
  115
   61
  -60
 -105
   47
   79
  -89
  -47
   -3
   52
   25
 -114
  120
   19
   19
   20
   26
  -93
 -119
  -22
  -58
   48
  124
  -65
   68
   42
    9
  102
   43
   11
 -105
 -120
  117
   59
  100
  101
   75
    9
  -40
  -56
   -7
 -125
  -19
   56
  -23
   27
   23
  122
  -57
 -117
   95
   99
  -33
  -90
  -84
  -86
   24
   90
 -116
   23
  -64
  -72
   58
  -81
 -100
  -12
  -78
  -33
  -81
   99
  -73
   11
  -85
  -13
   82
   -7
   97
   40
   12
    5
  -19
   80
   36
  -81
  127
   -3
    2
   67
   45
   57
  -71
  -30
  -39
   87
  121
  -56
  121
   26
  -80
   -9
  -96
   51
   66
   -5
   47
   56
  -73
  -92
   -5
  127
   97
 -118
  114
  100
  -73
  123
  -63
   32
    5
   -1
  -65
 -111
  -85
   42
   53
   91
  -59
 -122
   15
  -77
  107
  -57
  -69
    5
  -62
 -123
  122
  102
  117
   88
  -30
 -105
   59
   47
  -17
  -91
  -49
   46
    1
   60
   38
 -110
  126
  -81
  -10
   15
   40
   80
   70
  -52
  -82
   87
   39
   28
   -6
   28
  -31
   93
   -5
  -10
  -51
   14
   19
  -91
   56
  -76
  -56
   51
  -79
  -20
  -75
  -92
   80
  -44
   -5
 -110
 -107
  -47
  -47
  -41
   39
  -20
   85
   95
   13
  -41
   11
  -64
  -34
   89
   93
 -109
  113
 -124
 -107
   65
  -32
  -74
   86
   91
   70
  -39
  119
  -45
   16
  -71
   22
  -47
   52
 -109
 -104
  -80
  -78
  -88
  -58
  -81
 -118
 -109
 -122
   29
  -58
   -8
  -83
   79
 -123
    3
  107
   63
   71
  -34
  118
  -37
   95
   60
  -20
    4
  -42
  -98
   73
   -6
  -91
   -3
  104
  -15
   40
  -10
  -98
  -38
  -52
 -126
  -85
   96
   60
 -110
  -89
  112
   97
  -45
   -9
   56
  -18
    9
  115
    0
   81
   60
  -87
   74
 -124
   57
   -2
  -41
   65
   53
  -15
   82
   81
   81
    0
  -86
   21
  104
  -54
  -37
  -43
   58
   51
  -56
   94
 -106
 -110
  119
   32
   69
  -90
  -47
 -127
   15
  108
  -14
  -38
    3
 -105
   67
  -28
  -90
  -29
  -58
  -51
 -125
  -67
  -10
  -92
  -32
  -12
    7
   13
  -43
  -73
  -89
   15
  -44
   39
   74
   79
   47
  -55
    5
   13
   -5
  -91
  -40
   93
  -65
  -80
    7
  -30
   88
   53
   47
  -48
 -124
  -45
   64
  -71
  116
 -124
   80
  -77
  -63
  -13
   21
   24
  119
   -6
   31
   30
   30
  -32
   50
  -50
  -31
   65
    2
   29
  -25
  -77
    1
   -8
  -92
   -8
   -5
 -117
 -104
  -46
  126
   30
   65
  -57
    9
 -122
   82
  -66
   39
   33
  -87
   66
  -43
  -67
   54
  -44
    4
  -17
   76
   11
  107
  -92
  102
  -57
  113
 -111
   13
 -124
  -92
   91
   35
   84
   51
  -92
   43
   -8
  109
   98
   53
   37
  -62
   52
   60
   67
  -27
 -112
   51
  -27
   86
  -65
  118
  104
  -46
   68
   65
   25
  -91
 -116
   93
   24
 -107
  -64
   88
 -109
   80
   98
  -33
   77
   79
  -82
   50
   41
  125
  -30
   59
 -108
 -108
    9
  -29
  -32
  121
   54
  -39
  -65
   65
   98
  -39
 -109
   13
  -21
  -70
   -6
    0
   26
  -55
   10
    5
   -6
   21
  -28
  107
   45
  -53
  118
 -123
  -71
   84
   71
  -50
   93
  109
   64
  -15
   11
   96
  122
   24
   22
   98
   74
    3
   13
   36
  -43
  -44
  -90
   58
  -33
   27
 -126
  -92
  118
   56
  106
   58
   -1
   35
   -4
  -23
  -58
   98
  103
  -11
  -21
   13
   74
 -113
   -9
   70
   52
   45
   70
  -12
  -70
  111
   31
   59
   86
   24
  -27
   30
   45
 -123
   61
 -114
  -65
   58
  -16
 -127
  -72
  -29
   57
   68
  -66
 -118
  115
    8
  -87
  -35
  -57
   21
   36
  -97
 -120
   -5
  -88
  109
  -22
  -25
  -88
   96
   96
 -104
  -43
   49
  -84
  -39
  -34
  -40
  106
  -84
  -78
  119
  -10
   60
 -105
  -73
   18
  -45
  117
   23
  -97
  -57
  -90
   56
   65
   89
  -86
  -19
   77
  -75
   40
  -54
   47
  -49
  113
  -67
   51
  -92
  -14
   37
 -106
    3
  -64
  -32
   23
  126
 -118
  -60
  -50
  -75
   34
   55
    9
 -108
  -88
   47
  -42
   87
  114
   64
 -121
   62
  -42
   77
  -85
   35
  -91
   82
  -82
  -82
  -89
  -17
   97
    0
   17
 -105
  -14
   52
  123
  -36
  -98
  -61
  126
   86
   64
   67
  121
   98
   36
  103
   79
   27
   91
  -87
  -45
    2
  -27
  -56
   99
  -49
   83
  -81
   90
  -52
 -120
  -33
  -29
   91
  108
  -62
   20
  -44
   -6
   62
   44
 -111
  102
   56
  -14
  -84
  -21
 -127
   12
   16
 -111
  -29
    1
   94
   63
   63
   89
  -67
  -41
  118
  -91
 -101
  104
  -98
   62
   57
  -96
  124
  -74
  -64
   -4
  -53
   55
   19
   54
 -102
  -47
  109
  100
   25
   -1
   83
   81
  -91
   27
   74
   63
 -125
  -78
  -29
  -16
  100
  110
   26
   58
  101
  -35
  -76
    8
  109
  -74
  123
  -21
  -59
   59
    9
  -32
  -30
  -72
   88
 -109
  -35
 -100
  105
 -117
  -69
  -38
  100
   -4
  -74
  -46
  102
 -126
  -83
   68
  -83
    2
  -53
   95
   82
  127
  -32
    2
   63
  -26
  110
  -18
 -117
  -87
  -35
 -112
   88
   99
 -112
  -76
 -105
   19
  -16
 -105
   70
   60
  -90
   30
   76
   82
  -34
   79
 -112
 -104
   78
   12
  101
  -80
   85
 -112
   26
 -112
  -68
  -71
  -61
   25
   50
  108
   40
   34
  -25
  -36
  -12
   86
  -28
   99
   79
   82
   93
  -41
 -111
  -59
 -104
   44
  113
   40
  -21
  -66
  -38
   51
   -3
   82
  -43
 -104
   85
  -19
  -62
   27
   20
  118
 -111
   56
  103
  -78
  101
   82
   42
   40
    9
  -90
   29
  -32
  -16
   25
   96
  -98
  124
   91
  -15
   85
  -53
    3
   64
  -31
  -60
  -61
   21
  -15
  -14
  122
   74
  -74
  114
 -113
 -121
  -74
  -52
  -34
   89
  113
 -111
  -23
  114
  -71
 -115
 -126
  -71
   44
  -94
   52
  -29
  -35
  118
 -105
  -62
  -22
   52
   63
 -118
   72
  -47
  -22
 -105
  -38
  -94
  -50
  114
   69
   82
  -98
  -76
   24
 -125
  -58
   41
  -76
   47
 -100
  -14
  -95
    5
  -62
  -87
  -20
   15
  -51
   60
  -41
 -116
  -23
  -45
  -36
 -114
   63
 -107
  -53
  -21
   51
  -69
   76
   67
  -41
  -69
   53
  -24
  113
   39
 -101
   72
   50
 -100
  -75
  111
  -75
 -117
   11
 -126
   19
  -14
   88
   24
 -114
   48
  -95
  113
 -118
   52
   68
   51
  -27
  100
   -8
   29
  -94
   85
  -14
  108
   69
  -73
  -91
  -99
  -70
  -71
  -71
  -14
  -49
   81
   22
   95
   60
   52
   90
  -93
  -95
  -11
  -54
   44
  -68
  -74
   28
   29
  126
  125
   57
   84
  -34
  -90
   72
   37
  125
   70
  120
  -90
   56
  -54
   26
   -8
   18
  106
  -21
 -105
   68
  -33
   -3
  -53
   29
   89
   35
   -1
  108
  -39
 -122
 -115
   76
  120
   62
  -56
   55
 -102
  106
   73
  -89
  -20
  116
  -79
  -58
 -114
  -90
 -107
   54
 -110
    6
   71
 -109
   41
  -17
  -27
   27
  127
  -95
  -77
   99
 -112
 -106
   22
 -118
 -101
  -26
   10
  -72
  -29
  106
  -35
   11
  -81
  -40
   90
  118
    9
   99
   64
  -92
 -126
   74
    4
  -69
   52
   38
   94
  -39
  -43
  -53
 -124
  -56
   91
  -89
   13
 -112
   88
  118
  -51
  -68
  111
   87
   71
    2
   21
   22
  -20
   85
  -88
 -100
    6
   13
  -86
  -89
 -112
  -17
   -3
 -126
  -61
  -40
 -124
   51
   89
  -20
   79
  125
  -17
  118
  -17
  -75
  -76
   65
  113
   92
  -24
  115
   -8
   53
   -2
  -34
   29
   39
  -73
   15
  116
   98
  120
   34
  -24
  -14
 -126
  -42
   69
   37
  -13
  112
  122
   -2
  -15
   76
  -97
   83
   63
   22
  -50
   22
   19
  -75
 -113
  -69
  125
   78
 -117
   11
  -60
    2
   21
 -116
   96
   -4
  -78
  123
  103
   33
  -33
  109
  102
 -114
 -105
  -67
  -42
   90
 -124
  -62
   56
 -105
   92
  -85
  -12
  -55
   12
  120
  -90
   94
   -3
   23
 -127
   -4
   59
    9
  124
    0
 -115
  -99
   -7
  -85
  -11
   30
  -98
 -106
 -123
 -105
  -22
  -15
   91
  -66
   88
  -32
 -123
   63
  -86
 -122
   22
   76
   46
  -51
    9
  -83
    8
  -73
   47
  -29
  -69
   19
  -94
  -55
 -108
  -28
   94
   28
  -34
   37
   30
  -41
  -85
  113
    3
  116
   -8
  110
   74
   -1
 -124
  -66
  -16
   99
  105
   32
   -8
   83
  -35
   43
  -39
  -96
   -9
 -117
   12
  118
  -80
 -117
  -14
  -27
  120
   43
   59
 -100
   -1
  108
   44
  -20
  -46
  125
   65
  -44
  -31
   17
   59
  -23
   29
  120
   91
  -29
  -58
   85
   -2
   -7
  -90
 -102
  -50
  123
 -108
  -61
  -35
   37
 -103
 -121
  -48
  116
  103
   58
   40
   30
  -73
   53
  -80
  100
 -113
  -45
   90
  -97
   64
   -7
  -50
   26
  -73
   50
  -52
  -79
  -45
  111
   43
   64
  121
  -18
  -50
   90
  -26
   60
   36
   93
  -28
  126
  -47
 -117
  -39
   84
   82
  -44
  106
   33
 -109
   46
  -36
  -88
 -115
   80
   99
 -124
  -64
 -114
  -38
  -32
   51
  -15
   97
  -76
 -100
  -68
   28
   24
    9
   39
   66
  -50
  -52
    5
   56
  105
  -45
  -70
  -98
  -45
 -117
  -43
 -100
   22
   98
  102
    9
   65
  -21
 -121
  -76
  -70
   15
 -108
  -20
   20
   87
   44
   79
 -108
   18
 -100
   55
  -47
   48
   96
 -127
  -18
  -41
   73
   69
   40
  -28
  -67
  -96
  -74
   31
   24
  119
    4
  112
  -69
   15
 -106
   83
  -83
   16
   80
  115
   38
  -77
 -106
  -34
  124
  -56
  -69
  -93
  102
  -18
   16
 -124
   -6
   85
 -113
  -46
  -29
   58
  119
  120
   32
   90
  -54
  -31
  -69
  123
 -126
   49
  -31
   55
  -95
 -108
   17
  101
   28
   78
 -119
   30
  -35
  -92
  -95
 -118
  -25
  121
   99
   25
  -26
 -123
   69
   50
 -117
   60
   79
 -111
   -3
  126
  -28
   51
  -73
    0
 -113
 -118
   -3
  -52
 -111
   51
  -47
   72
  -81
 -121
   70
  -22
   -5
  -65
  -32
   87
   97
  -66
   50
  -59
  -15
 -103
  -51
  118
  -21
  108
   32
   52
   14
  -30
  -12
  104
   46
  -98
  -33
   89
  -57
  -16
  -46
  -95
   36
   50
  110
   71
  -46
   27
  -92
 -126
  -20
  101
  -88
  -48
  118
  119
   90
  100
  -41
   96
  -59
   74
   15
 -112
   28
   66
  117
 -110
  -72
   63
   44
   17
  -90
  120
  126
  -50
 -114
  118
  -18
  -73
  -48
  111
  121
 -105
  119
   29
   77
  112
 -108
  115
  -66
  -72
 -100
   10
  -63
   86
 -102
   75
   16
 -127
    8
  -73
   22
  -10
   48
  -65
  112
   48
  110
  -21
   80
  -15
   67
 -125
  126
 -108
  -84
    4
   71
  -36
  -53
  -89
  103
  -58
  -40
 -115
  -75
    6
  -67
   23
   80
  -29
   72
   55
  127
 -122
   41
    8
  117
   50
   -8
  -52
  -20
  -26
 -101
   -6
   70
   -7
  -46
  -29
   53
  101
   65
  -93
  -98
 -103
  -58
 -115
  -85
  120
  -82
  -10
   57
   -2
   16
   65
  119
  -28
   39
 -114
  100
   99
  125
  -30
  -40
   53
   29
   89
  113
  123
  103
 -119
 -105
  -36
 -100
  -26
   61
   95
  -44
  103
   38
  -21
   84
  125
  -31
   -4
   30
  -23
   32
   27
   78
   23
  -58
   -9
  -17
  -36
  105
  -39
   10
  -75
   -1
  -86
    6
   55
  -52
   24
   88
  102
   71
  -72
   34
   54
 -127
   26
  113
 -105
  -70
  108
  -76
  -50
   46
  -73
  -11
    4
  -19
   -2
  -80
 -101
  112
  -95
  -42
   78
  -92
   11
   94
  113
  -11
  -60
  -81
   50
  -96
  -89
   52
  -25
  -64
  -52
    8
  -86
 -123
 -127
    0
  106
  114
  -40
   11
  -38
    1
 -105
  -57
  -31
   73
  -90
  -27
  109
  -64
   59
  -49
   -7
   40
   47
  -16
 -122
  -23
   87
  106
   20
   87
  -37
   90
  100
   33
  -26
  -63
  127
   35
   65
   97
   -9
  -58
   -7
 -120
  -69
   10
  -26
   65
   85
   15
   17
   25
   17
   -6
  -41
   79
   76
  -56
  -73
  -64
  -73
   14
    7
  -50
   85
 -107
  -25
  102
   96
  -70
  -68
  110
   38
  -56
  -97
   53
   19
  -95
  -85
   57
 -120
  -60
  118
 -121
   75
   72
 -103
   55
 -116
 -112
   74
   70
  124
  114
   59
  117
  -94
   43
  -31
   10
  112
  100
  -70
 -105
  -73
   46
  -17
   -4
   56
  -47
   86
   81
  -50
   80
 -121
   86
   -3
 -101
   20
  -89
  107
   58
  -90
  -75
   -2
  -53
   41
 -102
   69
  -52
  -86
  -62
  120
  -75
  103
  -86
   -7
  112
  -93
   73
   42
   59
  -83
  -34
   53
  -22
  -65
   97
   50
   46
 -120
   37
 -113
   61
  124
   52
   62
   20
  114
 -103
  106
   -3
  -43
   91
 -121
  -73
   -4
  102
   57
   94
  -24
 -103
 -120
    4
    0
   73
   81
   59
   69
  -43
   22
   78
  -86
   24
  114
  -16
  -61
  111
  -82
  126
   57
    8
  -56
  -96
  -94
   63
  -40
  -33
  -23
   85
   30
  -84
 -105
  -65
 -105
  -82
  -81
  -52
   33
   67
    3
   47
  -49
  -53
  -30
  -49
  -22
  -13
  -69
  107
   82
  115
   84
  -67
   26
   10
   71
   96
  -34
   81
   54
   50
  -67
  -93
  -52
  -95
  -29
  118
  -70
  -55
   58
  -90
   88
   68
   79
  102
   98
 -124
   14
   71
 -107
  -66
  -11
   -9
   99
  -59
  -96
  -67
  -62
 -107
   43
    6
   47
   -2
  -55
    6
  108
   65
   -1
  100
  106
  -11
  -44
  -42
  -62
  -68
  -36
  -55
  124
   -2
   49
  -88
  -14
  -87
  -25
   25
   88
  104
  -91
   15
  -28
  -50
   64
  121
  -37
    1
   75
   48
  -61
   32
  -55
  -94
   66
   36
    4
   50
  -15
  -83
  116
 -122
   19
  126
  -85
    1
  -23
  112
   -2
   52
  -35
  -38
  111
   57
   84
   -3
   17
   58
   43
  -64
  -51
   -5
  117
   37
   46
  113
  127
  -21
   68
  -13
   44
 -103
   47
  -55
  -68
  -61
  120
   73
   53
  123
   49
  -75
    4
   -7
   -8
  114
   24
  -87
  119
   27
   70
   22
   49
   84
  -72
  -64
   24
  -85
   41
   59
  -91
  -20
  -73
  -56
   47
   67
  -37
   25
  -84
  -64
 -114
  -85
   75
 -112
 -103
  -17
 -124
  -84
  123
   11
  106
  121
  -96
 -126
 -124
  121
  -36
  -14
  -17
  -75
   -8
   49
  -14
  -21
  -69
   92
  112
  -47
  120
   99
   82
   37
   85
 -115
   23
  126
  -62
 -100
  -66
  -45
   15
  -52
   53
  -16
   88
  -64
   82
   83
  -62
   60
   42
   73
   65
  127
   69
   97
  -38
   79
  120
  -67
  -20
  127
   29
 -123
  117
 -114
  119
  -21
   90
   99
   -5
 -104
   -2
   32
   27
   20
   44
  -28
 -117
 -105
  125
  -60
 -116
   61
  -37
   67
   72
 -120
   77
  105
  116
  111
   98
   86
  105
   17
   97
  -74
   73
  -21
   33
  126
  -91
  -33
 -123
    4
   30
  -90
 -100
  117
  102
   77
 -105
 -121
   85
  -90
  108
  111
 -100
   96
  -24
  -92
   76
  -94
   -3
   66
  116
  113
  -45
  108
   32
   37
   28
 -115
   45
  119
  108
  -21
  -45
  -96
   63
  -46
 -120
   59
   47
    4
   79
  101
  126
  -24
  -67
  -93
  -17
   87
   47
  -50
  -33
  -82
  -36
  -62
  -30
  -77
  -13
 -106
  -61
   -7
  -17
 -122
  -87
   41
   22
  -81
  -38
   32
    3
   87
 -101
  118
  -88
   60
  126
   -8
   -9
   28
  117
  -56
  110
  -62
   72
  -49
  -58
  -90
  123
 -111
   63
  -50
   48
   37
  -97
  -16
  -56
  -94
   11
  -43
 -111
 -105
  -23
   59
   88
  -23
   51
  -17
  -72
   56
  -23
  107
   37
  -30
  -37
  -85
   20
   49
   27
  114
   66
  -74
   29
   52
   90
   -2
   92
   47
  -96
  112
 -126
  -86
   34
  -75
   46
   13
   72
  -58
  -64
  111
  -89
  -71
   18
   43
  -55
    6
  -71
   17
  -34
   -3
  -15
  111
  113
   89
 -102
   83
  -54
    7
 -101
  -12
  -51
   30
  -36
   28
   90
   90
   12
   35
  -47
 -108
 -125
   35
   -5
 -116
   13
  -40
 -122
   37
   13
  -22
   78
  -87
   64
   -3
  -20
   46
  126
  123
  127
    5
   42
   79
  -70
   44
    5
  -66
  -16
   31
   42
   39
  107
   27
 -113
  -22
   -7
  -55
  -58
   21
    9
  -36
   12
 -104
  -54
   -2
   15
  -20
    3
  -27
  -90
   98
  -37
   21
   23
   33
   27
   53
   56
  -22
  -80
 -121
  -24
   93
   96
   78
   12
   48
   46
   80
  -94
  -84
   51
  -38
   33
   84
  -62
   94
  115
  -11
  -44
  -87
   79
   78
   48
  -70
  -42
 -115
  -85
  -27
  100
   42
  -44
   83
  -66
  104
  -53
   31
   78
 -119
   97
  125
   38
  -31
   59
  107
   -1
  -81
   -7
 -109
  106
    3
  -63
  -24
  117
   40
   69
  -98
  -60
   79
   66
  -20
   48
   48
  -81
 -124
 -120
 -102
   87
 -101
  -46
   59
  -34
    3
  -61
   20
   -8
   59
 -101
  122
  -22
   75
  -18
   79
   -4
   10
 -125
   27
  -69
   48
    4
  -77
   86
 -103
  -58
  -14
   19
 -100
  -99
 -123
  -19
  -51
  -58
   40
   68
  105
   -5
   95
 -106
   44
   61
  -29
   41
 -123
   25
  -42
  -98
   43
   11
  -82
  -27
   -2
  -16
   35
  -89
  109
   94
  -60
    2
   -2
 -117
  -24
  -31
  -85
   89
   39
    5
   56
 -107
  109
 -119
  -70
    0
  -91
  -63
  104
   10
   91
    6
   89
  -67
  -98
   38
 -100
  -55
 -102
  -54
  105
    4
  -60
  -40
   -2
   74
  -62
   30
  126
 -124
  -11
    5
   96
  -89
  -80
  110
   72
  -87
  111
 -111
  -30
   49
 -120
   99
  106
  -16
  -69
   28
  108
   35
 -114
  126
  -52
  -66
  -29
  -61
  -70
  -34
  -83
   68
   21
  -47
  103
  102
  -17
 -109
   37
   86
  103
   31
  -19
 -126
  120
    8
  -41
   23
  100
  -12
   50
  106
  -99
  -71
   -3
   76
  -15
  -84
   98
 -120
  -36
   93
   60
   40
   -1
 -102
  -60
   -9
    3
   25
   -7
  -22
    3
  -88
  -66
  -78
   51
   12
 -102
  -39
   98
  -98
   94
   55
  -85
   98
 -108
   52
   43
   48
  125
 -112
   31
   -3
  -50
  -90
  116
  117
   95
   64
  -31
   30
   54
 -113
   17
   11
  121
  -97
   34
  -90
  -73
 -119
   70
  -62
   73
   28
 -120
  104
  -32
  -22
  108
  -11
  119
  -77
   73
   86
   69
  -29
  114
   10
   12
  -52
   64
  -97
  -85
  125
 -110
   66
  -17
  -91
 -115
  119
  -69
  -29
  -90
   21
  -17
 -101
 -126
  -27
   97
  -53
   48
   61
  103
   56
   37
   45
   59
  102
  111
  -15
  -38
  110
  116
 -110
  -40
 -124
  -26
   27
  -90
  -24
 -108
   30
  -43
 -106
   64
   63
  -68
  -47
  -86
 -117
   14
   44
  124
  102
  -90
 -105
  -38
   89
   52
  -86
  -77
  112
  -61
 -117
   38
  -29
   52
 -110
  110
  -62
   44
  -63
  113
  -44
  111
  -61
   87
   38
   34
  -51
   39
  122
   51
  -37
   61
  -52
   -8
   66
   10
   79
  -89
  -76
   67
  -52
   -1
   33
  -19
  -78
 -110
 -100
  -16
  -28
  -63
   36
   38
   31
 -120
  -64
   54
   60
   99
   10
  -79
   69
   30
  112
   -2
  -37
   80
  -46
  121
  -31
 -104
 -122
    7
 -103
  106
   57
  -11
  -58
   84
 -113
   14
   24
  -49
  -34
  126
   30
   81
   26
 -114
 -112
  -17
   48
   44
  -36
   -2
  -83
  -99
   19
  -33
  -36
 -103
  124
  -20
   68
   63
   93
   79
    6
  -62
   98
   89
 -122
 -112
   48
  -61
 -122
   23
 -117
 -101
  -35
 -125
   -9
  -98
   56
   43
   15
   17
   -9
  -33
 -119
   93
  117
  105
   65
  -55
  -43
   -7
   18
   26
  -67
   19
  -34
  -58
  124
   38
  -28
  -98
  -49
 -117
  -31
   57
   71
 -102
  107
   48
  -98
   66
   63
   81
   25
   17
   83
  119
 -115
  -86
   84
 -125
   40
   90
  -33
   57
  -29
  110
   -7
    6
 -118
  -71
   79
  -99
  -15
   45
  -10
 -122
   49
  -70
  -72
 -107
   10
   24
 -109
  -81
  -22
  -85
   98
  105
  -18
  -94
    2
   75
   25
   46
   -8
   54
  -54
 -120
    0
  -78
  118
   67
   29
  -29
  105
    9
   64
  -23
  -41
   63
   78
  -27
   70
    2
  -27
  -30
   98
   59
   68
   -3
  -24
   95
  -64
 -123
 -103
   79
  123
   -1
  -18
   50
  -72
 -108
  -10
  -30
  -66
   66
  119
 -103
   71
  -79
 -125
  -23
  -91
    8
   15
   49
   96
 -122
   48
  124
  124
  -11
  -39
  123
   -4
  -47
  -30
 -123
    1
  -95
  -50
  -62
 -127
   70
   41
  -26
    0
   29
  -94
  -55
   86
   93
 -114
   -2
   84
  107
   77
  122
   18
 -111
 -105
  122
  -13
  101
  105
  118
   71
  114
   46
   55
  -92
 -106
  -99
  -33
  119
  -35
  110
 -103
  -96
   -3
  108
  -93
  -91
  -43
  -11
 -125
  -23
  -81
   95
   12
   92
 -114
    3
  -90
  -16
  -11
  -46
  109
   56
   35
  114
   59
    6
   38
   60
   95
   94
  -69
  -51
  -23
  -78
  -78
  -89
   91
  110
   71
  -87
   58
  -78
  -11
   91
  -94
   29
   35
   64
  -62
   12
  112
  115
   27
   79
  -47
  -58
  -18
   63
   -9
  123
   89
  -45
  -82
   91
   92
 -101
   66
  -92
   27
   75
  -73
 -119
   77
 -117
   61
  -41
  -21
  -78
  114
  -93
   -8
   90
  -65
  -17
  126
  109
 -117
   12
 -127
   57
   30
  -33
  -52
 -113
   51
  100
   58
   22
  115
  -36
 -104
   -3
  -85
  -62
 -127
   67
   67
 -124
  -96
 -107
 -108
   23
   -1
   -2
   38
   87
 -123
   88
   69
  -54
   51
  105
  113
  -59
  -88
  -33
  -71
 -121
  -81
  -65
  127
   40
  -97
   83
   59
   55
   15
  -30
  -39
 -106
  -73
 -105
   66
 -110
   22
  -55
    6
  121
   47
  -25
 -101
  -22
   12
  -69
 -126
   10
   97
  -31
   83
  -89
   26
   86
  -45
  -24
  -22
   20
  -95
 -101
  -91
  -15
   -7
   48
  -36
  -49
 -117
  114
 -108
  115
  -68
 -106
   58
   65
  101
   26
   -5
  -46
   -9
  -11
   23
   60
  127
   84
  -56
   85
    7
 -126
   66
   89
  -70
  -13
   99
 -104
   -1
  -69
  -99
  -13
 -119
  -68
   -2
  -40
   23
  -68
   99
   17
   84
  -85
  -47
   20
  -96
   43
  -81
  -82
   79
 -113
   21
   52
  103
  -54
   92
  -23
  127
   30
  117
 -118
  -82
  -99
  -80
   96
   29
   66
   11
  -77
   66
  -84
   92
   85
   64
   56
    6
  105
  -56
  -99
  -37
  -97
   27
  -36
   19
   30
   56
   15
  -13
  -39
 -112
  -14
  -71
   57
   62
  -61
 -126
   73
  124
   28
  -36
  118
   95
  -17
  -88
   39
  -87
  -46
  -90
  -86
  -63
   -4
  -18
  101
  -54
  -51
   17
   68
  104
  -34
  -49
   26
   -3
  -65
   95
    8
   59
  -24
   57
   52
  -52
 -107
   30
   -8
  115
  -42
   49
   -9
  -63
   -6
   29
  -13
 -106
  121
  -77
 -105
   11
  -86
 -126
   12
   33
  -27
   17
 -106
    0
 -106
  -63
  -83
 -119
   96
 -113
   -8
   27
  -36
  -14
   76
   80
  -50
  -65
  -28
  -86
   64
 -112
 -104
  112
   21
   91
  -31
  -36
  -53
 -106
   37
  110
   11
   43
  108
   19
  105
  109
  -54
  112
   80
    6
   81
   50
   95
   17
   45
 -120
   66
  -83
   15
    8
  -50
   51
  115
   11
  -61
 -122
   66
 -125
  -60
   13
  -92
  -14
  -91
   96
   13
   22
    8
   92
    2
   60
   91
  -98
  -17
  -55
   94
 -110
   28
  -40
  -59
   18
  -94
  -93
  111
  -42
  -77
 -109
  105
  117
  -36
 -103
  100
  -30
  -87
   36
 -118
 -110
   10
  107
  -85
  -96
 -124
   67
   57
   90
  -64
   29
 -115
  -99
  -39
   -7
 -107
   46
    6
    4
  112
  -94
   38
   89
  -39
 -110
 -125
 -126
  -53
  -72
  -51
   24
   16
  -72
  -28
  -41
   63
  -33
  -20
   18
   22
 -120
 -104
    0
  107
  -64
   39
 -111
 -123
    5
   39
  -27
  -30
  -33
   65
   29
  -67
  108
  -30
  -32
  -43
  103
   -9
    2
   75
  -93
  -75
  -79
 -127
   91
 -125
 -125
   87
   69
   91
  111
 -124
  -79
   49
  122
   19
   16
  113
   48
  -43
  -41
  111
  -49
 -118
   17
   38
   61
  116
  -49
   66
  -56
  102
   43
  -53
  -45
   55
  -81
  -15
  -35
  -73
    9
   85
   -7
   34
  -77
  127
 -127
   29
   83
  -22
  101
    3
  118
   28
   42
  107
  -13
   34
  -74
   15
 -101
  -53
   11
  -81
  -57
  -68
   12
   15
   31
 -127
  -80
   -6
 -123
   -6
 -108
  -64
   21
  -89
  -23
  100
   90
   11
  -10
  -89
   -3
   18
  -40
  -21
  -82
   85
   45
  -80
   28
   52
 -120
    5
  -61
    2
  121
   81
   91
  101
  -51
   97
  -62
  -79
  -80
   92
  -14
  -29
   85
  -75
  101
  -10
  -86
  -59
    5
   69
  -29
 -116
  124
    6
   88
  100
   47
    5
  -15
  -31
 -119
  -72
 -106
   76
  -25
 -115
  -47
   95
  110
  -19
   93
   -5
  104
  -64
    7
  -65
   86
    7
  -38
  -62
  -84
   25
   79
   89
   88
  -68
    2
   43
 -104
   11
  -52
  -30
    9
  -19
  -68
 -120
 -121
  -58
   50
  -43
   64
   75
 -114
 -125
   58
   42
   22
  107
  -85
  120
  -72
 -118
  -69
   53
  -38
   53
   23
 -100
   37
   59
   93
 -122
  -89
    6
  -70
   87
  -18
  -51
   20
  -40
   91
  -54
  -15
   68
  -30
  -67
  -27
  -78
  -15
   30
  -68
   95
   59
  -46
   80
  -10
   45
  -54
   59
   60
   53
  -74
  -84
    9
   53
 -127
  -79
   60
  126
  -77
  -68
  -42
  -92
  -42
   17
  -10
  100
  -98
 -100
  -28
   50
   99
 -116
  -53
  116
   67
 -113
 -120
  109
  -33
 -123
    1
  115
  110
 -114
  106
    1
  -79
   30
   96
  -20
  110
    8
   88
   66
   38
  109
   51
  -69
   52
  -67
   10
  -31
   34
  124
   71
   55
   87
  -61
  -10
  -35
   30
  -49
   34
   71
   99
   46
  -73
  -77
  -23
   68
   73
   25
  -87
  -80
   92
    4
   -8
 -126
   66
    3
  -15
  121
  -38
  -77
   -5
   99
   15
  -64
  -60
   16
   75
 -122
   60
  -25
   54
   36
   38
  117
    4
 -124
   84
   32
   28
   53
    9
 -112
   14
 -110
   64
 -118
  117
  -32
  127
   66
 -106
    3
   94
   41
 -110
  108
 -117
  125
   51
   92
  -85
   49
   89
  -69
  -96
 -114
   36
 -108
   69
   15
 -104
   58
  -20
   44
   78
   99
   43
   84
  119
   64
   21
  115
  -73
  -75
  124
    4
  -67
  -29
  -73
  -51
   48
   31
 -101
  -55
   26
   94
   80
  -32
   -4
   71
  -72
  -88
  -65
  122
   10
   42
   44
   29
 -111
  -10
  -38
   27
   29
  -50
   86
  -83
 -126
  -72
    9
  -40
  -85
   29
  -55
  -50
    0
    7
 -124
  -97
  -92
   67
  -75
    1
  -68
   41
   36
   89
   95
  114
   79
 -108
  -51
 -101
   52
  -12
  -38
   78
 -113
  -79
  -56
   65
  -24
  -46
  -16
  -38
  -10
  -22
  114
  114
  -10
  -33
  -42
   -3
   90
 -110
    7
  -44
  -40
   59
   85
   53
  -87
  122
   15
   -7
  -27
 -106
  -57
  -34
   76
 -124
  -69
   48
 -118
   73
   41
   65
    5
  125
  -82
  -16
   33
   44
  106
  104
 -111
   35
   -5
  -54
   56
    1
   45
   77
   47
  -98
  117
  -42
  -46
   43
  -90
  -57
   41
   11
  -55
  121
   19
   58
   97
   41
    6
  -63
   44
   92
   -7
  105
 -112
   -3
  106
   -3
   -4
  -58
 -104
   42
  -95
 -100
  -15
   14
  118
   18
 -108
  -35
 -123
   -9
  116
  122
  -91
  -58
  120
   69
   27
   87
   46
  108
  121
 -113
 -121
   53
   36
   -8
   15
 -103
   82
  -32
  105
   87
   24
 -103
  -67
 -122
  -88
   97
  -97
   92
   93
  101
 -125
   76
  -81
 -119
  -86
   12
   68
   71
  -38
   53
  -43
   30
  -10
  -72
  -17
   36
   84
   53
  -82
   20
   71
   66
  -64
  -40
   59
  -54
  -14
   87
  123
   29
  -82
 -111
   47
  -69
   42
   88
   60
  102
  -65
   98
 -116
   -2
   21
  114
   34
   -7
  -96
  -56
   69
   64
 -123
   89
  103
   45
 -117
   -1
   48
 -118
  -64
  -47
  -85
  -10
  107
 -115
  -56
   80
  100
   74
 -122
 -107
  107
    4
 -117
   74
   58
 -103
   74
   53
  -28
  104
  -95
  -10
    7
   29
 -114
 -122
  -99
   14
   27
   72
  116
  -78
   -8
  105
  -21
  -52
  -62
   85
   50
 -126
   35
   80
   41
  -42
  117
    9
   17
  -98
    2
   80
   34
  -94
    8
  115
 -108
  -16
   72
  -86
   49
  -17
   82
   14
   73
  -59
    7
   38
  -81
  -77
  -88
  124
  -64
  -32
   -5
  -50
   54
   -7
   32
  -74
  -28
  -84
   21
  -57
 -104
  -61
   86
   65
  -35
   25
  -40
  -16
  -62
  -17
 -118
 -107
  -41
  -74
   62
    0
 -110
  -28
  -61
   65
   97
   94
  -73
  -14
 -122
   71
  -25
   31
  121
  -31
   50
  -12
  -14
  -65
  -85
   37
 -124
 -125
  -22
  -45
  -40
  -65
  -23
 -115
  114
 -118
    9
    6
 -105
  -68
  -30
  -19
   70
   90
  114
  -97
  -80
 -100
  -12
  -76
  -55
  -41
   28
   40
  122
  -19
   86
  -79
  -28
   16
  116
 -116
 -111
  104
   49
   90
   69
  117
  -30
  -20
  -61
   -1
 -125
   97
  -43
  -78
  -56
  115
   36
  -56
  -49
  -15
  100
  -45
  -32
   70
   40
 -126
 -105
  -64
  -61
  -99
   -1
   -7
    9
  111
 -112
 -106
   77
    2
  -28
  -97
   40
  -61
    5
 -119
  118
  110
    6
   32
   88
   96
 -114
 -109
  -78
   11
   12
  -61
  -74
   60
  -24
    4
   54
  125
  -88
   -7
   -5
  -19
   -3
  126
 -107
 -124
  124
  115
   72
 -109
  -21
  -36
  124
  112
 -124
   -7
  102
  -91
  -65
  -94
   52
  -43
 -101
  -71
   89
   73
  -80
  -27
  -61
   25
   43
 -108
  -27
  -68
  114
  -36
  -53
 -103
   37
   -1
  -60
   59
  115
  119
   84
  -79
   73
  -10
  -96
  -30
 -110
  105
  121
   51
  -65
   45
 -105
  119
   42
  -99
 -106
 -118
   18
   87
   68
  127
   27
  -34
 -123
  -67
   46
  -18
  -85
   11
   23
   79
   -7
  107
   93
    6
    7
   46
   46
  -79
   -7
   30
  109
  -85
   93
  -58
   19
  -96
    4
 -107
  -33
   44
 -121
   39
  100
  -13
   94
   64
  -13
   27
   51
  -68
  -12
 -115
   28
 -123
   32
  -78
    1
   -5
   54
   49
   58
  -15
  -44
   12
   91
  106
   32
    4
   10
  -86
  -92
   24
   27
   37
 -111
 -111
   26
  -23
  -16
 -107
  -24
  -99
  127
   53
   -9
  -97
   64
  119
   94
   97
  -83
  -54
   90
  -10
  127
  -56
  -36
   61
   12
   18
 -109
 -106
  -77
  101
   44
   27
 -114
    2
  -51
  -66
   70
  100
 -114
   14
  -89
  125
    7
    9
   54
   81
   95
   31
 -125
  -71
 -114
    4
  100
   20
   33
  -91
   63
  -56
   94
   77
   -3
  121
    7
  -72
  -77
 -123
  -40
   86
  -57
   40
  -84
  -52
  -33
   38
   17
    3
 -112
   71
 -120
   46
  100
  -33
   32
   49
   73
   34
   49
   77
  -32
 -115
 -101
   10
   89
    8
  104
 -105
   93
   91
   98
 -109
  -40
  -69
   88
  -93
   97
  -78
   88
  -74
   43
  -72
 -111
  -18
  -50
   22
  -65
   61
  -71
 -127
 -127
  109
 -117
    9
  -79
  -86
   50
   43
   73
    6
   75
   20
    4
  -28
   20
   -2
   15
   90
   49
 -116
  102
  -63
   14
   29
   82
   12
 -121
   86
  117
   84
  -25
    1
   39
   50
   71
   97
  -69
   77
   65
  123
  -99
   55
   43
  -82
  -37
  -28
   22
  -78
  -83
  107
  -37
 -110
  -77
    1
  -27
  103
  -65
  -68
 -123
  -13
   50
   53
  -10
 -103
   38
   32
  -90
  -76
   41
  -43
  -56
  -23
   90
  -50
   66
   12
   71
   73
  113
  -99
   93
   89
  -52
  -68
   -6
  -79
  106
  -47
 -100
  -15
   10
 -115
   13
   23
  -57
  -21
    0
   29
   86
  101
   -3
  -64
  -89
   31
   91
  100
  -87
   25
   85
   79
   76
   96
  -25
   86
   32
  -75
  -32
   53
 -120
  -55
   31
 -101
  -33
    0
  -45
  101
   52
  -97
  126
  113
   73
   31
  115
  -99
   96
   68
   47
   56
   27
  -93
   17
  -39
   45
  -41
  -44
  -73
  -33
  -15
   -8
  -60
   99
 -115
  -13
  101
  105
  -87
   22
  -14
  121
   71
  116
  -67
 -111
  -69
   72
  119
  -70
   98
  114
  -80
   31
   92
  -49
  -84
   57
   22
  -11
  -12
  -97
 -127
  103
  -87
   88
   -6
  -47
  -95
   44
  106
  -40
  -75
   19
   11
  -31
 -106
  -21
   36
  -95
   47
   85
   91
   26
   77
   57
   51
  112
  -79
  103
  108
   57
  -32
   52
  -81
  112
  -69
   26
 -121
   72
  -51
  -37
  -89
  -14
   89
  103
  -19
  -58
   52
   46
   71
  -27
 -121
  117
   -7
   98
   94
   92
  -31
  -32
   29
   42
  -52
 -101
 -122
  -90
  -43
 -119
   59
  -14
  -24
 -104
   84
  109
   82
  -98
  -84
   75
  -31
  100
   33
  -64
   81
   12
  -76
   93
  -71
   26
  -65
  103
   35
  -91
  -68
   73
   95
   14
  101
  114
  -51
    0
  -27
  115
  112
   60
  -38
  -41
   74
   75
  -38
  -42
  -24
   15
   51
   83
   -8
  -81
  121
  -63
   -9
 -118
  -93
 -107
   73
  -82
  -44
  -52
 -101
  113
  -75
  -18
 -115
   45
  -99
  -17
   85
 -103
   73
  -25
   37
   28
 -124
   22
  -20
 -118
   41
   71
  -82
  107
  -44
  -56
   52
  112
   84
  -11
  -24
  125
  -56
  -51
  -17
  -15
   -5
  -79
   -1
   96
  -79
 -126
  -72
   11
    7
   65
   37
   47
   54
   -5
  -55
  -97
    9
   12
   82
   49
   53
  -81
  -46
  -86
   62
   17
   62
  -54
 -104
   21
 -106
   70
   54
 -122
  -74
   45
  -12
   -2
  -38
   29
  -11
  -52
   86
  -39
  120
  -25
    6
    3
   19
  100
  -32
  119
  -37
  -81
   17
   49
    5
   53
  103
   96
  -59
  107
  -79
  -67
   10
  -93
  -70
  -62
  -47
  -94
  -86
  -58
  -39
  -76
 -109
   95
  -89
   75
  114
  -38
 -112
  107
   71
  -64
    8
 -109
   90
   64
  -83
   83
 -119
 -123
   55
  108
   14
   84
  -37
  -49
   44
 -113
  -44
   98
  -23
    1
  -36
  125
   -9
  114
 -102
  -46
  -27
   86
  -87
  -68
  -86
   17
  -89
   44
  101
   45
   40
  -22
   40
  -26
   22
   79
   46
  119
  -54
 -123
  -23
   91
  123
   81
  -79
 -117
   27
   59
 -115
   75
  -27
 -112
   31
  -85
  -44
  -59
   10
   90
  -17
   20
  -93
   21
   44
   86
   34
  -73
  104
  -24
   99
   19
 -123
   10
   90
  -71
   35
   54
  -42
 -115
  -10
   93
   70
  -40
   63
   32
   58
   43
   -4
   19
   77
  -13
  -57
   58
  -26
  -28
   27
 -123
   49
   -9
   69
  -42
  -86
   22
  -65
 -102
  -23
   82
  -86
  -75
 -103
   69
  124
  -15
  -94
  -65
   93
 -111
 -112
  -61
  -14
   45
  -61
   50
   14
 -117
  -85
   22
    2
  127
  122
   68
  -68
   60
   43
   31
   91
   12
  103
 -123
   22
  -56
   62
  -72
 -115
  -56
  -93
  -11
  -71
   14
 -109
 -103
  -45
   33
   64
  -14
  -68
   17
  -73
  -58
  -83
   70
 -107
   12
   59
   39
   39
   48
  -99
  -36
   26
  -39
   80
  -98
  -21
   75
   96
  -37
   80
  -96
  -39
  -10
  -11
  -29
 -112
  -20
  125
   79
   13
   78
  -11
   22
  127
   60
   -8
   30
  -95
  101
  -85
  -71
   33
   -1
  -10
 -101
 -105
  104
  -26
 -121
   -8
   91
   93
    1
   -3
  -67
  120
  -90
  -96
  -49
   97
  -56
   26
  -59
  105
   27
  -86
  107
 -100
  -91
   36
  -60
 -125
   90
  -49
  104
  -11
  -44
  125
   80
  -52
   96
  -47
  117
  109
   -1
   -2
  126
  -27
  114
 -104
  -30
   59
   63
  -83
  -35
   41
   33
   57
   44
 -117
  -51
   -3
  -40
 -108
  -42
  -96
  -91
  -32
   66
   93
   91
  -94
   93
   24
   23
  107
 -113
   52
   -1
  -34
  127
  116
    3
   43
 -127
   -2
    8
  -50
   92
 -111
    9
 -126
   41
   10
  -14
   72
  -87
  -88
   80
  122
  -55
   40
   78
   82
  -50
 -109
   30
  -93
   79
  122
  102
  -81
  108
  -93
 -116
   44
  -95
  -72
   41
  -45
    1
    9
  -10
    5
   18
  -30
   91
  -37
   91
  -20
  -69
   57
 -104
  -88
  103
   19
   47
 -108
  -38
  -37
  -98
   -2
  -17
  -68
  -77
  -62
 -104
  -59
  -77
  -21
 -123
  -79
  -60
   25
  -98
  -88
  -20
 -116
   -6
  115
  100
  105
  -73
   32
 -124
   72
 -125
   67
  -43
 -101
  104
   69
  -96
  117
  -41
   28
   19
  124
  124
  -10
  -32
 -119
   56
  -63
  -24
   83
   17
   19
  -50
  -54
  -58
   53
  -66
   15
  -44
  -57
  -60
    1
   17
  -95
 -115
   80
  -76
   56
   47
  -86
   88
   -6
   53
  -52
  -70
  103
   31
  -68
   25
  -93
 -114
  -75
  -69
   36
  -71
   43
   41
  -50
   17
   39
   42
    1
 -119
   67
   73
   83
  -30
  -37
  -43
   52
  -30
 -120
  -11
  -56
  -42
 -114
   10
  -30
  127
    8
   99
   80
  -45
  -60
  -57
   65
  122
   36
   90
   91
   15
  -63
  -31
   11
 -116
  -42
   77
   -2
  -62
  -55
   81
   23
  -27
  -99
  127
 -126
  -63
   43
   31
  -20
   33
 -117
  -14
  -44
   76
   91
  108
  -52
  103
 -103
  -27
   45
  -88
 -111
 -100
 -103
  -27
  124
   18
  -56
   43
   30
  106
  -75
 -114
   52
  -87
   44
 -110
 -120
   87
   65
 -103
  -74
 -105
   93
 -121
  -63
   29
   -8
   61
  -78
   12
  -10
  120
  -45
  -76
   17
   -4
  -53
  -24
    1
   74
 -104
  -76
 -121
   46
   60
  -89
  -48
  -43
  -80
   48
   16
   11
  111
 -119
   41
   70
   38
  124
  116
   64
 -103
   -8
 -101
  -33
 -110
  105
   25
  123
  105
    0
 -115
   49
 -109
    8
   33
   88
   32
 -108
  -51
   98
   60
   23
   33
   66
  -64
  -71
  -56
   71
  -21
 -100
  -22
  105
   16
   75
  -49
 -103
 -107
   15
  -36
   78
 -116
   33
  -41
 -126
  107
  -79
   24
   77
  -70
   92
  101
  -61
   77
  -40
  -91
   72
   97
   84
  -30
  -77
    3
  -57
 -101
  -79
  -94
  -66
   16
   58
   65
  -90
  -97
  -85
  -16
  -52
   11
  108
  -63
   25
  -66
  -41
   42
 -113
  125
  103
   75
 -106
  109
   14
  -53
 -124
  -21
  127
   44
   13
   69
  -46
   48
  -34
 -109
  107
 -101
   63
   72
  -37
 -122
 -123
  -41
   56
  102
   -7
 -113
  -24
  -42
  -50
  -52
  120
   19
  -67
  105
 -118
   15
   44
  110
  125
  -84
 -127
  -96
  -86
   18
   17
   66
  -99
   60
    8
   -9
   24
  123
  -34
  -57
  -44
   99
   70
  -68
   38
 -119
  121
  -98
  -91
   56
  -44
   45
 -102
   15
  -96
  -64
   18
 -125
   -8
  -53
  -61
    5
    0
 -111
   -4
   81
   41
  -78
  117
  116
  104
  -30
   36
   82
  -21
   56
   85
   43
   15
  117
  101
  -95
  -12
  -50
  -95
  -46
  -33
   91
  -81
 -102
 -123
   76
  -62
  -36
   79
   17
   72
   -3
  -15
  -41
 -114
   49
 -123
  -20
   97
 -127
    0
   65
   45
  -81
  126
  100
   50
 -101
   95
  104
  104
   17
  -23
 -102
   11
  -15
   33
  -73
   36
  119
   50
   98
  109
  114
    5
  -82
   82
 -115
  -95
  110
  -56
  113
   47
   44
  -31
   94
   15
  -50
   89
   73
  120
  122
   26
 -124
  -62
  -48
  -70
   57
   38
  110
   11
  -15
   36
  -71
 -115
  -74
   93
  -99
  119
  -25
  -81
   16
  -22
   74
 -108
 -121
   87
  -97
  115
   29
  -60
   50
    7
   33
   31
   56
 -116
   78
  -27
  -85
  101
  100
   88
   25
  -21
   15
   11
   56
  -32
  -66
   43
 -118
  -29
   72
  -40
   17
  -46
  126
 -121
  -58
    1
  -33
  -71
  -29
   78
   73
   40
  -36
  -41
 -114
   93
 -109
   47
   19
  -18
   -4
   46
  -76
  -34
   66
 -101
   35
   65
   37
   43
   24
   61
   -9
  -91
  -46
   89
   40
  -28
  106
    7
  -87
   49
   72
   88
  -11
 -105
  -93
   18
   32
   50
  -21
  -92
  -48
   54
  -73
   60
  -28
 -122
   38
   34
   56
   77
   46
  -57
   39
   68
  -53
   81
 -108
  104
  127
  -21
  -60
  -61
  -41
   74
   35
   63
  103
  127
  122
   -6
   -6
 -110
  -50
  108
   47
  -54
  -17
  -34
    0
  -87
  -13
  106
 -105
  -33
 -114
   82
   78
   87
   41
  118
   25
   96
 -114
 -122
  -75
   20
   69
   95
 -107
   89
  110
   10
 -114
   99
  -87
   75
  -49
   39
   95
  -90
   94
   92
   63
   43
  110
  -27
  -14
  -72
   76
   94
   58
  -95
 -103
 -104
  -78
  -15
  -46
   37
   62
  -43
   81
  -63
   29
   91
  -82
    1
   54
  -69
   79
   20
  122
   99
   67
   98
  -44
   57
   -9
   61
   16
  -23
 -112
    0
    4
    4
    2
  -20
   40
   56
   42
   -2
 -103
   79
  -27
  -33
  -47
  -23
    4
  -55
   -6
 -120
  -92
  -97
    3
  112
  -37
  113
  -50
  -70
 -100
   27
   14
   27
   75
 -122
  125
 -105
  102
  -67
   79
   29
  -56
   38
   99
  -30
   94
  105
  105
   97
  -72
 -124
 -104
   56
  -49
  -73
  -98
  -35
  -43
   28
 -125
 -105
   14
  119
   67
  -39
  107
  114
  -43
  -63
  -13
   61
 -103
   72
  -58
  -95
  115
   81
  -95
   59
  -67
  -99
  -69
   81
  -77
   96
   66
   96
 -121
  -67
  -23
  -23
  -67
   96
 -105
   42
  -64
  -99
   26
  120
   63
  -99
  -83
  -45
 -105
   68
    4
  -85
   21
  -73
  -88
   25
  -53
   -4
  -76
 -102
  -49
  -76
   88
   51
  -39
   41
  -29
   11
  -92
   42
   -8
  -16
   71
 -100
   50
 -112
   21
  -32
  -36
   55
   50
   75
   22
  -11
  -79
  -85
   96
  -18
  -22
    0
   14
  -19
   75
  -21
  -72
   39
  110
  -76
   75
  -28
    0
  105
  -24
   36
  -25
  -82
   93
   99
    2
  -69
  109
  -76
   44
   -8
   87
 -121
  -12
  -21
 -116
  109
  118
  -67
  -33
   41
  -50
  110
  -80
   54
 -101
  -48
   74
  -91
  -47
   68
  -51
   35
   58
   54
   42
  -40
   63
   71
   45
  -80
  -50
  -47
  127
   73
   51
   85
  -34
   84
   68
   38
 -120
  127
   71
  -44
 -117
  -10
   19
    7
  -62
   79
   65
   53
   82
  -43
   -3
  123
  113
  -89
  126
   32
 -107
  -14
  -49
  -13
  -58
  -67
  116
   87
   97
  109
  116
 -112
  104
   94
 -125
  -66
  110
  -10
  -13
 -109
    1
  -30
  -38
 -126
   69
  120
  -34
  -17
   95
 -104
  117
    6
  -44
   -2
   53
  -79
   16
   30
  -89
  115
  -74
   96
  -68
  -11
  103
   22
 -117
  -57
  -63
  -73
   45
   14
  -76
  124
 -120
   38
 -103
  -30
  -45
 -105
  -58
  101
   45
    0
  -10
   13
  -43
  -80
  -98
   22
  -35
 -108
  -43
   24
    0
   72
   82
  101
   18
 -117
  117
  102
  -89
   42
 -113
   94
   17
  -48
 -101
 -114
  120
 -103
   40
  -33
   15
   89
   75
   57
   18
  -29
   96
   63
 -110
 -117
   90
   22
   41
   22
  -62
   46
  101
  -30
  -47
  -87
   44
    8
   79
    4
  -79
   71
  103
   16
   25
   31
   38
  -94
  -63
   49
  -30
   15
  -77
   73
   31
  -69
 -105
  123
   38
   58
   29
  121
  -64
  -56
   13
  116
  -63
   10
   21
   -4
   -5
  -53
  -81
  -68
   -3
   42
 -117
  115
  -14
  -18
   63
  -65
   62
  -55
 -112
   29
  -31
   81
 -115
   98
 -107
   86
   50
   26
    3
  -64
   52
   12
   97
  -93
   94
  123
  -33
  -78
   -4
  -16
  -87
  108
  -20
   41
  -21
  111
   54
  115
  106
  -81
   43
 -103
  123
   62
  -73
   30
  -42
   34
    4
   73
    1
  -86
    2
   82
  -18
  -87
   45
  -57
  -32
  -26
  -94
  119
  118
 -124
    2
  -78
   90
   90
   19
  -47
  -29
   68
   46
  -96
   31
   48
   66
  -70
  -70
 -124
   22
   59
   93
 -107
  -17
   78
    2
  -24
   -9
  -34
   16
   13
  -81
   44
   36
   81
  -60
   76
  -48
   55
  105
   52
 -105
    2
   70
    1
 -113
   43
  -23
 -127
   44
  -10
  117
  -29
  -61
  -74
   34
  -37
  -93
  -72
   27
  -14
   -5
   99
 -124
   20
 -111
  -53
   -3
  -83
   -1
   31
   59
  124
  -25
   98
  -79
   43
   -3
   -8
  -29
  -90
   81
  -99
   80
   82
  -59
 -103
   15
   85
   45
  -62
  -58
  -57
   58
   64
  -38
  116
  115
   25
   55
  101
  -98
  -17
   88
   33
   82
 -109
  122
   56
  119
  -39
   25
   -4
   84
 -109
   -9
  -74
   51
   59
 -107
  -26
  108
  -16
  -67
  -69
  -58
   79
  -14
  105
  -14
  -22
   23
  -14
 -109
  -13
  104
    0
  -85
  -78
    7
  106
 -118
  -86
  -88
   -3
  -30
   69
  -92
   43
   19
   81
   27
   59
   62
   30
  -64
  -91
   -4
  -29
 -115
 -119
   33
  -49
  -80
   68
   28
   56
   24
   57
  104
  -95
   66
 -105
   47
  104
  -88
  112
  113
  -16
  -65
 -109
   90
   24
   19
  -38
   93
 -110
  -76
  104
  -78
  -94
   70
   54
   -8
  -36
  -93
  -99
   -4
  109
  -70
 -105
    2
  -51
   70
 -126
  -63
   42
  -78
  126
   65
  -44
   11
   -6
  -72
   75
   35
   67
   61
  -95
   47
   63
  -36
  -79
   19
  -61
  -28
  -46
  -59
 -126
  -48
   41
    2
   96
 -108
  118
  -94
   25
  -31
  -26
   74
   10
  -12
 -124
  -46
  -58
  -25
  -69
   47
  -35
  -78
  -97
   39
  -48
 -110
   38
   89
 -102
  -40
  -74
 -104
  -63
  -75
   30
  100
   55
   93
   86
 -123
  -43
 -113
   44
  -67
   -6
 -113
   87
   25
  -56
  119
 -105
 -116
   30
  119
  -95
  -33
  -58
  -95
  -29
  -48
   90
   75
   32
   13
  -67
  -67
  -50
  -70
  -86
  100
   70
   97
   77
 -106
  -86
 -121
  -45
  -75
    7
 -119
  -87
   26
   20
   10
  116
   33
   26
 -115
  -70
  -36
   60
    7
   53
   -1
   75
  -75
  113
   40
  -65
  -56
 -103
   46
  110
   19
  105
   35
  120
   35
   77
   97
  116
  -48
   27
  -58
 -109
  -90
  -44
   13
  -82
   14
   42
   11
   96
 -107
 -121
   40
  -84
   -3
   22
  -47
  -36
  121
  -98
  101
   88
  -96
  -89
   64
  -82
   25
  -10
   72
   68
   15
   94
  -71
   79
  -91
   19
  -30
   38
   12
  -30
  -89
  -70
  -47
 -100
  -38
  -32
  -54
  111
  123
  106
  -60
 -110
  -42
   98
 -125
  -90
  -54
  -94
 -117
  103
  119
  -19
  -88
  125
   51
   47
  -26
  125
  105
  -90
  -17
  -24
  112
  -27
   76
 -127
    5
   54
  -71
  -54
   77
  101
   79
   40
  124
   44
  -76
  -91
  -76
 -102
   31
   46
  -46
  -81
  105
  -98
  121
  -75
  106
   43
  -70
  -89
   55
 -102
   15
    7
  -72
   43
  -12
   -2
   -8
   70
  -35
   55
  -87
    0
  -77
  -81
   45
  101
   26
  -61
   21
   -6
   94
   45
   27
   97
   78
   25
  -80
  110
   41
   49
   78
  -31
  -64
  -44
  122
  -65
  -27
 -121
   70
  -14
  -98
  127
   46
  -15
  -89
  -48
    9
  -17
  100
  -89
    2
   57
   58
   78
   49
   11
  -94
  -14
   -2
   51
    7
  -70
   -6
 -116
   80
  -77
    6
   58
 -113
  -20
 -107
    3
   17
  -53
   94
   60
   42
  118
   99
  109
   54
 -106
  -63
  -39
  101
   56
  -61
  -95
   66
   78
  -60
   76
  -18
   99
   71
  -60
  -74
  -32
   76
  -66
   71
  -56
    5
  -60
   30
  -21
  -46
  -51
   -9
   82
  -13
  117
  -13
 -110
  -79
   15
  114
   29
   80
   16
   10
 -125
  -54
   40
   95
   54
   60
   65
 -112
   71
 -123
  -38
   43
   21
   75
 -107
 -108
    0
  -83
 -105
  -73
   13
 -105
 -108
  112
    2
  123
   56
   54
  -53
  113
  -24
 -102
 -117
  -27
   25
 -125
  -51
  -39
   48
  -42
  -95
    8
  103
  -55
    7
   75
  -50
 -124
   62
  -55
  109
 -126
   -7
  -92
  -55
   10
  -41
   80
    6
  -80
   97
 -113
   10
   34
   97
   65
  -32
   88
   -2
  -94
  -10
  -98
  -54
  -24
 -110
  -28
   68
  111
  112
  -48
   38
  107
   37
  -81
   89
  122
  -45
  -63
   17
   59
   33
 -120
  -52
  -97
  -91
   59
  -10
    9
  -54
   87
  -87
 -122
   25
   38
   -3
  126
    3
  -30
   12
 -109
   85
  -63
  -84
   -7
  -68
  -50
   -1
   88
   83
 -113
  -91
  -62
   99
  -64
  -32
  -49
  -19
  -95
   71
  -74
   74
   90
 -126
   82
  -55
  -99
  -21
  -87
 -113
   68
   92
   74
  -52
   93
   59
 -112
   43
 -109
 -103
    4
   59
  -55
  124
   20
  112
  -67
   88
  -12
 -112
 -108
   73
 -100
  125
    0
   61
  -38
 -109
   83
  -66
 -113
 -113
   53
  -19
   51
   87
  -31
    8
   63
  -26
   68
   -8
   97
  -57
   54
  -94
  -40
    6
  -43
   50
   92
  105
   94
   69
   63
   52
   25
   46
  -51
   10
  109
   52
   69
   20
  118
 -120
    7
  -59
  -78
  -83
  -81
  -52
  -31
   34
  -31
   -9
   65
  -62
   46
 -117
  -12
   76
   17
   27
   64
   44
   59
  -35
  101
  120
 -125
   12
   53
  109
 -119
  106
   20
  -92
  -49
  -64
 -115
  -77
  -51
  125
  121
    0
   23
   59
  126
  115
 -126
  100
  -65
 -105
  101
  102
  -61
   63
  -26
   48
 -127
   87
   74
  -58
   89
  -51
  -91
   50
  -75
  -80
  -32
   55
  -19
  -51
   45
  -42
  114
  -98
  105
  108
 -124
 -119
    8
   61
   49
   12
  -45
   20
  101
   99
  -50
  -60
   43
  -49
   34
   15
 -102
  -30
   17
 -115
   -5
 -122
  -15
  -66
   79
  -15
   99
 -101
  111
  -32
  -86
 -124
  -34
  -18
  -19
 -123
  -49
  -59
   94
   56
  -69
  -47
  122
  113
   70
   84
 -113
  -91
    1
   44
  -83
  -28
  107
  118
   66
 -109
  -20
  -82
  -61
  -21
  -68
  -84
  -17
  -70
  114
  -31
  -36
  125
  -44
  100
  -33
 -127
   67
  -19
  -94
   90
   -8
 -124
  112
  -31
   94
   95
 -122
   95
   94
 -100
  117
  -22
  106
    9
  -64
   72
   26
  -76
  -32
 -111
  124
    4
  114
  -72
   48
   -9
  -62
   86
  -53
  -98
  -30
  -73
    2
    5
  107
  114
  115
   -1
   19
  125
   18
   29
  -89
  -49
   58
   16
  -90
   13
   32
   47
   44
  -53
  -91
  118
   18
  -75
  -60
 -104
   46
  113
  -88
   43
   72
  102
    2
  -30
   64
  -12
   18
  -45
  -59
   59
 -126
   38
  -75
   39
  -57
   91
  -28
   57
  -55
  -28
  -56
   17
  -31
  -95
  -89
   53
  -59
   85
  -84
   45
  -66
   38
  -42
  -10
   53
  -37
  -49
   61
   72
    9
  -73
  -30
   26
   79
 -103
   68
   95
   84
  106
  -23
   98
   -6
 -120
  117
   13
  -55
  -26
  -46
   72
 -126
   60
   27
   42
   86
 -106
   50
  -40
   65
  -94
   56
 -121
  -24
   91
   82
  -42
   39
  -28
  -15
   26
  125
 -108
  -37
  -75
  -25
  -35
   73
   12
   53
    6
   21
  -71
   47
  -42
   48
  121
   52
   25
  -84
   87
   -3
  -61
  -75
  106
   70
   77
  -95
  -42
  -41
  -70
  127
  -69
  -58
  -39
  -34
   10
   12
 -100
   -4
  -32
    9
   67
   18
  -86
  -77
 -120
   -2
  -98
   14
  -33
  -22
  -50
  -33
  -53
   95
   36
   64
   81
   79
  -28
 -116
 -121
   95
  104
  -47
   67
   38
   82
   90
  -57
  -98
   28
  -88
 -114
  -32
  111
  -76
  -18
    1
  -76
   33
 -123
   81
  -41
  -82
  -58
   45
  -13
  101
  -55
   15
  -52
  113
   65
   19
  -16
   79
   31
  -35
 -113
   63
  127
   21
  -75
   68
  126
  -45
   61
   64
   60
   44
  125
  -15
   52
   94
 -111
  -80
 -126
   93
   15
 -105
  -19
 -114
  -76
  -91
  -10
   77
  -99
  -30
   87
  -17
  125
  -35
   69
   43
  -92
 -103
  121
  -90
  -37
  -84
   70
   65
  -76
   99
  -15
  -16
   47
  -99
   14
  120
   26
   39
   43
  -17
    3
  -69
   13
   23
   80
   81
  -73
   52
   97
  -60
   87
   78
  -34
   59
   18
  -47
  -44
  -26
 -102
  -58
 -120
   41
  104
  -32
  -62
   96
   63
  -60
  -35
   70
   89
   43
  -57
  -73
    9
   35
 -117
  112
   69
  -27
   35
   16
  -38
  -73
  127
   52
    6
  -22
  -74
   78
  -25
 -101
   95
   30
   32
  -52
   47
  -19
   59
   34
  106
  -60
 -125
   58
   79
  -31
  -46
  100
   -8
  108
   44
  -96
  -11
  -42
   78
    7
 -103
  -12
  118
  -13
  -87
   21
  116
   89
 -106
   91
  113
  125
   79
  -64
  -60
 -101
  -54
  -86
   60
  -15
   62
  127
   83
   20
   -2
  -68
  -88
   56
   26
    4
   87
  -55
    0
 -100
  -44
   40
   96
   67
   80
   -6
  -55
  -12
  -54
  -36
   29
  -22
  107
  -46
   64
  -75
  -50
  -59
   49
  -85
    8
  -76
  -87
   66
  106
  -71
  -84
   76
   28
   70
   14
  -53
   23
  -86
  -33
  103
  -23
   84
  121
   16
   47
   12
   64
   37
  -90
   86
  -94
   48
  112
  -11
  -99
 -112
   70
 -127
   27
  -36
  -27
  -26
  -21
   83
   58
  103
   72
  -44
  -76
   40
 -100
   98
   22
   72
   25
  -83
 -107
   84
  -88
 -112
   23
   -9
  -10
  104
  -87
   75
   44
  107
   16
  -76
  -62
   31
  -32
  -36
 -120
   68
  -67
   42
   63
   58
   80
   61
   37
 -102
  127
  -21
 -108
   62
  127
   12
   24
  -88
   35
   12
  -55
   40
  126
    3
  -75
   34
   47
  -11
 -106
  125
 -117
   62
   22
  116
  -26
    3
   75
  -27
  -87
   18
   25
   82
  126
  -40
 -127
 -111
   -9
  124
 -117
  -34
  -84
   93
   35
   99
   68
   -4
 -110
    5
  -24
   21
  119
  118
  127
    3
   57
  -90
  -80
  -67
  107
 -107
   50
  -79
   81
  -45
   77
   81
  -47
  -76
  -86
  105
   53
  -97
   36
  -90
 -107
   62
  -78
 -127
 -122
  -25
   23
 -115
 -127
   19
  -38
  -86
   31
   13
   89
  -25
 -114
  127
 -116
  -95
  -11
   77
  -25
   65
  -41
  -40
   29
  112
  -82
  -98
  -11
  121
   75
  -87
   74
   55
  -50
  -91
  126
   70
    3
  -31
  -60
   25
 -100
   47
  -75
   99
   30
 -118
   89
  -92
  -69
  -32
  -76
   43
  -96
   86
   52
  -53
   65
   86
  -58
    6
 -125
   62
  119
  121
   42
  -20
 -125
  -35
   48
  -24
  -67
  116
  -65
 -118
  -60
   78
   76
  -95
  -95
 -111
   84
   22
  -41
   66
   45
  -59
   29
   -6
  -76
   23
   92
   61
   89
    4
  -41
  -81
 -107
   -9
 -104
   23
   87
 -117
  -29
    8
   38
 -100
   66
  -27
 -118
 -112
 -125
   19
   67
 -105
 -111
   36
  103
  -23
   72
    2
  -61
  -31
   -7
   56
   20
   -8
  -62
   37
 -118
 -112
   61
 -122
   38
   99
  102
  -53
   80
   17
  110
   76
  -57
  127
   58
  -54
   23
   64
  -13
 -117
  116
   -4
 -106
 -114
   33
  -50
   61
   16
   54
   37
  -49
   11
   76
   45
  121
   41
  -65
  -13
  -63
   66
    6
 -100
   48
   41
  103
   -3
   -9
   42
  112
  -44
 -122
   70
 -106
    9
   76
   12
   77
  -47
  -26
   -7
  -60
   71
   -2
   32
    3
   88
   77
   -1
   94
   -1
  118
 -109
  -31
   23
  -72
   45
   43
   65
   72
   30
   79
  -54
  -61
 -112
   57
  -14
  -96
   53
  123
  -16
  -84
 -125
  -57
  -13
 -117
 -113
 -116
   40
 -119
   92
  -77
  -69
 -104
  106
  -86
  -37
 -107
   25
  -29
   -7
  124
  -86
  113
  -10
  113
  -43
   99
 -119
   54
   91
  -54
   31
  122
    2
   79
   48
 -118
  -99
  124
  -61
 -109
 -123
    0
  -73
   77
   18
  -43
    4
  -22
   11
  120
 -108
 -115
  -57
   30
  -26
   53
  -29
  -95
  -37
   86
   56
   17
  -56
   22
  -28
  -83
 -121
  106
   88
   95
   64
   29
  -76
  -62
 -125
  -41
   64
  -56
 -127
 -120
   49
  -58
 -102
  -30
   34
  -41
   33
   39
  106
   56
  -99
   47
  -67
   96
   33
 -113
   51
  -18
  -68
   42
   23
   65
  -44
   59
 -120
 -100
   96
  -44
  123
   24
  -61
  -38
   -3
  -57
   77
  -60
  -79
   62
   46
   51
  -86
  -29
   35
  -88
  -86
   79
   82
   96
  -97
   36
   16
   91
   63
 -120
   90
   -8
   -4
    4
  -28
  -30
  -75
 -100
   55
 -122
  127
 -108
  -27
  -43
   39
   -2
 -122
 -117
  -24
   -8
  116
  -54
   40
   43
 -125
   55
   -7
 -105
  -12
  -33
  114
  -65
   75
  103
  104
  -70
  -42
 -123
  -21
   81
   87
 -106
  120
  -89
   70
    1
   57
   72
  115
   28
  -50
  101
  -36
  -97
  -35
  -16
   53
  101
  -99
   95
 -105
  -72
 -126
  -27
   44
   74
    5
   14
   -2
  111
  100
   21
    4
  -38
  -84
   38
  -89
  -94
 -101
   82
 -100
  -36
   66
   94
 -108
   17
  -39
  -84
   84
   24
   80
  -40
  102
  -98
   23
   37
 -112
   80
  117
   66
   -2
   24
  -32
  -90
  -53
   35
  -13
   94
   49
   26
  -28
   -7
  -54
  121
 -107
  -18
 -107
   90
   98
  -70
   -5
   35
  -24
 -104
   51
   72
   47
   51
  -43
   44
   82
   98
   72
   -9
   73
  -58
 -110
  124
   -9
  -89
  -32
  -25
   15
   75
  -60
  -35
  -97
    4
   75
  103
  -92
  -70
  -49
    1
  -71
  -32
  -30
   60
   79
   64
  -76
 -114
  120
 -125
    3
  -90
   10
  101
  -12
  -84
  -32
  -59
  124
  102
   33
  -48
   15
   70
 -107
   58
  -12
  -91
 -105
  101
  -12
   99
  -24
   13
 -105
   71
  -95
  -98
   17
  119
  -19
    0
   73
   21
   -8
   -7
  -41
   33
  -96
   15
  107
  -41
  -44
   20
   48
   32
  110
  -43
  -21
  -42
  -67
  -25
  116
  -78
   28
  -88
  -62
   76
  -68
  -33
  -47
   98
 -120
   33
  -68
   54
 -108
  120
  -24
   84
  -55
 -124
   19
 -113
   27
   30
   72
   11
   -7
  -43
  -56
   89
  -74
  -93
   16
   48
  -35
   48
  -40
   84
   41
  -37
 -107
   26
  101
  116
  -18
  108
   15
  111
 -127
  -17
   27
   74
  121
   88
  127
   38
  -88
 -120
  114
 -101
   16
   68
   10
   -7
   53
  -57
   -8
   93
   23
  124
  112
  114
   17
 -124
  -48
   95
  -85
   93
   41
 -100
  121
  -75
   11
 -123
   20
  -16
  -79
  110
   78
   43
  -51
 -113
 -110
   44
   12
   -4
   16
   79
   75
  -99
    0
 -110
   94
   97
  100
   35
   51
  -26
   71
  -56
  -95
   92
  125
   39
 -115
   84
  107
 -106
  109
   99
  -66
  -26
 -101
  116
  -83
    2
  -20
   34
   12
  -95
   -1
    0
  -18
   26
 -105
  -73
  -35
  -69
  -92
   56
  -55
   17
 -102
  114
  -34
   34
  119
    9
 -119
  -42
 -106
   73
  -25
  -94
   53
   41
  -56
   -2
   62
   -8
   99
  -36
   66
 -109
 -125
   22
   91
   20
  116
  -41
  -47
   61
  -90
  126
  -58
  -89
   63
  -85
   76
   67
 -105
  123
   44
  -55
  -59
    2
   18
  -79
   24
  -17
  -95
  -87
  -72
  -53
   72
  -45
   18
   32
  -41
  127
   55
   27
  -37
  -78
  -71
 -112
   72
  -83
  -76
 -110
   73
  -73
  -69
   58
   54
  -69
  -26
   22
   -1
  117
  100
   57
 -104
  -47
  -81
 -101
  -56
  125
  -16
  -76
   61
  121
    1
  117
  108
    4
  -38
   35
  -57
  -41
   76
  -67
  -79
   95
 -125
   80
   -9
  -26
  -22
  -50
   -5
  -50
  -50
   84
   -1
   30
   44
  -77
  -22
   24
  -29
   28
 -123
    4
   10
  112
  112
  -21
  -53
 -126
  -38
    0
 -106
  -82
   36
  109
   86
  -41
 -121
  -69
   36
   11
  -56
  -35
   25
   85
   55
  -94
  -70
  -72
  -62
   99
   60
    3
   -9
 -120
  -19
  -61
  -34
  -84
   59
  -47
   40
   42
    7
   18
   70
  112
  118
 -124
 -118
  116
  -32
   21
   19
  -22
    8
  -33
   86
   20
  -97
   56
 -105
  -59
 -102
  -26
   38
  113
  -64
  -48
   29
   52
  -54
  -80
    7
  -57
  -13
 -117
  112
  -97
    6
   72
  -44
   30
 -108
 -118
 -109
   89
   79
  -46
   57
   89
 -112
   42
   82
 -101
 -104
   25
   37
 -109
  116
  -99
 -126
   33
   90
  -14
   95
   81
  -82
  -98
  -12
  110
   38
 -120
  126
   18
   80
  -47
  -99
 -113
   97
 -108
    1
  -84
 -104
 -106
  -63
   23
  -57
  -68
  -75
  -47
  112
  -34
 -118
  -53
   89
   -7
    3
  -73
  108
  -85
  -55
 -126
  -16
  -29
  125
  -60
  -75
 -103
  -92
  110
   79
   95
   92
  -70
   48
  -51
   69
   84
   75
   28
  -91
  107
  -20
  -95
 -109
   18
  -92
  -97
  -31
  126
  -38
  104
   -8
  -60
  -63
  -87
   15
  -78
 -102
  -51
  -69
   27
   -6
  109
  -17
   28
 -108
 -121
  -93
  -90
   -6
  -23
   71
   23
  -72
   99
  106
   37
  -28
  113
   29
   88
  -82
  105
  -86
  -94
  -57
  -39
 -105
  -79
  -44
   69
  104
  -38
  -28
  -87
   88
  -73
 -127
  118
  121
   75
  -80
  -89
  -62
   30
  113
  -12
  -56
 -124
 -101
   94
  -90
   51
   37
  -74
  -30
   75
   70
   72
    3
  -62
   25
   16
  -37
  -86
    6
  -88
  103
   51
  111
    7
  -57
  -69
  -48
  -34
  126
  -88
   85
  -58
  105
   -7
  124
 -105
   26
 -118
  -53
   -4
  -84
   28
    1
   73
  -92
  -40
  -90
   -3
   -8
   87
    8
   81
   65
 -118
 -101
  -54
   11
  -97
   27
   41
  -36
  -60
   99
  -32
   44
  -45
   79
 -105
  -41
    0
  -94
  119
  -23
  120
   35
  -10
  -63
  -82
   23
  -87
  -25
   35
   51
  -13
  -57
 -110
    5
   14
   79
   28
    2
   11
  -12
  -58
   84
   -7
   37
   25
  -93
  -64
  -44
 -114
   56
   74
  122
 -102
   51
  -93
  -47
  -22
 -121
   30
    0
  -40
 -126
   48
  -38
  123
   81
  -16
   19
  120
  111
   10
  107
   67
  122
  -21
  -80
   99
  121
   90
 -115
  -76
   84
  -45
   99
  -94
  116
  -69
 -114
   24
  103
   84
  108
  -23
   16
   41
  -87
   92
  -24
   77
  -81
  124
   92
   83
  -24
 -110
   28
  125
  -16
  -87
   99
  -86
 -127
   93
  121
   57
   56
   13
   26
 -100
   48
   83
   73
 -102
  106
  -35
  -45
  116
 -104
   65
  -32
 -105
  122
   45
   84
  118
   33
 -120
   -1
  -81
   29
  -31
   34
   89
   64
  -32
   48
 -114
   78
   57
 -118
    0
  109
  -64
  107
  -89
  -69
   86
   72
   51
   89
  -94
  -86
  -76
    8
   96
   22
  -44
   47
 -108
  -54
   24
  -83
  -74
  100
   96
  -80
  -51
  -38
  -82
  -82
   72
   45
   10
   31
  -61
  -48
   90
 -112
  -42
  113
  -94
   65
 -111
  114
   39
 -101
  -25
   18
   34
  -59
   61
  -32
   70
   62
  113
 -103
  -46
 -127
   -1
  119
 -121
    0
  -21
   83
   56
 -117
   67
  -81
   24
   25
   89
   92
  -88
   60
   93
  115
  -30
 -104
  -77
  -35
  108
  -16
  -31
   -6
 -106
   -6
   69
  -89
  -50
  124
  -26
   42
   69
   29
  -82
 -123
  -77
   13
  -48
  -76
    0
   28
   78
   29
  -24
   -7
 -126
  -16
  -87
   -8
   81
   12
 -117
  -56
 -114
  -38
  -92
  -36
  -76
  -53
   64
   74
  126
   96
  -75
  -74
  113
   43
 -105
   -3
  -88
   96
   98
   41
 -121
  117
   37
 -105
  -56
   68
  -78
 -121
  -94
  -39
   48
 -103
    0
  -94
   32
   11
   26
   78
    6
 -102
   45
   81
  -32
 -127
 -123
  -61
  113
  -25
  -89
  -50
  -85
  -32
   42
   59
  -93
  -64
  121
   52
  -18
  -91
  -11
   26
   65
  -80
   82
  -69
  104
  116
    0
  -43
  -78
 -107
  -86
   34
   66
   -4
  -59
   31
   87
  -77
   73
   10
    2
   15
  -46
  -23
  103
   93
  108
   16
  -80
   45
  -36
  -82
  -22
   77
  -63
   42
  -82
  -17
 -103
  -51
   56
  -30
  -16
 -125
  -84
 -106
   40
  -17
   36
    5
  -94
  -18
  126
  -30
   86
 -115
  -82
   52
  -52
  -20
    9
   69
  -67
   32
   56
  -72
   -3
   98
  127
   73
  -86
   32
  -44
   25
   63
   92
 -112
   27
  -22
  -22
  -32
  -66
    2
  122
  -11
  121
 -116
   13
   96
  -51
 -111
   24
  -79
  -52
  -67
   33
 -118
  -13
  -73
  -29
 -119
  113
  -10
   74
 -100
   66
  121
 -104
  -32
    4
 -126
  114
  -12
  123
  -68
  -34
  -60
 -124
 -110
  -31
   15
  -67
   23
  100
   38
    1
   37
   66
  -44
   12
   67
  -89
  106
   60
  104
   28
   32
  -36
   98
  -60
 -101
  -45
    6
  -81
   10
  -53
  119
  -38
  -17
   88
  -41
   39
    7
 -110
  -50
   -2
   43
  127
   35
   69
  -62
  -77
  -67
    5
   30
 -102
  -24
  120
   38
   72
 -107
   -5
 -111
  -17
   12
   91
  -27
   84
  -62
 -115
  106
   53
   47
   66
 -120
   31
    4
   18
   20
  -74
   83
  -46
  -15
  -81
  -60
 -109
   64
  -28
   31
  -90
  -33
  -90
  -37
   -5
   17
   18
   77
   81
    2
    1
   53
    9
  104
  115
   25
   58
  -19
 -125
    8
  -73
  -81
  116
   62
  -65
 -100
  127
   42
   -8
 -110
    2
   13
  -48
  -35
   64
   77
   26
  -52
   45
  -25
   12
   37
   48
   40
  -74
  116
   -6
  -10
   -5
  -89
  -98
   47
   91
  -91
  -14
 -123
 -104
   46
  113
   -9
  117
    0
   72
   43
  -32
 -110
   37
  -14
  -89
 -109
   68
  -82
  -73
   19
   35
  -71
  -14
   53
 -123
   15
   12
 -125
  -12
  -42
  -39
  -16
  -29
   33
   53
  -66
   49
  -78
  -16
   39
  -78
   70
 -111
 -120
  127
   49
  114
   99
  118
 -102
  102
    8
   81
   64
   99
   80
  -71
  -89
   67
  119
  103
  -78
  -89
   -8
  104
  -79
   43
  -13
   77
   28
  -19
  -10
  112
  105
   27
   97
  -45
   69
  -38
  -48
   79
    6
  -35
   35
  -78
   59
  -60
  -67
    6
   79
  -20
   32
  -82
   40
  -52
  125
  -13
  -38
   22
   98
   80
   47
  126
  -71
  107
  101
  100
  -55
  -48
    4
  109
    9
   46
  -99
   27
  -56
  -98
   95
   43
  -91
   71
  -28
  -47
   92
  106
  -58
   90
 -111
   34
   97
  -98
  108
   27
 -116
 -119
  -95
   93
    6
  -80
 -106
  -57
 -102
  100
   93
  -54
  -96
   59
  -66
 -110
  -37
  -20
   -1
   57
  108
   49
   76
   86
 -116
   91
  -25
   16
 -124
   73
   -4
  -43
    6
   76
   43
   80
  112
   27
  -15
   61
  -63
  -25
   72
   55
   42
  -34
  -82
  -15
   80
  -89
 -122
   79
  -38
  -71
   79
 -101
  -63
   78
  -50
   52
   46
  -56
  -78
  -59
  -87
  -61
  -98
   12
   41
  -15
   -3
  115
  -77
   86
  -51
   36
   -5
 -112
   -4
   35
  -29
  -61
   27
  -21
  -35
 -115
    1
   31
  114
   63
   98
  -13
   20
   31
  -66
  -94
  -63
  -68
  -64
  -75
   74
   -9
 -107
 -113
   38
  -97
    0
   30
  -70
  118
   64
  -28
  -53
  102
  -29
 -124
  -93
   34
   13
  -63
  -26
  -83
   67
   75
   -6
 -106
   30
  120
    0
   -6
  127
   55
   -8
 -123
    4
   50
 -108
 -107
   32
  -22
  -21
   10
 -108
   18
   84
  -52
   37
  -92
   88
   83
   64
  106
  -12
   53
   45
  -24
  104
   92
  -68
   16
    0
  114
 -123
  -49
  119
   89
 -102
 -117
  104
   14
   87
  -48
    5
  -78
 -124
  114
    9
 -102
  -12
   63
    8
  109
  -27
  -87
   88
  -86
   90
   88
   -4
   70
   88
  -26
   15
    4
  -53
  108
  -25
  104
   -4
  -23
   51
   87
  -79
   93
   30
  -15
   39
  -97
   54
 -101
   17
   61
  107
   97
  -33
   53
  -30
  -14
  -68
   21
 -124
  -23
  -30
  -91
   61
  -45
  -30
  125
   31
  -24
  -68
  119
  -91
  -25
    8
 -102
   21
 -101
   24
   -6
   81
   19
  -74
  -18
  -17
   95
   63
  -26
  -85
   11
 -122
  -97
   34
   -4
  126
   41
  120
   97
   52
 -106
  -15
 -127
   46
   70
  105
  -37
   11
   39
  -82
  124
 -127
  -78
   -8
   15
  -63
  126
  -14
 -113
   50
  -67
  -51
  -62
 -105
   17
  -60
 -119
   36
   26
  -79
   48
  -48
  -19
  -30
   32
   73
   24
   39
   23
  -87
 -117
  -93
  -55
   66
  -22
  -90
   60
   43
   35
   11
  -63
 -109
  -29
  116
 -121
   23
   98
   21
   55
   55
  -31
  -88
  -87
  -10
 -119
   58
   64
  -13
  -54
  -91
   -2
  -34
   72
  -92
   63
   31
  104
   56
  -98
   95
 -111
 -127
  -49
  -26
  -55
   38
  -61
  124
   44
   43
   74
 -110
  -65
    3
   93
  127
   28
 -122
  103
   73
    2
   65
   28
  -20
  -65
  -75
  -45
  -37
  -23
    4
  104
  -98
  -82
   -8
  -48
  110
   96
  125
  -78
   81
   29
  -68
   74
  -17
  -94
   18
  -95
  -72
   -8
   -3
  -78
  -97
   45
  125
   40
  -70
   84
  -32
   50
   37
 -121
  -52
  103
   40
  -50
   21
  -33
  -84
 -117
  123
   22
   30
  -56
  103
  -15
  -66
 -116
  -96
   -1
   51
  -45
 -124
   38
  -79
    5
  109
   -8
   94
  -20
   99
  -33
  -94
  -18
  -28
  123
  122
  -49
  110
   76
  112
   30
  -34
  -23
   56
   34
   19
   80
  -90
  -60
  -32
 -101
   61
  -44
   24
  100
  -54
   62
   -6
  -22
   84
    6
   -6
   92
  -94
  -96
  -94
   39
  122
   23
  -21
 -125
  101
  121
  125
  108
  -81
   16
    0
   93
  -34
  103
   29
   69
   59
  121
   74
  -10
   68
  120
  -62
  106
  -42
  -81
  -17
   66
  106
    0
  -32
   69
  -79
   -6
   21
   91
   44
  -78
  111
   25
   39
  -32
  -44
 -119
  -16
   82
   39
  126
   25
    5
 -109
   42
  -23
  -61
   67
   97
   12
  -12
  111
 -106
  -34
 -119
 -116
   36
    3
   16
  -56
   46
   32
   53
   29
  -13
   58
  124
    9
   71
  125
   35
  -58
   26
   35
  105
   29
  113
  -62
  -77
  -14
   96
  -39
 -100
   68
  101
  -79
   44
    4
   92
  -51
  -50
  -71
  -92
  117
   46
   78
    9
   82
  -61
   50
   90
 -105
  119
   51
 -108
  113
  118
  -28
   20
   81
 -108
   93
  -81
   85
   87
    2
    5
  -34
  108
   51
  125
  120
 -104
  -33
    8
 -107
   52
  -39
  -99
  113
  -75
 -125
   94
   46
  -84
  -82
  101
 -107
 -109
 -122
   18
  -45
    6
  -25
   33
   34
  -40
  116
  -42
   44
 -121
   92
  -42
  107
  -65
 -108
  -55
  -50
   31
   21
   49
  -91
  -39
   31
   92
   -7
   49
 -104
 -113
   83
 -104
  -75
   75
   46
   -8
  101
  -23
   40
  117
  -51
   57
   64
  -80
   17
 -112
   47
   43
  -93
  100
  -84
   11
 -119
   80
   24
  -24
   37
  -34
  127
   53
  -77
   84
  -50
    6
   32
 -126
   70
  -73
  -75
   75
  -59
   84
  127
  -27
  102
    8
 -107
  -21
 -123
  102
  -32
 -124
    0
  -14
   90
    0
  -99
   74
  111
   91
  -88
 -107
   33
 -103
 -119
  -45
   37
   21
   44
   75
  -31
 -107
  -17
   73
  -50
   60
 -102
  -83
  108
   74
   71
   96
  104
  110
  -24
  -54
   69
  113
  -56
  -33
  -58
   -7
  117
 -102
   10
  -49
  -89
  -20
  -45
   14
  -80
  -73
   17
  104
   51
   98
   62
  -14
  -97
  112
   25
  -43
  -53
    1
   88
  114
   89
   11
    5
    7
   32
  -56
    6
  -43
  -57
  -32
  124
   65
  -14
   88
    0
   13
   62
  -58
  -29
   65
   -2
   42
  102
  -42
  -52
   30
  -81
  -73
   78
 -100
   45
  -78
  -33
   10
  -63
   56
  -46
 -118
   80
 -116
  -52
  -50
    9
  -97
   75
    1
  -69
   84
  -99
  127
   66
    5
   -6
  -58
  118
  -46
  -12
    8
   72
  -22
  104
  -97
   95
   39
  -17
  -93
 -123
  -34
 -123
   -7
  -94
   88
  117
  -77
   61
 -113
    4
  -97
   36
  -86
 -112
   15
  -91
  -34
  -76
 -127
   79
  103
  -15
  -34
  -34
  -54
   85
  121
  -73
   42
  -15
  -22
   88
    1
  -69
   54
  -17
  -21
  110
  -90
 -122
  -19
  114
   59
  -48
  -88
  125
   90
   44
  -59
  103
  -60
   90
  -21
 -106
  111
   83
  110
   35
  124
   33
  -18
  -57
   84
  110
  116
  -85
  -82
  114
   34
   12
   37
  125
   80
  105
   15
  -48
  -14
  -60
  -91
   68
   28
  -72
   -8
   75
   22
  105
   64
   79
   58
   88
   30
   29
 -125
   16
   90
  -12
  -41
 -106
  101
  -14
  100
    7
  -12
 -124
  -59
   76
  -75
   36
   49
 -103
   61
  121
   66
  -75
  -83
  105
  -59
  -79
  -16
  105
  -79
   53
   67
  -58
  -52
  118
  -73
  -30
   43
  -32
   47
  121
   43
   50
  -64
   95
   71
  -92
  -63
   15
    3
  121
   71
  -66
 -105
   77
   52
  109
  -25
  -62
   61
  -24
   10
  -87
  120
   17
  -94
    8
  -67
   92
  107
   22
  -41
  126
   46
  -82
  -67
   60
   14
 -117
   15
  121
   53
  119
  102
   20
   54
   88
   48
  -86
  -92
  -39
   80
 -126
  -67
 -119
   45
   90
   69
   19
  -59
  106
   86
  110
   99
   67
   28
   63
  -51
   56
  102
 -116
  -40
  -67
 -109
  -13
 -109
  103
  -12
    7
  120
   76
    6
  -46
   86
 -112
  -75
  -55
   59
   18
   32
  -62
  -84
  -66
 -104
   90
   97
   49
  -67
   30
  -48
  -12
  -86
  -70
 -117
  -51
   -7
  -40
   84
  -91
 -105
  104
  103
  -68
    2
   13
   35
   19
    8
  107
 -123
  -75
   21
   62
    7
  117
  124
   76
   58
  -88
   89
 -114
   37
  -15
 -124
  -90
   30
  111
   35
  107
   61
  -31
  -35
  109
  -23
 -123
 -105
   53
  102
   84
   -4
  -57
   -9
   52
   67
  125
   56
  -11
    4
  -37
   -4
   54
   81
   61
  114
  -38
   43
   99
   48
   67
   13
 -110
   19
  -77
    5
  115
  -97
  119
   92
 -113
   79
  -58
 -123
  -37
   34
  -35
    3
  127
   56
   96
  -19
   -9
  -93
 -104
   -5
  110
  -13
  -48
  -65
  112
  -40
   94
  110
  -41
  -58
    7
   25
   16
  -96
   17
   -7
  -59
  123
  -73
  -64
  115
   62
    3
  -11
  -49
   54
  104
  -14
   70
   17
 -101
  -24
  -42
  -61
   -9
   19
   90
 -120
   60
  -68
   72
   45
  -86
  -64
  121
   69
   89
  -33
   45
  -17
   39
   46
  114
    2
  -14
 -103
  -13
   81
  -22
   26
 -105
  -98
  125
   39
   35
   93
  -57
   42
 -108
 -114
   94
   99
  123
  102
  -95
  -88
   80
    5
   75
   28
   68
  113
   42
   60
  -63
 -103
   70
   53
   51
  -70
  107
   -8
   16
   35
   48
 -109
  122
 -112
  -56
  -10
   81
  -83
 -121
  113
  -28
  -94
   83
   91
   68
   99
   50
   39
  -16
   -1
   -7
   21
   56
    6
  -50
  -25
  -41
  -59
  -16
 -101
  -91
   92
   17
 -102
   33
   -5
   91
  107
  -44
  115
   60
 -105
  -35
  -19
  124
   71
   14
   34
 -104
   44
 -120
   15
  125
  -60
  -44
  127
   41
  -72
   17
  -38
 -116
  103
  -64
 -119
  -92
  -64
  -31
  112
 -119
  -31
  -82
 -119
   96
  120
   21
  -33
  105
   35
   -8
   99
  -82
   77
  105
   74
   80
   28
  102
 -120
  -68
  113
   36
    2
   31
   -1
   28
  -99
  -67
 -123
   83
   -2
    3
  -70
  -81
  108
  114
   14
   32
   32
  -53
  102
 -122
  -85
   11
 -101
 -118
  -45
  107
   52
   35
 -105
  -69
  -46
  -23
 -100
   55
   85
   53
   62
   60
 -124
   21
   50
 -126
    5
   86
 -113
  -30
    5
   84
  109
   10
   -8
    3
  113
 -110
  -86
   70
   56
   55
   47
  -35
 -119
  102
 -127
  107
  -40
  -70
  -34
   20
  -15
   19
   11
   33
   99
   11
  121
  -27
  -43
    1
   69
   22
   48
  -93
  124
   86
 -119
 -109
 -106
  -46
  -86
 -114
  123
   50
   54
  -68
   73
   76
  -84
  -30
  -32
   76
  -36
   14
  -23
  119
   50
   65
  -91
   84
  -47
   10
 -111
  -59
  -37
 -114
  -14
   16
  120
 -104
 -123
  -69
 -111
    1
  -68
  124
   27
   -5
   76
  -33
   39
 -109
  -96
  -82
  -51
   82
   48
  114
   59
 -117
  113
  113
 -104
  -93
  -34
  -93
    1
   55
   32
 -100
  -34
 -102
   80
  127
   35
  -50
   90
  111
 -111
   59
   77
 -107
   -8
   48
 -106
  113
  -96
   52
   79
    5
   15
  107
  118
 -113
  -53
  124
  -54
 -108
  -36
  -44
   33
  -22
   20
   -6
   52
  108
  -50
    9
   45
   80
   54
   70
   92
  -57
  -81
  -38
  108
  -31
    3
  -22
  -54
   57
   59
   -8
  -35
   87
  -86
  -32
   30
  -78
  -11
   62
   77
   48
  -38
    9
  -51
  122
  -15
  -55
   45
   -7
   64
  -54
   66
   51
   23
  -53
 -105
  -70
   94
  -76
 -119
   85
  -97
   64
   58
  -15
  -34
  -75
   85
   15
  107
   65
   79
   30
   45
  124
 -124
  -69
  -43
  -64
   -9
  -84
  114
  -35
 -106
  119
  -62
 -115
 -103
  -15
   29
  -88
  -12
   14
   91
  -67
  -35
  -13
   99
  -56
  -46
   55
   18
   78
   17
   91
   -8
   72
  126
   12
  -11
   92
   60
  -34
  112
   46
 -112
  107
  -80
   -8
  -35
   -5
 -122
  -85
   71
    5
   51
   49
   73
  -37
  -74
   43
   39
  113
   27
   11
   25
  -53
   -7
   28
   66
  -38
  112
  -91
  -38
   14
  115
   46
  -71
   40
   46
 -110
 -100
    1
   27
 -109
   31
  -54
 -118
  -17
  -85
  -74
   45
   40
   10
   -2
 -122
   97
  -46
   38
   79
  107
   77
  -31
   79
 -118
  -75
   46
   31
   92
  -11
  103
  -93
  -75
   99
  -44
  -77
  -59
   11
 -109
   50
   35
   42
   26
  -33
    8
  -48
  -79
   92
  -12
   15
   48
   73
   76
  111
   51
   57
  -78
   99
   -8
  104
   11
  -89
   94
   63
   69
  -66
  -93
   73
   99
  -37
   10
  -25
 -103
   74
  -64
  -10
  -55
 -102
   22
 -126
  -67
  126
   63
 -105
 -110
   75
 -126
  -73
  -58
   52
   78
   41
   -8
   67
   23
   62
   30
  -55
  -96
   -5
    1
  -70
   20
  -61
 -114
  -56
   68
  -34
  -84
   -1
   35
  -41
  127
   98
  114
  115
 -122
  -10
   53
   98
  -95
  -43
  -55
  -69
   14
   -8
  -60
  111
  120
  -72
  -86
  -11
  -63
  -60
  125
   15
   89
  -44
  -67
   58
  -92
   23
   47
  112
   74
  -90
   66
  -24
  -35
  102
  -11
  -85
  -40
 -115
 -104
  -86
   34
   62
   71
    5
 -122
   25
  -41
   73
  101
  -19
  127
   84
   33
   73
  123
  -82
  -17
  -21
  118
 -100
   79
  -10
   32
   73
  108
  109
  125
  107
  -18
   71
  -21
   42
  -78
  -83
  116
  124
  113
  -51
  109
    8
   92
  -58
  113
    5
   -5
  -59
   32
  116
  -16
   95
   51
   -6
  -28
  -27
  -85
  -29
  -65
   79
  -47
   16
  -53
   78
  -80
 -122
  -30
  -95
 -121
  -20
   90
  -82
  -99
  -93
  -89
    6
    0
   17
  -15
  -21
   76
  -29
   20
  -37
  -11
  -26
  -90
  -87
 -122
   -9
    8
   12
 -117
   79
   39
   24
   56
  -26
  -73
   32
   82
   18
   52
   57
   35
   12
  -95
 -123
   19
  -24
  107
  -98
   13
  -65
  -83
  109
  -96
   77
  -41
 -100
  -37
   93
  -36
  110
   64
   37
  104
  -42
  -26
   50
  -65
  -47
   53
    7
  122
  -34
   31
   97
    8
  -96
   79
  -15
  -18
  -90
  -71
  -31
   33
   49
  -39
   54
  -72
   29
   -6
  -41
   62
   43
   15
   58
  111
  -60
  -79
  -59
  -90
  -86
   76
  -70
 -110
  -76
  106
  -51
    5
  123
    5
   17
  -71
  -33
    1
  -11
  109
   54
   44
  -86
  -91
  -41
 -124
   11
  -33
  114
   62
  -98
  -45
   29
   -5
  -81
  -74
  -82
  125
    3
  127
  -69
  126
   80
  -84
   75
  -32
    1
  -79
   44
   70
  -92
 -119
   17
   50
   64
   48
   -1
  -15
  108
  -44
   10
   17
  -39
  119
   -1
   97
   -2
   54
  -31
   99
   62
   94
  -64
  110
 -121
   72
  -88
 -109
   91
   11
    5
  -91
 -110
  -74
  -40
   18
   85
  114
   12
  100
   77
  -91
  -23
  -83
    4
 -121
   72
   35
    8
  -94
  -58
  119
    5
    0
  -55
  -46
  109
   81
   84
  109
   67
   54
 -125
  -32
  112
    3
  -31
   21
 -108
  -19
   65
   14
  -90
  -78
  114
   70
   71
   12
   49
  -21
   53
   42
 -114
   74
  -53
  -99
   98
   21
   32
  -98
  -67
  126
   90
  105
   43
   72
  105
  -77
   55
  -73
   54
   59
  -14
   93
   69
  -78
  -18
 -108
  -84
   21
  -44
   83
   62
 -126
   69
  -87
   21
  124
 -125
  -18
  -13
 -109
   -3
 -105
   58
  -43
  -11
   -6
   -6
  -31
  127
   38
 -112
  -81
  -30
    2
  101
  -55
   20
  126
  111
   11
   60
  104
  110
  -56
   60
  -28
   72
 -122
 -106
  -66
  -56
  -56
  -44
   51
  -47
  101
   28
  -75
  114
   19
  -91
  -44
  -38
   18
   49
  -11
  -52
   66
  124
  -12
  -73
   40
  -86
   52
   20
  -55
 -119
  -65
   40
  -63
   -8
   80
  -48
  -81
   15
  -71
  -78
  -48
   39
  -32
   83
   -4
   94
   28
   88
 -118
  -16
  100
  -50
  -41
    0
  -50
  -79
   35
   37
 -120
   22
   40
 -109
   97
   53
    2
   81
 -113
  -60
  -66
   74
  -78
   90
  127
   16
  -33
  126
   35
  -13
   62
  -64
   80
  -10
   61
   12
   17
   99
  -72
   29
  -72
   68
   59
   45
   -9
  -63
  -75
   15
   69
   18
    2
  111
  -16
   65
  -22
   71
  -24
  -38
   99
 -115
   -4
   79
  -14
   11
   -8
  -96
  -64
  -14
  -79
   37
  -68
  -92
 -114
   69
   53
   30
   11
 -119
   18
  117
   84
  -28
   79
  105
   79
  -45
   40
  -99
   83
   18
  -58
 -103
  -70
  -92
  -80
  -89
  -57
   44
 -100
   -2
 -111
    9
   13
   86
  -11
   39
  121
   57
   37
 -116
   25
   -2
  -81
  100
  -88
  -10
  115
   24
  -63
   69
  105
  -25
  110
   44
  110
   59
   23
  -99
   73
   29
  -38
   31
   -7
   32
   36
   99
 -109
   38
   30
  -18
  -75
   36
 -113
   56
   49
 -112
   32
   72
  -13
  -87
  108
  115
  -29
   94
   61
  118
   85
  -25
    1
   37
   70
  106
   52
   32
  119
 -107
  -78
   64
    8
  103
   -4
  122
  -70
   55
   29
    4
   43
  107
  -85
  -68
   72
  -58
   56
   21
  100
   29
   85
   68
  -54
   68
  -76
   94
   26
  -17
  -40
 -114
  -46
  -50
   69
  120
 -102
  116
   96
   16
  -90
   57
 -103
    6
 -123
  -96
 -102
  -91
  -45
   77
  121
  -34
  105
   36
 -106
    6
  -95
 -115
  -71
  -73
   18
  -17
  -72
   -4
  -55
   -5
   47
  -77
  -87
   96
   38
   20
   19
  -31
   67
 -113
  -30
   20
   49
   17
  -23
  -54
   56
   74
   97
   43
  -47
  -34
  -12
  106
   48
   74
   42
 -113
 -111
  -75
    5
 -105
   23
   39
  -36
   43
  -18
   88
 -124
   64
   82
  -99
  117
  -21
    9
   -8
  -56
   62
 -116
    4
  -86
   82
   68
  -88
   89
  -53
   57
    1
   62
  -77
   79
   89
  -88
   50
   32
 -127
   -1
  -22
 -114
   17
   94
  116
    6
   72
 -118
  -92
 -120
   80
  -45
  105
  108
  113
  -12
  -78
  -92
   -5
 -111
   93
  -86
  -25
   53
  -24
   65
   92
   86
   45
    5
  115
   62
   57
  -95
   22
  -72
 -119
  127
  -31
  117
  -20
  -85
  -61
  -48
  -78
  -98
  114
  -15
  127
  -22
    3
  -89
  -12
  118
 -121
 -127
    8
   73
  -65
  106
   20
   87
 -126
   38
  -61
   58
  -41
  -90
  -36
 -124
 -125
  -28
   99
  113
  -43
  -30
   -3
   29
  -99
  -49
   75
   -7
  -62
   14
  118
  -86
   18
   51
   49
   94
 -119
 -112
    7
  -35
    9
   51
  -41
  122
   38
  114
   36
 -113
  -19
   -7
  116
   18
 -118
   77
  -42
  -48
    5
   21
   36
   13
 -121
  -16
  -71
   49
   37
  -21
   99
   19
  -64
  -16
  -25
   -1
  -23
   92
  104
   45
  -30
   95
  -82
 -101
  -90
  -44
   81
   41
  -67
   52
   68
   10
  -87
  -67
  -78
   71
  120
  -36
   95
  -87
   80
  -54
 -114
  -79
   45
   44
   21
  -94
   49
 -123
  -99
  115
  -62
  116
    2
  -16
  -65
   94
  -28
 -104
  -43
   70
   84
 -113
  -50
   82
    5
   60
  -22
  -68
  -91
  -57
  -56
  -21
 -119
  -19
 -114
  112
  113
   18
   69
  -53
 -104
   95
  -38
   41
  -36
  -85
   29
 -107
  114
   32
  -56
    0
   51
   75
    3
 -105
   44
  -50
  115
   11
  -92
  105
 -113
  -48
  -69
   93
   95
   92
  -68
  -36
    0
   12
   -5
   86
  -77
  -93
 -119
   72
   75
   39
   49
 -117
  111
   25
  -92
   68
   30
   20
    2
   84
  -40
   97
  -48
   47
 -126
  -42
  -11
  -54
   69
  -93
   90
   74
   46
  -28
   94
  -81
  -73
  118
  -17
   24
   65
   49
  -14
   30
  -85
   38
  -64
    4
   17
   57
  -43
  125
  -46
  -84
   74
 -114
   74
   92
 -100
  -83
 -124
  -55
 -126
   67
   97
   75
  -60
   31
 -114
   60
  -41
   46
  -45
  -73
   41
 -127
   64
   60
   14
  127
  -30
   90
  116
  -81
  -57
  -81
  111
   46
  -40
   -5
   -1
  -31
  -17
  101
  -47
   54
   76
  120
    8
  -25
   87
  -85
   -7
  -85
  -73
  -14
   -3
  121
   37
  118
   69
  103
 -121
  110
  -66
  -86
  118
   -9
 -107
   92
 -121
   99
   78
  -29
   40
  -40
  -72
   89
 -106
  103
   42
  -83
   28
  126
  -42
  -13
    1
 -113
   13
  -13
  -80
  -98
  -93
  115
   12
 -105
   83
   -6
  104
  -78
  -17
   48
   98
   -9
 -107
   46
 -104
 -113
  124
  -68
   80
  -91
   73
    9
  -67
  -23
  -86
  -15
  -19
  -47
  113
  -65
  127
 -113
   93
   22
   22
  -27
   -4
   -1
   77
  -18
   27
   34
    7
  -24
   48
  -19
  -67
   70
  -77
  -42
  -39
  -15
   87
   76
   42
  -63
  -38
  -11
   53
    0
  -39
   78
  -83
  -73
   88
  -17
  112
   72
   84
  -57
  -29
  111
  -14
  -60
   60
   14
    2
  -39
 -126
  -55
   88
  -47
  113
   43
 -125
   60
  -30
  127
  -76
  -89
   77
  119
  107
   69
  -17
 -114
  117
  -88
  -92
   55
  114
   62
   16
  -90
   34
   33
   89
  103
  -97
 -107
   11
   88
 -113
   76
 -124
  -52
  -71
  122
 -104
   57
   78
  -40
  118
   73
   -9
  -22
 -125
  -30
 -116
   87
 -112
  -83
  125
  -40
    9
  112
 -118
  -83
  -84
   71
 -119
   -2
   63
   68
  -49
  -77
    0
 -120
  -18
   21
 -109
   46
   95
 -115
 -110
  -33
  -81
 -111
  -44
   92
   24
  -20
    1
  -38
  -95
    9
  -26
   25
  -40
  -79
 -126
  -94
    9
  -87
  -18
  108
   83
  124
   91
  -76
  -44
   87
 -110
   76
   54
  -37
  -23
 -111
   86
  -52
  101
  -49
  -24
   91
   -6
    1
   46
  -56
   82
  127
   64
  110
   54
   37
  109
   66
  -87
   88
  123
   -3
  110
    8
   51
   47
  118
   55
   62
  -56
   94
  -96
  -28
   69
   85
    2
  127
   42
 -103
   50
   27
  -33
 -123
  110
  -71
 -104
   12
  -17
    7
  101
 -110
 -108
  -77
   36
  -46
 -101
   15
  -18
   54
   40
  115
   14
 -103
  -18
  -48
   59
  -77
  -87
  -70
  -74
  -26
 -127
   37
   14
  107
    9
  -88
  -81
  126
   74
  -23
  -70
  -28
  -18
 -109
   78
 -106
  101
   97
 -100
 -109
  -16
   99
   20
  120
   18
  -47
   78
   -6
   32
  -74
 -117
 -104
   26
   35
  -23
   50
  -73
 -108
  -67
  -87
   55
  127
  -27
 -122
   33
  -82
   23
    8
  -40
   55
  -38
   11
   -8
 -124
  -94
   50
  -26
  -71
  -99
  -17
  -51
   36
 -106
 -107
   77
   61
  -29
  124
   27
  -35
   67
   56
    5
 -100
 -100
  -76
   52
   48
   89
   30
   74
   32
  -98
  -69
  -47
  -48
  107
 -113
   51
    0
    4
  -13
   85
   -7
   58
  -25
  -98
  -28
    5
   52
 -116
  -69
   84
   -7
  -32
  -19
   16
   -7
  -77
   87
   18
  -32
 -103
  -31
 -108
  -78
  114
   78
  -96
  119
   26
   45
  -66
  111
    8
 -125
  120
   97
   38
 -105
   36
 -109
  -51
   32
 -120
  -87
   58
    8
  -77
  107
  -73
  -38
  -87
  -33
   60
 -120
   16
  -72
  107
    5
  -88
   84
   64
  -40
   31
   28
   28
   24
 -120
  -29
  113
   41
  110
   98
   53
  -15
   80
   91
  -80
  -37
   17
  -80
   -9
  -81
   23
   72
   40
 -112
   48
   41
 -114
   67
 -119
  101
   53
 -105
  -42
  -92
  -66
  120
  120
   78
  108
   46
   37
   -1
  125
   57
  -31
 -107
   59
    4
    6
   80
   85
  114
   -3
  -82
  -82
   25
  121
  109
   14
  -54
  -70
   68
  -72
  -14
  -38
  -20
   78
 -120
  -68
  104
   87
   85
  -88
  -50
   60
   26
   23
  105
    1
   75
   78
   39
   25
  -52
  119
  108
   38
  -83
  -82
  -45
   34
  -55
  -50
  100
  122
   90
   -1
   96
   53
  116
  -61
  108
   65
   41
  -70
   82
  -17
  -28
   -6
  -59
   23
  120
   97
  118
    4
    3
   14
   89
   87
  -95
  -63
  -42
   59
   46
  -44
  -36
  -43
   -9
   95
  116
   16
  113
   85
  -58
  -41
  -85
  119
  -23
   93
  107
   73
  -40
 -110
   67
   24
   16
   47
   32
   62
   58
  -42
  -62
  -68
  110
  -14
   66
  -23
   53
   43
  106
   61
  -46
   99
  -54
  107
  124
   -9
   90
  -42
 -106
  127
  -58
   29
  108
  -61
  -38
   69
    5
  -37
  -37
   69
 -101
 -107
  117
  104
  -33
 -103
  -34
   49
  106
   16
   23
  -38
  -46
 -124
  -22
  110
  -42
  -50
  -93
   30
   12
  108
  -74
   85
  -30
   69
  -72
   98
  -13
  101
  -36
   50
   23
   81
  -85
  -85
   16
   19
   96
   25
    0
  -50
  -35
   83
    6
   16
   63
   40
  125
   48
   24
   66
   19
   76
  108
   69
  -59
  114
   93
   23
  -89
   63
   22
   65
 -111
  -22
   99
   96
  112
  -42
 -104
   -1
 -103
   94
 -100
   36
  -42
  -47
   90
   18
   -5
   35
  -62
 -101
  -36
    5
  -88
  -96
   93
  -59
  -43
  -56
   54
 -121
 -126
 -107
  -53
   92
 -105
  105
  -91
   45
  -73
  -45
    1
 -127
 -116
   98
 -110
   24
  -41
  106
   42
  -58
  -27
  -87
   63
 -118
  122
    1
   42
   10
  -16
  -26
  -69
  -45
   37
   57
 -121
  -37
  -33
  -97
  -83
  -15
  -73
  -36
   48
   69
  -41
 -123
  -87
  -54
  -21
  -49
  -11
  -42
  -91
  -57
    5
   78
  125
   46
  -77
  -92
   18
 -101
   84
   81
   71
   68
   65
  -63
   80
  -19
   94
  -91
  115
  -89
 -117
  -29
  -54
  -41
   40
  -33
   64
   61
  -43
   68
  -59
  -78
 -117
  -27
   62
   58
   -4
  -94
   48
  -60
  -34
  119
 -127
  -20
   68
  -43
 -125
   98
  101
 -107
   63
 -123
 -107
  -57
   45
  -46
 -117
   43
   19
  -82
    7
  115
  115
 -103
   69
  -19
  -29
  107
    8
  -72
  -55
  -56
 -102
  -31
   59
  -22
  -66
   14
 -112
 -100
  -32
  115
 -105
  103
    1
  -63
  -51
   27
  -91
  -97
  -98
 -119
 -112
   70
   57
  102
  -78
  -48
  -69
 -124
 -100
   38
  -36
   91
   -5
  -88
  -45
   24
  102
   64
   56
  -93
   70
   24
  125
 -124
   85
  -91
  114
  -40
   27
 -110
   75
  -57
 -119
   81
   70
  -94
  -96
  -41
  -28
  -59
 -118
  -30
   15
  -53
 -122
  -57
   32
  -67
  -80
   70
   87
   40
  -71
   21
  117
  -45
  -94
   61
  109
  -34
  -97
  -87
   94
   -3
  -76
  -63
   52
   68
   -4
  108
   31
  -70
   82
  -84
  107
   70
  107
  -70
  -16
   39
  127
 -114
  -54
