  -61
   46
   83
   11
   13
  -41
   15
  -81
  -40
  113
   31
  118
  -62
   77
  101
  -64
    2
   38
  -47
  101
  108
   62
    7
  -25
  -64
 -108
  112
  -54
   18
 -122
   70
   48
   56
   12
  -61
 -119
  -69
  127
 -122
 -119
   66
   11
  -16
  -10
  -39
   10
  -39
   34
   88
   -1
   33
  -33
 -113
   41
   20
 -116
 -117
  127
   74
   59
   51
  -12
    2
   82
  -80
   32
  111
  -95
  101
  106
 -127
   22
   94
  122
   88
  -33
   77
   42
   61
 -103
  -64
  125
  -75
  127
   -4
 -107
    1
   42
    6
  -53
  -61
  -68
   80
 -123
   16
  105
   41
 -109
  -76
   33
  107
   69
  -75
  -42
  113
   71
  100
 -101
   39
   37
  -11
  -68
  -89
   55
  -35
  -81
   16
   97
  -47
  101
  -38
 -107
 -121
   51
  120
   17
   54
   84
   77
  -27
  123
   56
   33
  -53
  -48
 -116
  111
   13
   50
   67
   91
  -91
   21
   -6
  -77
    4
  101
   -5
   61
  -51
  -97
   98
  -29
   53
   -5
 -106
  109
   79
   62
 -115
 -121
  -82
   18
  -24
   40
  -36
   97
   57
   12
  -47
 -124
  -35
   89
   81
   56
   76
   10
   28
  -14
  -46
  -30
  -44
   33
  -68
  -85
   71
  111
  -65
  -62
  119
  109
  -40
  -58
  114
  -36
   25
   70
  -17
  -79
   68
   17
  -71
  -69
 -107
   43
   27
  -48
  119
   66
  -76
  -87
  112
 -112
  -55
   57
  121
   85
  -53
   11
  -49
   43
    2
  -50
  -39
  -69
   22
  -54
    3
  111
 -118
  -87
   12
   72
  103
  -35
   81
  -99
  -24
  -90
  -98
 -112
   56
  108
  -78
   -8
  126
   92
   39
  -15
  -29
  105
   44
   21
  -61
   -4
   33
  -17
  -34
   59
    6
 -119
   63
  -85
   57
  -96
   58
   56
 -126
  105
   -5
   21
  -26
  -19
  -44
  -65
 -124
   17
 -105
  -31
   51
  -17
  -68
   10
   21
   93
  -82
  -15
  -80
   19
   34
  -36
  -64
   16
   32
   76
  -91
  -36
  -87
  -69
  -56
  -87
   53
 -120
  -74
  105
 -126
   79
   72
  -66
 -122
  -34
   96
    3
  125
   17
 -107
   49
  -81
  -13
   95
 -111
    4
 -110
  -94
  104
  -19
   -2
  -83
  -97
 -106
  -18
  -67
    9
  -21
   26
   31
  102
   82
   18
   14
  -82
 -109
   67
  -56
   10
  -52
 -107
  -36
  -30
   54
   65
 -109
  123
   11
  -53
   14
   -3
   14
  -25
  -55
   83
   43
   72
  122
    4
  -61
  -53
  -94
  -76
   61
  102
  -36
  -36
  114
  -72
  -65
  -44
 -123
  -90
  -95
  119
 -127
   85
  -52
  105
  124
  -40
  126
   29
 -125
   31
  -39
   59
   20
  -39
   46
   51
  -62
   91
   25
  -84
   41
  -48
   31
  120
   83
   80
  -66
   84
  -26
  -71
  -88
  -84
  -85
 -114
 -116
 -116
  118
 -121
   -5
  -53
  -27
  -45
   35
   51
  -89
  -60
 -108
  -87
 -116
 -110
  101
  -38
   22
  -91
  -73
  -69
   18
   35
  -10
   94
   -3
  112
   90
  -35
   15
   35
  -59
  -42
  116
  119
  -98
 -123
 -120
   30
    1
  120
  -36
  -34
  126
   47
  -99
   72
  -88
  -71
  -35
   24
  105
  -41
   59
  -59
    8
  -61
 -121
   25
  -72
   56
   50
   44
   91
 -106
   37
  -18
  124
   50
   22
  -16
  106
   60
  -84
  -44
   64
   -5
   28
  -30
   62
   94
   48
   13
  -24
  -33
   -6
  -98
  -68
   18
   23
 -105
  -76
 -117
  -54
 -104
   30
  -81
 -118
   21
  -72
  -35
 -115
  124
   41
   37
 -121
    4
   53
   57
  -33
 -119
   77
   64
  -98
  -23
  -69
   83
  -28
  -65
   66
   83
  -59
 -103
 -109
  -82
  -81
 -105
   98
  -20
    9
    0
   97
   31
 -126
   43
   74
 -100
  -93
    3
  -14
    2
  -90
  109
   63
  111
   71
  121
  117
  -36
 -118
  100
 -127
   68
  -95
   25
   48
   11
   32
  -10
   70
 -115
  -58
   38
  -15
  117
    3
  -96
  -30
   87
   59
   50
  104
  116
   81
  -99
  -26
   44
  -10
   51
   35
   97
  -39
  -78
  110
  -37
  107
 -120
   45
  -21
  100
  112
 -103
  -22
   25
   -6
   32
    4
  -65
  121
   44
   75
  -46
  -88
  104
 -110
   34
  108
  -92
   69
  -61
    5
  -70
  -30
  -96
 -106
   12
  126
   17
   55
  103
  -79
   82
 -121
  125
  -60
   98
 -100
 -101
 -115
   43
  -84
  -30
   85
  -14
   14
   37
  -69
   41
   98
 -101
  -34
  -90
   53
    7
  117
   70
   98
  -53
  -12
   85
 -112
   21
  -65
   49
   76
   87
   -8
   -5
   83
  -56
   55
   12
  -52
   17
 -126
   53
  -73
  -85
   26
  -68
 -105
    9
  109
   40
   85
  110
  108
  -60
  -63
   -9
  -93
   -9
  124
  117
  -71
 -120
   14
   28
 -102
    7
  -20
  -58
 -108
  118
  -94
  122
 -112
   26
  113
   74
   33
  -64
   20
   98
   81
  -99
  -50
   71
 -117
   39
 -111
  -85
  -80
   47
  -11
   60
 -113
   51
   -4
   13
  124
  -13
  110
   90
  -55
  -26
  109
   73
  -24
  -58
   61
   28
  -28
   66
  -78
  -80
  110
 -125
  -82
   43
  -62
 -111
  -88
  -27
   56
 -124
  -83
  100
    5
  101
  -42
  -40
  -90
  105
  104
 -100
   -3
   26
  -62
   32
  -26
   37
  -88
   13
   19
  -84
  -24
   82
  113
 -122
  -91
   57
   37
  -82
   54
  -57
  -30
  126
   81
  -54
   64
  -73
   40
  -97
 -122
   75
  -61
   25
  -56
    2
  110
  -31
   25
   -9
  -39
  -26
  -86
  -65
  -43
  120
   22
    7
  -41
  -34
    1
  -79
  -54
   83
 -111
   62
   67
  124
  103
   36
 -117
 -123
 -109
  105
   25
  113
  -55
  -57
  -47
  111
  -57
  -12
  -72
  -93
   81
    2
   94
   10
  114
   72
  -27
   17
  -37
   -5
  -19
   74
  -38
  -68
  -43
 -125
   22
  112
    5
  106
   -4
  -86
   86
   -2
 -125
   78
  -49
  -81
  -94
  -69
   34
  -10
   78
  -68
   40
  -26
 -107
  -38
   28
  117
  120
  -29
   77
   65
  -35
   23
  -87
  -31
   36
  126
   -3
  -66
  -93
   76
   97
 -111
  -78
    7
  -26
 -122
   64
    5
   16
  -72
   79
  -56
 -118
   87
 -123
  118
   95
   27
  -31
 -100
  -31
 -126
  109
   38
   69
  -35
  -77
  -51
 -119
  -23
 -111
 -104
 -116
 -121
  -22
  -65
  -56
   82
   41
  -99
   63
  107
   35
  -84
    7
   17
 -102
   83
   30
  -40
   77
  -13
  -96
   95
   44
   44
  -80
    9
  -32
   86
   77
   51
  103
  -73
  -39
    4
   -3
   62
 -105
  100
  -23
  105
   65
   13
  -79
   78
   48
   11
   95
  -12
  -42
  -79
   36
  -30
   52
 -101
  -79
   -1
  113
  -37
  -51
 -125
   74
    6
   29
   68
  -54
 -122
  -53
  -51
   92
  -92
  -87
   52
   25
 -116
   73
  -54
  -27
  -42
 -110
  101
   58
  -17
   41
   15
  118
  -27
   19
  -36
   -5
  -64
  -41
 -125
  -70
 -127
   94
 -102
   81
  -24
  -96
   59
 -109
  105
   85
  -33
   50
   69
  -25
  -77
   63
  -37
   84
  120
 -106
   23
   -6
  103
  -64
  -32
   61
   52
  -78
   57
  123
   68
   15
  -97
  108
   97
  -65
  -88
  -35
 -116
  -84
  -50
   20
   51
  -22
    3
   88
  -68
  -65
  -72
  -34
  118
  -50
   49
  -38
   69
    7
  -51
   -5
   95
    4
  104
 -107
  -27
   44
 -123
  -48
   83
  -72
  -14
  120
  -98
  -23
  -14
   32
 -127
    5
 -114
   64
    3
  -66
  -15
  -27
  -52
  -95
  104
   84
  -44
  122
   98
   86
   74
  -50
  -66
  -23
   82
   18
 -114
 -125
  123
  117
  -65
   42
   -3
   15
 -113
   81
  -49
  -66
   25
  -97
 -122
  -78
  -11
  122
   62
   96
   77
    1
  108
  -77
  -60
  -31
 -121
  114
   26
   38
   59
   14
  104
   20
  -61
  -61
  -13
  -75
   53
   47
   77
  -45
  111
  -19
  -69
  125
  -78
  -88
  -18
   32
  -96
  -10
  -17
  105
   96
  -63
  -16
   61
  110
  101
   91
   53
    0
   56
   18
    9
 -127
   41
   85
   72
   87
   63
  -46
  105
  -82
 -113
  106
   72
  -57
   11
   91
  -57
  -47
 -105
   55
  -11
   33
   82
  -67
   -1
   66
   36
   -6
 -120
  -16
  -76
   47
   23
  -92
 -118
  -49
   17
   69
  -56
   64
  107
    3
   66
   45
  -71
  -50
  -40
  -81
  111
  -36
 -105
    4
 -116
 -101
   13
    6
  -30
  -31
  -18
  109
   22
 -119
   68
  -15
   68
  -91
   57
   13
  -88
   72
   11
   30
 -120
  121
  -56
   72
  -22
  -53
 -119
 -101
    6
  -53
   -7
   76
  -77
  111
   71
  -39
  -33
  122
   61
   32
  -37
 -106
   46
   33
   13
  -42
   24
  -34
  -90
   72
  -25
   63
   13
   84
   86
  -33
 -105
  -44
  -91
   18
   10
   -8
 -120
  -65
 -124
  127
   68
  -50
  114
   48
   47
  -39
  -83
  104
  -99
  115
  -34
    3
  -44
  -78
  -93
 -115
   -6
   73
   35
   77
  -28
 -104
  -60
  115
   72
   92
  -60
   76
    5
   77
  115
  -47
  -51
   85
  -48
   30
   94
   99
   32
 -106
 -124
   96
  -31
  -16
  -88
   -8
  -58
   68
   33
  104
  -22
  -91
   97
   82
  -21
   92
   12
  -64
  -16
   -4
   12
  127
   74
  -33
 -116
  121
 -125
  -72
   41
   67
  -47
    4
  107
   49
   62
   84
   93
 -102
  -70
  -13
   87
   23
   11
   92
   76
   81
   76
  -37
   77
  -84
   73
  -80
   64
  126
 -101
   83
 -121
  111
  -19
  -94
   44
 -122
   89
   34
   85
   73
  -91
   46
 -122
   67
  -79
  -54
  123
   80
  122
   89
   59
  100
  -46
   97
   27
   51
   38
   40
   65
  -18
  -88
   93
 -115
  -53
    3
   17
   40
  118
   91
 -113
  -72
  -62
  -35
   46
   41
   84
  103
  -47
   39
    1
    7
    4
   -7
  126
  -47
  -39
    6
  -48
  -70
  -55
   83
   24
  -94
  -53
   73
  -16
  -45
  -57
   26
 -121
  111
   21
   67
  -17
  115
   96
  -32
   71
  -95
   10
  -71
  -32
   54
    1
  -67
  105
   74
 -113
 -110
  -55
  -86
  -18
  -46
  -31
 -114
  -31
   21
   65
  -49
   57
  -30
  -31
  -90
   39
  -74
  -61
  -72
   97
    6
   -7
   96
   85
   73
  -32
   82
   31
   22
  -71
  -63
   38
  -48
   36
  -49
  -86
  -81
  -73
   99
  -81
  -98
  -32
   62
   13
 -110
   82
   11
   78
  101
   63
   90
  -93
  -19
   33
 -117
   49
  -25
  -30
   13
  -33
  -36
   91
    3
   -7
  -63
   62
   58
  -54
   51
 -125
   -7
 -118
   47
  -66
   74
  -30
  125
  116
  104
  -16
   79
  125
  -89
   17
 -124
  -41
  -54
   72
  119
  -61
  -61
   12
   83
 -103
  -81
  -52
  110
  -44
 -127
 -124
   67
 -103
 -110
 -108
  -16
    2
  104
  -42
  127
  -95
  -46
   95
   17
   33
   62
   52
   96
  -84
  -88
  -84
   39
  -98
  120
   17
  112
  -90
  -26
   59
  -23
    8
  -48
   51
  126
  -75
  -52
   -5
  -57
   57
   86
   70
  -93
   47
  125
   65
   28
  101
  -26
 -110
 -114
  -83
   27
   45
    9
 -122
  114
   97
  -51
   59
   22
   27
   63
   73
  -97
 -108
 -122
  -44
  -35
  -27
  -80
   -4
  -36
   93
  -49
    5
   44
   84
  -16
   30
   31
   56
  -48
   69
   34
   14
   31
   30
  -43
   24
  -12
  -25
 -112
  -24
  -45
   66
 -103
   65
  -73
   28
   11
   11
   31
  111
  -12
   34
 -119
  -75
  118
   18
  -92
  -38
  -89
   -5
   56
   44
    0
  120
  -48
   59
 -114
  -74
  -50
  -48
  -13
  -24
  -90
   87
  100
 -103
  114
   15
   53
  -84
   13
  -80
  -13
   86
  -95
   61
   63
  -75
   39
   22
   99
   -1
  -15
 -122
  -59
  110
  -78
    6
  -16
   36
 -121
  -50
 -116
  102
  -67
   15
   46
   45
   57
   59
  -58
   75
   11
 -127
  -56
   49
 -103
   51
 -100
  -56
   -9
  -10
  -61
   -6
  117
  -45
   37
 -105
 -127
  -87
  -10
  -49
  -52
   45
 -118
   65
   23
  -33
   -4
  -16
  -95
   67
  -12
  105
  108
  -67
   32
   47
  111
  104
  -62
   17
  -26
  -81
  -38
 -100
  -86
  110
  -56
  -26
  -88
   19
   30
   95
  -29
  -46
   58
  -82
  -25
  -28
   96
   15
   46
  117
 -112
  127
   63
   92
   89
  -35
  -19
   68
   18
   17
   97
  -74
  -38
  -46
  -28
 -114
   72
   22
 -108
  -86
   59
   73
   82
   73
  -44
  -50
  -21
   -2
  -12
  -44
  -42
 -117
  110
   56
  124
  -89
   63
  -29
  -53
  -28
  -54
 -103
   34
  -70
   25
   28
   35
   53
  -17
  -74
 -103
  -41
   35
  -75
   16
   71
  -76
   -9
   -3
  -22
  111
 -126
   18
  -48
  105
   49
  -14
  -75
   72
   31
  -50
   23
  -42
   26
   30
  -68
 -107
   61
   44
  -99
 -110
  123
  -33
    2
 -110
   32
  -70
  120
   46
   98
  -52
  -49
  -22
  -58
   92
   65
 -111
    9
   13
    8
   90
 -119
   91
  -97
  -97
  -61
  -15
   88
    3
   39
  -82
  121
   10
 -112
  -30
    8
  -36
  111
   70
   28
   14
  120
  -24
  -18
 -124
  -18
   15
 -103
   40
    3
  122
  -26
  -28
  -24
   -3
   29
   16
   83
  108
   42
  -42
   26
 -119
   60
   45
   71
   74
  107
  -86
    7
   17
   26
  -56
   66
  -56
 -114
   20
  -50
  -28
   66
 -100
 -105
   48
  104
  -80
 -107
   -6
  -27
  -96
  -80
   60
   73
   48
 -108
  -29
   27
  -27
 -122
  107
   89
  102
  -41
  100
   -3
 -117
   -8
   78
  103
  114
 -107
   55
  -98
   27
   89
  -98
  -61
    8
   67
   83
  118
 -118
   99
  -76
  -78
  -71
   60
 -111
  -18
  -72
   17
  -16
   73
    6
   34
    1
  -23
   83
  101
   80
  101
  106
  -67
   76
  118
   89
  -12
 -120
  -74
  -97
  -15
  100
  114
 -117
   73
  -49
   55
  -25
   -1
  -20
  -79
   50
   71
  -86
  -57
   65
   43
   60
  105
    7
  -24
  -29
  116
  -52
  -59
   89
 -118
   99
   95
  -30
   -5
   61
  -33
   21
  107
  -82
  -95
 -124
  121
   72
  105
  -24
    0
  -89
   58
  -34
  -71
  -56
   18
 -114
   -9
  110
  -36
   25
   71
  -47
 -123
  -89
   41
   39
  107
  120
  126
 -106
   93
  -94
   26
    4
   43
   99
  -54
  -28
  -66
   86
  -22
  -19
   26
   15
  -80
   95
  -44
  -85
   13
   35
  -88
  -31
  -50
   25
  -10
  122
   99
    1
    3
  -31
 -107
  -88
    3
   32
   72
  108
   37
   45
   89
   -4
   81
  122
   56
   71
  -75
   34
   67
  -78
  -51
   17
 -114
   51
 -108
  100
   57
  -87
  -90
  -80
   18
  -56
  -55
   96
  -52
  -83
  -15
   23
  109
   99
  -84
  -14
   39
 -108
   71
 -103
  -92
    0
  -41
   66
  -64
  -22
  -75
  -18
  104
   84
   88
   28
   19
  -82
   65
   15
   98
 -100
 -110
  -61
   17
  121
   -8
 -106
   26
    3
  -51
  -31
   31
   -3
   47
   55
  113
   50
   39
   22
 -106
  -61
  -20
  -61
  -51
  -26
  -96
 -118
  -19
  126
  -86
  -42
   25
  -90
  -18
 -103
  -28
  -75
  -16
  -69
 -121
  -29
   59
   42
  108
  -71
 -121
   68
  106
   29
   27
  -21
  -74
  -91
   29
  -19
   96
  -63
  118
    5
   38
  114
   71
  -19
   49
   60
   91
   68
   60
    6
  -44
  -75
   10
  -32
   73
 -123
   62
    4
    9
  -52
   68
   33
 -103
  -90
  111
  -51
   21
 -110
  -47
  -38
    7
   23
  -24
  -76
   -7
  -84
   28
  105
   31
  115
    8
  115
   68
  -86
 -103
   65
  -58
  118
   29
  -66
   55
   25
   50
    9
   28
   95
  -12
   -2
   39
   49
   23
   91
   29
  -85
   89
  109
  102
  102
  -65
  -16
  124
   96
   -3
    6
    1
   41
   52
   12
 -127
  -85
 -111
   -9
  114
  107
  -54
  -95
   42
  -81
 -109
   12
   56
   23
  -94
  -31
   30
 -111
  -56
  123
  -14
   14
  -70
   49
 -107
  102
   83
   15
  -84
  -81
  -29
  122
   33
  -97
  -51
  -94
   88
  -95
   -6
  -14
   -8
  -99
    8
  -76
   23
  -44
  125
  -20
   96
 -103
  -54
  -24
   81
  105
  112
  -99
   -9
  107
   82
  -55
 -127
  122
 -103
  125
   -2
  -70
   41
   86
   16
  115
  109
 -109
 -112
   17
   75
  121
 -100
  -86
  -47
   -3
 -116
   80
  -80
  -89
   58
   45
  -34
 -112
  -81
   -4
    2
  122
  127
  -83
  -22
   77
 -126
  -10
   95
  -96
  103
   -7
 -104
  -14
   62
  -38
  -69
   50
 -109
  114
  -43
   74
  -31
  -80
  -57
 -110
   58
  -21
 -125
  -56
  108
   78
  -59
  -18
  105
 -114
   62
  -85
  115
   10
  -32
  -94
 -102
  123
  -31
  114
  112
 -108
   69
   11
 -109
   -5
  -52
   24
  -37
  -45
  -42
  118
   68
   13
   54
   32
   18
 -113
  116
   41
 -126
   44
 -113
  -53
   -8
   55
    9
  -84
 -124
 -104
  106
 -124
   25
   13
 -106
   31
   48
   17
 -123
  -84
   -3
  104
  -62
 -117
   34
  101
  -21
   98
  -60
   49
  -40
   55
   21
  -16
   98
   11
  -25
  106
 -100
  -22
  -39
  -83
   66
   40
 -121
  -25
  -12
  -85
   76
    3
   -2
  -55
   76
   14
 -114
  117
  -28
  -26
  -40
   30
  109
  -17
    0
  -63
  -62
   63
  -45
  -15
  -26
   -1
   75
  -81
  100
   50
    6
  -96
 -101
   47
   78
  121
  -24
   72
   90
  -46
   96
 -103
   31
   21
  -24
  -36
   80
  124
   16
  -10
  125
  -75
  -75
   14
  -29
   -2
   68
 -102
  -85
   99
    3
  123
  -98
   99
    9
  -88
   81
   73
   24
  -77
  -85
 -110
  -35
 -102
  -34
   42
   46
  -87
   57
 -116
   85
  -96
  100
  112
   39
  -44
   48
   24
  -47
  -13
  -42
  112
   13
   41
   -1
 -119
   57
  -99
  -66
   70
  -85
   83
  -38
   98
  -24
  -75
  -36
  -53
  -34
   85
   81
    8
   33
  120
  -93
   60
  -84
   85
  -62
   16
   96
   68
   86
  -25
   13
 -127
  -43
    5
  -42
 -114
  -40
   71
   96
   11
 -113
  -60
  -47
   80
  113
   63
  -88
  111
   25
   16
   55
   31
  105
  -55
   98
  114
   88
 -108
 -121
 -122
   57
  -66
  -42
   51
    8
   -2
  -95
  -52
  124
  -44
   43
   52
  -15
  -12
   73
  -45
   23
   35
  112
   -3
  -92
   28
  -17
 -104
  -81
  -45
  -41
   54
  -63
    9
   64
 -117
  -69
   45
  -99
  101
  119
    4
  -26
   83
   61
   94
   92
  -67
  -47
  -75
 -110
  -84
   75
   58
   55
  -98
  -40
   76
  -39
   33
   87
 -117
  -33
   74
    5
   18
   36
   36
  -67
 -119
  -97
  -31
  109
  -26
  -23
  -67
   34
  -65
   39
  -28
    9
  -41
  -95
  -30
   78
 -119
   99
 -115
   78
 -126
   16
  -95
   42
  -13
  -78
   10
   -9
  -80
   53
    8
  -11
  115
 -122
   97
   97
  114
   14
  -93
  -94
  -40
   38
    3
 -103
   68
  -67
 -118
  -20
  -75
  -91
   -6
    7
   43
   85
  -69
   59
   86
 -115
   40
  114
  -88
   90
  -78
  -23
  -21
   51
   35
   92
   90
   13
    8
 -120
   86
  111
 -100
  103
   64
   -9
   69
  118
   39
  -62
  -62
   97
  -63
  -41
   16
   92
  -99
   19
   -3
 -118
  -77
  -92
  110
 -114
   85
   12
   93
  -17
   46
   43
  -51
   66
   73
  -13
   71
  -99
   57
   94
  -33
 -118
  -42
  -10
  -26
 -119
  124
   71
  -33
   47
  -86
  -32
   12
 -108
   30
   16
   38
   12
   97
   22
 -100
   52
  122
   25
  -92
  -99
  -33
   69
   31
   63
  -75
  108
   41
   10
   93
  -64
  -36
  -36
  -86
   10
   37
   84
  -81
  -89
 -121
  -43
  -73
   83
 -110
   38
  -42
   60
   89
    7
 -122
   88
  -28
   16
   -7
 -113
  -96
  -67
   22
  -59
   89
   25
   42
  103
  -25
   -4
  -42
   -1
   51
  102
   77
  -43
   11
   58
  -64
  -75
  102
  127
 -115
  -77
 -119
   -4
   95
   -4
   85
    9
   61
   79
  -28
 -119
  -99
   80
  -68
 -106
   93
    8
  109
 -103
  -94
   56
  -80
 -119
  -32
   -3
   30
   -7
   31
  -38
  120
  102
   40
   48
   77
 -106
  122
  -15
  -30
  118
  120
   39
   30
   85
   19
  -11
 -117
   58
    6
  107
   85
   88
  -16
   53
  -46
  -84
  -16
  -15
  -69
  -24
   16
   42
   45
 -100
    6
   31
   32
   50
   11
  -19
  -44
   27
  -41
  -27
  119
  120
   75
 -126
   66
   23
  -17
 -111
  -52
  106
  -61
  -27
  -29
   44
  -93
    1
 -126
   65
   -4
 -125
  -77
  103
  -93
   85
  -42
  -59
   58
   32
  -11
  -75
 -102
  112
  -88
   72
   10
  -91
  -98
    3
  -72
  -38
  -79
   40
 -118
  118
  123
   78
  -33
   59
   25
   47
 -107
   92
  -28
   32
  103
 -120
 -110
  -27
  -59
  100
   25
 -105
  116
   -4
   23
    8
 -100
  102
   61
    0
 -113
  116
   -8
  -38
   11
 -124
    8
  -43
  -43
  -61
  -73
   37
 -121
  -89
  -35
   75
  123
  -90
   14
   55
  -96
  -94
   38
   -9
  -81
  -50
  -91
  120
  -76
 -108
   53
   95
  -58
  125
  -80
   69
  -40
   23
   75
  -67
  -44
    4
   48
  -18
  -56
  -96
 -112
  -93
   79
   63
   31
 -126
  105
  -96
  -39
   99
  -11
  -26
   84
   50
 -121
  -80
  -83
  -69
 -104
   58
   33
  -54
 -118
  -20
   16
  -92
  -58
 -123
   73
   77
  -72
 -103
 -124
  -99
   50
   86
 -102
  -85
  -26
   25
  -43
  -97
 -112
 -113
  -23
   94
  125
  -78
  -89
  101
  -13
  -87
  -42
 -118
  -55
   88
  -86
  -13
  -35
    0
  -68
   36
   90
 -113
 -101
  -37
  113
   62
  -46
   44
  -74
   76
  -42
   77
 -119
   65
  -10
   55
  -59
  -18
   49
    6
   81
  -59
  -63
   24
   84
  -32
  -37
   63
  -40
   20
   37
  -56
  -46
   -1
   37
  -32
  122
   71
  -21
    2
   64
  -16
   81
   73
  110
   27
   55
  -72
   88
  103
   36
  -55
   56
  110
    0
    2
 -115
  -31
  -51
  -17
 -105
  -51
 -115
   41
  -89
   44
  -70
 -103
  -13
  -48
  105
   10
  -45
  -38
  109
   -2
  -84
   49
   80
  -58
 -117
  -45
    4
 -102
  -92
   68
  -93
  -85
   46
  -93
  -77
  -31
   35
   -7
  -13
   77
  111
   11
  119
   26
  108
 -119
   33
 -116
   48
  -74
   91
   68
   92
  -64
   49
   32
   69
   85
   58
  -80
  112
   95
  -15
  -79
  110
  -98
   33
  -68
  -58
   12
   82
  -47
  -87
  -71
  -38
  -81
   -2
    0
    8
   62
   17
   60
  -51
  125
  -36
  -21
 -115
  -82
    6
  -42
   83
 -105
    7
  -64
  -18
   22
   86
  108
  -47
   37
   81
   96
  -30
    5
    8
   79
 -110
   85
  -64
  -26
  -95
  -44
   83
   12
   68
  -20
 -116
  -56
  -25
   53
  -19
  -56
  -83
   40
   71
  -10
  -95
   53
  -70
  -27
   27
 -121
   79
   -6
   19
  -72
   59
   46
  -85
  -48
  -39
  106
   27
  -22
  -53
   12
   99
  -48
   63
  -67
  116
  115
    8
 -115
  126
   37
  -66
  102
  -32
  -11
 -120
  -53
  -27
   45
   78
 -116
  -54
   96
  -57
   91
   85
 -123
   -3
  105
  -25
  -84
 -109
  -63
   27
  -11
 -109
  -32
   72
  -43
   22
   63
  -76
 -104
   21
   77
  -92
  109
   76
  111
   36
 -110
  -61
  -70
   74
   59
   30
 -116
  -82
  -46
   -3
   -5
   39
    5
   36
 -114
  -12
 -110
   41
  120
  -69
  -42
  121
   25
   84
  103
   50
  109
   52
   43
   85
   12
   58
  -84
    8
 -112
 -101
  -65
  -44
   34
  -74
   65
   32
  102
   39
   65
   72
  -27
  -32
  113
  -66
   76
  -10
 -118
   11
   29
 -112
  -68
 -107
  103
   93
   74
   21
  -18
  -10
  -59
  -26
 -126
  126
 -107
 -117
  110
  109
   80
   66
   72
   -4
   33
   97
  -95
   74
   67
 -103
  114
  -81
  104
  111
  -91
   53
  122
  -71
   68
   93
  -66
    0
 -126
  -41
    4
   43
  -15
   93
 -105
  116
  -60
  -14
 -104
    1
 -103
  109
  109
   66
   39
  -77
   58
   98
  -22
   35
  -58
   74
   62
   61
 -113
  -90
   60
  122
   21
  -43
   48
   35
  -55
  126
  -96
   23
  -87
    7
   64
  -64
  -62
  -41
  103
  -24
  -39
  -21
 -109
  -20
  112
  -56
  124
   85
  -80
   54
  103
  -53
   98
  -73
 -110
  -25
   38
  -76
   -7
    4
  115
    5
  -15
  -31
  -52
   26
   48
 -117
   31
   58
  -49
   93
   86
  -79
  -26
  -79
 -127
 -125
   76
   53
   30
    7
   41
  -24
   31
  -71
  -29
   68
  -43
   26
  -20
  -53
  122
   40
  -84
  -35
   -8
   77
   84
    4
    3
  -36
 -102
   20
   11
   71
 -107
 -109
  116
  100
  -93
   43
  -11
   26
   58
 -107
 -102
   94
  114
  -64
 -127
   -5
  110
  -37
  122
  -54
  -86
   40
   43
   80
   70
  125
  103
 -126
   89
   97
 -100
 -115
  -44
  -91
 -100
  -27
  -85
   21
 -119
   12
  -60
   94
 -115
   33
   -2
  -15
 -124
   61
  -49
  124
  -17
 -116
   -4
  -16
   66
  -79
   51
   36
  112
  102
   28
   82
  -89
  -75
 -105
  -36
 -123
  -69
   93
 -124
  -45
  -48
   52
  -49
  -16
   11
  -51
  -81
  -17
   11
   -1
   74
   11
   70
 -106
  -60
   38
  -35
   36
   -8
  -27
    0
 -112
  -57
  -63
  -18
   64
   37
  123
   44
  116
  -25
   43
  -80
  -76
   -9
 -108
  -75
   26
   16
  105
  -63
  -72
   85
  -48
   17
  -50
   15
   58
  -24
  -82
   44
   93
   14
  -56
  123
  -72
  -27
  -54
  -20
   37
 -107
    3
   60
   59
   26
   -5
 -116
  -80
   67
    9
 -120
   29
  -56
   28
  -32
  -59
  -91
   18
  -55
    1
  -38
   35
   75
   12
  -79
    6
   30
   85
   36
    6
   68
  -16
  -15
  113
  121
   94
 -108
  -99
  -74
   47
  -81
  -25
   77
  -53
   17
   92
  -29
  -11
   45
   95
   13
 -104
   66
  107
  121
  100
  -33
   30
   56
   22
  114
   76
   15
   47
   54
  -28
   93
  -25
  -53
  -31
    6
   72
   52
   23
   91
  -92
   96
  -49
  -75
  -63
  -97
   16
  -66
  100
  -93
   58
  -89
  -36
   89
  -72
   87
    9
 -124
    6
 -127
   18
  103
  -14
 -124
 -118
 -107
  117
  -76
  119
   32
   15
  -28
   20
   39
   -1
   18
   18
 -127
   62
  109
   29
   84
  115
   43
  123
   99
  104
    5
   13
   97
   45
  -26
   -4
   72
 -117
   81
   15
   37
  -41
   -2
 -125
  -40
  117
  127
   41
   23
  100
  -98
   94
  -65
   81
   37
  -42
 -122
   57
   -3
   37
   71
 -123
  100
  -89
    0
  -96
   39
   15
  -38
  -95
    8
  -64
   -7
 -115
   58
   -6
 -106
   92
   81
 -116
 -123
  114
  -61
  122
    0
   36
  -37
  119
   29
  104
  107
  124
  -99
   92
  120
  -61
 -107
  113
   62
   72
   32
  -12
 -108
   12
   89
   60
  -45
  -90
  116
  -76
   21
   64
  -97
  115
   45
   20
   32
   10
   31
   92
  106
   92
  125
 -105
  -79
 -106
 -109
  -17
  -45
   -2
  -55
  -39
   18
  -11
 -108
 -127
   -9
   42
   94
   28
   57
   88
   -3
  -54
 -112
 -117
 -110
   28
   39
   21
  -61
  102
  120
  -77
 -107
  -44
   87
  -99
  -39
   93
  -19
  -11
  -22
  -16
   89
  -48
   46
  126
  108
  -67
  -14
   86
  -29
  122
   27
   41
  -54
  -20
    0
  -32
   49
 -106
  -60
   23
  -41
  101
  -94
  -67
   28
  -95
  -74
   91
    8
  -12
  -40
   91
 -119
   65
  -54
  124
   89
  -57
   29
  109
  -73
  -81
  -68
   75
  -19
   46
  -11
  109
  -99
  -13
  126
   28
  -89
   78
 -114
  115
   71
   78
    8
 -116
 -101
   47
  -19
    9
   23
  -65
   43
 -115
  105
  116
   85
   31
  -14
   35
  -32
  -66
   91
  123
 -114
  106
  -39
   68
    6
  -74
   36
   32
  -19
  -40
  -96
  115
  -31
  -87
  -93
 -105
   35
   15
  -88
   25
   23
  -91
 -120
   11
   25
  -30
   85
  -55
   99
  -59
  112
   17
  -60
  102
  -47
   51
   85
  -63
  -20
  -72
  -70
  -71
  -65
   74
  123
 -126
   -9
    0
  121
  -80
  -13
  -45
  -43
  -28
  -72
  -13
   -3
   -5
   24
    6
  -65
   46
  107
  -25
   81
  -93
 -109
  -68
  -83
  -38
  -29
   68
  -73
   31
   75
   24
  -62
   25
   61
  126
 -113
  105
   58
   36
  -77
  -95
  -25
   40
    3
  -23
    7
  109
   36
   54
 -120
   16
  -98
   25
  -10
  -93
  -34
  101
  -12
  127
  103
   95
  -28
   20
  -45
   65
  -91
  -94
  -18
   98
   41
   73
    0
   13
   36
   11
   79
  -61
 -106
   76
  -71
   38
  102
    3
   77
  101
  -42
  -68
  -22
  -26
   40
  -81
  116
   12
 -127
 -123
  -59
   26
  -13
  -64
   23
  -51
    1
   87
  -14
   92
  -17
   94
 -122
 -120
 -123
   42
  103
   99
 -104
 -115
  -84
  -27
  -60
   78
  -83
  -71
 -114
 -125
  -55
    5
  -16
 -101
  125
  -96
  -19
 -113
  -67
  -15
   27
  114
 -119
   97
   98
  -80
  -85
   -8
    9
   88
  -16
   89
 -126
   14
  -40
 -106
    0
  -65
  -34
  -75
 -104
  -75
   84
 -107
   86
   57
 -126
  -77
  -57
  -26
  -20
  -38
  -37
  -49
  -73
    8
  -67
   32
  117
   94
   43
   82
  -62
    9
   72
  -89
  -36
   21
   56
  -92
  119
  -78
   46
   77
  -79
  -86
  -66
  -81
 -101
  -66
  -85
   57
  -96
  102
 -115
   98
  -72
  -57
  -62
   10
   15
  -14
 -113
    0
  -72
   91
  -72
  126
   46
   -4
   19
   22
  -72
   99
   45
   19
   57
  -10
  -88
  -98
  -89
  112
   18
  -13
  -45
  -87
   17
 -120
  109
  -57
   15
   15
  102
   91
  -76
   26
    0
  -34
  -42
   95
   15
   49
  -10
   90
   97
  -67
   73
  -51
  106
  -37
   84
   68
  101
   70
  -11
 -109
 -100
   -3
  -37
  -75
  -97
  100
 -115
  -45
  -36
  104
  -42
  101
   60
 -118
   16
   25
    0
   61
  124
  -38
   10
  -61
  120
 -116
  -45
   37
   48
 -118
 -104
   76
  -67
 -112
  -10
  -33
   36
  -98
  -16
  -31
   11
   19
  -80
   54
  -10
   48
  -96
   22
  123
  124
   73
  -99
  117
  123
 -121
  124
  -56
  -45
  126
  -90
  -25
  -66
   28
  -15
   31
  -99
 -121
   32
  -39
  105
   18
  -66
 -105
  -48
  -60
   88
   33
   38
    6
 -106
 -108
  -11
  114
  -15
   93
  -10
   91
  -62
   62
  -86
   21
   37
    9
 -124
   33
 -100
   74
   35
  125
   42
  -79
  -80
 -103
    8
   35
 -122
  -12
   26
   -8
   40
    7
  -89
   39
   92
  -76
  -75
   31
  -97
  -56
   79
   33
  -58
  -69
   92
  -89
   41
   62
 -122
   50
  -41
   77
   92
   66
   -3
  -55
  -29
   80
  -60
   97
  -21
   90
  110
   15
   46
  -33
    2
  -97
  -33
  103
  -23
  109
 -102
  -79
  -88
   61
  -83
 -107
  -83
   24
   73
   66
  -53
    9
 -101
   69
  116
   17
   72
  -33
  -76
  -76
  113
  -73
   -8
  -24
  -74
   48
   80
  -50
  -26
    7
  120
   71
  -66
   32
 -121
  -44
   38
 -103
   99
   71
   48
   19
  -98
  -54
  -92
  -12
   15
  -96
  -65
   86
 -109
   46
  -77
   76
   75
  -17
  120
   -7
  -19
 -104
  -48
  -77
   92
   92
  119
   87
  104
   10
    3
    3
  -72
  -47
  102
  -20
   53
  -96
   47
  -45
  113
  -32
    6
 -119
   -4
 -113
   89
  -31
  -48
  104
  114
    1
  -41
   -2
 -111
   77
   40
   89
   52
    2
   22
  -64
  -61
   66
   70
   42
  -91
 -103
  -42
 -116
   55
   23
  -14
   86
   58
 -119
   84
   62
   11
  -60
  -11
  -16
   18
  -33
   22
   19
  -30
   19
  -98
   64
  -89
  -86
   56
  -87
   30
   78
  -68
  -51
 -103
  117
   13
   84
   40
   45
   83
  106
  106
   66
  -23
   41
   -5
  -71
   99
 -110
  -22
   71
  105
   59
  113
  111
  -18
  -15
  -71
  113
   59
  -69
   74
  -94
 -120
  -20
  -36
 -114
   36
  -47
  -72
  -66
   25
   44
  -88
   22
  -81
  -68
  -50
   49
  -68
   62
 -119
   85
  -73
  104
 -113
   44
   41
  -55
   30
    4
 -108
   52
   80
  -29
 -125
  117
   13
    8
  126
   60
   75
   55
  114
   12
   17
   54
   79
 -100
    1
  -41
  -43
   20
   38
    8
  121
   58
   31
   16
   65
   78
   97
   17
  -26
   45
   88
   96
  110
   60
  -46
   60
  124
  117
   31
   28
   82
  102
  105
  -22
   50
  -21
   51
  111
   66
   26
   49
 -122
  -94
    4
  -50
   68
  -24
  -90
  -46
    2
  -95
   59
  120
  -93
   55
   70
  -84
  -85
   61
  127
  -72
   -4
  -89
  -47
  -35
   69
  -55
   61
  -17
   99
  123
 -100
    4
   25
   47
   37
  -73
  125
   65
   33
  -25
   17
   -7
  113
 -109
  113
   -3
 -104
   60
  110
  -44
   39
  -81
   55
  -90
   25
  116
  114
 -104
  -11
   -4
  -39
   26
 -110
   86
   -8
  -78
    3
   65
  102
  -37
   29
  -85
  -89
  -41
 -126
 -103
  -48
   36
    0
  -19
  109
  110
  -88
  -39
   13
  -12
  -99
  -43
  -84
   60
  127
 -125
 -111
  -80
   70
  123
  -31
  116
  116
   48
 -121
   52
  -79
   54
  -49
  -80
   38
   21
    1
  -82
  -16
  103
  -94
   64
   77
 -105
   88
 -123
  -13
  103
   24
  -42
  104
 -107
  -28
  112
  -81
  101
   48
   67
  -37
  -52
   63
   45
 -127
   24
    2
  -71
 -114
   43
   18
   69
   36
   26
  -31
  -46
  -30
   93
   80
  -27
  -56
  105
  -39
   85
  -32
    3
  -51
 -119
    8
   86
  -55
  -50
   87
  -84
   -9
   15
  -47
   72
   49
  -27
   79
  -65
  116
  -85
  -60
  -27
   58
   39
  117
 -117
   91
  102
 -113
  111
 -112
   -9
  -29
  -41
  114
  -99
   89
   86
  -22
   85
   29
  -94
  -77
  -39
   71
   83
  -30
   21
   72
   -9
 -127
    4
   61
  -89
  102
 -104
  -17
  -64
  -91
   79
  103
  -22
   24
   18
   93
  107
   67
 -102
   41
  -78
   69
  125
   67
  -52
   75
   27
  122
   41
   63
  -27
   52
   56
   18
 -122
  -26
   29
   -1
   37
  117
  -99
  -11
   74
  125
 -107
  -77
   20
 -103
    2
   47
   79
   79
  -59
   14
   39
   93
  -61
   50
   11
  -95
  -88
 -114
  -12
   55
  -43
   19
   23
  -82
  -45
 -103
   -2
  -79
  -27
 -108
   -9
   30
  -97
  119
   66
  121
    6
  -64
   83
  -74
   41
   63
   59
    5
  -39
  -35
   65
  108
   86
  122
   92
  108
 -125
   19
  122
  -88
   47
   61
   64
  111
 -100
  -56
  -13
 -113
   81
   22
 -125
   10
   76
    5
    4
   46
 -115
    1
   58
  -47
  -37
  -51
  -63
  116
   40
   82
   -6
  109
   23
   80
  -65
 -124
  -64
   11
  116
   85
  -40
  -31
  109
   34
  -22
   28
 -125
   29
  -23
  -25
  -54
   -8
   84
  -55
  -87
 -107
   18
  -58
 -118
  -63
  -15
  -42
  -88
   86
  -40
   90
   85
  -72
 -123
  -61
   98
   68
   19
   98
   10
 -119
 -119
   76
  -54
  -81
   -3
  -57
  110
   81
 -110
   68
  -38
  -40
   -9
   45
  -36
  106
 -112
  -34
   -9
  -96
  -11
 -123
   95
  -55
  -59
  111
   33
  126
  -12
 -120
   61
  -71
 -119
  -37
   93
 -119
   -8
  101
   41
 -121
   -5
   49
  -57
  -30
   31
 -104
  121
  -71
  -23
  102
 -113
   56
  -68
 -112
   54
  -56
   52
 -111
   21
  -11
   30
   59
  -75
  -89
   58
  -55
  106
  125
  124
  116
   86
  -93
   12
  -96
    8
 -108
  -27
   -1
  115
  107
   12
  -84
   78
 -125
  -80
   35
  -78
   27
  -13
  102
  -86
  -36
  -44
  -26
   44
  103
  123
   69
   56
 -121
   59
   44
  -37
  -71
   -2
   38
 -127
  112
  -47
   82
  -78
   71
   16
   98
   85
   58
 -125
  124
   -7
   97
  -48
   23
    3
   28
  -10
   -2
 -116
   92
   18
  -74
  -60
  114
   91
 -120
  -14
   -3
  -48
   74
  -48
  -11
  124
  -55
   41
   44
 -126
   22
 -105
  123
 -121
  111
  -12
  -93
   74
   77
   65
   46
  -81
  -17
   96
  -84
  103
  -78
  -21
  -44
  117
  -97
  -13
  126
   90
  -15
   29
   30
  -16
   88
 -117
  -32
  -25
   38
  -29
   97
  -63
  -68
    0
  -15
  -15
   92
   61
  -66
  112
  -92
  102
 -122
  -83
   84
   36
   65
  -87
 -109
  107
   91
  113
  -94
   84
   89
   98
   99
  -51
  -29
  -63
  -43
    8
   83
   28
  -13
 -104
   19
    8
 -114
  120
 -108
  109
   20
  -33
   33
 -113
 -113
  -13
  -45
  -89
   13
    9
   26
   23
  108
  -64
  121
   79
   48
  -43
   79
  125
  -42
  -89
 -123
  -78
   74
 -100
  113
  -78
  -69
  -32
  125
   12
   31
    4
    7
 -125
  -83
  -61
 -102
   29
  112
   85
   65
   74
  -65
  -58
  -67
  -29
   21
   46
  -98
   70
  126
    2
   24
    6
   29
  123
   16
   30
   59
   49
  111
 -110
  -91
  121
 -123
  110
 -104
   62
   38
   91
   42
   19
   62
   -5
  -21
  -52
   27
  -21
  -22
  -38
  -49
   69
  123
  -91
   93
  105
  -37
   -7
    7
 -123
  111
  -68
   67
  -37
   86
   67
  -17
  -36
  -79
 -127
  123
  -67
  -75
    0
  -77
  -46
   94
    3
  -91
 -122
    0
  -87
  -86
 -117
  119
  -70
   68
 -114
  -65
  -34
   78
  -37
   79
   25
   15
   65
 -123
  -24
 -124
  -26
   90
   41
   -9
   80
 -114
  125
  -81
 -116
  -43
  -39
   27
  -34
   26
   36
   -1
  117
   75
   46
   21
    2
  -38
 -105
  114
  -57
  116
   98
   16
 -118
   16
  -14
  121
  -77
   29
   45
  -29
  -98
    9
  124
  -24
    0
  -77
  -89
   69
  113
   30
  -94
  117
   46
  -17
 -108
  -59
  125
   43
  -61
  -91
   48
   75
  -93
   35
   73
   79
   57
    4
   23
  -48
 -110
 -117
  -50
  -44
   76
  123
  -58
  -89
    5
    9
  -55
   66
   -6
 -118
  -64
  -86
 -116
  -36
  -34
   82
 -112
  -11
  -43
  124
   60
   66
  -23
  -92
   98
   85
  -79
  -15
 -120
  -68
   52
   70
  -57
   27
   78
   26
   13
  -33
   88
  -57
  -35
   76
  -68
   78
   53
  127
   19
   77
 -126
   40
   70
  -42
  -66
  -58
  -54
   20
  -16
  -47
   74
  -30
   65
 -102
  104
  -49
 -120
  -77
   16
   80
  -68
  117
   51
  -29
  -72
  106
  -42
   78
   64
  107
 -121
    0
  -98
 -100
 -121
 -111
  -65
   -1
   20
   57
   -2
   96
 -122
  112
    5
  -54
   27
   44
  -33
   58
  -16
  -34
  -42
  -58
  -85
   80
  -15
  -97
  -97
   50
  -85
  -17
   57
  -20
   49
   91
   50
   19
  104
   38
   77
 -127
   31
 -127
 -113
  117
  117
  -93
   56
  -44
   34
  115
   59
   10
   61
   59
  103
   14
  -83
   27
   93
    2
   50
  -93
 -118
 -124
   46
   96
  -19
   92
  120
   61
  124
   22
  -55
   30
 -127
  -27
  -74
    7
  -32
  106
   39
   11
   26
  -60
  -73
   31
  -54
    9
   62
  -98
  -35
  -71
  -90
  -69
   87
   83
   26
   96
   97
  -69
 -110
  -94
   27
  110
   46
  -99
   24
  -26
   78
   18
   71
  119
   53
   92
   34
   73
   65
  -43
   34
 -111
 -108
 -102
  -88
 -115
 -124
 -104
   13
  -62
  -85
 -113
   84
  -81
  -86
  -63
   33
   12
   41
  -86
   75
   41
 -108
 -109
  -86
   27
  -84
  -88
  -85
   56
   85
    6
  108
 -123
  111
   -2
   56
 -123
   63
  110
  -26
   52
   25
 -120
  110
  -35
  -31
  -30
   -9
 -103
   87
   14
   97
   35
   48
  -67
   90
   83
   74
   -7
  120
  -77
   62
  -32
   47
   -6
  -37
   86
   46
   32
  105
   78
   38
 -117
 -117
    5
  -59
   73
   94
   62
  114
  -34
   44
    5
  -47
   83
  -11
 -114
  121
   72
  106
  -86
   74
   93
   22
  127
  -64
   19
   53
  -87
   34
  127
   40
  107
    0
   90
   -5
  103
   60
   82
  -51
   51
   68
 -100
   -9
   33
  -49
  -45
 -120
  -44
   66
  110
  103
  -95
    0
  -96
  -70
  102
  118
  127
  123
  -93
  -21
  -25
  -91
   14
  -57
    3
  120
  -86
   67
   32
   40
  -78
   -5
   73
    1
  -37
  -79
  -73
 -113
  -78
  -26
   64
   82
    2
  -60
  -96
  -68
    8
   65
  -73
   18
  -35
  -86
  -89
  -42
    2
   23
   -7
  -56
   89
  -97
  -86
    8
 -120
   90
  -20
  -31
   14
   89
  -74
  -61
   92
  -49
   13
 -112
  124
  -32
   64
  -25
  -96
 -101
  -60
   99
   23
  122
   77
  -30
   46
   81
  -84
 -109
  113
  -77
    3
 -106
 -100
   45
   78
   42
   93
   51
   45
  -95
   66
  120
  -52
    3
 -126
   76
 -113
  -91
    4
   -3
  -22
   51
  -37
  124
 -111
   34
   36
  -16
   -8
  -49
  -89
  -24
  -39
   80
   -4
   88
   59
  116
 -112
  102
   14
   71
  -13
  -24
  -31
   93
   37
 -112
  -87
  -13
 -127
  -76
   41
  -75
   91
   14
  119
 -120
  110
   50
 -107
  -55
    7
   56
  -53
  -62
   -2
  -87
  -14
   62
 -113
  115
  105
  -62
  -21
    8
  123
   22
   43
   47
  -18
 -110
   95
   91
  124
   20
   -8
  -97
  102
  -50
 -111
   19
  -23
  -56
  -68
   27
   99
  125
   24
   32
  -68
  102
 -109
   18
  -43
   60
  106
  -88
   37
  -28
   90
  -67
   55
  -86
  -34
 -106
  -93
 -110
  -35
  -80
  -21
  -66
  -17
 -106
   38
    6
   35
   82
  -82
  -34
   46
  125
    1
  -96
 -103
   32
  -75
 -125
   26
   37
  -89
  121
   69
 -115
  -11
 -114
  125
   58
 -124
 -126
   89
  -75
  -19
  -69
 -101
  -89
  120
   62
  -78
   27
  -85
 -108
  -81
  103
  120
  -37
   44
 -104
  -52
   17
   20
   51
   30
  -97
  -16
    4
  -22
  -61
   -4
   25
  -69
  123
 -123
 -120
  -22
   79
  -77
   97
 -113
   25
 -110
   82
  -93
  -87
   54
   65
  105
  113
  -14
   69
  -31
  -15
  -53
   96
   58
  118
  -89
   81
 -123
   -1
  112
   26
   81
   67
 -113
   46
 -116
   81
   41
    2
  125
   47
   65
   -3
  103
  117
   59
  -81
  116
   74
  -26
  -10
  -40
   -5
 -126
 -108
   88
  -20
  -49
  -66
   52
 -122
   79
 -124
 -108
 -104
  -92
  -72
 -114
  104
  114
 -125
   59
 -103
  117
  -18
  -26
  -33
   -9
   68
   -3
  -24
  104
   11
  -46
   58
   91
   92
   89
  -77
   68
  -55
   57
   47
  -70
  -76
   52
  -32
   21
   66
  -24
  -81
  -59
 -120
   87
   87
   74
   36
 -120
  -37
 -102
   24
   28
  -41
   -6
  -46
  -34
 -108
 -108
   17
   16
  116
   29
 -114
   48
  -39
  -90
 -106
 -104
   28
   58
   94
  -43
 -115
    6
 -121
   34
   90
 -125
   67
  -79
  -57
  124
   75
 -105
   76
  -15
   81
 -119
  -55
   52
   41
   91
   -3
 -112
   52
 -109
  -96
 -115
 -100
   34
  -65
  -43
  -91
 -120
  123
  -13
  -90
   -4
   79
 -113
    8
   66
   81
   39
 -120
  -33
  104
   69
 -110
  101
   95
  -65
   63
   24
   42
  115
 -123
   60
 -101
  101
  107
   88
  -75
  -98
  -48
    5
   52
  115
  -34
   38
   81
  -66
   99
  -93
   47
  -73
  -42
   96
  -57
 -100
  -16
  -93
  -37
  125
  -25
   73
  -99
  -20
   39
  -41
   28
  -26
  -72
    2
  102
   22
   99
  -25
  -85
   67
   65
 -107
  -61
 -112
  -95
  116
  -94
  -76
 -110
   56
  101
  -50
   99
  -38
  -63
 -113
   22
   84
  -15
   61
   88
   40
  103
  -47
   11
  -66
  -64
   81
  101
   35
   42
  -95
  -40
   30
  -65
 -104
  -97
  116
  -51
  -42
  -53
  127
  -16
  -44
  -19
  -70
   46
  -66
   73
  125
  -63
  -42
   20
   54
  -25
  122
  -11
   46
   49
  -60
 -113
   19
  120
  -90
  -53
  -98
 -108
   53
  -71
  -35
  -19
 -112
  -94
   -2
  -20
   18
  -30
    1
  -45
   28
    9
  -43
   34
  -99
  123
   40
  110
  -39
  -34
  -42
   29
  123
   64
  -93
  101
 -119
  -22
  -13
   81
   45
  -28
 -120
   25
 -102
   41
  -37
   55
    4
  -54
   44
   72
  110
   34
  -58
  -52
 -113
   -3
  -25
  -71
   50
  121
  -30
  -46
  109
   -7
  -99
  -89
   78
   76
  -67
    4
  -28
   -1
   46
  -87
  -93
  -72
  -50
   12
    4
   40
   33
  -93
  -51
  -40
  117
   96
  -50
   24
   46
 -124
  -84
   88
  103
    5
  -98
   -1
   91
  -11
   63
  -20
 -107
   58
   27
  -29
  -52
 -126
  -71
    2
   58
 -104
  106
  -51
  104
  115
  117
  -95
   66
   45
  -14
  126
   77
 -104
   34
   39
   79
  -52
  -65
  -93
  -41
   20
   70
    0
   91
  -33
  -81
   63
   -1
   81
  -88
  -47
  -59
 -110
  -25
   61
   16
   16
  124
  -12
  -74
   98
  -98
   77
  100
   29
 -123
  -20
   44
  -58
   11
  -34
  -34
  114
  -57
  -21
   12
   57
  -54
   69
  112
   74
   83
  -65
  -13
  -55
  -91
    0
   18
  -16
  -23
  124
  -69
  -26
   22
  121
    7
  -24
 -111
   24
 -111
   25
   19
  -87
  -19
  -76
 -101
  -53
   81
  -14
  -51
  -48
   92
 -112
  -45
   94
  -10
   64
   53
   47
   42
   16
    6
   52
 -108
   93
 -117
   49
 -125
  -94
   24
 -117
  -72
   54
   -3
  -74
   74
   77
  -47
 -107
   28
  -25
 -113
 -120
  -67
  -69
  -39
  -67
   15
  111
   -1
   46
   94
   70
  -50
    6
  -90
  106
   66
  -10
  105
   56
 -109
 -113
  -56
   18
  114
 -124
  -72
  -68
    8
  -91
  -40
   78
  126
  -62
   40
  -14
   65
   59
   19
  104
    6
    6
   74
  -65
  122
   75
   32
   28
 -127
   16
   -2
   34
 -120
   19
 -101
   63
 -105
   27
   50
  111
 -110
   -9
  -52
  -89
   44
  -26
  -51
  -34
  -83
  -52
  118
  101
   15
   67
  -84
  -16
 -127
   15
  -46
  -20
  -83
   63
  101
   33
   63
  -50
  -36
  -52
 -125
   79
   29
  116
   -8
  -98
  -24
  -40
   60
   20
  112
   51
  115
  -22
 -115
  -96
   80
   -7
  125
   10
   16
  -86
   99
  -37
   86
   38
  -95
  -29
   40
  -44
   -5
  -61
  -39
   57
   10
  -36
  -80
 -107
   11
  -48
   40
 -127
   41
   43
 -104
  -78
  -91
  -31
   54
   91
   21
   35
  -88
  102
  -44
   30
  -94
   -2
  105
  -40
  -73
 -122
   42
   34
 -119
  -79
  103
  -53
 -105
  -24
  -47
  117
    4
  -77
  -54
  -31
   -1
   70
    5
   29
  -27
   -1
  -38
  -93
   30
  -72
  -60
   29
  -50
  -28
  -40
 -126
   89
  -80
   22
  -50
  -62
  -30
  -94
  127
   83
   -9
   62
   41
   50
   79
  -52
  -75
  -86
   46
 -117
   83
 -126
   67
  -90
 -115
   10
  111
   84
  -48
   58
   17
   71
   14
  -20
  119
  -68
  -96
   79
   -6
  124
 -123
  -72
  -32
   -9
   86
 -101
  113
   46
 -105
    8
   41
  -29
  -12
  -47
  -91
  113
 -110
  -66
 -127
   16
   33
  -33
   31
   67
   87
  -39
   53
  104
  -98
   70
   51
   62
 -121
  123
 -109
   91
   39
   19
 -126
 -126
  123
   34
   79
   86
   66
   42
   95
   16
   65
   14
 -100
 -120
  -45
  102
  -58
   33
   17
  -36
  -54
 -120
  -26
  104
 -109
   47
   44
  102
   24
  -31
  126
   10
   95
  -91
   53
  -29
  -90
  122
   64
 -110
   84
  -71
  -67
  114
  -49
  121
   96
  -33
   39
  118
  -73
  112
 -122
  -98
   68
  -74
   13
   73
  -26
  -26
   12
  -79
    5
 -110
   65
  -43
 -105
   42
    7
  121
  -28
   68
   19
   -6
 -115
  -75
   56
   82
   49
    9
  -51
 -110
  -95
   79
  101
  -76
  -28
   28
  -98
  -71
  117
  108
   84
  115
  123
   75
  -19
  106
   30
  -64
   72
  -35
 -108
  -48
  115
  -38
  125
  105
   16
  -78
   93
   41
  116
   87
  -73
 -114
   92
  -78
   13
  -55
  -10
   61
  -72
   54
  102
   36
  -28
 -109
  -85
 -108
  -62
  -31
 -110
   57
   77
   85
  101
 -127
   63
   74
   34
   50
   -2
  -71
   40
  -94
   39
  -19
  110
   11
  -64
  -34
 -118
  -33
   19
   94
   79
   94
  -19
  -58
 -121
  -49
  -67
  -54
   75
   41
   21
   71
 -123
   82
  -35
  -32
   59
  -86
   68
  -97
  126
  -96
 -107
   67
   40
  -64
  -63
  -47
  -29
 -115
   41
   21
    8
   48
  121
  -63
  -31
   -8
   69
  101
  -23
  -79
   -1
   89
   63
  104
 -104
  -72
   -4
   18
 -104
  -63
  -62
  -56
  -84
  -31
  -79
   80
   81
   -5
   96
  -37
 -121
  -46
   87
  119
   32
   72
 -119
  -62
  -83
  -16
  -64
  -54
   42
  -40
   98
  -78
  -63
   83
   12
  -71
 -122
  101
  -82
   63
  111
 -115
    0
  -13
  -72
   83
  -84
  -14
   54
   83
  120
  -58
  -97
  -66
  -89
  -49
   30
   99
  -78
  -21
   78
  -62
   88
  -95
   22
  -14
 -107
  117
  -24
  -31
  -24
 -112
   39
   66
    4
    7
  111
   41
  -49
  -25
  -77
 -113
   -7
    8
  -17
  -31
 -118
  -39
  -83
  -80
  -85
   88
  126
   67
  -60
 -108
   48
  -69
  -10
   75
   64
   54
   55
  -74
  -86
  119
  -11
  -22
   44
  103
   42
   80
   82
  -40
    2
  -81
   38
  -70
  -72
   38
  -75
    4
   26
   43
   50
  106
   37
   13
   24
  -44
   35
   18
  -25
  106
   99
  -31
 -127
  -46
 -127
  -27
  123
  -59
   34
  -60
  120
   91
   42
   68
  -81
    8
  110
   98
   39
   43
   14
   81
   52
   42
  -16
  107
  -47
  -14
   13
   52
 -108
  -58
   -6
  113
  120
 -113
  126
   30
  -48
  -83
   75
   89
   12
   47
  -28
 -100
  122
  -38
    4
  -70
  120
  -19
  121
  -58
   24
   69
   -4
  -73
   70
  126
  -23
   58
 -106
  -20
  -51
   71
   51
  106
   96
   95
  -13
  116
    4
  -75
  117
   36
   44
 -121
  -41
    3
  -16
  -92
  -67
  114
   55
 -105
  -85
   17
  -91
 -107
 -118
   17
  -24
  108
  -98
  117
 -101
  -88
 -104
   -2
  -77
   55
  -94
    5
 -124
   94
   31
  120
   72
  -34
   77
   43
   74
 -121
  -28
   52
   64
   22
   85
  124
  -96
 -119
  -66
 -103
   99
  -55
  -52
   66
  -14
   93
  -21
  124
   54
 -114
   92
  -62
 -103
  -53
  -52
  -61
  117
   19
  -96
  -63
  108
  107
    0
   12
  -69
  -13
  107
   92
   85
  -54
  -51
  123
   50
   25
  -31
  127
   87
  107
  -32
 -109
  -18
   24
  121
   93
   99
   -1
   94
   48
  -48
 -112
    5
  -95
  -21
   50
   -2
  100
   19
  -47
  -45
  -23
   -3
   83
  -27
  -16
   54
   60
   23
  121
   27
   62
  -51
   33
  -31
  -80
    8
 -103
  -27
  -67
  -42
   99
   66
  -64
  -12
    4
 -111
  -72
  -55
  -26
 -107
  -20
   53
   29
 -119
  -49
   48
   15
  -63
   -9
  -75
  -45
  -13
   78
  -93
   14
  -77
   94
  113
  -86
   80
  -77
   51
   26
  -54
   32
  -12
   88
  115
   87
   13
  -88
   21
   45
   28
    1
    1
 -114
   87
   63
  -77
   51
  -49
   99
   81
  -20
   -3
   56
   94
  -32
 -106
   -5
  104
  -79
    6
   96
  113
  106
   20
 -109
  -36
  -51
  -55
   28
 -126
   78
   41
   67
  -45
   13
 -117
   20
  109
   22
  -89
   85
   -1
  -71
  124
 -124
  -59
   42
  -49
  109
  -91
  114
   61
    8
   14
   31
    2
   61
   24
   51
  -51
  -70
   21
   21
   63
 -113
 -111
  -29
   27
  -50
 -102
  -83
   97
  -82
   74
   32
 -106
  116
   98
  110
   34
   47
  126
   98
  -89
  -39
  -81
   57
   69
   -8
  122
   14
 -117
  -92
  -27
 -117
  -85
   23
  -54
   91
  -61
  -56
   21
   29
  -98
   74
   49
 -110
 -109
   39
   49
   80
  -14
  -91
  -38
   27
   -3
   43
   13
   71
  -17
  -40
  -44
   15
  -69
  116
   13
  -35
   19
  -58
  -39
   78
   91
   63
  -27
   76
 -101
 -110
 -102
  -66
  -87
  -22
  -97
   70
  -41
  -70
 -119
 -122
   92
  -79
  -99
   -1
  -44
   32
  -61
 -109
   84
   93
   68
   74
   48
   96
  -34
  107
    7
  -68
  113
  119
 -119
   74
   67
    2
  -96
  121
   -7
  -59
  114
  -79
  112
   76
 -101
  -79
   74
   51
  -45
  -14
  -57
   90
   25
   76
  115
   48
   -6
   95
  -11
  -46
  -64
  -65
   79
  -37
   14
   97
  120
   58
   34
   65
    9
  121
   43
  -22
  -15
  107
  -44
   43
   31
  -17
   65
  -88
   33
 -114
   13
   11
   81
   26
 -107
   30
  100
   -7
   91
   95
   79
  -23
   87
   44
  -43
   -2
  -59
  121
   63
  -68
  -36
 -111
   55
  127
    2
   93
   19
 -107
   83
   72
   44
   90
   36
   10
   21
   31
  -44
 -102
 -104
  -12
  118
   11
  126
  -15
   24
  -81
   92
   25
   43
 -102
 -118
  -85
  -67
 -115
 -117
  -13
  101
   66
   38
  -85
  -59
 -121
   73
   68
   81
  -30
 -122
  -55
   90
   95
   75
 -105
  -62
   79
  103
   21
   72
   40
  -82
   73
   67
   60
  -86
  -19
  -23
 -115
 -127
  -94
  120
   -2
   76
  -57
  -77
 -123
   24
   15
   11
   91
 -102
   93
    4
  120
   24
  -61
  -53
  118
   35
   19
  -51
   13
   70
  -76
  -60
    7
  100
  -43
  -16
  -99
  -89
   72
  -99
  -12
   69
  -61
  126
  -73
   40
  -21
  113
 -120
    8
   59
   34
  -66
  -86
  -45
   12
   88
 -115
  120
  -30
 -100
  108
   25
 -117
  103
   11
  -39
  -84
   90
  117
 -117
   71
  -20
  -76
  109
 -106
   45
  -16
  -39
   -4
   46
    3
   79
  -11
    2
  -90
  -30
   -3
  -41
  -25
  -14
  -55
   60
 -120
   -5
 -123
   60
   25
  105
  -46
  -84
  125
  -65
  -79
 -119
   -5
  -44
   13
 -112
    3
 -106
  112
   63
  -27
 -110
   -8
  -83
 -102
  -62
  -23
  -12
   27
 -102
  -44
   11
   49
    6
   20
   64
  -87
   76
 -125
   12
  -16
  -67
   61
   15
   93
  -20
   93
   46
   22
   18
  -94
  -19
   97
  -74
   -5
  -98
  -99
  -52
 -123
  -71
  102
  -10
  101
  -46
   25
   75
  101
   89
 -101
   32
  -83
   -2
   71
  -66
   69
  -14
  -20
  -79
  -76
   37
  -44
   54
   73
   12
  114
   47
   13
   74
  125
  -10
  -10
   38
  -90
   39
  -12
   57
   34
  -34
   62
 -121
    7
  117
    0
  121
    2
  -92
 -117
 -109
   14
   70
  -94
 -126
   85
  -14
  -89
 -118
 -106
 -123
   55
   22
  -77
   74
  -71
   85
   41
   -9
  -88
   50
  102
  102
  -97
   35
   27
  -46
  124
  -62
   47
   94
   41
   36
 -111
  -52
  -81
  -94
   16
   58
 -127
  -88
  -63
 -113
  -11
   89
  115
  -19
  114
  -64
  109
  -85
   81
  -29
  106
   30
   31
 -119
  -59
  110
  -48
 -125
 -125
  -95
 -124
   84
   76
  -34
  -59
   97
  -96
    8
   13
   23
  100
    2
  -19
    2
  -40
  -18
  -39
  -27
   31
   85
   75
  102
  -13
  121
  -51
   81
  -73
    7
   50
  -10
   61
   21
   75
 -123
  -16
  -73
  -32
   27
   -6
   97
  -66
  -26
  -47
 -112
   69
   52
  -94
   44
  -89
   57
   -2
   69
 -109
   98
  110
   48
  113
   19
  -24
  -51
  -12
  109
   42
  -71
  102
   95
  -73
   -3
  -83
   26
   69
 -114
   72
   79
   56
 -106
   98
   67
   44
  -35
  -70
   13
  102
  -56
 -127
   71
  102
  111
  115
 -109
    4
  -43
   12
  -77
  -31
    7
  113
   17
  101
   15
   46
  -13
   47
  -13
   36
 -113
  -75
   35
   78
  117
 -127
   20
  107
  116
  -98
 -101
  -83
   82
  -86
   15
   -3
  -98
   66
   -8
  -88
   84
  -68
    9
   46
  -76
 -126
 -107
   10
  -92
 -107
   92
  -89
 -104
  -73
  -19
  -83
   65
  -60
  -78
  -91
  -70
  -22
   80
   70
   11
  -88
  -20
   55
  -94
   51
  -10
  108
   96
 -105
  -76
   22
   92
   -3
   -1
   53
  -81
 -123
   26
   50
   67
   20
   45
 -114
   61
   -8
   19
  -62
  -59
  100
  -22
 -121
 -127
  -19
   91
  -71
   58
   15
  -88
 -111
  -23
  -18
   21
   59
   50
   13
  -16
  -28
  -29
  -85
  -82
 -102
   63
  127
  121
   56
 -106
  -17
    8
    9
  117
  126
   45
  -55
    0
    6
   81
  121
  -97
 -126
  -75
   64
   27
    1
  106
  121
  -32
   -1
 -110
 -113
   44
 -104
   39
 -126
  -41
   41
  -19
   83
   69
  -52
  102
  -97
  -91
  -41
  -90
   45
   24
  -18
   59
  -71
  -61
   28
  -49
  126
  104
   53
 -113
   -4
    7
  107
 -110
   13
   79
 -119
  -14
  -62
  -64
  -85
  -66
  -56
  -99
   20
   17
  -23
  -59
   38
  -45
   25
   -9
  -74
  -65
  -43
   66
  -35
  -36
  -33
   41
   -8
  -95
 -107
  112
  -72
 -119
  -86
   94
  -76
   -9
 -124
  -86
  -79
  -49
 -116
  -92
  -33
   87
  -28
  -96
  -48
  -89
  118
 -102
  -51
  102
   26
  -89
   59
   62
   99
  102
   89
   44
   30
   87
 -110
  -14
   85
  106
   92
   42
  -53
  -97
  -37
   39
 -123
   41
   50
   54
   67
  100
   39
  103
   13
  -19
  -97
   53
 -120
  123
   48
   68
   87
   83
   67
  121
 -100
  -73
   69
 -110
 -119
   91
   95
  -84
 -100
   81
  106
  103
  -79
   96
 -115
  -72
   23
    3
 -118
   44
   96
   72
 -117
 -111
  -91
  100
  119
  -15
  -13
   52
   50
   -8
 -119
   78
 -123
  -97
  118
  -63
  -85
  -30
    7
   24
   37
   66
   96
 -119
  -16
   40
  -88
  -21
   -3
  -10
   15
   79
   51
   -5
  -34
   30
 -127
  -42
   35
  -57
  -53
   48
  -78
   -5
   85
  -32
  -45
    7
   91
   80
   68
   -8
  -27
  -39
   21
 -126
   40
 -108
  118
  -89
  -55
   -1
  -87
  -33
   99
  115
  -16
 -115
  -53
  -55
  104
   -4
   39
   57
   65
   45
   92
  -49
   77
 -127
  125
  -43
  -67
    6
  120
  -69
   45
    4
  -62
   95
  -39
  -37
 -100
  104
   95
   28
  -82
   62
   -2
   -1
  114
 -110
  -85
   79
 -115
   22
  -82
   74
 -112
  -85
  -54
    0
  113
    8
 -100
  -31
 -126
  -21
 -121
 -110
  -15
  119
  -36
  120
   10
   36
   66
  124
  -70
   -2
   34
  120
   70
  -49
   12
  -65
  -60
  123
  -98
  -37
 -120
   45
  -59
 -121
    6
   24
   80
    5
  -82
   74
   95
  -15
  -22
   47
   84
  127
 -104
   44
  -51
  -35
  116
   43
   24
  -26
  -30
 -106
   99
   40
  -24
  105
   70
   18
    0
  -37
   79
  121
 -110
  -45
  -43
   24
  127
   58
   67
   61
   95
  -61
    5
   43
 -111
   89
  111
  106
 -123
  102
  -83
    9
   73
  -44
   72
   -8
    1
    1
  -55
   51
  -74
    2
 -112
  -10
    4
  102
    8
  -44
  -39
  -25
  -16
  -84
 -125
  -44
  -10
   12
 -118
   63
 -117
   91
   53
  102
   92
 -122
   95
  115
  103
   77
   58
  -97
   63
  -90
  -61
  114
 -108
 -115
 -103
   34
  -34
  121
   63
  -88
 -113
   37
   74
  -17
   56
   38
   60
  -33
  -69
   74
   42
  -69
   77
  126
   19
  -57
  -61
   23
  -44
   46
 -108
   12
   54
  -72
  -60
    8
   87
  -50
   56
  106
  -98
  -29
   -3
  -94
 -114
  -37
   61
  105
   35
   24
   12
  120
   35
   90
  103
   87
  -46
  -28
   -4
   37
  -18
   64
  -37
  126
 -101
  -57
  -72
  -55
  -48
  -32
  -45
 -106
  -40
 -100
  -80
   79
  -52
   48
  -97
  -42
 -112
   45
  -67
  127
  -90
 -126
  -78
 -117
 -108
 -127
   -7
  -85
  -34
   37
  -75
  101
  -67
    3
  -26
  -19
   98
  -97
 -104
   12
   99
  -96
  -16
  112
    8
   38
   36
  -39
   30
  -61
  103
   44
   84
 -111
  -66
 -114
  -99
  -87
 -101
   53
   51
  109
 -115
   -3
   39
   79
  102
  -47
   88
 -124
  -66
   27
   76
   10
  -91
  -45
  105
   73
    6
   29
  -81
  -86
  -36
   90
   95
  -41
   43
  -39
  -13
  -92
   98
  112
 -104
   95
   27
   55
   10
  -67
  -48
  111
  -49
 -102
    0
   42
  -34
  -46
   27
  120
  -61
  116
 -102
   13
  115
  -93
  125
   14
  100
  114
  -60
 -118
  -27
  -66
   33
  101
   95
   82
   86
  -24
  -35
  -60
  -44
  115
   83
  -92
   68
   -1
  104
  -63
    9
   17
  -58
  -17
  106
   30
   20
  -14
 -108
  -84
  117
 -117
  -79
    0
   -7
   16
   76
 -106
   47
 -118
   39
   22
  -30
   81
    7
  -10
   22
  125
  -24
  -26
  -12
  -59
  -98
   23
  -56
  121
  106
   31
   17
   48
  -94
    6
 -119
  -42
   85
  -92
  -37
  -54
   62
   92
  -10
   24
 -109
 -124
  -93
   54
   88
   36
  104
   -8
  -39
  -41
  104
  111
  -84
   36
    8
    6
  -61
   -8
  -19
  -28
  -35
   -4
  -40
   13
   -7
  -53
  -54
  -85
 -101
  101
 -117
   -1
  -68
  -76
    6
 -125
   15
   69
  -79
  -33
  100
    0
  -25
   -5
   56
  112
  -65
  -65
   82
   25
   -6
 -123
   -4
   69
  -72
  -95
  115
 -103
  -81
   -4
   -9
   97
   53
  -70
  -93
  -71
   82
   62
  -10
   27
   29
   39
  -30
   71
   50
  -16
   19
 -113
 -107
  -45
  -11
   70
   86
   -1
   44
  -83
   55
   95
  110
  -74
  -26
  -14
   96
   34
 -102
  -78
  109
  -45
  -54
   75
  -21
   69
  -88
   10
 -101
  -22
  -22
  -62
   80
  -15
  114
 -108
  -86
   76
  118
  -94
   85
  -51
   66
 -126
   80
  100
  -66
   48
   58
   72
   21
   98
   -3
  -80
   35
  120
  -27
   73
 -125
   99
  -64
  109
  121
   41
   32
   97
   78
  -43
   -2
   20
 -102
   76
  -59
   95
 -121
   62
  113
  -80
   64
   -2
   83
   27
   66
  -54
  -91
   37
    1
   58
  -31
  -24
 -111
  -71
  115
   34
 -105
  -56
  -92
  110
   53
   63
  -70
 -107
   26
  -96
   47
   46
   47
   50
   61
  114
  -74
   51
 -100
  -42
 -124
  -29
   51
   93
  -96
  -94
  -38
   71
  106
 -121
  -72
  -93
 -120
   22
   27
  -45
  -80
 -116
  103
   59
  -39
  -88
 -106
 -101
  -49
  -14
   -2
   -6
  105
  -86
   44
  -48
 -115
   64
   78
  126
   64
   37
   40
  -45
  -77
   53
  -99
  -81
  -72
  -43
  -45
  113
  104
   22
   55
   63
   63
  -96
   77
   52
  117
   84
   33
   -9
   15
  -92
   55
  -76
  -41
  -19
   89
   -4
  -29
  127
  -84
  -54
    6
  -98
  -29
  102
  -97
  -27
 -120
  -32
   16
  -17
   91
  105
  -50
  -26
  -41
  -42
  103
  -22
   23
   62
 -103
 -105
  -19
   75
  -45
  -81
    8
 -127
 -111
   16
  -65
   56
  114
   37
  -10
 -105
   47
  -87
   21
  123
   41
  -28
 -100
   20
   23
  -71
   -5
  -75
  -47
 -107
 -126
  -27
   24
  -92
  -99
  -19
 -121
  -21
  -79
   48
   38
   77
 -109
 -111
   98
  -68
   16
   51
   -5
  -49
 -117
  111
   66
  -48
  -53
   60
  -39
   50
 -112
   27
   84
  -15
   76
   39
  -18
   52
 -110
   -9
   94
  -49
  -38
  -75
  -46
  -31
   33
   73
  -24
  127
   73
  -62
  -95
  -89
  -65
   40
  -27
  -22
   20
  -95
   41
  -79
  107
  -30
  -40
    2
 -127
   16
   29
    3
  -93
  126
  -84
   27
  127
   86
   68
  124
  -18
   -1
   38
  -15
  -20
   89
    5
  -61
   -7
   68
   64
   56
   57
  -32
   71
   65
 -105
  -75
   -7
    2
  -70
   56
 -100
  109
  107
   86
    6
  118
  110
    3
  -69
   13
   45
   -5
  -65
   71
  -54
 -117
   12
  -27
  -78
   49
  -97
   88
   42
  102
  -70
  -13
   63
   85
 -121
 -101
   89
    8
   24
   83
 -100
   77
  -67
  111
  -26
  -84
   60
  -50
    1
   23
  -65
  122
  -71
   84
   45
  -16
  -59
   90
  104
  -19
   72
 -112
 -117
  -75
   50
  -22
   79
  -43
  -80
 -115
  113
   11
  -96
  -74
   39
   64
  -59
  -55
 -100
   79
  -53
   -7
   63
  -54
  -53
 -122
  -49
  -39
  -40
  -12
 -121
  -49
  -17
   82
    6
  -90
  -92
   17
   35
  -34
  -31
   -1
  -51
   56
  -14
 -104
  -26
 -109
 -126
  -92
   39
  -89
  -21
   81
  -29
   41
   36
  -62
   82
   89
   46
  -85
 -125
  106
  -77
  -69
    9
  -52
  -12
   -1
  105
  -95
   47
  -79
   60
  -90
    7
   15
  115
   65
   30
   18
  -98
   62
  -61
  -15
   32
  -18
  109
   64
  124
  -55
 -111
   52
  -95
  -33
  116
   -9
   43
    9
  -74
   93
   82
  -94
   50
  103
  -84
  110
  -14
  108
   25
 -101
  -41
 -125
   54
  -40
  -58
  102
  117
  113
  -86
    3
  -25
  -48
  -82
   48
   37
   29
 -113
  -70
  -28
   45
 -127
  -62
  104
  112
  -69
   91
  -24
  -63
  -19
 -127
   28
   90
   62
   85
   78
    8
  -17
 -118
   83
  -22
   26
  108
   58
  -96
  -32
   87
   44
  -60
   98
 -121
  -61
   22
    1
   99
  -40
  -70
  103
 -110
   76
  109
    2
   38
  107
  108
   11
   59
  -30
  117
   58
   24
   38
  -52
   73
  -55
   35
  113
  -98
    5
   -6
   99
  -87
  -20
   69
   36
  -12
 -120
  -44
  -73
  -46
  -17
  -37
  -87
   95
 -127
   43
  115
   48
 -126
  125
   83
  118
  113
  -75
   31
   -1
  -45
  -73
  -66
 -111
  -33
 -108
   53
   80
  -26
  -88
  125
  -64
 -117
  -17
    4
   16
  -41
  110
   84
  112
   94
  109
    8
  108
  -84
 -101
   41
   17
    2
  -12
  123
  -26
 -126
  -88
  106
    7
  -85
    4
  -66
  -73
   -9
   93
  -96
  -88
  -76
   36
   54
   89
 -117
  -66
  -27
   72
   76
  -20
 -102
   57
   69
  -63
  -38
 -124
  -83
   74
   -9
  118
   39
   72
   98
   12
    8
   86
   66
  -27
  -22
  118
 -109
  -24
   87
  -72
    9
   46
  101
   75
   59
    8
  -73
  -70
   36
   92
   49
  -51
    8
  -24
    9
   67
  115
  -59
   71
  116
  -31
  -67
   33
  -64
  -93
  -33
  -58
   35
   98
 -120
   84
   49
  -53
   63
 -116
   21
   56
  -38
  -63
   -7
   44
  -68
  100
 -110
  -27
   -1
   20
  -66
  -56
   96
 -111
  107
   36
  112
 -111
   60
  -39
   31
 -101
   70
   55
 -103
   29
 -105
   -5
  -41
   42
 -113
   -4
   34
    0
  -42
   31
   86
  -75
  117
 -118
 -120
    8
   99
 -110
 -122
  -37
   16
   40
   60
   46
   51
   88
   71
  102
 -121
   24
  -57
  -80
   33
  112
   -1
   36
   95
  -65
   23
  -34
    1
   25
   91
  -76
    1
  112
  123
   57
  -46
   67
  -17
  110
   49
 -103
   16
   14
  120
  126
  -82
   59
   10
   82
  -83
  102
   73
  -54
  -31
  -54
   72
   64
   92
  -65
  -35
 -101
  104
 -119
  -41
 -109
  115
  -43
   19
   50
   88
   51
  114
 -110
  -54
   55
  -49
  -97
   92
  -14
  100
  -74
   35
  -60
 -123
  -13
  127
   40
  -51
   45
  -25
  -17
   38
  -80
  -75
   85
 -112
  -93
  -18
   72
   62
   -6
  -73
  108
   42
  117
    5
  -14
   14
   96
  -44
   39
  -73
  122
   53
  -58
  111
  -14
  -43
   58
  -76
   41
  110
   22
  -15
  -56
   33
  102
  -19
   69
   29
   76
   -9
  -78
  -20
  121
  115
  -82
  106
 -107
 -116
   98
   50
   11
  -84
   70
  -47
   98
  -97
    8
  124
    2
   -2
   21
   -7
 -124
  -86
   56
  107
   68
 -117
   96
  -85
   -7
    9
   81
   50
  -86
 -125
  110
  -27
   46
 -113
  -80
   34
   72
 -120
   57
   19
  112
   57
 -110
   34
  -59
  -38
  -24
   45
  -41
  -45
   51
   88
   -3
  107
  -48
  105
  -23
   34
  -75
   61
   -2
  119
  -81
  -83
  -49
  119
  100
   47
   33
 -112
   -5
 -112
   45
    3
  -66
  -59
   72
   54
  -36
   25
  -18
   42
  -54
 -118
   70
   41
  -78
   17
   55
  -88
  -47
  -98
 -114
   62
  -80
  -89
   11
   85
   64
  -57
  125
  -84
 -114
   91
   63
  -28
   76
 -108
  -71
    2
  -11
 -111
  108
 -102
  -77
   93
   53
   15
   48
  -19
   40
   22
  -20
 -127
  -91
  117
   37
 -120
   16
  100
  109
  104
 -113
   84
   20
   55
   34
  107
 -122
  -84
   20
  -19
 -114
 -119
   55
 -104
   18
  -59
   30
   32
   13
 -100
  -89
 -105
 -102
   66
  107
   88
  -26
  -26
  -34
  -13
   72
   32
  -34
   50
  109
   27
   80
  -56
 -106
  -65
   24
 -114
  -66
   78
  -77
 -106
  -27
   97
  120
  -11
  101
  115
   75
  -57
   14
   83
  119
 -110
   19
  -45
  -60
  -74
   39
   34
    9
  -83
  -99
  -84
   75
  -43
  -60
  110
   93
  -36
 -104
  105
   96
  -69
 -113
   42
   73
  -40
   56
   29
  -91
   82
   83
  -96
 -110
  -31
  104
   37
   10
 -100
  -17
  -17
   45
   58
   35
   74
   -3
   22
    7
  -11
   14
   66
  -21
  -49
  -85
   55
  -23
  -72
  -94
 -102
  109
   37
   -9
 -125
    9
 -116
   70
  125
 -119
   83
  -10
   44
   16
   28
   75
 -124
   47
   18
   31
   32
   82
  115
   97
   13
   26
  -82
  -72
   47
  -68
   48
  118
  -29
   31
  -33
  -41
  -99
  -82
  -17
   75
  108
 -115
    4
  -66
   21
  -78
  -44
   62
    5
   -2
  -73
 -127
   21
 -110
   18
   -6
   53
    5
    8
    2
    3
 -106
   63
  -99
  -15
   85
  -39
  -40
   87
   97
  -81
   -6
  -16
  -80
   77
  106
    5
 -117
  -91
  -29
  -21
  -94
   47
   46
  -42
  100
   50
   73
   56
 -125
  -94
 -110
   78
 -116
    2
  -32
  -95
   43
   78
   49
 -104
   62
   19
   19
   -6
   18
   21
   73
  -62
  -25
  -38
  -18
  -62
  117
   62
   75
  -66
   43
   40
  -11
  -90
 -119
  115
  -32
   57
  -35
 -111
  -19
   -4
 -112
  -49
   15
   58
   -9
  -79
  -35
   86
   72
   89
   42
  -85
  -50
   11
   70
   -8
  -19
    4
   40
  -62
  -54
  -30
  -80
  -64
 -117
  110
   48
  -91
  105
   30
    1
  -49
   22
  -77
   27
  -93
  -36
   40
   20
   69
  -40
   40
   20
   48
  126
   77
  100
 -112
   39
    5
 -127
  -20
  -23
  123
  -34
  126
  -72
  116
  115
   85
  -73
  -98
   62
  -12
 -127
  -53
  -10
  -19
   15
 -111
  126
  -46
  -53
  -51
   29
  -70
    1
 -107
   95
   61
 -111
   14
   38
  116
   22
 -103
  -17
  126
  -32
 -117
  -41
    1
  -56
   -4
  -89
   35
 -112
   97
  -27
  122
  -91
   -9
  -16
 -100
  -78
  -48
   26
 -114
  -32
   96
   39
  -86
  -59
 -101
    6
   39
   -4
   18
   28
  110
  109
 -125
  -61
   72
  -86
   45
   41
  -88
   48
  -53
   62
  -22
   32
  -76
  -56
   39
 -127
   -8
  -17
    1
   69
   65
    2
   85
  -57
   20
  -82
  115
   94
  -13
  -76
  -62
   92
   23
  -65
    7
  115
 -109
   -5
  -43
  -75
   -3
  -79
   46
 -113
 -100
  -15
 -117
   60
  115
   94
   56
   77
  127
  -66
   99
   99
  125
 -105
 -104
  -96
   89
   40
  -86
   87
 -110
  -27
  103
  -64
    2
   35
  114
   36
   99
  -34
   34
   64
   28
   -2
  -93
  -10
   70
 -104
   17
  101
   96
  -51
  100
 -107
 -126
  -67
   64
  112
  -65
  -39
 -106
   74
  -25
  -82
  -17
  -84
   92
  -38
   63
  -30
  -87
  -95
   39
 -110
  -32
 -121
   98
   52
   44
  114
   40
  -14
 -126
   23
   32
  115
    5
   25
  -34
  -43
  -25
   11
  -20
 -116
  -85
   84
  113
  100
    9
  -45
  -49
   58
  -18
    4
  -97
    1
   26
   11
   94
  -29
  -33
 -120
    8
    2
   96
 -121
  102
  122
 -126
   32
 -116
   92
  -36
  -94
  -74
  -40
    2
  -60
 -127
    4
  -79
   22
  110
  -51
  -41
   61
   -1
    6
  111
  -62
  -31
   75
   57
  -24
   38
  -19
  123
  -94
  -43
   10
   -3
  -61
 -121
  -15
  -55
  112
  -99
   42
   11
   22
   57
  -70
  -84
   24
  -72
   77
  -74
   46
   85
  101
   51
    1
  -93
  -39
   13
   33
  127
  -29
  -20
  -25
 -121
   32
  -54
   -6
  -42
   30
  111
 -113
   -8
  -13
   24
  -65
   53
   45
  119
   37
   78
   -2
 -105
   36
  -55
    8
   65
 -115
  -14
   39
  -26
   33
  -57
  -31
   50
   62
  -64
  103
   88
  -71
   -5
  -62
  111
    5
 -113
   -6
   65
 -110
 -115
  -15
    4
   25
  -94
   88
   13
  -97
   25
   74
  -68
  -24
   93
   44
 -108
  -15
   32
   29
  100
  121
    2
  119
  -38
   96
 -122
   13
  -91
   82
   21
  -99
  -72
  -94
  -19
   53
  -42
  122
   -8
   -7
  115
  -66
  -79
  -42
  -80
   64
   52
   11
  -25
  -99
   58
   58
  -95
  -70
  -69
  -56
   50
 -122
   -2
  102
   47
   31
  105
   81
  -56
   27
  -30
   52
   84
    0
   98
  -65
  -94
   17
  -59
   87
  -99
   69
   78
  -46
   14
  -79
  -94
  -53
   -3
    5
  -92
  -23
  -31
  111
   34
  -64
   -5
   81
 -104
 -102
  107
   58
   14
  103
   66
  110
  -59
   70
  -48
   -1
   94
   62
  -11
  -67
   43
  -43
  -72
   97
   53
 -109
  -41
   36
  -60
  -78
   88
  -35
  -25
  121
  -36
  -55
   44
  -29
   85
  -56
   77
   43
  -62
  -74
  -40
   14
  -96
  -59
 -126
   54
   17
  107
   67
 -117
  -84
   -8
  118
   48
   91
  -66
   86
   58
   11
  -82
 -105
  -11
   81
   60
   85
   24
  115
  -40
  -70
   76
  -48
  -38
 -127
  -69
  107
  106
   -1
  -83
  -60
  -69
   59
   47
   85
  -14
  -32
    0
  -68
  -38
  -98
  121
  -23
  -19
  -57
  -37
  -36
  -55
   -5
   75
   -5
   55
  -52
   65
  109
   17
 -122
 -111
    5
   39
  -25
  -94
 -103
  -29
    6
  -10
   59
   71
  116
  -68
  -10
 -112
  -19
   35
  -90
  -66
  -22
 -101
   98
 -100
   57
   78
  -53
  -54
  -62
  -38
  -65
 -104
  -17
  -90
   27
 -111
 -120
   86
   53
  -95
   58
    6
  -66
  -96
  -94
  -15
  -50
    1
   88
   60
  -31
  -52
  -42
  -60
  114
   97
  -56
    9
   27
   14
   -8
  -74
   90
  -79
   42
   87
  -94
  108
  112
   18
   13
  -36
  -85
  -17
   44
 -125
   18
 -106
   47
  102
   17
   57
 -104
   37
    5
   89
  -81
  100
   90
   33
  -35
   65
   41
  -77
  -20
  -61
   58
   88
 -114
  -59
  -90
  -74
   76
 -111
  -70
  100
  -93
  -51
   21
   79
 -121
  -54
  -48
 -118
 -119
  -41
  -41
  -97
  124
  -75
   90
   -8
   47
  -25
   49
   12
  -84
  -19
  -40
  -60
  103
   -2
   14
  -79
   25
  -12
  113
  -67
   70
   93
  -96
  -76
    4
  -69
   67
   91
 -108
  -74
   20
   12
   71
 -126
  105
   41
   11
  -67
 -108
 -102
   45
   61
  -25
   -4
  -31
    6
   67
   56
  110
   33
  -55
 -121
  -29
   80
    6
   27
   38
  112
  -26
  -83
  -58
   90
  -59
   74
 -120
  111
   71
  127
    5
   30
  -56
   -7
   82
  -74
    4
 -115
  -69
   23
   49
  -87
  -41
  -99
 -107
  -83
   23
   24
   20
   55
  -24
  -13
   70
   37
  -58
   98
   97
  -39
   85
  -87
   37
   72
  -11
   99
    1
 -100
 -105
   23
  -26
  -78
   61
   68
 -113
  103
   -3
   68
  -59
 -114
 -112
  -25
  -98
  -37
   27
  109
  -69
  -44
  -53
   11
  -54
   18
 -106
  -16
   79
  -49
  -74
   91
   97
   14
   98
 -108
   68
 -101
  -25
  -26
  -14
  -88
   80
  -94
  125
 -120
  102
  -42
  -80
  -31
  -58
  -97
    6
   67
  -10
  -58
  117
  -15
 -123
  -57
 -105
  -12
   72
  -92
   23
   75
   66
 -113
   28
 -109
  109
  -47
  101
   99
   82
   -6
   24
 -122
 -119
  122
 -116
  -50
  107
   27
 -101
 -101
  -96
  121
   68
   -1
  -15
   78
  118
  103
  113
  -23
 -116
 -115
 -123
   54
   76
   66
 -100
   10
  -58
   32
  125
  -62
    2
   21
   43
  -51
  112
  -51
 -115
 -111
  -48
 -106
   23
  -64
  -25
  -67
  -24
  -20
  124
   60
   84
   54
   26
   30
   15
   63
 -122
  -70
  -59
  -79
   89
   45
   69
   44
   44
  -50
 -106
   85
 -113
 -109
  -99
 -114
   39
  121
   77
  109
  -84
   96
  -64
 -121
  -80
   48
   28
  107
  108
   33
  -29
  -53
  -40
   -4
  -72
   -6
 -104
 -120
   80
   66
  -23
   40
  -92
  -93
   37
   24
  -68
 -102
   65
  121
  -33
   70
   30
   49
   69
  113
    5
    9
  -44
  -71
   44
   -8
   22
   66
   69
   73
 -113
   90
   30
  -86
 -117
  -99
  -33
   76
  -39
  -69
 -102
  -24
  100
   35
  -78
  -47
   49
   32
  -66
  -46
   51
  120
   48
 -124
   62
  -62
   73
   -1
   -6
  -63
   20
   45
 -104
  112
   65
  109
  -90
  -88
 -104
  -79
  -13
   83
 -112
  -68
  -67
 -102
 -100
    7
 -126
   22
   16
 -115
  -20
   33
  122
   74
   74
  -65
  -76
 -122
   43
 -107
   35
  -84
  -20
  -54
   15
   -8
  -27
   55
   -6
 -116
  -86
  -25
  122
   23
  -24
   24
 -111
  -34
  -39
  -51
  -26
  -39
   79
   96
  -64
  124
  -44
   64
 -107
  124
  -30
   16
   30
  -21
 -107
 -111
   62
 -125
 -105
   17
  -33
  -87
   75
   68
  -95
  -59
  102
  100
  -84
   72
   83
  -43
  -89
   66
   47
   44
   13
    7
 -103
   81
   22
   48
   82
   -9
  112
  -27
  126
 -125
   56
  -76
  119
  -16
   75
 -100
   13
  105
   -8
 -102
  127
   52
  -35
  -39
   14
  100
  118
   30
   52
    6
    0
   72
   51
  -21
  102
  -59
  113
  -59
 -110
   95
  -79
  -62
   40
  123
   90
   80
  -16
  -30
   74
  106
   41
  -47
 -124
  -34
   50
   90
 -120
   -3
   25
  -93
    8
   25
   47
   38
  -15
  -12
  -92
 -118
  -98
  -32
  -15
  -69
   12
 -104
  110
  105
  -58
   36
   32
  -78
  -45
  -28
  -55
  105
   98
  -86
  -57
  -49
 -106
  -41
   50
 -117
 -106
   28
 -114
   69
   97
  -55
   -4
   34
  -58
   34
  -12
  -30
  110
  -23
 -119
   25
   59
   38
  -70
   77
  -79
  -46
 -107
   31
  104
 -119
   44
  111
   10
   26
   86
  -26
   94
  -29
   47
   33
  -15
  -31
    9
   47
  109
 -116
  -94
  -67
   43
  -76
   -9
   97
   99
  102
 -109
   48
   15
   45
   54
   -6
 -109
   92
   96
  -26
 -125
  123
  108
 -126
    3
  -99
 -102
   -4
   62
  -30
   70
   47
  -11
   -5
  -64
  -43
   47
  105
  -55
   57
   73
   33
  -48
   97
  -11
  -59
 -102
  -56
  -30
    3
   62
  -74
  -31
   86
 -108
   20
  -18
  -52
   73
  105
   32
  110
 -121
  -98
  -47
 -105
   23
  -16
  113
   19
   50
 -101
 -118
  -21
  -67
   56
  -51
  -36
   24
  -78
   12
   86
  -56
  -97
    3
   92
  -76
  -91
    8
  -76
   28
   84
  -93
   76
  -95
   26
   94
  110
 -125
   99
   26
  120
  -18
   28
  103
   76
  -14
  -23
 -120
  -63
   41
   78
   26
   86
   30
   61
   81
  -81
   58
   17
   21
   91
  -51
   37
 -120
   42
   -7
  -20
   35
   87
  -62
 -107
   30
   97
   66
  -10
   35
   17
  126
   70
 -110
   57
   26
  -53
  -94
  -31
   25
  -55
  -21
   37
  -58
 -111
   29
   38
  -54
  -28
   95
 -103
   86
   63
   89
  -71
  104
    5
   11
   15
    9
  -80
    6
   41
  -31
 -127
  101
  -52
   28
  -64
  104
  -31
  -26
   83
  -85
 -114
  -28
  103
 -127
   72
  -39
   27
  116
   29
  112
   81
  123
  -46
   30
  -48
  -21
   47
   21
   63
   44
  -28
  -82
   57
 -125
  -92
  118
  -17
  -33
  -85
   97
  106
  -34
  -41
   42
 -108
   77
    5
   71
   53
 -101
  -91
  -63
  104
   62
  122
   25
  -20
  -31
   72
 -118
  107
  -12
  -71
  -60
  -44
  -95
  -76
 -121
 -101
  -34
    2
 -126
  -63
  -10
 -105
 -100
  -75
   32
   45
   26
  -79
   45
  111
  -45
   41
 -123
  -85
  -31
 -107
  -90
  -72
 -126
  -80
 -125
   59
   70
   74
   21
   47
  -75
 -123
  123
   54
  -62
  -47
  -16
   76
  -71
  107
   63
  -79
   10
   82
  118
  -94
  -40
  -28
    9
  -37
   99
  -12
    5
   61
 -112
   92
 -123
   42
  126
   46
 -109
 -104
   78
  -96
  -50
 -127
  -39
  -75
  -49
   61
  -37
   69
   42
  -30
   72
   60
   42
  -62
   50
  -31
   98
  -12
  -12
  108
  123
   12
   80
   60
  -18
   81
   84
   96
   10
  -61
  -80
   64
  -74
    1
  -14
  -93
   61
  -92
  -15
   61
   61
 -114
    3
   24
  117
    1
   98
   18
  -13
 -104
   26
  -55
   42
   58
  121
   60
 -109
   91
  -10
   63
  -93
 -110
  124
   58
   25
  -99
   61
   56
 -124
  -49
  -86
  113
  -99
   28
  -77
   77
  -99
  -19
  -18
   34
  -80
  -98
  126
  109
 -120
  -46
  -78
   57
  122
  123
 -126
   53
   -6
   76
   30
   98
 -104
    6
  -36
   56
   73
  -24
  -63
  104
   77
   91
 -125
   95
  123
   28
  -79
   15
  -17
   35
  125
  -82
  113
   47
   45
  -95
  -60
   12
   94
  -55
   35
   58
 -119
   43
   94
   55
 -114
   -6
  -59
   14
  -65
   52
  -62
  124
 -116
   54
  -60
   33
   14
  -69
 -122
  -86
 -115
  -18
  -51
  -19
   97
   16
  -12
  -47
   68
   21
 -103
 -105
  -78
 -118
  -15
  127
   65
  -43
    6
    2
  -17
  -11
  -91
   92
 -120
   64
  -89
   28
  -77
  -42
   53
   41
   38
 -115
   75
   68
    6
  -51
  -66
  103
  -17
   63
  -95
   13
   10
   38
   43
   -2
  125
   49
 -126
  -69
  -52
    3
  -73
  -15
   40
  -77
  -77
   27
   68
    6
 -121
  -58
  -41
  -75
   18
  -40
 -104
   98
  -29
   22
   99
  114
   41
    8
   51
  -74
   47
  -35
   99
  113
   84
   -4
  -65
   85
  -42
  113
  -55
  127
  107
   40
  -31
   59
 -121
   64
  -45
   89
   35
  -92
  108
   62
  127
  -55
  114
   82
   79
   55
    6
  -57
  -90
  -40
  -32
  -51
  -49
  -18
 -100
  -20
   23
  -75
  -38
   48
   57
   50
  -52
  -34
   93
 -112
   56
  -80
   51
   37
  125
  -81
   28
   80
  111
 -109
  -90
  -18
  -40
  114
  116
  -37
   26
  101
   78
   91
  -83
   43
  -16
  -15
  125
   -1
  -89
   52
  -97
  117
  113
   26
  -40
  -72
  -42
   65
  104
   -1
   59
  -53
  -61
  -83
  111
  -25
  -32
   -6
  101
   25
  -95
   70
  -85
  104
  -19
  -57
 -118
  118
   51
  -23
    8
  120
  127
  -79
  111
  -47
  102
  116
 -120
   77
  -85
   76
  -26
    1
   93
  -52
   73
   65
  -47
   47
  109
  -17
  102
 -105
   23
 -111
  -66
  105
   16
 -101
   23
  -78
  -55
   87
  -62
   28
    1
   -2
  124
 -116
   56
  121
   -9
 -115
   54
 -103
  -63
  -53
  -46
   31
  -52
  -64
  -48
   40
  -34
  -40
   21
   71
  -99
  117
  -36
   71
  -36
  107
   16
  -25
 -117
  -83
  -65
  -14
   61
  103
   42
   38
 -127
   25
 -112
   74
 -100
  108
   33
  -62
  110
   67
  -96
 -115
   72
    0
   81
  -30
  -78
   51
  -38
   12
    0
   93
  -88
  -30
   11
  -15
  -83
   -7
   -2
  -67
   49
   88
  -30
  -62
 -117
   58
  -93
  -98
  -58
   64
   53
  110
 -105
 -104
  -36
   63
  -34
  111
    7
  -69
  -14
   82
  -10
  -67
   32
  -35
  -60
    3
   -4
   27
  -67
  -41
   54
   18
  113
   87
    3
    8
   50
  126
  -79
    1
   78
  -88
  -91
   48
  -13
  -56
  -91
   77
  -18
   46
   91
  -52
  -84
   94
 -113
    0
 -122
   21
   96
   30
   29
    6
  -19
  -19
  -33
   38
  -72
   84
 -115
  -28
    9
  -32
   41
   18
  -21
  -84
  -55
  109
   10
  -26
  -59
   65
   12
   88
  -94
  120
  121
  -78
   90
   70
  -17
  -55
  -24
  122
   10
   46
   93
  -51
  -47
   90
  -81
   77
   92
  -52
  -28
   15
   -7
  -73
  -98
   29
  -79
   50
   30
   18
   -5
   17
  -43
 -110
 -105
   58
  -47
   26
  -65
  -37
   51
 -120
  -76
   69
   98
   59
  -19
  -41
  -21
  -83
  113
   -3
  114
 -103
   10
  122
  -79
  -46
   56
 -119
  -57
  115
  -44
 -125
  -87
  -58
  -32
   42
   74
   63
   75
   45
  -71
  117
  -73
   80
   89
   10
   13
   27
   98
   14
  118
  104
  -82
  121
   98
  -70
  -59
   25
   24
  -38
   83
   71
   23
   76
  -84
  -49
   82
  -49
  -53
 -109
  104
  -46
   39
  -68
  -64
 -108
  106
 -112
   36
  -47
   85
  115
   93
   33
   25
 -114
  -74
   31
  106
 -120
   74
  -36
  -60
  -34
   72
  -10
  123
  -44
  -51
  -49
   25
  -43
  -93
  -77
 -114
  -16
   51
   35
   29
  -93
   70
    1
 -102
  -55
  121
  -19
  -58
  -81
   91
  -26
  122
   21
  -96
   33
  -59
   33
   22
   46
  -83
  119
  -12
   99
  -30
   56
   36
   -6
   99
   52
  117
  122
  -62
  -98
   10
  -58
    2
   32
   35
  -29
  -30
   25
  -18
   39
   55
    3
  -87
   24
   84
   48
  -54
  -91
  -20
 -125
   27
  -47
  -93
  -20
  -11
  124
  125
  -40
  -62
 -106
  -92
  -74
  117
   67
   -9
   40
    9
  -96
  -66
    1
 -122
  122
   14
   84
   58
   89
   30
   49
    2
  -15
   45
  -23
  -82
  -84
  -66
  -32
  -55
  -50
   26
  103
  111
 -100
 -125
  107
  -97
   25
   48
   85
    9
    4
 -112
   82
   68
  -19
   41
   56
  -32
   41
  111
   13
   15
   46
  -21
 -103
   -1
   49
 -123
  -47
  -73
    3
  114
  -99
   42
  114
  125
  -73
   50
   35
   -3
   11
   18
  -97
  -89
   -1
 -116
  -42
   89
   51
   82
  -13
   15
   96
  -90
  -33
   32
 -102
   43
 -113
   74
   46
   79
   44
 -113
 -126
   54
  -99
  104
   63
  116
  -84
  -45
   87
   95
 -112
   49
  -68
   30
  -10
  -82
   70
  -56
 -116
   75
   53
   -1
   -4
   24
  109
   88
   98
 -118
   61
   -1
  126
  115
 -111
  117
  -79
   41
    8
   91
   26
  -33
  114
  106
   90
   24
  100
  -40
  121
  -82
   72
  -18
  125
  -78
  -77
   90
   -2
   18
   81
 -119
 -115
  -76
 -119
  -94
  -91
   76
   11
   77
  120
  109
  -84
   14
   -8
   24
  100
   75
   38
  100
 -118
  -66
   45
  -19
  -32
   64
  -27
  -80
  -71
  -51
   76
  -24
   78
  -55
   33
  110
   57
   70
 -123
   96
  -62
  -82
  -74
    7
  101
  -96
  115
  -78
  124
  127
   -1
  -26
    5
   49
  -69
 -115
 -120
   35
   -7
  113
   41
  103
 -108
   19
   12
   84
  -92
   86
  -73
   90
  117
 -102
   28
  -85
  -27
  101
   79
  -74
   42
   47
    3
  -34
  -73
   26
 -119
   15
   93
  124
   19
   37
  -19
  -58
   40
  -81
   21
  -45
    5
   51
  -52
  -12
   48
  -19
   66
   35
   29
  -81
   33
 -118
   88
   -6
   57
 -106
  -70
   37
  -83
   94
   58
  -67
  -54
   92
   15
  -74
   -4
   79
  -12
   47
 -120
   13
  -34
   69
  -70
  -39
  -24
 -127
   88
   28
 -102
   67
   18
   49
 -105
   73
   40
  -73
  110
   22
   95
  116
  -59
   98
  -82
   32
   22
   39
  -82
    2
  -62
  -10
  -67
   72
   47
 -109
  -64
 -125
   22
 -105
   84
   84
  -23
  -95
   53
   -5
 -109
  -94
  -14
  101
   55
   14
   53
  -32
  126
  122
  111
   -9
    7
 -123
  115
   55
   96
   36
  -11
   64
  -25
   74
   93
   46
 -107
  -26
 -105
   38
  -23
  -15
   -2
  -26
   63
  -98
    9
  -15
  -85
  -67
   11
   70
   20
  -70
  -60
 -123
  116
  -54
    6
   30
   71
  111
  -53
   84
   -9
  -27
  -52
   16
  116
  100
  -57
    1
   14
   76
 -111
  -90
  -73
   96
  -17
  127
  123
  -88
   67
   81
   -1
  124
  -41
  -68
 -118
  -60
  -37
  124
   74
 -100
   19
  119
  -19
   10
  -34
    9
   40
  -46
  -54
  -31
   91
 -112
   -4
   82
  -50
  -22
  -61
    9
  -95
   97
  -43
  -81
  -50
  -52
   99
   26
  -43
   13
 -114
  -90
   60
  107
   64
  -17
  -83
  -99
 -116
   36
   71
  -25
  -76
  -13
   24
  127
  -67
   77
  -66
 -104
 -112
 -102
   86
    4
  -65
  -94
   90
  -55
   47
  -44
 -119
  101
 -106
   46
   -8
  -86
 -115
  -88
 -100
   54
  -20
  -21
  -58
  -98
   76
   67
  -64
   34
  -62
   32
  -42
   37
   84
  -16
   55
  -80
  -23
   23
   87
 -101
   83
 -117
  -84
  -45
   87
 -102
   21
  112
  -16
  -96
    6
   18
  104
  -69
  -49
   95
  116
  -36
  104
 -117
   62
  -80
   55
  -28
   37
   94
  -84
 -114
  -10
   23
   27
   88
  127
  -85
   43
  126
 -114
  -90
 -127
    0
   18
   33
 -104
  -43
   17
  -96
   19
    8
  104
  -83
 -117
  104
   37
   91
   44
 -106
  -55
 -113
  -39
  -14
   15
 -109
   41
  -79
  -87
  123
   93
   89
  -64
  107
  -47
   98
  107
   19
   -5
 -108
    8
   74
  -36
   23
  -19
   98
  -61
  -84
  -97
  -69
 -114
 -126
   94
 -116
  -17
  -43
   73
  -17
  118
  -93
  118
   33
   83
    4
  -56
  117
  -91
   17
   61
  -37
   57
   -7
  -23
   36
   94
 -107
   23
  124
   39
  110
 -118
   17
   22
 -100
  -59
   75
  104
   12
  102
  -32
   15
 -125
  -44
   78
  104
  -88
   32
   43
    1
   23
  -26
  -63
  -42
  -64
   -2
  -91
  -40
   34
  -23
   68
  -76
  -49
   26
   37
   92
 -115
  -82
 -127
  112
 -124
   27
 -127
  -38
   75
   74
 -121
   89
   -5
  106
   90
   14
 -123
   62
  -45
   43
   20
   18
  -78
  121
   84
  -99
 -112
  -91
   40
  -72
  -99
  -75
   22
   49
  -18
   54
 -104
 -120
  124
   32
   57
 -103
   67
   91
  -19
  102
  110
  -20
   97
  126
   38
  112
  127
  -83
    7
  -80
  -77
   59
   90
   26
 -119
   27
    0
  -15
  -20
   33
   15
   -7
  -18
 -109
 -104
   46
   47
  -16
  -69
  -41
   11
  -14
   70
 -110
  110
 -118
  -91
   29
   53
  117
  -73
   15
  -36
  105
  -96
  -46
    7
  121
  101
   -8
  123
  -83
   80
  -72
  -62
 -113
   89
   87
 -112
  113
   92
   64
  -29
  -62
  -39
   97
 -127
  -92
  112
  -43
   58
  -75
   45
  -29
  -53
  -72
   73
   73
  119
   76
   91
   -7
  -49
   96
   46
  117
  -77
  -35
  113
    7
  102
   75
  -45
 -111
   84
   52
  -67
  -17
  -15
 -108
    5
   59
   90
   71
   -3
  -15
   44
   29
  -89
  -72
  114
   50
   52
  121
   36
  121
  -79
   32
  110
  -71
  -18
   54
  116
   67
   56
   12
   19
  123
  -93
   63
  120
   98
 -119
  -92
   25
    6
  -53
   19
   50
    7
   38
   54
   16
  -13
  102
 -124
   40
  -37
   69
   15
   -2
  -27
   29
  -25
  104
  112
   20
   88
   27
   22
   27
   55
   72
  116
   89
   72
  117
   64
   30
   -9
   84
 -102
  -35
 -101
   32
   58
  -73
 -105
  -64
  -18
   64
   95
  -50
  -14
  -70
  -75
  -45
  -65
   17
  -55
  101
  103
   43
  -27
  103
  115
   40
  125
  -40
 -121
  -37
 -121
  -53
   33
 -120
  -39
  -59
  -87
   90
  -10
  -46
  -63
   39
  -83
    7
  -25
   75
   76
   71
   34
   14
  -36
   26
  -16
  -21
 -113
  104
   73
   93
  -51
   36
   23
  -24
   71
  105
  -55
  -30
   71
   12
  -65
   13
 -117
  -96
  -55
  -44
   85
  -21
   73
   66
  -57
  102
  100
   97
 -116
   68
   -4
   95
  -37
   64
    1
  -24
   41
   74
   95
   33
   -4
   24
  -59
    2
  -71
   97
  -11
   19
  101
   57
  127
  -48
  -59
 -109
 -127
 -125
  111
   28
 -126
   26
  -65
   66
   96
  114
  -49
   47
   62
  -41
   17
    1
  123
   45
  -18
  -73
  -53
   45
    9
   46
  -90
 -127
   84
   27
   -6
   74
  -73
 -124
   10
   76
   31
   71
  117
   65
   32
   99
   68
  -52
  -66
   47
  -36
   64
   -7
 -107
  -84
    3
   34
  -65
 -124
 -114
  120
  -96
   61
   -2
  113
  -10
  -37
  -22
 -114
  -90
   59
  -26
  -58
   86
   79
   83
  -62
   81
  119
  -45
  -15
 -116
  -78
  126
  -41
  -20
  -99
   60
   18
   65
    2
 -124
  -36
  -50
   34
    5
   -2
   93
   90
  112
  -71
    7
  -53
  108
  127
   51
  -64
 -125
    9
   10
  -91
 -124
  -14
 -124
 -126
  117
  -78
   92
   29
  -19
  -20
   -9
   68
 -108
  -98
   43
   41
   88
  -77
    8
  -70
  -82
   63
   99
  -71
   19
   -5
  102
   28
   25
   21
   91
   -8
 -112
   44
   -9
  112
  -57
   79
  -50
  -68
   26
   70
   74
 -114
  -32
  -85
  108
  -90
   97
   47
   81
   73
    0
   86
   22
  -93
  127
  -83
  -42
    3
    5
   -9
  -27
   16
   46
  -56
 -109
   86
   79
   63
  -50
  -50
   50
   17
   52
 -116
  -45
   86
   27
   66
   72
   33
   -3
  -50
   -6
  -59
 -109
  116
   95
  -53
  -46
  -13
   78
  -17
  116
   57
  -17
   87
  114
    8
   86
   60
   12
   36
  -51
 -122
  -85
   10
  119
 -121
 -105
  117
  -47
   36
   -3
  102
   89
  -46
   49
 -113
   95
  -51
   80
   25
   18
   83
  123
    3
   57
 -119
  126
 -124
   24
   32
   83
  -58
   12
  -47
  -66
  116
  -35
  -52
  -79
   69
   61
 -104
 -100
   39
  -41
    1
 -111
 -127
   74
  -68
  -78
   77
  -13
  112
  -30
  -16
  -59
   39
  -61
    3
 -126
   20
   74
 -103
  -39
   39
   39
    1
   93
   98
  -89
   52
  -68
  -59
   84
  -94
   14
   92
  118
   10
  -56
  -54
   30
   16
   22
  -94
   45
  101
  -27
  103
  127
 -117
 -115
   43
  -51
  118
   24
  -34
   70
  -82
   76
   54
   37
   97
  -57
   78
   53
  119
  -28
   12
   14
   97
   44
  -39
   62
   84
 -121
  -49
   38
   40
  -44
   30
  -82
  108
  -39
  124
  -81
 -109
   78
    3
  118
 -114
  -46
   85
  -20
   58
  -86
  -24
  -57
   86
  -62
  -72
 -114
   51
  118
    0
   93
 -108
  120
   17
 -101
  126
   97
   58
  -11
 -103
  110
   31
  111
   90
  -79
  121
  -22
  -97
  -69
  -46
  -33
  -38
   22
  -49
   34
   27
  -74
   37
  -16
  -79
  -67
  -26
   65
  -68
 -118
 -115
 -106
   63
  124
    8
   18
  -66
   77
  113
  -67
  -29
  -35
   40
 -121
   68
  -53
   42
  -24
  -30
  -65
  120
   -3
 -114
   33
    6
   89
   91
   54
 -123
  126
  126
  -79
   13
  -63
  -34
  -28
   52
  -47
  -19
  -22
   75
 -122
   72
    2
  -20
   82
  -76
   33
  -73
   95
  -18
  119
  -25
  -34
  -78
  -12
   70
  123
   28
  -66
   96
   42
  -95
  -33
  119
   33
    4
 -102
   62
  -33
  124
   64
   51
  -67
  -34
  105
  -24
  -39
  -16
  116
  -35
  -34
  120
  -46
 -113
  -48
   64
  -31
 -120
  -41
   35
  -52
  -94
   99
  -60
    9
  -72
  -51
   67
  -29
   31
    5
   73
  111
  -15
 -118
  -87
   62
  -62
   69
 -121
   92
  -19
  -10
   41
  -65
  -11
  -95
  -29
    3
  -49
   83
  -91
  -13
   52
  -39
  110
    4
 -114
   60
   -8
   69
   55
  -64
  -61
   -1
   95
  -68
    0
  -84
  -86
   73
  -55
  -93
   89
  -48
 -108
   36
  -81
   66
   33
 -103
   -6
 -125
  -77
   42
   51
   38
   69
    1
  120
  115
  -41
  -75
   90
   79
 -108
   57
  -58
  -83
   44
   70
  -10
   78
   56
  123
 -124
  101
  -80
  125
  -46
  113
 -103
 -121
   26
  -86
  119
  -85
 -104
  -54
    3
   -2
  -94
   37
   96
   44
  111
  -75
  121
  112
 -105
  -75
  -54
   68
  -71
   25
  -72
 -120
   74
   90
   67
   44
   33
   42
  -61
   60
   46
   75
   38
   54
  101
  -69
   88
 -112
  -45
  -31
  119
  -65
  -95
 -105
   14
   65
   41
  -92
  -61
  -73
   17
 -118
  -20
   34
    2
  123
  -21
   42
 -102
  -93
  -91
  104
  -92
  -27
  -59
   18
   15
  -21
   67
  -24
 -122
  -43
   92
   -6
    1
  -46
   66
   10
    2
   -9
   18
   75
  -17
  108
  -70
   44
   67
   49
  -23
  -50
  -51
  106
 -120
  -65
   99
   34
  -88
  -22
  115
   10
  -47
 -115
  -15
   32
   30
   57
  -31
  -10
  -47
  -92
  -55
   92
   87
   47
  -47
  -63
  -15
  -87
  -74
 -114
  -50
 -106
  -31
  -59
   49
  -19
  -47
  -88
   34
   92
  -75
  -41
   55
   -9
  -72
 -112
 -112
 -115
  -45
 -103
  -50
   43
   -7
  -61
   62
  -42
  -69
   59
  107
  -26
   97
  123
    6
    6
  -73
    0
  114
   72
  -55
 -126
   98
  102
  -67
   32
   47
   16
 -111
   -7
  110
  -99
  -73
   73
   56
   10
  -13
   57
   43
 -102
  -38
   27
 -111
   59
 -106
  -88
   87
 -106
  126
 -102
 -121
   33
   -6
   29
  -83
 -112
   65
  -88
   83
 -100
   46
   87
   -9
   46
   -3
  105
  126
   95
   74
   30
  122
   -2
    1
   -2
  -43
  -76
   78
  100
  -91
   83
  -23
  102
  -93
   30
 -111
  -36
 -112
    0
   63
  -68
 -113
 -113
   23
  -75
 -105
   81
   34
   22
  114
   34
   55
   40
  -20
  -46
  -70
   77
   88
   30
    9
   66
  -46
  -43
   56
   63
 -103
 -101
  -17
  -86
   71
  -44
  -50
  104
  -64
 -117
  100
  112
   -7
  -76
   63
  -17
   65
   -5
   35
  113
 -110
   56
  -16
   95
   49
  -57
   45
 -114
  -14
   27
   33
  -14
   89
 -125
 -120
 -114
  -86
   95
 -110
  -65
   -3
  -69
  -32
  -71
  -67
   88
  -49
   56
  -69
   83
   90
   95
  -70
  101
  -48
 -107
  -95
  -88
  -61
   91
   85
   32
  -43
  -91
  -20
 -102
  -35
   81
  -92
   -1
  126
   81
   19
  -10
   25
  -33
    0
  -21
   -1
   98
  -37
   57
   -7
   29
   -2
  -37
  -32
   85
  -12
   94
   34
   -2
   76
   98
  -67
  -73
   50
  -50
    2
  -98
   41
  115
   65
   61
 -116
  -42
  -99
 -100
  -32
  109
 -119
   -6
   90
  -65
  -80
   91
   52
   85
  -98
   33
  -28
  -49
 -100
   92
  -15
  -59
  -78
  104
  -77
 -117
   87
 -107
  102
  -45
  -38
 -119
    8
   30
   31
  102
  -48
    0
   95
  -57
  -75
  -55
    6
   36
   66
 -119
  107
  -42
  -98
  -35
   12
  -36
   35
   66
  -27
  -44
   87
  -71
  -55
  -58
   43
   84
  -34
  -15
  -37
  -15
  -62
  -46
 -103
   41
 -120
   12
 -124
 -125
   53
  -32
   83
   82
 -125
  -22
 -104
  115
   77
   37
  -62
   41
  -52
  -85
  -81
  -28
   73
   98
   25
   36
  118
   32
   75
  -13
  -98
   84
   -3
  -31
  111
   75
   64
   43
   84
  -96
  -25
   70
   -5
  -94
   61
   64
   54
   78
  110
  114
  -78
   12
    4
   68
   31
   10
 -123
  116
   11
   99
   80
   33
  -77
   17
  -80
    4
  107
   13
  -83
   87
   85
  -58
   -5
   41
  -93
  -68
   86
 -106
   90
   -5
  -35
  -72
   -3
   22
   27
   14
   32
   56
  -70
  -25
   58
   50
  -30
   20
  -26
   50
  -78
  -57
  -17
 -102
   92
   24
  -91
   84
  -66
   29
  -46
   -9
  -36
   72
  102
  127
  -49
  -86
   76
   17
   71
 -110
  -99
  -36
  -30
 -119
  125
   72
  -73
 -102
  -61
  -70
  -23
   71
  -76
   62
  -97
   63
  -18
  -72
  -45
   98
   43
  124
  -68
  -25
 -120
  -32
   29
   59
 -112
  -77
   58
 -114
   71
  110
  102
  -71
    9
   61
  -44
   13
   76
  -82
  -69
  -73
  -28
  109
  -99
  -82
  -45
  -96
  126
  -67
  -40
   66
    3
  -21
   48
  -44
 -126
  -28
   52
   73
   11
  -59
   60
  -21
  -53
   59
  -56
   92
  -22
  100
  -86
  -58
   79
  -78
   -8
  -83
    9
   86
  -84
  101
   82
   22
  114
  -30
   63
   96
  105
 -108
   32
   68
  -97
  104
   53
   28
  -58
  -14
 -102
   67
   99
  -74
   77
  -51
  -37
  -48
  -89
  -21
    5
    0
   40
  -42
  -57
  -28
  -69
  -99
  -55
  -85
  -49
  -14
 -102
  -22
  -14
   -1
   97
 -124
   -7
   52
 -109
   72
   49
  104
  -73
   55
  -69
  -95
   -7
 -122
  -94
  -36
 -110
   48
   34
 -101
   31
   19
   -3
 -105
   98
   87
  -74
   28
  109
  -79
   21
  100
  -51
  -47
  -33
    0
   43
  -79
  112
   86
  118
   78
  -71
   78
   30
  -94
 -106
  -30
  -98
  -82
   25
   13
  121
  -55
  -61
   88
   71
  109
  -30
 -127
  -46
   13
   38
   77
  -81
  -78
   79
 -117
  -69
    4
  121
  -29
  -65
   25
  -30
   44
 -118
 -109
   57
   26
    5
   22
  -52
  -12
  116
  -74
  -16
 -123
   -2
  -12
   21
   23
  -42
 -104
  112
  -34
  -92
 -113
  100
   61
    4
    3
   84
  -86
 -114
   83
   44
  -16
   37
  -40
  102
   25
   39
  -67
 -101
  117
  124
  -85
 -124
 -115
  -35
   -9
  -50
 -113
 -104
  -30
   42
   67
   71
   13
   90
   96
   21
  -79
  -50
   33
  -54
  -65
   68
   77
 -103
 -124
   65
  -81
 -127
   28
 -124
 -115
   36
 -121
   67
   51
  -20
 -114
   28
   76
   59
  -18
   10
  123
 -116
  -47
   87
  -17
  -93
  -62
  -71
  120
  -98
 -110
  -48
   51
 -110
   97
 -110
 -120
  -66
    4
  -18
  117
  -57
   60
   42
   81
  -30
   85
  103
  -89
    8
  -28
   46
  -87
    6
   63
   75
  -52
 -122
   98
   67
 -117
  -54
   39
    6
   47
  -58
  -87
   45
  -77
   68
  -88
  103
  -27
   57
  118
   92
   86
   63
    0
  -87
  -50
   -8
  -76
  -54
  -88
  114
   14
   26
  -62
   99
   27
  -19
   48
 -107
  -72
  123
  -93
   59
 -108
 -109
 -115
   -8
  -38
   21
  -15
   75
   61
  -94
 -113
    0
  -11
   16
 -115
 -119
 -101
   82
  -51
   52
  111
  109
  -57
 -125
  -24
   38
   19
    1
   61
  -26
  -63
 -111
   72
  -39
 -125
   35
 -107
  112
  -80
   99
 -116
   61
  -84
   91
   58
  -27
   48
   -3
   -5
   94
   69
    1
  -72
   60
  127
 -122
  101
   -4
   88
 -114
  115
   22
   95
 -110
 -116
   99
   -7
   47
   32
   59
   24
 -109
  -23
  118
   88
   54
  -61
  119
  -58
   95
  101
  -63
   32
  -52
   -6
    0
   14
  -92
  -89
  -65
   21
  118
  106
  100
   50
  -69
 -115
  106
  -23
  -42
  -14
 -107
  118
  -93
  -22
 -125
  -98
  -48
   10
    7
  -85
 -127
   71
  -65
  -85
   33
 -127
   92
   58
  -83
   98
   58
   37
 -124
 -102
  111
  -51
   59
    5
  117
   99
  -81
   15
  118
  118
  111
   95
  -74
 -121
   80
  -95
   76
    8
  -45
   23
  -46
   86
  -20
   -5
 -121
   49
   88
   49
  -36
   61
   33
  104
   82
    0
   81
 -123
  -13
 -106
   77
  -31
  127
   -7
  126
  111
   35
   85
  114
  -98
   58
 -127
   20
  -97
  -60
   21
   67
  -63
   18
   79
   15
   24
  -32
    2
  -50
   -1
   84
 -114
  -93
   48
  -68
  -42
   87
  105
  -61
   79
   64
   84
   44
  -33
   -5
  -73
   33
   95
 -114
   45
   88
   51
   -9
   21
  -57
  120
   69
  -17
   46
   17
  -69
  -17
  -24
   76
  -36
   46
   82
   90
   32
   10
   73
 -125
   90
  -69
  126
   87
 -126
  -39
  -10
  -41
  -48
  -24
  107
  100
  -16
  -88
   45
   54
   82
  -96
  111
   82
  -78
   30
   19
   67
  117
   28
   51
   91
  -70
   12
   88
   45
  -39
  -37
  -73
  116
  -68
   36
   -8
   68
  -85
  -90
   40
   46
   37
  -44
   58
  -92
 -111
   84
  105
    2
  -27
   87
    6
    6
 -110
  103
  -77
  -43
  -27
  -24
  -31
 -125
   58
  -25
  -64
   58
  -32
   -4
  118
    1
  -67
   23
  -46
  109
   33
  100
  -82
   -4
  -51
    1
    6
  -56
   20
   65
  -53
  -71
   74
   60
   92
  121
  120
   42
 -103
  124
   84
  111
  -51
  -30
   58
    6
  -94
   26
    0
   84
  -53
 -106
  108
  -61
  -97
   48
  120
 -112
  -92
  -37
   10
  -54
   27
   41
  -93
   72
   12
  -18
  -44
  -10
  -83
  -26
  110
   81
  -57
  -41
   29
  -53
  -31
 -110
   -4
   83
  109
  114
   53
  -24
   73
    1
  -81
  -53
  -52
  -31
 -121
 -101
 -107
 -118
 -116
   58
 -124
 -106
  -22
  -20
   65
   53
  -74
  -82
  103
    6
 -122
  101
   74
   29
  127
  -31
    1
  -44
 -108
   77
   -9
  -32
   -4
   12
  -28
   93
   46
  120
 -101
 -123
  -52
  -77
   60
  -51
  -61
   48
  101
   91
    1
   73
   60
   70
  -76
   94
   64
  124
  -10
  -70
  -97
   20
 -105
   52
  117
  101
  112
   29
  -60
   63
    8
   62
  -25
  -10
 -104
  -16
   54
   14
  -73
  -28
  -13
   98
  108
  -26
    8
   92
  112
  -26
   30
  -46
  -17
  -99
 -121
    8
  -72
 -106
   99
   56
  -29
  -30
   33
   97
  -75
   34
 -103
    5
  127
   78
 -124
  109
  -48
   85
   56
   -3
   16
  -36
 -119
  -18
  -36
   52
 -104
   39
  -61
  -90
  -48
    4
    8
  -68
    9
  100
 -103
 -112
  -48
  -99
   -8
   76
  -22
  -59
  -19
 -127
 -126
  -82
 -124
  -29
   52
  117
   46
  127
  -57
   65
  -51
  -19
  -21
  110
  -22
  111
  -87
   10
  -30
  -91
   23
   86
  -86
  105
   45
  -92
  -94
  -91
 -115
   96
   73
   28
  -76
    2
  -55
  -24
   23
   -7
 -115
  -66
  -41
   67
  -82
 -123
 -107
 -126
  118
  -29
  112
 -123
 -107
   14
  -60
  -92
  123
   81
 -110
  -67
  102
   84
   92
  117
  -67
  -31
   95
   88
   66
   61
   36
  -73
  -44
 -114
 -127
   -9
    4
   -5
  -30
  -55
  103
  -56
 -104
   99
 -127
  -51
  120
   15
  126
   57
   91
   32
  -17
  -52
  -42
  -43
    3
  -60
 -103
  -32
   37
  127
  -68
   30
  -26
    0
  -89
   75
   38
  111
  -61
  -65
   47
   59
 -108
 -123
   39
    9
 -126
   71
 -120
  -91
   13
   92
  -65
  103
  -81
  127
 -125
  -84
   90
 -124
   64
  -30
  -65
  112
  -37
  117
 -103
   23
  -51
  -83
   61
   72
   65
   51
  -50
   86
  -16
 -107
  124
   50
  -20
  106
   64
   40
 -110
   91
  112
  -10
  -11
    6
   68
  -29
   54
   14
   85
  -89
 -100
   28
  -50
 -113
  -49
   81
   94
 -117
   12
   21
   37
  -97
   71
  -80
  108
  -28
  -54
    8
  -16
  117
   10
  -88
   29
   74
  -65
  122
  112
  -23
   21
   81
  -94
 -119
   78
   18
   98
   18
  103
  126
  125
  -16
   33
   68
   76
  -60
  104
  106
  113
    9
  -44
 -103
  102
   32
  -91
   31
  -91
  111
  -29
  101
    4
   51
  -17
  120
  -75
 -110
  -15
   63
   -5
  -91
   88
   24
  -42
   66
  105
  -89
   72
  -21
   71
  -48
  -77
   -1
 -125
 -110
   13
   54
  107
  -48
  126
  -14
   52
   -9
   -8
   23
 -112
  -56
 -117
   85
  -16
  -88
   72
   61
   83
  -52
  -36
   65
   49
  -66
 -101
  -66
  -24
  -14
   88
   50
   93
   30
  -77
   24
 -116
   67
   29
  122
  105
   53
  -66
  112
  -78
   30
   -5
  -65
   91
  100
  -95
   28
   89
   72
  -35
 -101
    5
  -63
   -5
   92
  103
  -73
  -70
  109
   77
  -76
  -83
   31
  -17
  -11
  125
  -12
 -101
  -26
  -92
  -10
  -25
   26
  -12
  -12
   10
   63
  -24
   50
  -72
   27
  -54
  103
  123
  -72
   54
  -68
   46
   -8
   35
   96
  -93
   43
  -39
  -52
  -32
 -115
  -65
  -65
  -64
   28
  115
   23
 -101
   63
  -72
  -91
   51
   85
   99
   28
 -102
   24
  -32
  -51
   18
   86
  -94
  -96
   30
   53
  -16
   67
  119
  -80
   36
   19
   55
  -56
    5
  -89
   72
  -35
   86
   53
  -17
  -82
  -10
  -88
  104
  109
   43
  -46
  -93
 -113
  115
  -44
   69
   62
   95
 -123
  -58
   -9
  122
   90
   40
  105
   45
    3
   14
   66
  125
   18
   13
  -37
   29
  -87
   20
  -21
 -112
 -113
  106
   33
 -125
  102
    7
  -78
   76
   26
  -68
  -53
   36
   -4
    9
 -108
  -32
  106
  101
  -12
 -121
   26
   11
   30
  -76
  -42
   91
  -15
  -27
   83
    3
 -106
   39
 -124
   -9
  -46
  -51
  118
   95
  113
   53
  108
   22
 -119
   72
   87
    4
  -59
 -104
  -27
  -29
  -52
   -3
 -108
   75
  126
  -31
    3
  -34
 -124
   87
 -102
  -67
  -77
  122
   39
  -61
  -27
  -55
  110
   23
   61
  -90
  -21
  -60
   12
  -10
  115
    1
   22
   15
   43
   99
   69
   25
   61
   -3
 -126
   98
   98
   17
  115
  -71
   66
   11
  -95
  -98
   84
   85
  -19
   29
   89
   80
 -112
   64
    6
  105
  -44
   46
   27
  -69
   60
  -40
  -52
  118
  100
   74
  -65
  100
  -10
   -6
   95
  -18
   66
  -39
   71
  -64
   88
  -10
  -75
   44
  108
  108
    4
   84
  105
   73
 -116
   -3
   30
   11
   88
 -100
  106
 -105
   54
   25
  -18
  116
  -83
   54
  110
   83
 -112
   51
  -88
  123
  125
   -1
  108
   83
   -7
   82
   -2
  115
   12
 -106
   -2
    9
    1
   87
  -16
   32
   -1
    6
   67
 -108
  -11
   16
   25
   46
  -53
   80
  -75
  -59
   61
  -26
  -40
  111
  -22
  120
 -118
  -30
  -72
 -120
 -103
   72
   35
   21
  -32
  -47
 -113
  109
  118
  -15
  -59
   -4
  -67
  -29
  122
 -115
  101
  -86
   65
 -108
   -1
   38
 -119
 -122
  110
   78
  -73
   28
 -123
  -86
   -9
  -28
  -71
  -40
   -2
   92
 -121
 -123
   37
  -48
  -33
   83
   10
   61
   51
  -57
   38
  -27
  -39
   58
  121
   22
  -30
  123
  -66
  -26
    1
   57
  -82
  111
   13
  -46
   -9
  -10
  126
  105
    2
 -100
   47
  -43
  -20
   32
  -60
   38
  -74
   83
   53
   36
   30
   98
  119
  -18
 -104
 -123
   85
   45
   61
   60
  -44
   37
    6
   39
 -114
  -49
  115
  115
  -71
  -10
   35
   -9
  -16
  -78
   33
   -8
  111
   83
  -89
 -101
   69
  -81
  -74
   34
  -89
   52
  -68
  103
   27
  -73
  -63
  109
    9
  121
  108
   51
  -79
   34
  -97
  114
  -60
  -84
 -115
    6
  -12
  -56
 -120
 -111
 -108
   27
  100
  -99
 -111
   37
  -98
   43
    5
  -21
   14
    8
  125
   -9
  -98
 -126
  117
  -64
  119
  -16
   65
  -20
  -51
   60
  -93
   49
  -98
   14
   13
   65
    3
  -75
   -2
  114
  -70
   97
    8
  -47
  -51
  -22
  127
  -83
  106
    8
 -100
   18
  -98
 -111
   68
  -98
   78
   16
   80
  105
  -10
  118
  -89
  -30
  -62
   30
   99
  115
  -37
