-10718
-8276
10259
-16045
15141
-5169
 4143
-12341
10654
 6512
-5876
14635
-11297
10563
-12913
  159
-5641
 7587
15738
 7622
-8398
13340
-4074
  803
10256
-10178
12023
15104
-11558
-10623
 6585
 3179
15808
-12865
 8497
11026
-2264
-8439
-6943
15273
13885
-13252
-9631
-14658
-2340
 -341
 1881
-14335
15153
 1028
-2450
-3051
 3806
14329
 6870
-6008
13758
 2708
12504
-6463
-5227
-3152
 -432
12135
 2018
14822
 1541
-12909
-9870
-10069
-14824
12124
 2537
-10038
10739
 -588
-2987
 2873
13223
-12491
-13634
 2168
 9290
12702
 -263
 9089
-10038
 8083
 -664
-13272
11473
-11175
14169
13909
 -627
-6232
    5
 2384
 -711
 7958
-8098
-9389
  326
 7851
-9629
 4411
-15517
 4458
 -960
-8991
-9560
 -219
15379
 9696
-7586
-15271
 3463
12501
 1914
15797
-8932
-14037
-15138
-9967
11286
-9095
-2813
-12745
10424
-1672
 1003
 4331
-9667
 -609
-14813
 6160
 2777
 7543
 9124
12931
 2555
-8938
-15886
12895
15712
   86
 6918
11297
-11940
 5970
13739
-9922
-14003
-4502
-1180
 8666
 3641
-7394
13820
 8649
 9968
-6783
-13372
-14571
-15726
14125
-15178
 2034
10587
11132
 5948
-1602
-15277
 8773
14466
-11627
 2445
 -823
 6645
11466
14061
 -518
 7318
 5387
 -627
  399
 4127
-1157
 7382
 2618
-12876
 8430
 9521
-10045
13676
 2510
-10865
-8454
-7894
 1761
11967
 5739
-14379
 1414
-4930
12676
-1106
13271
 9519
12706
 8241
-1678
-11624
 7160
 1049
  227
-5864
-9841
 6786
  772
14989
-11322
15270
 -830
-7642
-8550
-13871
 -405
-8799
-7357
-5029
 9724
-6944
-13711
 1894
12926
-6895
-15322
-3434
15816
14064
 7961
-8706
 3785
-4015
-4560
14930
15741
-14797
-13018
 7994
14395
-13049
 7858
10945
10370
-13300
-4183
  548
12035
-12071
-8850
 2142
 2530
-1759
15618
 2038
-7488
-5156
-8639
-4809
-10514
 2678
-5741
-14741
 7017
-7643
 7822
-13930
 -686
-2421
 8908
 8893
 -860
10980
-15328
-12831
15855
-3555
13018
11083
 2985
12030
-7929
-3063
 -610
-12849
 3854
 7609
11147
-2313
-7580
-4643
-13121
-13243
 6518
-10456
-8811
-2988
 5793
 -847
-12746
 1984
 4137
-11664
-4247
-11395
-3951
-15387
 7136
 1753
-9529
12028
-5028
 1277
-10819
 7859
15504
  785
  148
-6858
-9109
 3557
-3900
-11412
 1907
-8041
-10039
-9070
 3566
-13656
 9345
 1451
-8872
 -315
 -268
-13991
11516
-9383
 5548
-15439
 2449
-10433
-9868
 -723
 5834
15058
 9219
-2284
-1391
-11315
-8627
 6455
-14319
 4133
-10137
-2041
 1899
10114
-10962
-1035
  468
-6044
-4696
-2960
 4777
-2972
-10808
 5969
-10827
-6776
-7667
-8141
14039
 5591
12566
 9617
-1962
14571
-11393
-10482
-4427
 7520
 9871
11884
11881
-7674
 3124
15993
14074
-4653
11700
-2141
-8118
-1115
 1272
-14125
-6928
15067
  730
  216
-7869
-12807
15294
-10086
 3639
 1487
-9140
16100
-2551
  676
 3536
-1046
 7940
-12306
13338
12509
-8444
-1795
10508
 2165
-13853
-8307
-5020
 5430
12066
 6928
-8895
10449
-6548
-8315
-11604
15182
 7652
-2783
-1158
12616
 9593
15149
15188
-4939
 -942
-13937
-1422
 2180
 7370
 8386
11928
-13147
 4932
-14353
  754
-10796
-4074
15469
13695
 3651
13738
 8110
 3036
-1899
-7059
12395
13918
-4303
 4942
 3138
-12283
-10956
-13213
-15640
-14843
 8493
-4875
-7310
-4722
-10341
-14342
11376
 2527
-13979
15475
10025
-14501
 5183
 9927
-5520
-9553
10657
11403
 2549
-8467
 5545
-2068
 2865
-6274
 3977
-4338
 1978
-9930
-8442
-2210
10786
11025
 8843
12684
  385
12169
-5818
13037
14485
-6378
13955
-3648
-10834
-9843
-11374
15215
-9331
 8449
14071
11961
-10314
10808
 -853
-14372
-4433
-2228
14665
-8189
-2130
-1033
10203
-4361
-14925
 9940
-15821
13954
 6075
-3883
-1413
 6982
14808
-10614
12357
-15595
12587
-2388
15595
-10864
 3785
 6433
13397
-11136
 2764
-16065
10064
-4333
-1268
-13036
15601
   75
 8847
15843
 9613
-9388
