   52
  113
 -106
  -60
  -25
   75
  102
   47
  116
 -119
 -116
  -37
   16
  -98
   28
 -100
  -74
 -122
  -68
   31
  -38
  -14
  116
  -96
   69
  -11
   89
   79
   34
   69
   88
 -120
    5
   93
  -86
   64
   -1
   92
   59
  127
   45
  125
   32
   49
   14
   -9
   22
   75
   -4
    0
   75
   10
   15
   81
   55
   99
  -93
  102
   56
  -80
   18
   26
  -86
   83
   60
   43
  -52
   41
   67
   99
  -29
   -7
   72
    1
  -98
   33
  -37
  -66
  -85
  -84
  114
   28
 -116
    0
   62
  -22
   13
   27
  -31
  127
  -29
  -23
   69
  -79
  100
  -53
   19
  122
   34
  -47
 -118
   26
   54
   24
  -94
   83
  -98
  -25
   -4
  -51
 -100
  116
  -72
   13
   96
  -89
   22
   91
  -67
    4
   -8
   80
  -11
   53
  -54
   97
  106
  -33
   80
  117
   79
  124
   99
   27
  -41
  -70
   31
  122
  126
   99
   81
   24
   76
  113
   23
   30
   20
    6
  -12
   77
 -123
   75
  109
   45
  -18
  -18
   40
   -9
  119
   20
   38
   87
  -76
   37
  -17
   89
 -115
  -33
 -106
  -40
  -59
  121
 -123
   62
  -12
  -76
  106
   88
   25
   50
   74
   23
   87
   -3
 -122
   57
   69
  -92
   49
  127
  -85
   48
  -77
  -24
  -38
   71
  122
  115
   -6
   98
  -92
   78
  -13
  -48
 -109
  -83
 -105
  118
   33
 -105
   45
 -123
  -13
  -16
    2
  120
  110
   11
  123
  108
  -29
   -2
   64
  -52
 -115
  105
    8
   75
  -79
  -53
  -58
  101
    5
 -116
   84
  -60
   30
 -107
   43
  -79
   90
  -76
   38
   -5
 -124
   75
  -16
  -66
    8
   94
  -29
  -82
   28
   91
   77
  -58
    4
    3
 -109
  126
   -7
  -49
  -77
  100
 -126
   71
  -75
   17
   37
  -32
   99
   48
  100
  -65
  121
  -35
  112
  -97
  -70
   90
  118
   -6
   75
   -8
   51
  -76
   29
   29
   96
 -103
  -77
  101
  -88
   42
  110
    8
 -116
  -52
    4
   85
   67
   29
 -124
 -113
   50
  -98
 -106
  -12
   60
   47
 -126
   -2
  -76
   87
   -3
  104
 -110
   50
   -6
   80
   35
 -117
   94
  113
   30
  119
   44
  116
   58
   93
  -59
   84
  -50
   49
  -85
   37
 -105
  -20
   40
   83
   26
 -120
  -17
  116
   -3
  -55
  120
   32
  -95
   80
   62
   30
  115
  -36
 -124
  101
  -47
  -92
 -100
   -2
   80
  -12
   74
   32
   45
    3
   25
  -57
   69
  119
  -61
   54
   89
  -39
  -51
  111
  -94
  123
  -68
   99
  121
  120
  -60
  -51
   86
  119
 -105
   42
  125
  -38
   -6
  102
  -60
  -13
  109
  -70
  -99
  126
  -45
   29
  -19
  -98
  -19
  -84
   59
   -3
   90
   19
   29
  -49
  -73
 -119
 -109
  -28
  117
   79
  -41
  121
 -123
   22
  -43
  115
  -22
   34
   27
   55
    8
  -84
  -77
   25
  -32
  -93
 -121
   15
 -113
  -81
  -63
   35
 -102
   -7
   50
  122
  -55
   93
  -96
  120
 -104
  -18
  -54
  -33
  -70
   54
   33
   37
  -67
  -42
 -121
  -49
  107
  -34
  -16
   93
   88
   51
   85
 -103
  -76
   26
  -75
  111
  -74
  -90
   32
   59
  -85
  -92
   44
   15
   41
  -28
 -121
   72
  -43
   99
   73
  127
   20
    9
 -111
 -125
  -57
   17
  -35
   32
   31
  -29
   79
   45
   66
  -60
  -58
   -6
    8
   97
 -109
  -79
    5
  -57
   -2
   23
  -89
   53
   39
  -51
   -4
   76
  -97
   71
  -13
  125
   36
   65
  102
  -59
 -104
  -87
 -108
   83
   39
  109
   72
  -98
 -107
   12
  -56
  -23
   97
  -27
  -24
   70
  -41
   98
   90
   57
  -55
   -3
  -19
  -64
  100
  -44
   59
  122
  -36
  -98
  -12
   -4
  -71
  121
  127
  -83
   76
   75
 -108
  103
    2
 -104
  -44
  -25
  -81
  -49
  126
  112
  -50
   52
  120
   87
 -108
  -11
   25
   59
  -74
   50
   80
   -7
  -67
  -14
 -115
  -63
   32
   11
  -10
  -65
  102
   79
   15
   31
   86
  113
  -28
   63
  -65
  102
 -111
   32
   23
   55
   42
 -113
    3
  125
   70
   33
    2
   -4
   46
   15
   32
  -59
  -29
   77
   21
  -29
   -3
 -120
  -90
  -38
  -55
  -55
   65
  -45
 -122
  -60
   22
 -106
  125
  -52
  -96
  -24
  -94
   63
  -33
   37
  -40
 -118
  -94
   98
  -79
  -81
  -98
   -9
   70
  -11
   84
  -58
  -64
   -1
   45
   10
  -88
  -39
  -90
   29
   40
  124
  104
   -8
   50
   22
  -43
 -110
   77
  -46
  -90
  -35
  -86
  -28
   -6
  -60
   60
   17
   34
 -123
  116
 -126
  -31
   53
 -122
   86
   -7
  -62
  -37
   12
   -8
  -48
  -67
   45
   83
   97
  -59
   20
   29
  -96
  -44
  -20
   33
   48
   15
  -26
  -51
    3
   23
  109
   90
   47
   78
   98
 -114
   28
    4
  -49
   65
   26
  -41
  114
   35
  -50
 -125
  -69
   -4
  -74
  -74
  -26
    2
  -26
  -21
  105
  109
   67
  -21
  119
  121
   74
   88
  -34
   97
  121
   17
   -6
 -114
   55
  -15
   22
  -17
   95
  -90
  123
 -112
  -27
   40
   81
  -48
   54
   80
   -4
   61
   24
  107
  -86
  -86
   36
   16
   48
   69
   40
   56
   35
   59
   33
  101
 -106
   83
  -66
  -25
  -70
   98
   57
  -52
   63
   62
  104
   65
  -77
  -75
  -48
 -124
  -82
   61
   53
 -120
  -25
  -76
  124
  -52
  117
   34
   14
  123
   21
  -35
   89
  -64
  -81
  -81
   21
   25
   36
   54
 -110
  -46
 -111
 -117
  -66
   84
  -48
 -107
   75
  118
    3
    8
  -74
  -99
   -1
 -106
   89
 -112
    8
  -32
  108
  112
 -118
   -3
   57
 -117
   45
  109
  -23
   88
  -19
  -21
  -63
  114
   23
   43
   66
   60
   55
   14
   15
   43
  119
  -55
  -40
  -94
  -44
 -106
 -125
   51
  -15
  -59
  -41
   96
  115
   77
  -74
   74
  118
  127
   20
  -52
   46
  -43
  104
 -106
   78
  -79
  124
   50
  -34
  -37
  -27
 -107
   53
 -103
  107
   42
    9
   93
   90
   31
    7
 -111
   58
   66
   78
   -2
  -97
  -43
  -62
 -101
   91
   75
  117
   49
   81
   23
  -35
 -103
   83
  -41
  122
   -2
   81
  -68
   16
   15
   51
   61
  114
    8
   57
 -114
  -42
  -49
   58
  114
 -117
  -64
 -107
   23
  -95
   66
  -80
 -101
   42
  -27
  -75
  -81
  -97
  -48
  -11
  -37
   60
   22
   47
   90
  -91
   78
  119
  -76
 -118
    1
    4
 -118
   90
   57
   26
    7
    6
  110
  -76
   83
  -53
 -111
  -59
   66
  -77
  110
  -39
  -90
  -45
   28
  -88
   38
   35
   96
  -38
    0
   56
  122
  104
  -39
 -117
   31
  -96
    1
   13
   98
  -43
   -8
   48
   70
   15
  -67
  -34
  -43
  -62
   96
    0
 -104
   53
  -64
 -109
  -17
   94
  -69
    5
  118
   -4
    6
  -74
    5
   20
   -2
  119
  -15
   23
  -62
  -79
 -123
  121
   35
  120
  103
  -52
   95
   37
 -125
   54
   59
   53
 -111
  -42
    2
  -84
 -125
  -77
  -36
 -125
  121
    5
   -1
   62
   39
  118
  -15
   82
  -44
  -79
  -46
  -94
   33
  -41
 -124
  104
  -59
   90
  -76
  -37
   47
   67
    1
   27
   66
  -21
  -28
 -124
  -83
  -87
  -41
  -60
  -65
  -10
  -47
   69
   16
 -117
 -118
  -58
  -69
   24
   69
 -124
  126
  -42
  -43
 -106
  -97
 -112
   77
  112
    5
   23
 -104
  111
 -111
   88
 -106
 -121
  -40
 -113
  -20
  116
   46
  -30
  -29
  -35
  -95
   21
  -74
  -50
   62
  -80
  115
   86
  -32
   86
   63
   -8
  116
   -7
   62
   23
   76
    6
  -79
  -23
   52
   55
   69
  -55
   -3
  119
 -100
 -109
   13
    3
  -39
 -105
   39
   63
   14
   47
   52
  -85
  -40
   -2
  126
   80
   55
  -46
 -104
  -18
   -5
   -2
  -14
  -63
   -8
   12
   62
  100
   45
  126
  -24
  -55
   75
   95
   16
 -105
 -125
   87
  -12
   32
  -58
   95
   67
    4
   14
   56
   97
   25
  125
  -35
  -96
 -115
  -56
   80
 -116
   53
  -50
 -124
   94
  121
 -114
   82
   71
  -43
  -41
  -61
   15
   90
   26
  -79
  -81
 -107
 -103
    2
  -90
   90
  125
   37
  116
  120
    0
 -107
   25
  -15
  109
   98
    1
  -15
  124
   21
  118
  -59
  -38
  -93
  -33
   80
   46
   -8
    3
   60
  -11
  -35
   96
    6
   64
 -126
   81
  111
 -101
   73
   96
  -15
   34
  101
   88
   59
   11
   -7
  -38
   63
  -88
   -5
   96
   39
  -43
 -108
   97
   52
  -53
   58
  -95
 -125
   -8
   73
   -7
   76
  -71
  -38
  -22
   48
 -103
  -96
   56
   65
  104
   -4
  -21
  -70
  -59
  106
  -42
  -91
  -23
  -76
  -73
  106
  -74
  123
  -92
  118
  -22
   66
  -11
   71
  -51
   77
   33
  -62
 -110
  -30
  -90
   84
 -102
   84
 -110
  -88
  -35
   18
  -79
   16
   78
  111
   69
   52
  -13
   16
  -74
   40
 -101
   74
   81
  -82
   68
  -54
  -19
 -110
   66
  -85
   12
   75
  116
   54
  -28
   48
  113
   30
  -79
   99
 -108
  -86
  -17
   46
 -101
  -68
   -9
 -109
  -36
  -89
  -52
   -4
   17
   67
   41
   57
   59
   30
   42
  -93
   71
   31
  -87
   97
   77
   86
  -78
  -87
  -56
  -19
  -19
   97
  -95
  -91
   66
 -115
   29
  -76
  -94
  -64
  -84
  -76
   53
   98
 -102
   57
   -3
   82
  -53
   -1
  -86
   90
   38
   -7
  124
   55
  -39
  121
  109
  -29
  116
   19
   79
  -81
   86
   31
   -1
   35
  -38
  -81
   16
  -46
  108
  -12
  -89
  -29
  -25
  -56
   -6
   76
  -74
  -15
   79
  119
   62
  -82
   77
   10
  -31
 -111
  -78
   51
 -103
  -69
   86
   72
  115
   95
   96
  -49
  -82
 -114
  -97
   93
 -121
  101
  -62
    0
  -20
  -82
  -23
   42
    9
   19
   41
  -59
  -64
 -123
 -107
   98
  -93
   18
  -68
   52
  125
   49
   -3
 -115
  -72
 -101
   98
  116
  -82
 -111
 -114
  104
   77
   31
   78
   10
   43
  118
   53
   49
  -44
 -121
    8
   85
  -93
  -19
  -52
  107
  -80
  -69
  -62
   53
   62
 -108
   18
  -80
  -78
   48
    3
  -48
   47
  104
    6
 -112
  -61
 -124
  112
   74
  -33
  -93
  -27
   20
  -52
   54
 -107
   87
    8
    1
   13
 -103
  -29
  -88
  -18
  -95
   90
   82
    9
  -48
 -100
  120
  102
   86
   99
  -90
  115
  -89
  124
  -24
   42
  114
  112
  -95
 -119
  114
  -44
  -12
  -52
  -11
   14
   70
  -83
   -1
   21
  -19
  -60
  -10
  -35
  -91
   -6
  -55
  -98
  118
   51
  -26
   33
  -69
   48
 -107
   40
  -80
   99
   30
 -106
   18
  -66
  -28
  -72
   35
   62
    1
   59
 -113
  -84
   32
  -52
  -90
   61
  -67
   20
  -24
   -9
  115
 -126
    8
   58
   76
   10
  125
 -100
  -51
  101
  -30
   49
  122
   98
  -34
   15
  111
   48
  -64
 -119
   70
  111
  -47
  -87
 -109
 -120
   98
   41
  119
    4
   20
  -44
  -43
  -65
   96
  -73
   45
  -90
   -6
  -52
  123
  107
   73
   -2
  -87
  -22
  -58
   88
  -11
   27
   27
   89
   12
  -29
 -120
  113
 -107
   31
   75
  -49
   51
   86
  -26
  -72
  -72
  102
  -55
   93
   32
  -71
  -77
  125
   65
   -3
   27
  110
  -32
   91
  -58
  -48
   70
  -59
  -32
  -90
   30
  113
   87
   -3
 -118
 -114
  101
   16
 -110
 -125
   99
  124
  -91
   94
   -5
 -119
   -5
   26
  -68
   15
   78
  -25
   12
    9
   37
 -108
   25
   77
   25
  -73
  113
 -104
    5
   49
  -24
   15
   -1
 -119
  -68
   50
   60
   -1
  -26
  -90
   32
   60
   74
   52
 -104
    3
   82
   41
   39
   58
 -105
  -17
   16
  109
   53
   64
  122
  -80
 -120
  111
 -122
   97
  -30
  107
   55
  -19
  -61
  -41
 -102
 -116
  102
  -53
   68
  -61
  -32
    1
   51
 -117
  -42
   -2
  -10
   10
  -22
  100
   54
   35
   40
 -102
   49
  -27
  -50
   60
 -111
 -106
   11
   33
   81
  -46
   40
   22
   12
 -123
   80
  -89
  -99
  115
   29
   70
   15
  110
  -63
   98
  120
  100
  -28
   31
   78
   23
 -101
   35
  -66
  -12
   65
  126
  -22
   73
 -116
   84
  125
  -86
   -2
  -19
 -121
  -68
  -21
   85
    5
  118
  -79
  -83
   93
 -119
   96
   16
  -13
   58
 -107
   52
  -29
  -76
   76
   33
   77
  -28
  -54
  -35
  -66
   93
  -59
 -102
  -80
 -118
   78
  -95
 -124
    6
  -74
  -12
 -122
    3
   49
   81
  106
   59
  -35
   58
 -117
    2
 -125
  -53
   45
  118
   90
 -112
  -58
  -46
   69
  -50
  -84
   -2
   38
   29
   74
   -9
  -15
   39
  110
  100
   94
   70
 -121
  -43
  112
  -20
   22
  122
   43
   -4
   50
  -75
  -47
   31
   -5
 -125
 -122
  -60
   72
  -35
   64
  -67
   75
  126
  -73
 -115
  -15
  -11
   86
   94
  -60
  -41
 -117
   90
  -20
  -62
 -119
  -86
  110
    1
   27
  -42
  -58
  -92
 -122
  -16
   81
  -29
  -63
   89
   91
   16
  118
  -86
   56
 -121
  -30
  -34
   14
  -87
 -100
   72
  -72
  -21
 -120
  -30
  -91
   46
  -59
   62
  -12
  -49
  125
   57
  -66
   30
  -37
   54
 -114
   58
  119
  -54
  -52
   86
   35
   61
  -92
   82
  -94
  -75
   15
   67
   33
  124
   47
  -10
    1
   78
  -80
  106
  -57
   92
   27
 -126
   21
    2
 -101
   28
   21
  -37
  -26
   89
  -36
    3
  113
 -101
  -68
 -100
 -125
  -50
 -125
   52
   97
  -43
   94
   88
  -29
   -7
  -62
  101
 -120
  -81
  -22
    8
  -28
  -93
   47
  -67
  104
   58
  108
   -4
  125
   80
 -124
  110
   81
  -58
  -24
 -123
   58
 -109
  109
   31
   72
  -70
  107
   16
   40
   44
  127
  -50
  -58
  -87
   26
   70
   57
   96
  -64
  -92
  -39
   89
 -109
   -4
    8
   13
  -92
  -78
  -50
  -18
   47
  100
  -61
   38
  -82
   93
   94
  -78
 -112
  -15
  109
   63
   36
 -100
  -22
   66
  119
  -77
 -101
   75
  -67
  -28
  -90
  -95
  -91
   12
   94
  -42
 -122
  -35
  125
 -127
  -23
 -109
  -81
  -12
   79
   77
 -103
  -32
 -121
    1
 -110
    3
  -24
  -46
   11
  -48
  121
  115
   93
  -70
 -121
 -106
  -67
    9
  123
  -93
 -112
   82
   70
   18
  -71
  -61
   29
  -78
  127
    5
 -107
   94
  -63
   70
 -118
   39
   69
  -59
  -32
   -2
  -62
  -85
  -56
   22
   74
  -47
  -63
   18
   37
  121
   89
  -37
    6
   75
   89
   21
  -89
 -112
    7
  -82
  -33
  -87
   99
 -105
   82
  101
  -54
   49
  -14
   60
 -111
  -66
   55
  -92
   64
  111
   56
  -29
   85
   91
  -99
  -24
 -101
  -20
  -85
   -2
  -95
   52
   89
   47
   97
 -111
  100
  110
  -79
  -78
   19
  -79
   14
  -69
   47
  -60
  -20
   82
    6
   49
  -63
  -29
   59
  -17
  -67
  104
  -91
   87
   24
  -71
   28
  -18
  -45
   75
   32
  126
  117
   99
  -20
  -16
  -31
  -26
   -5
  115
  -93
  -41
  109
   72
  -36
  -50
  -17
 -113
   47
  -41
   27
  100
   -1
   27
  -81
  -98
   51
   30
   17
  -65
  -41
  -81
   10
  120
   27
  117
   82
   69
  -77
   59
 -127
  126
   95
 -122
   69
  -32
  109
  110
  -97
   94
  -13
  102
   98
   32
   19
    1
   92
  -70
   -3
 -113
  -42
  -66
   40
   99
  -33
   84
  106
 -125
 -116
 -104
  -79
  -86
  -79
   -7
  -29
  -40
   -2
 -120
   86
    8
   43
 -120
    5
   75
  -71
  -52
 -111
   -8
  -72
   73
  -75
   82
  -41
   95
  -44
  -78
   30
   49
  -48
 -102
  124
   28
   76
   -2
  -71
   72
 -100
   16
  126
   77
   45
  -16
  -61
   66
   92
  -78
   27
 -125
  -68
  -30
   81
  -24
  -44
   81
   22
   17
   -5
 -107
   29
   59
   63
   94
  -69
  -51
  -62
 -105
  -29
  -63
  -75
  115
  -20
   78
  -96
  -47
  127
 -104
    0
  104
  -28
  126
   16
   77
  -33
  -13
  -12
   87
   34
   74
  -11
   -2
  100
  100
   17
   25
  -73
  -46
    6
   19
  -86
  -85
  -86
   24
  -48
  -25
  -56
 -125
  -44
  -51
   34
  -78
   -6
  -20
   24
   37
   65
  -86
   60
  -24
 -107
   -2
   29
  -46
   25
   78
    5
   53
   54
 -118
  114
 -100
  -84
  -68
   81
  -55
  111
  -42
   74
 -103
  -61
  -21
   74
  116
  -15
  -44
   44
  -22
   70
  -70
  -72
   75
  -22
    0
  -77
   76
    8
 -114
   86
  -38
  -79
   61
  -99
 -123
   34
  114
  -11
 -100
   51
   56
  -70
  -90
 -118
   23
  -53
   88
    9
  -77
   -6
  109
  -25
   32
  -28
   69
  -37
  -83
   13
  -22
    6
   11
  -19
   93
   78
   -8
   -5
   87
  -75
   60
  -79
   42
   43
   73
   64
  -77
  -86
   80
 -109
  -41
  -79
  -85
  -90
   59
   82
  -23
   37
  -30
  -56
  -47
  -92
  108
  -30
  121
  -59
   37
  -97
   16
  116
  -45
   82
 -120
  112
  -18
  -25
  -92
  -61
   62
    3
   94
  -77
   39
   67
   46
  -91
  -60
   29
   62
  102
   23
  -19
 -114
  -21
  -37
   64
  112
  116
  -17
  -35
   97
  -23
   97
   31
   31
  126
   79
   34
   92
   93
    0
   31
   59
  -76
  -13
  -84
  -81
  -96
   69
   16
  -56
   47
  -71
    4
   -5
   60
   78
  126
   39
  -57
   18
  -24
 -101
   70
 -101
  122
   19
   89
   40
   33
   89
 -110
  -83
  -75
  -77
   93
   91
  -50
   33
   81
   -8
  109
  -57
  -16
   42
  124
   24
  -38
   37
   91
  -52
  -35
  -79
  102
  117
  -86
 -118
  -40
   72
  116
 -125
   94
  105
  -86
 -114
   66
  -23
    8
  -62
   46
   67
  115
   36
 -105
  -15
   21
  -97
   -7
   41
  -87
  -83
  -54
 -106
  120
 -117
   77
  -71
  107
  116
  101
 -111
   65
  -21
  116
   39
  -41
   51
   69
  102
  -89
  -90
   69
   77
  -23
 -120
  101
   49
 -121
    7
 -110
 -119
   67
   90
  -78
 -123
  -25
  -95
   31
  -39
   -4
   26
   39
 -111
  -21
   91
   28
 -126
   28
   87
  103
  101
 -127
   80
  -72
  -16
   73
  -15
   79
    8
  -71
   87
  107
   98
   18
  -92
  -76
 -122
  113
  107
  -65
   54
  -88
  -92
   95
  -18
  -29
   -8
 -121
  -27
  118
   36
   44
   68
   62
   48
   11
   81
   34
   67
  115
  112
  -87
  -70
   57
   41
  107
   77
  -12
    8
 -112
   87
  -51
   37
  -74
   75
  -79
    5
  -92
 -113
  -13
   62
    3
  -97
   61
  -83
   52
   64
   11
  -88
  -63
 -114
    0
  -63
   86
   55
 -105
  -63
  111
  -50
  -36
  -44
  122
    7
  100
  -40
  127
   21
   53
 -100
   -2
   55
  -27
  -26
  -20
   33
   21
  -96
 -109
 -109
   40
  121
  -68
  -77
   75
  -99
 -123
  -20
   11
 -108
   66
   36
  -52
 -112
  126
 -113
   94
  -80
 -100
   97
  126
 -111
  -35
  -34
  -58
  -68
    1
  123
   96
    9
  -58
  127
 -101
  -76
   22
  -13
  -71
 -111
   25
 -117
  -74
  -12
  -95
   -6
  -50
  -35
  -74
  -41
  -76
 -106
  -39
 -127
   89
   40
   72
 -113
   50
 -122
  -23
  -25
  -45
   90
   64
   14
   96
  109
  107
  -83
   72
   64
   78
  127
  -70
 -100
   70
   39
  110
 -127
  -53
  -90
  -20
 -115
   38
   25
   81
   56
  -86
  -69
  -98
 -102
  -43
   58
    9
   72
 -105
   95
   73
   72
 -110
   52
   68
  111
  -11
   72
   34
  -88
   79
    1
  -65
  -66
  -33
   80
  101
   52
   78
   86
  -44
  -43
  -87
  110
   77
   89
  -43
   24
  -95
  -67
   52
   20
  -37
 -121
  -47
   61
   52
   84
   31
  -60
  -14
   61
  -10
  -35
  -36
   65
 -112
   73
  -78
 -123
 -104
  116
  119
   93
  102
   -4
 -111
  104
   39
  -21
  106
   69
  -32
  -35
 -102
   23
  -60
  -30
  -78
   68
  106
   17
  -93
   90
   96
  102
  -52
   43
  -96
   44
   51
    8
  109
   -1
  -91
  117
   35
 -101
  -41
   97
   -4
  -73
   89
    2
 -113
   16
   47
 -115
  -31
  -22
 -122
  -62
  125
  -71
  -97
  -54
   61
  -82
  -90
   53
  -22
  -27
  -24
   80
 -116
   29
  -38
  118
   69
  -75
   25
   42
   19
  -56
  -77
   38
    7
   41
  -85
   10
  -32
   81
  -64
  104
   57
  -98
   64
  -83
   77
 -103
   38
  -36
 -115
  -86
  -86
   38
   34
   33
   65
  -80
 -124
   58
   96
  -10
   74
    8
  -88
   90
   36
  112
  124
  -24
  120
  -72
   76
  -94
   77
   79
   46
  -17
  -23
  -73
  -21
  -16
   25
  -25
 -121
  -92
  -66
 -112
   -6
  116
    6
   74
  -66
  -72
  -46
  -89
  -43
    1
   53
  -31
  -74
   28
   75
 -123
   39
 -119
   65
   54
 -119
   90
   93
  115
 -109
  -24
   75
  -39
 -114
  -43
   23
   -1
   95
  100
  110
  -61
    9
 -110
  -61
   30
    3
  -78
   -3
   53
   25
  -76
    6
   99
 -115
  -24
  -77
  -19
   77
    1
 -118
   45
