  -65
  109
    9
   -3
   94
  123
   23
   51
 -122
  -10
   13
  -50
   64
  -63
   36
   82
  -27
  -94
  -75
   63
  -85
  -29
 -113
   77
  -40
   42
 -126
   46
 -106
   52
 -125
 -107
   94
 -120
   -8
  -80
  -55
  -53
 -113
  -71
   20
  -81
  -75
   57
  -30
  -84
  -23
  -40
   49
  -30
   78
  -63
  -80
  104
  -91
 -100
   10
   73
   77
   98
  -97
  -76
  -27
  -29
   26
   -5
  -88
  -15
   73
   30
  -94
  125
  -73
  -89
  -83
   22
  -53
  104
   86
   40
   47
  -47
   96
  -14
 -111
   96
  -75
  -89
   80
  -37
   82
  -11
  -75
   -9
 -116
  -62
   59
  -98
  115
  124
 -103
  -30
  -25
  -14
  -41
  -35
   76
   27
  -85
  -65
   47
  114
 -101
   44
   85
  -82
 -118
   89
   86
 -115
  123
   84
   74
    6
  -82
  -28
  -27
   57
  -69
  -61
  -64
   15
    3
   58
   49
  -18
 -103
  -20
  -82
  -56
  102
 -114
 -120
 -107
  -95
  109
  -88
   28
   -1
  -55
   14
   52
   17
  -37
  -64
  -61
   36
   62
 -112
  109
  -12
   95
  -33
  -69
  -31
  -31
  -84
   66
   13
  101
  102
   74
  -98
  122
 -111
 -118
 -127
    3
  -98
 -101
  -72
  -43
    4
  -60
  101
   88
  -22
  124
 -122
   15
  126
  -60
   58
 -117
  -51
   19
  -81
   63
  105
 -120
   22
  -10
 -123
  -14
   31
   23
  109
   31
 -107
   16
  -77
   14
 -118
   19
 -119
  104
   15
  -22
  -92
  -17
   -4
   15
   46
   68
 -117
   93
  109
   91
  -62
   42
  -19
  -15
    5
   64
  -57
  -26
   87
  113
   20
  -81
  -90
   34
   50
  -92
  -49
 -122
  103
  -82
  -86
  108
    2
   30
  107
   67
 -119
   32
   45
  -70
   94
   36
   46
  115
  -77
  120
   89
   70
  103
  -27
  -94
   21
    9
   74
   87
   69
 -123
 -100
   31
  -76
 -108
   59
   28
    7
  126
  119
  106
  -80
   51
  -33
  -74
   13
  -96
 -116
 -102
   79
   92
 -112
   25
  -75
   60
  -10
   69
   26
  -11
  -93
   41
  -68
   17
  -96
  -15
  -88
 -107
  121
   88
 -121
   87
   35
   33
 -105
  106
  -10
  -41
  -47
   99
  107
  -79
  -48
   39
   44
  -54
 -108
  111
  -47
   92
  -30
   92
  -19
  -75
 -118
  -95
   90
  -71
 -120
   26
  108
 -119
 -120
   19
    5
   80
  -21
  -70
  -66
 -107
   90
   48
  -84
   16
   -5
  -68
  -38
  -15
   84
   34
   11
  -61
  -95
   -4
  -63
   79
  -54
  -47
   93
  -44
  -33
 -121
  -96
 -111
   41
   96
  -45
 -122
  108
  -37
   -7
  120
  111
  -26
  -92
   39
   90
 -125
  -29
   35
 -114
  -23
 -117
  -80
   -2
  -20
  -53
  -32
   73
  -87
  -21
  -91
  -90
  106
  -21
  -97
  -50
   32
  -33
 -122
   17
   98
  -26
  -34
   60
 -112
  -36
   74
   46
  -72
   37
  -58
  -99
  121
   36
  -24
  106
 -115
  117
  104
   34
   19
  -98
   91
  -79
  -73
  -50
  -29
   -6
 -125
  -13
 -127
    0
    1
  -95
  -99
  -30
   27
   52
   50
  -87
   -6
  -84
  108
  -57
   -4
  -84
 -115
  -10
    7
  106
   18
  -12
  -10
 -123
   73
  -84
  -70
    9
  -10
   48
 -107
  -76
  -37
  -46
  -60
  -98
   87
  -35
   50
   99
   20
  111
   37
  -93
   41
  -55
   46
   37
  -10
   84
   54
  110
  -41
  106
  -44
  -83
   41
   36
  120
   61
 -125
  -60
  102
  -84
    0
  -77
 -123
  -71
   18
   77
  -36
  -18
  100
   27
    2
  -93
  -45
   72
  -33
  -85
 -107
   47
  -69
  -53
    6
   83
   81
  -46
  -58
  -87
 -123
  127
  -95
  -94
 -114
  121
   42
  -78
  -40
  -58
   53
  -79
   83
 -113
   54
   -8
  -46
  113
  119
   27
  -73
  120
  -85
   77
   80
  -82
  119
  -52
 -108
  -16
   91
 -112
   94
  -99
  105
   84
  -65
  -16
    4
 -124
   37
 -107
    0
  -52
   92
  -54
  111
   20
  -47
  -63
   49
  -53
   -4
   -8
 -109
   12
   23
   -2
   56
   80
  -90
  -66
   50
   29
  -31
  -87
   50
   -8
  -36
 -112
   71
  -39
 -109
   40
  -85
  -69
   30
   77
   75
   -9
   14
   25
 -116
   31
   -7
  -21
   76
  117
   63
   -1
   -4
   79
  -10
 -117
  -47
 -108
   10
  -93
  -16
  -45
  121
   65
  -98
   18
  -16
  -26
  -71
  -18
   23
  -35
  -22
  -21
  127
   90
   17
 -105
  -12
  -35
   40
   55
  -68
  -73
  -36
  -47
    8
   47
   42
  105
  -64
   67
   94
 -124
  -25
 -123
  -20
  -55
 -104
   79
  -11
   -9
    9
  -85
  -39
    8
  -58
 -120
   70
  108
  -85
  -16
  -39
   59
   89
   37
   22
  118
  -58
  -58
    7
   58
  106
  -48
   37
   72
    4
 -104
  -38
  103
  107
  -56
   -2
  -71
   49
 -122
  -43
  -62
   47
  -13
  -76
   -3
 -122
   -8
   59
  -93
  -92
  -98
   72
   53
   45
  -81
   49
 -120
  -51
  -33
  126
   37
   -7
  -49
  -22
 -127
   54
   -9
    8
   31
   68
  102
   72
  -33
  109
 -125
   38
  -97
   96
   84
  -30
    4
  -13
  -24
  111
  -85
   74
 -115
  -56
 -123
   68
   54
   78
   58
  -29
  -74
   83
   21
  -51
  -30
   22
   67
   91
   57
   53
 -111
   47
 -104
  113
  -67
   97
  -72
   69
    6
   30
  -61
  -47
  -48
  -81
  -33
   57
  -73
  -66
   93
  -89
  -10
  -95
  -56
  -80
   31
   81
  109
   49
   34
  -44
  -92
   93
  107
  -52
  -16
  100
  122
  -14
 -101
  -11
    3
   40
  -41
   54
   88
  -72
  -35
  -75
   99
 -106
  -26
  -91
  -33
  -65
   42
  -48
   58
 -120
    1
  -52
 -121
  -58
 -103
   65
 -125
  -52
   86
   63
  -53
   66
   13
   47
  -87
   -4
   10
  -66
   55
   22
   99
 -122
  117
  101
  110
  -12
   64
   33
  -15
  -21
   61
   89
 -109
   52
  -34
 -114
  121
   65
   74
  -68
   85
  114
  118
  -15
  -27
  -53
   12
  105
 -117
   72
 -112
   74
   20
  123
  -43
    2
  108
 -122
  -73
   67
  -91
    0
   50
   99
  -17
 -117
  -83
   79
  -93
    1
  -76
   18
   18
 -120
  -18
  -34
   39
  111
  -76
   70
  127
  -89
  123
 -104
 -119
   -8
   49
   80
    9
 -115
  -83
   99
   67
   87
   77
   22
   -3
 -115
   -9
    2
  -87
   20
   82
   -1
   98
  -75
  -13
 -106
  124
   97
  107
   45
 -124
  121
  -85
  -11
  -14
  -19
   74
  -61
   96
   27
 -106
   27
 -108
  122
   23
  108
  -71
  -38
   -9
   41
  -74
  -57
  -13
  -25
  114
 -108
  -11
   50
  -98
  -83
   -1
   23
  -47
   55
   95
   -1
   79
  -35
   85
 -113
   41
   79
   22
 -116
 -125
   76
   98
   44
    0
  116
   69
  -94
  105
  101
  115
   63
  -93
   86
  -96
   13
  -25
  -15
   44
   59
  -41
 -127
   53
    8
  -98
  111
  -18
  127
 -120
  -58
   88
 -103
  100
   99
  -23
   49
   95
  -54
 -111
   -1
  -14
   20
  -44
  -45
  124
  -26
   95
  -88
   86
   29
  -49
   89
  110
   24
  -92
   85
  -67
  -12
  -78
  119
   29
  -30
   49
   53
   55
  112
  107
  -39
  -82
   91
   91
  -65
  -30
  -11
   79
    2
  -46
  -67
  -41
  -54
  -35
  -55
  118
 -126
  -95
   29
   17
  -26
   35
   44
 -121
 -106
  -95
   30
   13
  115
   88
  -39
  -90
  -41
  -51
  -18
  104
  -10
   26
   43
  -57
   35
   95
  -64
  -27
   19
   73
   41
  -18
  -97
  -84
  -31
  -76
  -86
  -81
  -72
 -111
   26
    5
 -116
  111
  -32
  114
 -106
  -45
 -103
   26
   96
   90
  -32
  -36
   94
 -100
  -91
  -69
  111
   92
   89
   33
  -52
  -18
  -69
  114
   29
   21
 -123
  -50
  -33
 -100
   77
   55
  -35
   40
    9
  -44
   -2
  -34
 -104
   10
 -107
  101
  127
  -66
  108
  -10
 -109
   -3
  -54
 -121
 -125
  -83
   58
  -66
   21
  -90
   -9
  -45
  110
   42
  -22
   39
   20
  -62
   23
  120
   11
   27
  104
  -10
   20
   46
  110
   19
   45
  -33
 -120
 -103
   85
  -18
   41
   29
   69
   69
 -108
   23
  -29
   55
  108
  -89
   47
  -95
   64
   71
   14
   31
  -41
 -116
   25
 -111
  -69
   17
  -39
  -91
   92
   26
   52
   83
   17
 -116
   36
   -4
   83
  126
   92
   10
   20
   74
 -101
   93
  104
   72
   60
 -102
    7
   22
 -106
  122
  -12
 -110
  121
  -74
   40
   52
 -116
   67
  -50
  109
   78
    6
  -60
  112
   44
   92
 -111
   56
   85
   -2
   89
  101
  -58
  -52
   74
  -82
  -94
   34
  -22
  -90
  -26
   55
    4
  -74
  -78
  -62
  -55
  -81
  -45
   25
  123
  112
   15
  -33
   -5
   67
   78
  -88
   50
  -31
 -114
  124
   87
   69
  -39
  -41
   -6
 -118
  120
    0
 -107
  -14
   74
  -26
   38
   85
  -95
   -9
   71
 -126
   78
   18
  100
  -79
 -121
  -77
   43
  -37
   25
    6
  119
   45
   -2
  -37
  124
  -48
   19
  103
   19
  -25
  -35
  -70
   86
  106
  107
   55
   17
  -93
  -56
 -121
   87
   16
  109
   -3
  -55
  -50
  -34
  107
  113
  107
   82
  -45
   41
  -79
   70
 -126
   83
   21
  -52
  -36
  -76
  -99
 -105
  116
   79
  -25
   -1
   11
   77
   38
   30
   -5
  -71
   97
    0
  -80
   77
   98
  -69
  -97
  -60
   33
   58
   62
   16
  -30
  121
   40
    8
  -18
 -109
  -18
  121
  116
   45
  -45
 -111
   -2
 -104
   76
 -117
  -90
  -39
   60
  -16
  111
  -47
   -2
 -101
 -112
  -25
  -25
    4
  -39
   85
 -105
  -95
   -1
  106
  -56
  -13
  -51
 -125
  -57
 -110
 -111
 -109
  -26
 -111
  -91
 -120
   52
   41
    8
 -105
 -119
  -23
  -92
  -28
  115
  -82
  -26
  115
  -84
   72
  -76
  -80
 -112
   77
   15
  117
  -34
  -20
  122
   91
   -5
   88
   78
   44
  -94
  -88
  -86
   48
  -50
    9
   31
   21
   83
  -98
  -22
   40
  -49
   49
   56
 -126
  117
    0
  -36
   40
  -53
  -82
  -57
   35
  -54
  109
   23
  -16
 -105
   28
   88
  -57
  -85
  -45
   91
  109
   -2
   65
  -49
  -57
   77
 -122
   57
  -93
  -89
  106
  -49
   49
  -68
   26
  -36
  -79
   -7
 -127
  -13
   52
   56
    9
  -96
   70
  124
  -10
 -121
 -109
   -6
 -113
  -20
   59
   46
  121
   97
    8
   16
   18
    2
   90
  -72
   17
  -61
  100
   86
   97
  -42
   28
   76
   -1
  -21
   53
    8
  -61
  -50
  -75
   55
   44
   49
   -7
  -30
  -51
    0
  -48
   57
  -43
   11
 -109
   15
  112
   14
 -115
  102
   23
  -51
  -19
 -111
  -81
 -107
  -35
  -44
   14
  -29
 -127
   41
   86
  -89
   -1
   -2
 -127
  102
  108
   11
   -1
    4
   72
   -7
    4
   21
   -5
 -123
  125
   -9
  -83
   97
   48
   -4
   93
  -58
  120
  -20
   -1
  -65
 -125
   57
 -114
   93
   -6
  -65
   38
   44
  126
  -59
  -12
  -91
  -83
   33
  -13
   39
  -32
   33
  -36
   94
  118
  -44
  -90
  -41
  -74
  -58
   53
 -125
   37
  -14
   45
   60
   36
  -31
  125
  -83
 -118
    5
  126
  -26
    7
  127
  127
  114
  -69
   20
   52
   94
  -71
  -32
  -23
  -81
  -41
   48
  -60
   53
  117
  -76
   67
  -63
  -77
  -74
 -114
 -122
  121
   56
  -77
  -46
   56
   11
   43
 -101
  -22
  -70
 -117
   30
  -95
   65
  -13
   15
   30
   70
   36
  -41
   -5
  -25
  -29
   93
   74
  105
  -83
    7
   74
  -86
  127
  113
  -82
 -105
  -62
  -99
   47
  109
  -73
  -20
 -116
  -51
  -54
   38
   35
  -39
  -79
   -2
  -32
  -35
  -82
    7
  109
   45
   44
  -39
  -71
  -55
  -32
   60
   55
   -6
    5
   61
   84
   52
   -4
  -16
   41
  -50
  -38
   39
  -88
    1
   98
 -122
 -111
   43
  -11
   10
  -87
  -33
  -25
  -51
  107
  -84
   31
  -14
   36
   -8
 -127
   28
 -113
 -122
   -4
  -17
   53
  -79
 -117
  127
   24
   85
 -122
   27
  -33
   49
  121
 -124
 -127
   17
   36
  -53
  -38
  -80
   -5
 -106
  -12
  -31
  103
  -83
  -21
   69
   57
  127
   80
   48
 -122
  -67
   82
   47
 -127
  -42
 -106
  -11
  108
  -82
  119
   25
   89
  -83
 -101
  105
  -85
   29
  -58
 -125
   37
  113
 -106
  -20
  -40
  -88
   92
  -68
   87
  -12
   57
  -82
  112
   89
  -53
 -127
   55
   42
   78
  -73
  127
  123
  -53
 -116
   98
  110
   17
   20
   88
   83
   13
 -107
  -31
   29
  -86
  -33
  -25
   -8
  111
   32
  -77
   -4
  -63
  -47
  -91
   94
 -115
   15
  -53
  -61
 -106
  -88
  -52
  -92
   88
  111
  -52
  -35
   63
   -2
   14
   12
 -119
  -94
   17
  -16
 -110
   66
  -48
  -29
  -41
 -108
   99
   33
 -117
  -74
  119
  -23
   20
   11
   42
 -127
  -40
 -111
  102
   86
 -100
  100
   61
   13
  -37
    2
  -79
 -122
  -97
  108
   90
   74
  -82
   92
  -58
    3
 -114
  -65
 -110
  -29
  103
   43
 -117
  -65
    6
  -22
 -104
   85
   54
  -89
  -35
    2
    4
   29
  -35
   80
  -99
   46
   32
  -16
   54
   91
  -88
  114
  -19
   47
   57
  -61
  -53
  120
   94
   94
  107
  115
   13
  -59
    1
  -90
  -72
  -14
   86
  -36
  -99
   82
   14
  -64
  -36
    0
  -84
  115
 -105
  -40
   38
  125
  -17
  -31
  -36
  -39
  -68
   79
  -76
   27
   48
  -36
   94
  -63
   45
  -38
  -73
    8
  -33
   78
   61
  113
    9
   -9
   -9
  -91
   71
  -99
   84
  -23
 -123
   28
  102
   18
   73
  -19
  -85
   14
   84
 -121
   73
    8
    3
   81
  -31
  -39
  120
   72
  -58
 -127
   98
 -101
  -10
   79
  -45
  125
  -35
  -38
   10
 -106
  -29
 -107
  -50
   95
  -39
  124
  107
  123
  -64
 -127
  -83
   53
  -50
   42
  -99
 -121
  -69
   70
  -62
  -40
  -34
   53
   54
   17
   89
 -100
   17
   10
  -41
   90
  117
   84
   59
  -35
  125
   67
 -102
  -66
  -58
 -113
 -116
   89
  -89
   22
   77
  -88
  -89
   94
  -54
  100
  -45
  -69
  -24
   61
 -127
  117
   30
  -80
    4
   59
  -13
 -103
  -48
  -44
  -23
  -51
  -65
  115
 -102
  -46
   81
   68
  -87
 -118
 -100
  -50
  -35
    5
   81
  109
   70
 -118
   87
  126
   83
  -53
 -106
   18
   84
  109
  -58
   63
  -92
  -85
  -60
  -27
   33
  -26
   -3
   83
   59
  106
 -112
 -118
   22
  -76
 -116
  -57
  105
   11
  -74
   86
  109
  -95
   94
  103
  102
  -19
   -2
   23
   24
   71
   11
   91
   76
   73
   -7
  -28
 -119
  126
  104
  -39
  -21
  -64
 -114
   -3
  114
  -71
   72
   30
  -45
   18
  -30
  -85
  -83
 -126
   37
  103
  -25
   75
   52
   19
   21
   -2
  -64
  -40
  -37
  -73
   -1
  -43
 -100
  -54
   88
  -53
  -13
  126
  -34
 -125
   93
  118
   -5
   81
  -19
   -4
   14
 -115
   51
  103
  108
   14
   38
 -110
  100
   43
  -33
  -12
 -102
  -81
   85
   27
   39
  -10
   92
   60
   26
  -17
    5
   53
   49
 -114
   48
  -45
  -66
 -101
   66
   58
   77
  -65
  -51
 -103
  -53
  120
 -104
  -50
 -112
   12
 -113
   24
   15
   97
    5
   84
  -41
  -86
  114
 -120
  -78
  -46
   99
   42
   72
   41
    1
   16
  -71
   57
  -69
  -72
  -58
  -26
  -17
  -17
  -76
 -111
   52
  -79
  -24
  -39
  -65
    4
  -93
  -45
   99
   38
  -94
  111
   95
  126
  -29
   37
  -61
  125
  -14
    6
    2
  -70
  -69
   74
   12
   56
 -126
  -42
   48
   28
   54
   52
  -88
   66
  -15
   66
   96
  -48
   -2
   15
  -30
   76
   52
  100
  -37
  -95
    7
   10
  -63
  -72
   -3
 -117
   35
 -124
  -47
   94
  -58
  -12
  -60
   52
   66
   52
  118
   54
   37
  -86
   84
   82
    8
  -79
 -125
  122
   25
   81
   -5
 -115
  120
  -47
  -25
 -125
 -100
   20
   90
   -4
  -23
  -74
  -38
   49
  102
 -100
   80
  -63
 -119
   45
  -21
   -3
  -18
  -66
  -76
 -112
   37
  -42
 -104
  -82
  114
 -113
 -110
  -37
  -49
  -50
 -109
    4
  123
  -42
    2
   93
  -35
    0
 -114
  -19
  -83
   43
   72
   68
  -45
   94
   49
   94
  119
  112
  -36
    5
   84
  100
  -33
   48
  110
   27
  -20
 -127
   58
 -108
  -67
  -89
   28
   80
   16
 -127
  -31
  -38
  -58
  -17
   47
   -6
   25
   46
   28
   76
  107
  -32
   21
  -49
 -109
   58
  -94
   93
  -76
  -39
   31
  -92
  -81
  112
   18
  -27
  -47
  -70
   59
   62
  120
  -32
  104
  -21
  122
   86
   60
    3
   94
  127
   70
 -109
   25
  115
  -50
 -122
   48
  -88
  -93
   46
    6
   20
   41
  -94
  111
   67
  -12
   32
  -88
  -30
 -114
   91
  110
  -93
  -38
   44
  -10
   98
   25
   54
 -104
   87
 -100
   24
   86
   21
   10
   71
  -90
   37
   52
  -31
  113
 -117
   30
   44
 -120
  -73
  -60
   18
  -67
   16
  116
   59
   42
  112
    6
  -65
   47
   35
  -79
   -2
  -73
   14
 -121
  116
   33
  124
  125
    7
  -10
  -35
   81
  -12
  127
  -34
  -10
    9
   -9
   72
  -76
   38
   24
  100
  -89
   30
  -41
   70
  110
   95
   74
   64
  -47
 -115
   76
  -13
   94
  119
   75
   51
  -35
  -56
  -10
  -32
  -31
  -12
  125
   70
   91
  -81
  125
 -114
   66
  -38
   35
   27
  -88
  -96
   42
   20
  113
   21
   92
  -44
 -125
  113
   13
  -17
   62
   36
   35
   72
  -76
 -124
  -18
  -11
 -108
   37
  103
  -60
  -13
  -67
   41
 -119
 -122
  -33
   -2
 -127
    0
  -45
   62
   -8
 -115
   86
  -61
  -44
 -114
  106
   55
  101
  -58
    5
 -107
  103
   70
  -86
   79
  127
  -48
   84
    3
   79
   87
   61
    7
  104
   76
  -76
 -102
   85
  -60
    9
   34
   55
  -48
 -101
  -71
  -68
  -65
   56
   47
  120
   11
  105
   54
  -10
   46
  -80
  100
   38
 -116
  117
  -12
    7
  -88
 -123
   79
   78
   84
  -69
  -49
  -99
   14
   71
   15
   93
   74
  119
   42
  -40
   -5
   41
   71
 -101
   86
   62
  -95
   48
   54
   14
 -103
   97
 -116
  120
  -39
   57
  115
   51
   72
   45
   81
  -60
  -57
   24
  -69
  106
  -81
    1
  101
  -44
  -23
    9
  126
  -34
 -124
  -51
   88
   12
   74
   21
   38
 -103
    0
   69
   37
   61
   68
 -114
  102
   80
  -13
  105
 -101
   16
  -52
  -37
  -87
  112
   26
   32
   43
   88
   14
   -8
   76
 -118
   42
  111
 -120
   67
  -73
   73
 -124
 -119
   59
  -31
   39
   40
  -74
  -64
  100
   39
   45
  -40
    7
   41
   63
  -88
   72
   79
  -85
   21
   63
  -63
  -36
   40
  -27
    3
 -107
  123
 -111
  -20
   17
  107
 -120
  100
   37
  -69
   22
   72
   56
  -75
   15
  -82
  -88
   -4
  -32
   35
   56
   86
  -53
   45
  -66
  121
    4
   70
   38
   21
  -94
   29
   55
   43
  -99
   -1
  -28
  -33
   -7
  -34
  -30
   51
   81
   -2
  -32
  -37
  -96
   -5
  -78
  -83
  -47
  -75
   66
  -28
  -85
  101
   76
  114
   80
   15
  -57
   77
  -37
 -113
  -51
   85
   87
   21
  -41
   20
  -34
   29
  -84
  -94
  -10
  -88
 -106
   91
   32
   83
  -35
   59
  104
   63
  124
  -72
  127
 -120
  -94
   64
  105
   12
   13
 -112
  -35
   44
   28
   94
   49
  -69
   15
  -76
   46
  -17
   13
   38
  -25
   86
   47
   31
 -101
  -58
 -101
  -84
   11
   25
 -102
  -27
  -17
   69
  -57
  -59
 -105
  -67
   41
  -75
   43
 -125
   74
   84
   18
   77
   66
 -105
   10
 -102
   72
   83
   30
  -39
   -4
   47
  -92
  -77
   20
   85
  127
  -93
    5
   10
   49
  -42
  103
   -4
   25
  -27
 -104
  -72
  -78
   51
   10
   67
 -104
   69
   25
   32
  -57
   99
    4
   38
  -49
  -21
   65
   72
  120
  -87
 -114
 -105
  112
  -94
   20
   -7
  115
  -38
  -11
  105
   26
  -60
 -117
   50
   37
   -8
   21
  -64
  -86
  109
   -5
   22
   53
  -91
  102
   92
  -25
  -18
  125
 -111
 -101
  -75
   58
  -44
 -124
   67
   45
   56
  -15
  112
   69
   58
   15
    3
 -104
  115
   59
   43
   49
 -127
   58
   -5
  -19
   38
   45
  -46
  -50
   88
 -105
 -112
  -21
   -7
  100
  -12
   83
   50
  -79
 -103
   32
   58
  114
  -63
  -65
   54
   52
   65
  -70
  113
   68
  -52
  118
   20
   57
   78
  -32
    9
   83
    2
  108
  127
   98
  -86
   89
 -121
   26
  -82
  -63
  -58
   92
  -37
  -37
   -2
  -42
  -10
   61
  -88
  -71
  -77
  -71
   17
  -23
    2
  -22
   76
  -43
  -22
  -78
   18
  -34
  -13
   82
  -71
  109
  105
  -68
   52
 -121
  -32
   76
   68
   -5
   33
   78
  127
  -94
  -34
    2
   -3
 -109
   50
  -11
   51
  -45
   11
   32
    9
  -11
  122
 -108
   -9
  -57
   48
  -85
  -47
 -109
  -22
  -92
  -82
  -77
 -125
  122
   15
  -41
