  112
  -70
  -96
 -108
 -120
  -28
   26
    0
   -8
    7
   15
   89
  100
 -122
  -91
   29
  -69
  -25
   56
   98
  -92
  -71
  -57
   49
   72
   44
   97
   22
  -67
  119
   36
    3
  -89
   39
  -44
 -127
   47
   64
   78
   44
 -124
  -86
  109
  -22
   -4
   33
  115
  106
 -108
 -100
  -18
   36
    1
   -4
   27
 -119
   33
  109
  101
  122
  -33
  113
  119
   14
  111
    0
   -3
  -90
   74
    2
   89
   -6
  105
  -82
  113
  -28
    5
 -119
  -62
  -62
   22
   -3
  -41
  -86
  -44
   93
 -105
  -23
   55
  -55
 -101
    0
   -3
 -122
  -19
  -94
  -93
   56
  -50
   70
 -119
   32
  -15
   42
  117
  121
   71
  -43
   97
  -38
   62
  -56
 -109
 -116
  -90
  -38
   -3
   14
  -20
  -44
  -70
   26
   56
   68
 -122
   65
    6
  -67
   82
  -55
 -125
  102
   32
   75
  108
  -51
  -18
  -37
   88
  -15
 -117
  -80
 -104
  -53
   86
  -65
   -2
   47
  102
   95
  -22
  -91
  -29
 -117
   93
  -39
  -20
  -11
 -114
  112
  -38
   38
   26
  -63
  -93
  -22
  -14
  -40
   -1
   97
    4
   95
 -108
  124
  -85
  -35
   58
   99
 -122
  -63
 -103
   41
  -91
  -52
   56
  -15
   51
  -98
 -105
   25
   16
  -69
   55
  -96
  119
   89
   17
   86
   64
  116
   -2
   59
  -49
   93
   80
  -36
 -112
 -100
   33
 -106
  -50
  107
 -127
   47
   47
   82
   26
   20
   47
   -6
  -84
    4
  -91
   53
  -85
   80
  -17
  -25
   21
  -43
  -42
  103
 -127
 -124
   52
  -46
  -56
  -55
  102
   27
  -51
   14
 -115
  106
   21
  -88
   84
  -35
  102
   55
   27
  -96
  -90
  -95
   -4
   42
   59
   34
  -66
   67
  -19
   74
  -95
   76
    8
  -96
  114
    6
  -75
  -81
   97
   10
  118
  -51
 -122
  -65
  -20
 -123
  -81
   54
  -85
  -53
  -71
  -53
  -16
    6
  -51
    7
  -97
 -110
   60
  -63
   97
  -45
  -31
  -23
  -99
   60
 -113
   33
  -27
   58
    6
  -38
   21
  -20
 -116
  122
 -122
  104
   28
  -27
  -16
 -102
 -125
   22
  -68
   57
  -35
   16
   14
   71
   99
 -116
 -117
  -22
   80
 -108
  -75
   64
 -127
  -60
  -25
   42
 -124
  -15
  106
  -57
  -21
   90
  109
  -25
 -127
  -28
 -113
   75
   -2
 -113
   92
   12
  -66
   83
   95
  -53
  -41
 -100
   57
   47
  102
  127
  123
  -23
   90
 -110
  -64
  108
   84
  -13
  -73
  -59
   84
   20
  -71
   94
    6
  -33
   19
   38
  -80
  -91
   -8
  106
   18
   40
  -75
   13
  -39
  -66
   40
  -47
   81
   45
   20
    2
   -5
  -40
  -34
  -82
  -66
  -68
    6
  -20
   79
  -44
  126
  112
  -47
   56
   50
   12
   13
  -82
  -54
   -8
  105
  -49
  105
   13
 -106
   -9
  -80
  -91
  -11
   44
  -25
  -42
  107
   73
   67
  -80
  -14
  -89
  -56
 -127
  -10
   25
   97
  -31
  -48
  -61
  -36
  -65
   16
   67
  -15
   39
  -14
  -70
    7
  -67
   42
   56
 -112
  -89
   83
   46
  -36
  -36
   80
  -47
  -93
  -72
 -124
   58
   18
  -20
   -8
    2
  108
   15
    8
   57
  -88
   56
  -83
  -86
   89
  122
  -59
   60
 -102
  -39
  -22
   61
   87
  -41
   32
 -119
  -80
  -58
  -67
   92
  -99
    6
   54
  -75
 -111
  -84
 -107
   74
  115
  -55
    5
   -2
  -93
    8
   70
  -33
 -119
   63
   92
   47
 -105
   48
  100
  -48
  -23
  -62
 -121
  -92
   27
   68
   71
   -6
  -32
   51
  -63
  105
   23
 -107
   66
 -127
  110
   87
  -53
   33
   49
   33
   87
   13
  105
   20
  -64
  -10
  -57
  -53
  -27
  -91
   25
  -60
    4
  -31
   49
   45
   41
    5
   54
  103
  -85
  -99
   72
 -117
   88
  117
   88
  -26
  113
  123
  118
   26
  -75
  -16
   66
  -28
  117
   40
  -11
 -103
  115
 -125
  108
  -35
  126
    7
   86
   99
  -20
  -22
  -31
   41
  -77
  -52
 -125
  126
  -46
   38
   35
 -104
 -105
   97
  -23
  102
   97
  -22
  -70
  -43
  117
   64
   81
  -99
  -21
  -49
 -127
   -1
   34
   99
   79
  -58
   -6
  -71
   20
 -103
    2
   96
  127
   79
  126
   -5
    3
  -20
  -72
  -93
  -57
  -79
   14
    3
  108
    7
   49
   89
  -83
  -33
   18
  -13
   83
 -116
   73
  -72
  -16
   16
  101
   72
   39
  -47
  -19
  -69
   26
   33
  -29
  -51
  114
  -38
  -12
  -83
  -28
   81
  -61
   44
  -80
   25
  -42
  -35
  -73
  -39
 -111
   62
   14
  -75
   -1
 -109
  -79
  -75
  -50
   37
 -115
  -19
 -119
   41
    2
  -91
  -82
  -98
   71
  -29
  -12
  -24
   26
  -32
  -69
   76
  -68
   18
  -51
   67
  101
   41
  -35
   26
  100
   12
   57
   19
   13
   66
   90
 -102
 -108
   65
   37
   51
  -20
  -86
  126
    4
   89
   47
  102
   78
 -114
   82
   16
  -78
  111
 -104
  -45
    1
   53
  113
   97
   15
   18
   25
  -89
  -98
   48
   40
  -19
  -74
   81
 -113
   40
  109
  -29
   76
  -21
   76
  -20
 -121
 -107
   27
 -109
   47
   23
    7
  -60
  -84
   41
   17
   36
  -30
  124
  -20
  -67
  -28
   -1
  -95
  -57
  118
  -62
  -28
  -67
   81
  109
   21
   92
   -2
   49
 -103
   18
  107
   41
  -98
  110
   17
  102
   36
  -62
 -123
 -109
   77
   45
  114
   -7
    8
 -101
  -19
  -49
  -17
   45
   30
   -5
  -80
   35
  -42
  -49
  -11
    3
  -83
   38
   83
 -116
   68
  -99
  -52
  123
  -76
   48
  104
  113
   57
    9
  -26
  -29
  -40
  -33
   62
  -19
  -26
  -19
  -73
   47
   76
  -71
   -1
   63
  -91
   62
 -120
 -108
   60
   27
  -23
   69
   35
  -73
   23
    4
  -84
  -42
   37
   15
  -74
   86
   32
  -66
 -122
   91
    8
  116
   48
  -18
   40
 -120
 -106
 -115
   69
  -37
  -36
  -49
 -120
   49
   -5
   46
  -75
    2
   15
  -24
  121
  -96
  -55
 -109
 -100
   96
  110
  -86
   89
   39
   19
 -126
   93
  -51
   45
   43
  -35
   15
  -90
    9
  -79
  -62
  -21
   -8
   91
  -38
  108
  126
   43
  124
 -116
  -77
 -121
  -88
   74
  125
  -30
  -89
  115
  115
  -59
   -5
   13
  105
  -86
  111
   69
 -124
 -117
   28
    6
  -79
   52
  -40
    1
   34
  -84
  -73
 -114
   76
  -45
  -16
  -47
  101
  -46
   96
   -7
   10
  116
   64
   72
  -51
  -74
    4
   77
  -94
    5
 -112
   55
   15
  -38
  -10
  -44
  -47
  -28
   62
   81
   49
   52
 -102
  117
  -99
   95
  -59
  -59
   27
  -37
   50
  -65
   15
  105
  -60
    5
  -43
 -116
  117
  -17
   48
  109
   38
   64
    3
 -105
   38
   19
   97
  -89
   -4
   29
 -112
  -10
  107
   -9
  114
    7
   41
  -52
   55
   94
  -51
 -110
   52
  100
   28
  -82
  -49
 -115
   82
    4
  122
   48
  -35
  -88
 -127
   71
  119
   38
  -85
 -115
   42
   36
 -112
   29
  -60
  123
  -84
  -99
  -82
   22
  114
   54
   14
   16
  107
  117
  -13
  121
   42
  100
   65
    7
  -23
   71
   -1
   90
  -77
  117
   23
  -40
   25
   88
  -69
   34
   -9
  -59
   94
  108
  -36
   67
   40
  -85
  -67
    9
   64
 -116
  -49
   67
   33
   31
  -60
    1
  -27
  -95
  -12
   22
  -32
   -5
   12
  -52
  -64
  -65
  -33
  -93
  -17
   74
  -90
   23
   -1
 -117
 -125
   -8
  -43
  -79
 -116
  -78
  -93
  -23
 -117
  -10
  -15
   89
  -66
   87
   52
   -5
  126
  -47
 -116
  106
   38
  -94
   29
   84
  -19
  -16
  -69
   24
   53
  -63
   31
   45
 -111
   34
  -24
  -11
   12
 -126
  -43
  -84
    9
   23
  -10
  125
   43
  -32
  -23
 -125
   -3
   -3
   84
  -76
 -112
  -97
  -89
  123
  -17
   63
   -2
   60
    2
  -16
  -30
  -25
  -61
   41
 -120
 -104
  -69
   32
   86
  -78
  -67
  -86
  104
   82
 -126
  -10
 -105
  -22
   -1
   89
   23
  -15
  106
 -111
  119
  100
  127
  -99
  127
  -71
   54
  -44
   16
   31
   25
   85
   45
   46
  -18
  -34
  -59
   48
   13
  -23
  -57
   93
   19
   18
  114
    3
 -104
  112
  -26
 -119
   61
  -93
  -85
    7
   -6
  -27
 -107
  104
  -40
   -4
   95
  -76
  -26
 -121
  -53
  -79
   -5
   13
 -104
 -110
 -104
  -15
  -19
  -22
 -114
 -100
  -81
   -8
   77
   83
   -6
    1
 -105
  109
 -106
   98
  123
   17
 -104
   47
   17
   81
  -11
  106
  -91
   -9
   41
   56
   16
  -14
   68
  -54
  101
  -74
   55
  112
  -60
  109
  -34
 -115
   36
  121
  -35
  -60
  120
   45
  114
  -59
  -68
   59
   22
   62
   18
   32
  123
 -100
 -101
 -102
  110
  -19
  -83
   98
   46
  -43
   98
   49
   51
  121
  -95
   49
  -27
   35
   88
   70
  -99
   46
   97
 -119
  119
  -42
   45
  -73
  -41
   36
   38
   97
  -37
   47
   84
   24
   86
   14
  -43
   22
 -127
   51
   68
    4
  -21
  -88
 -121
  -88
    4
  -59
   86
 -115
   46
  -54
  -39
  122
 -125
  -12
   94
   60
  -88
 -126
   89
   16
  -91
   39
   10
   65
  -73
 -122
  -83
  -31
  -79
  114
   31
   69
   23
  -14
   30
 -104
  -17
  -15
  -85
  112
 -102
   38
   35
   88
   44
  -19
  -25
   10
   97
   33
   69
   95
  110
  -75
   61
  -94
    6
   60
 -116
   -1
 -117
  -90
   68
  -21
  -11
   75
  -39
 -106
  -90
  -59
  125
 -121
  -42
    5
  -21
   68
   61
   45
  -63
  -52
  106
  -70
   70
  -76
   92
  -47
   61
 -100
   59
   28
  -44
 -108
  -32
  -37
  -31
  -61
   52
   70
   83
  -56
  121
  -29
  -94
   80
  -10
   -8
   18
  -46
 -113
  -41
   18
  -90
   80
 -108
   74
   30
  -35
  -57
  124
   39
   77
  115
   71
  -61
  -81
  -43
   78
   73
  -91
  -10
  116
  -99
   55
  -27
 -100
  -63
   34
   79
 -120
   51
  -87
 -116
   35
  -85
 -108
  -48
   57
   61
  -87
   70
  -65
   99
 -119
   78
   31
  119
   77
 -106
    7
  100
  -65
   -5
   96
   32
   -6
   47
 -109
  -32
    0
 -113
   13
   66
  -80
  -33
   33
   78
   99
   46
 -113
  -48
  -61
  -38
  -34
  -44
  -99
  -94
   87
  110
  -29
  -79
  -95
   74
  -31
 -124
 -124
  -20
   87
  -53
  -27
   99
  -55
   82
   35
   99
  -80
   58
  -55
 -112
  -18
  -92
  -71
 -100
  -45
   24
   15
   -8
  -35
   58
    3
   85
    7
  -62
   77
   12
   -2
    9
   17
   89
  103
  -45
   89
  118
  -15
   46
 -114
   42
   81
   65
  119
  -73
  -87
   71
  -65
 -113
   49
  -26
  111
   57
   -1
  -24
   79
  -20
  -80
   73
  -57
    9
   27
  -98
  -27
  104
  111
 -117
  -43
   27
  125
   67
  121
   41
  -49
  -72
  126
  -38
   59
  -30
 -107
  -28
  -46
   79
  -78
  -61
  -50
   57
   12
  -92
  108
  -49
  108
   -7
   24
  -17
    2
  -50
  -19
  -35
    1
   -9
  -57
   78
  -28
   27
   20
  -98
  118
   -8
   55
  100
  -97
   44
 -107
   22
  119
   70
    8
   61
 -111
 -127
   43
   41
  -60
 -101
  -33
   24
   78
  -64
   45
   27
  105
  -99
  -35
  126
  -42
 -116
 -110
 -117
 -107
   66
  124
   73
  -48
  -10
 -115
 -124
  -34
  121
  -82
  -40
   12
  -61
  -65
  107
  -96
  -38
   12
  -83
  -69
  112
 -104
  -33
   41
   69
  -52
  -34
   18
   67
  -32
  -27
   96
  -36
  -12
 -117
  -15
  -14
   -2
   21
   59
   24
   -3
   92
   60
 -122
   92
 -105
  -26
  115
  -53
  -92
   63
  -84
   37
   35
  -91
  -63
  -87
   84
  -87
  -33
   81
   66
 -100
  108
   31
  125
  102
 -103
  -17
  -83
  -73
  -81
   -9
  -66
   41
  -29
   49
   84
  -54
  109
   61
   51
 -114
  -92
   -5
  -65
   90
  124
    3
  -79
   34
   29
   59
 -121
   27
  -20
  -36
 -123
  -29
  126
    1
   88
   74
   36
   91
   58
  101
  -69
  -40
   16
  -88
   86
   94
  -76
   54
  116
  -13
  -24
   34
 -107
  -52
   45
   76
   49
   92
  117
   -3
  -45
   84
  -12
  100
 -124
   31
  -38
  -27
  -11
  108
   36
  101
   73
   -7
  -90
   85
   71
   12
   45
   38
  124
  122
  -19
   46
  123
   44
   94
  108
  -19
  -47
   77
  110
   48
  -51
   24
 -123
  -71
   79
   70
  -32
    9
   -4
   17
   29
   49
   64
  -81
   11
  -53
   52
  123
  -52
  120
   43
  -68
  -82
  110
  -25
   61
  -83
   29
   20
  116
    4
  109
 -111
  -19
  -97
  -37
  -12
  126
   61
 -101
   49
   82
  -66
  -13
   -8
   25
 -123
 -116
   19
  101
  -52
   10
   52
  111
  -38
 -110
   93
   -1
   67
   42
   55
  -67
  -20
  123
   32
  -25
 -100
   32
   96
   80
  -59
  -82
  -73
    3
  -25
  -99
  -42
    3
  121
    6
  -40
   98
  -76
   79
  -27
  -58
  -73
  -49
   11
   -6
   92
  108
   49
  -48
  -20
   58
  -88
  -40
    8
  -53
   26
 -122
  -33
   81
   16
   -2
  -57
   66
   14
  -25
   -5
   42
  -34
   75
    3
  -48
  -34
  110
   36
  -92
  -30
  -21
   -4
 -107
   48
  -42
  -47
  -13
   25
    3
 -110
  -19
   63
   69
  -53
  -66
  -97
  -76
  -99
 -113
   46
  -74
   97
   66
  -51
  -94
  124
 -124
  -64
  124
  123
   68
 -125
   30
   93
   31
   21
  -26
    2
  -13
   67
  -25
   79
 -108
    4
  125
  -46
  -79
  -42
  -72
  -47
  126
  107
   13
  -78
   57
  -34
  -70
  -13
    6
   83
  -97
  -65
 -123
  -99
  -12
   77
   12
  -59
    5
   76
  -73
   10
  113
   88
   59
    8
 -103
  122
   40
   76
   27
  -57
 -115
   43
  -70
   58
 -111
  100
   18
   93
   68
  -14
   30
   86
 -105
  -59
   21
   31
   19
  -74
  -45
 -118
  -92
  -53
   95
   42
  -84
   60
   98
  -56
   23
   76
 -107
 -104
  107
  -29
  102
  118
  120
  -70
    6
  -76
   27
  -50
 -105
  120
  -32
   82
   18
   61
  105
 -112
  -46
   22
    1
  -73
   91
   68
   15
  -62
   78
   20
   43
   -5
   29
   34
  -61
   67
   97
   90
    3
   89
  -17
   -3
  -28
   83
  -68
  -76
  -65
   25
   65
  -82
  -46
  -90
  121
   20
   10
  -47
   70
  126
    2
   16
 -104
  -71
   47
 -127
   81
   -9
   98
   47
   60
  -16
  -94
   56
 -124
  -56
  -79
  -51
   42
  -62
   67
   93
   65
   89
 -121
  -38
 -100
 -110
  124
   24
   59
  -75
  -83
   92
   18
  -84
  -65
   77
   -7
 -120
  110
  -48
 -121
 -108
 -103
   -2
  -54
  -72
  -56
    8
  -26
  103
   -9
 -119
   42
  108
  124
   -9
  -82
 -123
 -118
   31
  108
  -83
 -105
   96
 -107
   99
   14
   84
  -96
   24
   75
  -64
  103
  111
  -90
 -120
   31
   19
   35
   81
   82
  -88
   91
   -2
   98
   21
  -13
  -54
  -85
  -16
   22
   60
   -1
 -115
   38
  -68
  104
 -105
  -52
  -96
    9
   82
  125
  -67
   54
 -124
  -15
    7
  -97
   -4
   30
   -6
   75
 -107
  -54
   -3
  -28
  116
   25
  -24
  -42
  120
  -97
   57
  -57
  112
  -91
    2
   54
  119
   40
  -12
 -102
    6
  -78
  -94
 -104
  -83
  -96
  -54
   -6
   88
   20
   24
   26
   47
  -36
 -116
  -25
  -17
    3
  110
 -124
  -50
  -24
  116
  -93
  -23
    3
  120
   75
 -113
  -20
   72
  -89
   84
  -88
 -114
 -109
  -94
   19
  -41
  112
   34
 -123
  -70
 -108
   23
   30
  -89
  123
   78
   48
   -1
  -27
  -14
  -51
   89
   50
  -96
   90
  108
  -48
  -46
 -126
   34
   53
  -94
    2
   84
  -67
   55
   77
   74
  -13
  101
   92
    0
   30
  -75
   69
  -60
  101
    5
   62
 -124
   99
 -111
   17
  -91
  -13
   85
  112
   97
  122
  122
   -8
   31
  106
   57
  -55
  114
  -39
  103
  -45
  -79
  -40
  -11
  -10
  -81
   55
   43
   24
 -111
  -61
   51
  -15
 -120
   28
  -71
    1
  -11
  -73
  -93
  -79
  -42
 -112
   94
    3
  -54
  109
  -39
  -94
   81
  -44
  -69
   76
  -39
  -28
   67
   87
  -16
   66
  -83
  -74
  120
  -94
   16
  -87
   46
 -125
   94
   37
   68
  108
   24
  -15
  -33
   46
   89
  103
   54
  -39
 -120
   35
  -60
   34
  -96
   52
  -52
  -22
 -114
  -90
   71
   14
  -16
  -65
  -35
   63
   83
   25
  -11
  -88
   22
 -117
  -93
  -40
  -57
   42
 -105
  104
  -68
    7
   72
 -105
   10
  -33
    5
  -65
   82
  -82
  -18
  125
    1
  -80
  -90
   33
  115
  -63
   79
  -55
   29
 -126
  114
  -53
   39
  115
  -27
  -13
  -44
  -47
   52
   77
   69
  -87
   33
   65
  -45
   14
 -114
   48
   78
  -47
   -5
   10
   17
   22
 -112
  -10
   45
   45
  -31
   84
    7
   13
  -78
   85
   79
  -44
  -86
 -115
  102
  -33
   63
 -124
  -88
  -38
   99
   72
   25
 -117
   62
   -3
   92
  -35
  -27
  -34
   16
 -104
  -14
    1
   68
   76
  -48
 -117
   26
   45
   45
  -98
 -105
   40
  -30
   34
  105
   87
   93
  -19
   99
   85
  -20
  -44
  -67
   74
    2
   99
   10
  126
   94
  -61
 -104
  119
  -94
   52
   16
 -100
   -9
   29
  -59
  -50
    8
   26
   48
   14
  -61
  -97
   75
  -41
 -126
   15
 -118
  -75
    1
  -78
   98
   56
  -50
  -39
  -84
   28
 -123
  -91
  -15
  -97
   89
 -124
   19
  -15
  -15
   -8
 -120
   71
  -70
   13
 -101
   48
  -33
   39
  111
   36
  121
   69
 -106
   98
   72
   29
  -30
  -42
  106
  -57
   13
  -20
   11
  -91
  113
  -99
   71
 -107
   84
   -6
   31
  -19
  -23
  -81
   73
   79
  -53
   16
 -127
  -29
   23
  -31
   55
   13
  -77
  119
  112
   48
   16
  -31
  -40
 -123
  -76
   33
   43
  -55
 -111
   98
   86
  -73
   16
  -57
  -27
  -94
   -7
  -31
   39
  -13
   19
  102
  100
   81
  -30
   -3
  -67
   41
   62
   36
  120
 -114
  -72
  103
   18
  -35
  -80
  -60
   54
    4
 -123
   13
   78
 -108
   93
 -121
 -123
   -6
   63
 -112
  -76
  106
  -65
   82
   81
  112
   97
  -41
   91
  -60
  -52
  -52
  -93
  -12
 -124
  108
   73
  127
  -71
   86
   19
   99
 -103
 -118
  103
   -3
   94
   17
    5
   48
 -109
   16
   36
    6
   75
  -14
  -62
 -124
 -108
   53
  101
   62
   57
   -8
   37
   -1
   42
  -54
  -29
   67
   69
   31
   32
   67
  -32
  -11
  115
  104
  -84
  -61
  -13
  -92
  -24
  -60
   74
   44
   17
   64
  -25
   89
  -11
 -116
  109
   40
   -5
  116
   16
  -78
  -32
  118
 -108
  -93
   -9
  -18
  -19
   96
  125
  -97
  -44
   24
  -77
  -41
   64
  -85
   42
  -62
  -11
   66
   85
  -16
   86
  -72
   92
  -82
  -90
   21
  -89
    6
  -37
  -89
   62
  -61
  119
  -43
  -26
  -51
   57
   93
   56
    1
  -96
  104
   93
  -38
   36
  -77
  -59
 -108
 -106
  -59
  -13
  -13
  126
  -42
  -98
 -118
   -5
 -106
  -97
  123
  109
   84
   -4
   93
   75
   10
 -114
  -83
   25
 -106
   -9
  -87
  -41
  -68
  123
  -81
  -42
   -5
   55
  -26
  -31
  112
 -112
 -119
   25
    2
  -83
   81
 -100
  -61
  -47
  -49
   47
 -106
    1
    2
   46
 -104
   48
   86
  -79
   19
  -97
  -91
  102
   34
  -98
  -59
  -28
  -26
  -56
  -73
  -48
  -36
  -53
   77
   98
   54
  -38
  -46
  -55
  -20
  118
 -121
  -76
  -28
 -117
  -84
  -63
  119
   80
  -12
  -91
  -75
   89
 -125
   12
   29
  -31
  -74
   61
 -124
    2
   54
  -79
   34
  -16
  -20
  125
  -23
   60
 -109
   53
   71
 -126
   80
   15
  119
   19
  -71
  -19
   30
  125
   65
 -112
 -106
   92
  -79
   92
  -76
 -105
  109
  -18
  102
  -65
   -6
   80
   27
  -42
    4
  -31
   -3
  -30
   49
   69
   -1
   93
  -89
   98
  -27
  -33
  -16
   61
  -97
  100
  106
   37
   17
   63
   66
  -61
 -125
 -124
  -60
  -68
  -57
  104
  -44
  -67
 -102
   -3
   84
   35
  122
 -118
  126
   67
  -19
   81
  -26
   77
  -85
 -124
  103
  -85
   96
  -15
  127
  -40
  -35
   59
  126
   -3
  109
  -32
  -87
  -64
  -66
   39
   94
  117
 -100
  -97
 -123
  -14
  -43
   97
   52
   81
  -82
  -70
   71
   98
  -45
  -89
  104
 -119
  -63
  110
  -12
  -52
   37
  121
   20
  -60
   46
   42
   42
  -17
   87
 -103
   18
  -59
 -118
   -1
  -58
   -2
    1
  -77
  115
   49
  -77
   32
   22
   68
  -41
  -34
    6
   11
   78
   25
  -93
  -86
 -118
   92
  -35
  -23
    2
   91
  -30
   87
 -103
  -47
  -66
   96
  -60
  110
 -117
   -5
  124
   -6
 -102
   47
 -123
  -34
  -26
   -1
  -36
    5
   39
  -24
  -77
  -81
  114
  -92
  -67
  118
   85
   -4
  103
  114
  -88
  -36
   62
  107
  108
  -16
  -16
  106
    6
   89
 -108
  115
   68
  -40
 -111
   19
  -14
   92
