  -68
  -33
  -34
  -80
  -72
   -8
  -36
  -52
  -41
 -106
   58
  -31
  -58
 -101
   43
  109
  114
  -97
   84
  -72
  -65
   60
   57
   94
 -125
  -90
  -49
  121
   34
  -87
  -66
   71
  -88
   13
  124
  -33
  -17
 -114
  -87
 -104
   96
  -98
  -45
  -78
   -9
   66
   34
   55
   25
   10
   46
   59
   11
  -80
  -27
   44
  112
  -32
   76
  -54
  -80
  -72
   86
  126
   -4
   48
   65
  -85
 -102
   65
   21
   55
  125
   79
  -29
 -117
 -121
   63
   37
    7
   99
  124
   66
   57
  -74
   50
   68
 -117
   74
   26
  -13
  -49
 -120
   60
   61
  123
   45
   -3
 -115
  -52
   47
  107
  -57
  112
  -17
 -100
  106
  -14
  -52
  -20
   -4
   72
  120
 -124
   68
   60
  -98
  -41
  101
    9
   91
  107
  -24
 -121
   90
   48
  -82
  119
   -7
  119
   38
   87
  -26
  -92
   94
   26
 -114
   99
  114
   64
 -111
   41
   59
   99
   94
  -57
  -69
  -35
   10
   24
   18
    4
  111
  -42
 -119
  -54
  127
    3
  123
    3
   92
   67
    9
   79
   49
   37
   52
 -116
  -82
   26
  -90
   48
  -11
   91
  -97
 -124
   22
  -91
   88
    8
 -111
   51
   22
  -96
   85
   88
  -73
  -41
  -47
  -90
   27
 -119
   77
  119
  -54
  -15
  -86
   93
   44
  -49
  -71
  -80
  -21
   92
  -94
   95
  -22
  -72
   62
   57
  -71
  -40
   93
   -7
  125
  -18
  -87
   78
   -7
  -39
 -104
   47
   12
 -107
   34
  -77
  108
  123
  -83
   49
   71
   69
    4
   88
  -66
    1
   -1
   74
  123
  -76
   -3
  -71
   57
   79
   47
  -11
  -47
   43
  -84
   25
  -13
   29
 -113
 -119
  -61
  -86
  -77
  120
   63
    9
 -125
  -99
   38
   32
  115
  110
  119
    6
    5
   75
   71
   88
 -120
   32
  116
  -39
   63
 -125
 -121
   -1
  -92
 -101
  -49
   -9
  -72
  -82
   70
   -2
  -64
   25
  -45
  -30
  119
   31
  -53
  -97
   41
 -119
   85
   57
  -38
   62
   52
   58
   16
  -94
 -101
  109
   55
  -48
   -4
  -72
  -17
  101
    6
   16
  -92
   25
  104
   86
 -119
  -81
   18
  126
   36
  -35
  -92
  -18
  -33
   99
   35
  -35
   36
  -86
 -119
  -94
  101
  -43
   40
  -94
  117
   26
 -126
  -40
  127
 -122
   -3
    2
   50
   71
   84
    9
   90
  -31
   58
  -51
  -59
   37
  -29
 -121
  -16
  -15
   28
  126
   -2
   44
  -12
  -89
  -86
  -95
  -52
   81
  -57
 -114
  111
   20
   99
  125
  -72
  116
   56
   70
 -105
    3
   36
   91
   97
   74
  -92
  -41
 -104
  -55
  -81
  -60
   62
  -19
 -116
  -92
   50
  124
  109
   24
  116
  -38
  115
  -21
   64
  -17
  122
   31
  -63
   30
  -10
  -81
  -19
   62
  -39
 -106
  -37
 -103
  -57
  -23
   49
   70
  -40
  -96
  -44
  -18
   85
  -46
  -39
  -31
    5
  123
   25
  -80
  -42
   30
    7
  -63
  -35
   63
   89
 -106
   54
   -2
   83
 -106
  -51
   50
  -32
  -54
   99
  -14
  118
 -116
   -7
   69
  -10
  108
  -74
   13
  -29
  -73
  -44
  -31
  -38
    7
   47
  100
  -97
   96
   47
   55
   56
    8
  -91
  -12
  -59
   -1
 -100
  -73
 -124
  -84
   70
   77
  -30
   16
  -66
  -12
  110
   14
 -110
  -24
  -39
  113
   94
  -35
  107
  -84
  -46
   -2
   86
 -125
 -120
  115
   -3
  -37
   -3
   56
   83
  -62
   21
   96
 -101
 -101
  127
    2
  -75
  -55
   16
  -68
  -84
   73
   -7
 -112
  -18
  -32
 -126
   56
  -48
  -66
   -2
  -62
   80
  102
  -31
  -18
   20
  -26
  -30
   95
    8
   41
  -87
   35
   99
  -99
  -25
 -119
  -87
  -98
   52
  -42
 -103
   11
  -85
  112
   54
  -90
  -95
  -11
  -60
  105
   37
 -126
   44
   78
  -15
  -19
   72
   45
   27
   88
  -19
   50
 -110
   47
  127
  -58
  -17
  -97
   75
    1
  -46
   83
   19
  -14
   75
   65
   80
  -53
  -34
  101
  -30
   28
   91
   35
  -14
   39
   68
  -93
   61
  108
  -94
   17
  -98
  -72
  -61
  102
   67
   49
 -100
  -75
 -111
  -45
  -75
  117
   24
  -33
  -29
  -77
   39
  -98
  114
  -93
  -67
  -48
   98
   59
   64
 -107
  116
   12
   61
  -80
    0
  -58
  -25
 -118
   83
   87
  -89
  -11
  124
    6
   73
  -65
  -82
 -125
   45
  -23
  -82
   24
  118
  -90
   -5
   41
 -115
   25
   72
  -17
   -5
   21
   19
  112
  104
   30
  -29
   85
   64
   61
   89
  110
   88
 -117
  -39
  -45
  -63
  -50
  -97
   93
  -28
  -42
 -107
  -89
  -15
   59
   79
  -29
  107
   14
  -23
  -60
  -98
  -46
   22
  -92
   52
   94
   54
   17
   54
  -39
   -2
    3
  -32
  127
  -31
  -95
  -51
   26
  117
  -50
  -81
  -21
  117
  123
 -124
   23
   81
   44
  -32
   88
  118
 -109
  -43
  -44
  -84
  -88
   -5
  -99
  -73
  126
  -63
  -47
    8
 -114
   24
  -30
  -52
  -60
   -1
 -116
  -85
   21
  -21
   30
 -105
   19
  -16
  -79
  -93
   -7
  107
   98
   56
    0
    9
  124
  -20
  -59
  -82
    6
 -124
   26
   32
   21
   -9
   -7
  -12
   64
  126
 -114
  -22
  -94
  -34
   86
  -93
  -22
 -127
   68
  -49
  -51
  -95
  113
  114
  -75
   15
  104
   74
   12
  -39
  -22
   66
 -103
 -101
   65
  -84
  -17
   86
  -98
   43
  -33
 -112
 -106
 -118
  -85
  -77
 -117
   21
  -14
  -98
   -1
  -56
  -34
   73
   56
  122
  -34
   52
  -81
   25
  109
    1
   50
  -70
   16
 -120
   66
 -106
   13
   50
  -68
  -20
 -124
   20
  -59
 -106
  -79
  -58
  -33
  -37
   28
  -57
  -19
  -67
  107
   86
   99
  107
   47
 -113
   34
  -90
   44
  -42
   -9
 -103
 -122
   73
  -73
  -37
  -65
 -104
  -77
   92
  -14
   67
  -23
 -102
  -81
   44
 -104
   78
  -12
  -51
   -4
  -96
  -79
   16
  -70
  -47
   75
  -36
  -22
  -42
   25
  112
  -94
  -54
  -71
   39
   80
  -93
  117
  -77
   98
 -115
   31
  127
   13
   -3
    4
   74
   11
  -57
   83
   95
   -5
  -60
   -4
  -46
  -13
   65
  -48
 -121
   38
   55
  -70
 -127
   35
   -3
   55
   21
   75
   -6
  119
   14
    6
  -42
   82
 -127
   43
   61
  -31
   92
  -25
   26
  -24
   94
   34
  122
  -79
  121
   20
   21
   10
  -70
  -72
   29
  -96
  100
   71
   44
 -110
  124
  101
  -66
 -104
  111
   48
   47
   24
  -61
  -46
  -57
    0
  -84
   13
   90
   77
   92
  -16
   16
   79
   37
  -73
  -68
 -122
   33
  -18
   56
  -21
  -37
 -122
  -44
  -55
  -90
 -103
  -94
   24
  -89
  -10
  -88
 -108
  -37
    9
  -49
  -23
  -23
  119
 -105
  -14
   96
   82
  -13
 -103
  109
  -80
   98
   68
  -44
  -95
   58
   62
   56
  -20
   68
 -107
    2
  -67
   75
  119
  -49
   61
  -20
  124
  -72
   31
   25
   48
  -46
  101
   16
   86
   22
 -127
  119
  -59
   99
  -25
 -103
  117
   66
  -43
  -98
   52
 -120
    6
  -46
   58
  -73
   74
 -115
   79
  -51
   28
  -50
 -120
  -23
  -35
  -98
   96
   38
 -110
  -77
   69
  -41
  -15
  -70
   -4
   86
  115
  -41
   91
   76
   53
   53
   -3
 -121
    6
   28
  105
   81
   50
  -60
 -112
  -96
  115
  -32
  -84
  -10
  -88
   82
   94
   23
 -107
   -5
  -74
   71
  -58
   45
  -54
 -125
  -12
   23
  -49
   22
   -3
  102
  -64
  -14
 -100
  -86
   39
  124
   96
  -17
  -34
   42
   66
  109
   98
 -105
   30
   60
 -111
 -123
   -8
  -99
  -85
  103
   17
 -117
   15
  121
 -100
   44
  -41
  -10
 -112
   58
  -62
   47
  -98
    8
  -11
 -111
   93
  -28
  -19
 -105
 -118
   51
   40
  -83
   57
  105
  -28
  -62
   31
   13
   65
  113
  108
  -95
   84
 -106
   35
  120
   98
   75
  -73
  -47
   -2
   14
  112
  -72
  -91
   -7
 -107
 -123
   72
   61
  -51
  -57
 -101
  -47
  -43
  127
  -91
  -40
   24
   10
   48
  -27
  117
  -55
   98
  -77
  105
 -112
   36
  -38
   83
  121
   65
 -110
 -113
   64
 -123
   16
  -23
  -83
  114
 -102
  -84
   11
   91
  -50
   29
   -2
  -93
 -120
  -72
  -64
 -122
 -127
   25
  108
  -57
  -81
  -15
   63
  -70
   53
   -1
  127
   -2
  114
  -30
  -83
  -98
  116
 -113
  112
   66
   18
  -31
   62
 -117
   95
   35
  -73
   52
  -19
   29
   51
  -99
  117
  -21
 -107
   65
    1
  -42
 -111
  -39
   60
   25
  -74
   60
  103
  -94
  -98
  -98
  -43
  -33
   23
   17
    5
   68
  -10
   34
   56
   -1
  -93
  -86
   81
  -54
    2
   80
   22
   91
   42
  -30
  116
   97
  -52
  -98
 -117
   78
   88
   39
  -21
  -81
 -115
  -12
  -92
   -4
    9
 -117
  -35
   25
  -26
   23
  120
 -127
   11
 -123
  -50
  -62
  115
   62
 -105
    4
  -93
   47
 -119
  123
 -101
   26
 -127
  -52
 -102
   72
  -22
   41
  -21
  -30
 -123
   43
  -94
   54
  -19
 -117
 -110
  112
   -4
  -67
   53
 -108
  111
  -39
  -99
  -20
 -122
  109
   16
   49
  117
  -51
 -105
   98
    6
   97
   58
   -5
  -76
    0
 -106
   34
  105
   56
   40
   12
    9
   38
  -11
  -25
   26
  -55
   39
   66
 -125
  -95
   60
   63
   60
   61
  109
   45
   -2
   59
  102
  -61
   11
  -77
   86
   82
   78
   50
    7
  -77
  -52
   37
  -22
 -115
  -56
  -89
  -29
  -99
 -122
   11
  -70
   94
  109
  127
  -18
   10
 -123
  109
  -94
   48
  110
  123
  106
  -72
  125
   44
  117
  122
  -41
   39
   86
  -88
  107
  -97
  -56
   -9
  -74
   -4
  -19
  -79
  -60
  -14
   -4
  -50
  -17
   12
   30
  -65
  -70
 -126
 -103
 -118
    4
  120
  -72
  -32
  119
   11
  -81
 -121
  -37
  -89
  -72
  -39
   95
   98
 -123
   39
   77
  -95
  121
 -112
 -109
  -77
  -17
  -53
   48
   71
 -106
  -69
   20
   12
    2
 -108
  -43
   -2
 -127
  -84
   80
  -13
   52
  -19
   47
  -62
  -72
  -79
   73
  -68
   63
 -127
   98
 -103
   79
  -51
 -125
   95
   -2
    4
   67
  118
  -77
  -47
   68
  -26
  -67
  -90
   12
  -72
  -26
  115
   49
   45
   64
  -70
  -15
   99
 -101
  -15
 -113
  115
  -65
 -106
  -61
 -113
    0
   -4
   50
    2
  -52
  -58
  -78
   41
   64
  -41
  113
   50
 -109
   60
   64
  -59
   91
 -120
  -67
 -125
   -4
   50
  116
  119
   68
   27
  -99
  -36
   91
   13
   -3
  126
  -14
   44
   80
  -70
   22
  127
   87
   28
   19
 -109
   -1
 -108
   33
  -86
   37
   16
   64
 -104
   38
  -28
   59
   92
   -2
   41
 -110
 -109
  125
 -106
  100
  122
  -47
   36
  -96
   66
 -111
   21
   53
  -37
   -1
   88
   66
  109
  -10
  -76
  -64
 -124
  107
  -46
   21
   19
  -19
 -100
  108
   31
  -61
   20
  -31
  103
   51
  -63
  -92
  105
   25
  -47
   -5
    3
   58
   68
  -11
  -73
   13
  117
 -110
  -23
   70
   45
 -105
   29
   11
   71
  -74
  -28
  -11
 -101
  -59
   72
  -75
  -60
    1
   65
  122
 -110
  -78
   -9
 -122
   99
   41
  -70
  -11
  -74
   10
 -110
   75
  120
   81
   80
 -113
  -93
   27
  115
  -49
   52
  -45
   55
   30
    5
    2
   12
    3
  101
   49
  -36
  104
 -112
   38
   11
   97
   35
  119
  -53
 -114
  -66
   71
  105
  -24
 -122
   97
  -75
 -105
  113
  115
 -111
   54
   30
   66
  -48
  -50
  -61
   56
  -58
   -1
   49
  -89
   98
   15
  108
   19
   81
  -44
  -49
   47
  -61
 -123
  -43
 -100
  -43
   72
  -31
  -45
 -108
   50
  122
  -53
  -45
  114
   60
   41
   73
   98
  -78
   66
  -12
   67
  124
   24
   -2
   -5
   82
  -81
 -126
  -79
    8
   34
  -72
   62
   97
  -17
   40
   41
 -108
  -73
   94
   51
  -93
   17
  -99
   22
  115
   59
   43
 -109
 -111
  115
 -119
  -37
   85
   47
  -34
  -15
   49
   62
 -110
    5
  -70
   85
 -101
    5
   16
  -33
  -70
   79
   -2
  -60
  108
   10
  -86
  115
   64
  108
  -62
  -23
  -81
  -46
  -62
   35
  116
  -18
   17
  -67
  -28
  -78
    9
  -20
  -37
   56
 -124
   -1
    5
  122
  113
  -24
  -36
 -100
 -109
   40
    3
  -40
  -76
   21
   87
  -19
  -74
  126
  -84
  -20
  108
  -24
   91
   70
   -4
   89
   35
 -108
   35
  113
  -11
   56
  -41
 -126
    3
  111
  -97
   68
   68
   -6
  -24
   40
   30
  -87
   94
   11
   39
  -31
   21
 -116
   12
   17
  106
   -8
  -40
   21
  -98
  -24
   25
 -119
   86
   72
  -79
  -20
   49
   95
   49
   98
  -79
 -120
 -109
  -17
   55
  -27
   -4
   49
   74
  -34
 -116
  -64
  -68
   46
  -12
   31
  -78
   84
  -47
   45
   13
  -41
  113
   42
   42
   58
  -30
  -63
  -46
   -6
  -24
  115
   51
   30
   63
  -40
   48
  103
   85
   78
   58
  -13
   -7
  -29
   58
   14
  105
  -92
 -110
  -40
   62
  -13
  -32
   34
  -86
  -18
   70
   38
   93
  -38
  -98
   23
  -86
   33
  -75
   61
  -17
  -97
   16
 -114
  -32
    6
   96
    5
   21
 -103
   36
  -20
   27
   -6
  -82
 -115
   15
  118
  -84
  -54
   73
  111
  -23
   66
  100
 -102
  -27
  122
   14
  114
  -52
   51
  -29
  124
  -35
   47
    8
  -28
   44
   49
  -89
  -20
    9
  -88
  -74
  -98
   23
 -122
   22
   -7
    5
   94
   -1
  -49
  -57
  -35
   29
   78
  -41
 -117
  -26
  115
  -17
  -70
 -110
   22
   89
  -91
   81
    8
   78
   39
  -16
   47
  105
 -112
   12
 -104
  108
 -122
   64
  -13
  -53
 -107
 -126
  -73
   91
  -88
  -33
    4
   44
  -70
 -123
 -118
    2
  124
  107
 -126
  -21
  120
   80
   41
  101
  -47
  122
   -4
 -116
  -29
  -85
  -87
  -53
   54
   42
    4
   69
  103
  -52
  -37
   92
  -25
   88
  109
   18
    9
 -114
   83
   93
   22
  107
  -45
   12
  -92
   45
  -29
   16
  -27
    6
  -36
   71
  -76
  -29
   90
 -117
   26
  -19
  116
  123
   49
   82
  -66
 -123
  -51
   45
   43
   64
  -85
  -69
   -3
  -38
  102
   19
   97
   51
  -75
   86
   72
 -107
   22
  -85
   38
   85
    1
  -49
    9
  -95
  -56
 -119
  -39
  -80
   17
   35
  -24
  -66
   27
   95
  109
  -71
   79
   63
  -55
   88
  -89
  107
   -8
  -66
 -108
  -15
 -106
    8
  -17
  -29
   93
   34
  -82
  -13
   12
  -82
  -71
 -114
  -38
   99
   61
  -78
  110
   73
  121
   15
  -66
  -88
   -7
   33
  105
  106
 -114
  123
   21
   78
  115
 -121
  -42
  -14
    1
  -64
   10
  -11
   58
 -121
  123
  -60
  -58
 -115
   18
   59
  123
 -115
   70
   -8
 -103
    1
  -83
 -127
  -49
   -5
   -7
  -50
   56
 -114
  -74
  -13
  -55
    3
   77
    8
   63
   74
  -42
  -25
  127
  -56
   -9
   -5
  -45
  113
  -26
  -28
  -74
   53
   79
  -11
   -9
   14
   57
  -79
  -32
  -28
  -72
  103
   54
  -80
  -24
  -27
   98
  -35
   -8
  -53
  -36
  -83
   14
  -75
  -85
   57
   89
   44
  -72
  104
  123
  -79
 -123
   78
  -56
  103
  -27
 -115
  -18
  -49
  -99
   54
   -3
  -51
  -82
   91
   -1
  -83
  -68
  -35
   50
   31
   34
   37
   67
 -127
 -111
   11
  -69
   58
   -2
   58
   93
  -72
  123
   17
  -52
   13
   24
   39
   59
   31
   82
   50
  -42
   65
  127
  101
   46
 -103
  -92
   18
   65
   44
  -54
   -2
  122
  119
 -121
 -126
  -66
   86
  -38
   13
  121
 -121
   86
  127
   47
   -9
  124
   28
   68
  -47
  -78
  101
   99
 -117
  -95
   76
  -89
 -126
  -77
   14
  -41
   55
   70
   28
  -87
  -78
  -50
  126
   73
  -76
  -72
  -77
 -109
   38
  127
   34
  -85
 -107
    7
  -91
 -118
  -17
   59
  -99
  -21
   -7
  -53
 -102
   77
   14
 -122
 -102
  -15
  -92
  -32
  101
  -14
   97
  109
   -2
   67
   39
   23
  -80
  -93
  116
   28
  -99
  -70
   89
  -68
 -105
  102
   60
 -110
   60
   18
   29
  -36
  -66
   80
    2
 -106
  -90
   30
  113
   45
 -104
  -81
  -85
   -1
   20
 -115
 -109
  117
   40
   86
    3
  120
   67
   99
   69
   18
  -60
 -117
  -64
  -98
  -40
  -32
   79
  -55
  -75
  -72
   45
   66
  -30
  -93
    8
   86
   51
  -54
   60
  -56
  -39
    3
  -42
    4
  -60
  108
  111
   49
    5
  123
 -127
  -67
  -86
   46
  -57
  -94
   14
   -2
  -20
  -73
   -3
   91
  -25
  -97
   49
  -49
  -12
  -51
  -40
  -13
  -10
    3
   91
 -118
   55
 -117
   -3
   23
 -126
    5
  -82
   28
    5
  120
  -29
  -62
   12
   16
   95
   72
 -121
   28
   68
    1
   67
  116
   86
  116
  -35
   38
   30
  -17
   81
  106
   84
   30
   93
   92
  -52
  -75
 -123
   -7
  112
   45
  -42
    6
  122
  -27
   70
  -16
    1
  -33
  -54
   47
   86
  -40
  -53
 -127
  -25
  -32
  -65
  119
  -55
   91
   -4
   99
 -105
   90
   86
  -74
   40
  -82
    2
   62
  -75
  -78
  -69
  -58
   38
   42
   97
  -53
   -4
  -29
  -73
  115
   96
 -104
   54
  -52
  -72
  -35
  -96
   -2
   82
 -105
  -27
  100
   42
   25
   -9
 -100
   -9
    2
   40
   95
   70
  -49
  -75
   13
    5
   43
   78
  120
   26
  105
   42
  -89
 -127
   27
  -54
  -88
 -106
   27
  -54
 -121
  -91
 -101
  -63
   68
   12
   23
   82
   48
  -88
  -22
  -46
  -43
  -57
  -64
  -69
   40
  125
   63
   94
  117
 -103
   11
 -103
  119
  -75
 -109
  -51
  -83
   -7
  -97
 -113
   86
 -104
 -117
  -79
   32
  -47
   84
   53
  -80
  -40
   76
   87
   51
  -65
  119
   18
  -37
  -50
  -63
   -9
  121
   77
   16
  -49
   32
 -106
  -87
  -93
  -30
   90
  -50
    0
   82
    9
  -30
  -59
  -27
   -5
   30
  113
 -117
 -106
   -8
   36
  -42
   97
   33
   19
   66
  -97
   33
  110
   12
  124
   85
   31
  -56
  -42
   37
  -70
  -90
   63
  -85
  -61
  126
   14
  -88
   32
 -120
   12
 -107
  -40
  -45
 -115
   86
  -50
  -55
   -4
  -55
   69
   68
   44
   87
  114
 -127
  -77
   46
  -68
  108
  121
    7
  -34
   37
  -46
   41
   97
  -74
  -24
   53
    3
 -114
  -78
  -18
  -62
  -24
   99
   34
  116
   57
   33
   15
   24
 -107
   42
 -125
  -57
   64
  -42
  -17
   88
   25
  103
 -111
  -55
 -124
  -39
    0
   60
 -118
  127
   87
  121
  -19
   47
   91
  -34
  -92
 -109
  -79
  -42
 -103
 -121
  -96
  -94
   -7
   98
  123
    6
   37
 -122
  -25
   44
  114
  -23
   -9
   24
   87
  -26
   26
 -111
   28
   90
  127
  -94
   56
 -118
   94
  -44
  -84
   32
  -26
   19
   60
  -87
  104
  -96
   61
  -86
  -55
  -53
  -11
  121
   86
  -43
  -27
  115
  -88
  -78
   -3
  -48
   17
   74
  -86
  -58
   -1
    5
  126
   62
   45
 -121
  -36
  -93
   32
   48
    2
 -122
   22
 -120
   82
   22
   20
   68
   88
   27
   88
  -35
  125
 -107
  119
   41
   11
   91
  -58
   82
   92
  -71
   20
  120
   16
  -41
   75
   45
   53
 -126
  -65
  123
  -64
  115
 -125
  122
    4
  -21
   -1
   59
  103
 -113
  101
 -105
   11
  -61
   23
  -55
   28
   71
   31
   45
  -74
   58
   67
  127
   30
  -73
  115
  -19
   95
  -95
   25
  116
   58
   69
   15
 -102
 -120
  125
  -52
   86
   19
   57
   -6
   -3
  -25
 -113
   93
   25
  127
  -55
   82
  115
   97
    3
  -63
  -99
    0
  -19
   42
  -73
  -71
   28
    5
 -127
   61
   93
   23
  -95
   27
  101
 -127
  -87
  -96
  -57
   60
  115
  -24
 -119
  -65
  -70
 -112
 -115
  -47
  -58
  -68
  123
  -48
  -53
   97
   49
 -127
 -119
   66
   87
  111
 -103
 -112
  103
  100
  126
  100
   56
  -58
   54
 -104
 -106
  -68
 -113
  120
  -11
  -44
   49
  119
  118
 -110
  -80
   15
  -48
  -47
   85
   35
  -13
   41
   -2
   47
   24
  -39
  -44
  -88
   51
  -89
  -51
  102
   -8
 -105
  -61
   28
  -51
  -33
 -103
   69
   98
   43
  121
  -59
  -58
 -117
   19
  -31
 -118
  -61
   84
  -38
 -111
  -13
  113
   -8
   76
   57
   43
  117
  -65
  -86
  -75
   83
  -66
  120
   78
  -92
  103
   -8
   35
  -89
   75
   -6
  -38
  121
   76
  -69
  -34
    1
  126
 -112
  -60
   56
  101
   89
  -70
  -71
  -46
  117
  -26
  -76
  -16
   62
   21
   83
   13
  -19
  -95
  -30
   14
   29
   55
 -124
   64
   92
  -50
   62
   -3
  101
   59
  -59
  -30
  110
   62
  106
  -58
  -29
   46
    3
  108
   13
   16
  -64
  -89
  -46
   -5
   75
    1
   20
  -55
  -60
   46
    7
  -42
   93
    3
   -8
   27
  -27
  -71
  -55
  -97
   74
  -96
  -57
   70
   36
  119
   17
  -86
   56
  -10
  -87
  -33
   73
  -58
  -75
  -75
  -55
   82
  -37
  -49
  -94
   41
  -21
  105
  106
  -57
   74
  -43
   39
   88
   31
  -27
  -45
   35
  -67
   15
  110
 -104
  -96
   52
  116
   99
 -123
  -60
   70
  101
   26
  -59
   54
 -104
  123
   53
  -47
  121
   67
 -124
 -107
  -87
 -115
  -23
  -81
 -123
   -9
   17
   49
  -39
  -44
 -116
   27
  -69
  -11
  125
   97
  -19
  -38
   -9
  -59
  -33
  113
  -53
   90
   23
   13
   96
 -126
   94
   43
   41
 -123
   74
 -108
 -107
  -13
   96
   -7
   92
  -23
  -31
  -83
  106
  -27
    0
   -1
  -80
   39
  -34
  -82
   79
   42
   -6
  111
   26
  -19
   82
   68
  114
   95
   86
  109
   18
   28
  -75
  102
  -31
   18
   41
 -117
   72
  123
   87
   33
   39
  -31
  -56
   82
 -126
   18
   70
  -90
  -18
  -78
   -2
  -44
   13
   39
   41
   96
  120
  -62
  -24
  122
   -9
  -63
   47
  -68
   94
  -59
  114
 -117
 -110
  -76
   64
    6
   84
  -55
  -71
   90
   39
   48
  -27
  -22
 -127
  113
   52
  -10
  -29
  -64
   -9
   22
  -25
 -125
  104
  -49
  122
  115
  -84
    1
  -32
  -49
   92
   57
   19
   56
 -100
  125
  106
   71
   26
   21
   57
    2
  110
  -98
  -45
  -33
   22
   74
  126
   56
  119
  -83
  101
 -105
 -127
  -91
 -119
  -80
  -13
   58
    6
  -36
   83
  -52
  -40
  -91
  102
   51
  -51
  -70
  125
  -26
   -4
  -76
  123
  -70
   52
   73
    1
   82
  105
   79
   46
  -20
  -87
   98
  -50
  106
   16
 -121
  -28
 -107
  -15
  112
   95
   38
  -83
 -102
   78
  -55
  127
  -53
  115
 -117
   27
   40
  -20
  -84
  120
   57
  -91
   18
 -123
  -72
    8
   29
   67
    1
 -108
   64
   25
   12
  -40
   11
   37
   66
   62
  116
   98
   17
   83
 -114
  -25
   86
  -99
   -9
   48
  -69
   96
   74
   91
  -55
  -82
  -67
  -81
   80
   26
  -16
  -84
  -34
  -54
    8
  -84
  -28
   11
   28
   -9
   65
   64
   97
   77
 -122
  -26
   28
   36
   15
   51
  -77
  -76
   65
  125
  -72
  116
   34
   24
  116
  -30
   95
  -50
  -35
  -79
  126
   85
  -30
  -41
  114
   44
   18
 -127
  122
  -53
  -33
  113
   72
   34
   19
   59
  -99
   64
   59
  108
 -114
  100
   46
  120
  -31
 -103
   22
    2
   80
  112
  105
  -28
   -8
  104
  -93
  106
   58
   65
 -118
   13
  -33
  -88
  -58
  -91
  -84
   82
 -118
  -82
  -81
  -15
 -119
 -114
  -91
   73
 -100
  -30
 -104
   28
   15
 -126
 -101
   71
   28
   74
 -100
   85
   29
  -98
  -53
 -106
   66
  -85
  -47
   27
  -71
  -13
  112
  115
 -106
   46
  -71
  -67
   93
  -97
  -73
   59
  -22
 -126
  -82
   88
  -99
   50
 -101
   80
  -44
   39
  -71
  126
   16
  106
   98
 -102
   91
  112
   98
   97
  -56
   81
   17
  -46
  -44
  -68
   83
   62
  -81
  -80
   56
    2
  -42
  -98
  122
   -8
  -96
  -50
   98
   97
   87
   35
   91
   -6
   53
  127
   21
    4
  -93
 -115
   63
   70
   63
  -55
  -46
  -59
   -9
  -76
   -9
  -50
  -87
    5
   75
  118
   26
  125
 -104
  -60
   92
  -33
   47
   29
   47
   76
  -86
   36
 -108
  -70
    8
  -74
  115
  -32
  -84
   -1
    6
  -19
  -34
   16
   75
  124
 -106
  -66
  -40
  -40
   52
   17
 -107
   72
  106
  116
  -48
    3
   38
  -98
 -120
   67
   67
  -41
   60
  112
  113
  116
   55
  -77
   21
 -108
  -28
  -66
  -37
  -67
  -31
  -97
  -71
   45
  -24
  -87
   69
  106
  -15
  -74
   -2
  -30
    4
  -36
   32
  -18
  -66
   65
  -79
   10
   86
  -14
  -73
  -47
   78
   -6
   10
  123
  -83
 -120
   90
  -26
  -44
   -6
  -15
   -7
  127
   92
   51
  123
  -54
 -105
  -50
  -34
   79
  -15
  -71
    1
  -24
  -18
   78
  -91
  -87
   26
   46
   45
  123
  126
   77
   18
  -87
  -35
   87
  -75
  -94
  -36
   64
 -117
  100
   69
  -12
   73
  117
  -99
   83
   57
  115
 -116
  117
   36
   35
   87
  -61
  -26
   59
  -90
  -47
   54
   -2
   28
 -114
   66
   81
  -79
  -16
  -76
  -55
    9
 -109
  104
  -14
   73
  -89
   83
  -88
    8
   48
  107
  -31
   15
 -112
   71
  101
   -8
   22
 -120
   64
  -54
   66
  -93
  120
  -26
  -27
 -101
   36
   12
   33
  -79
  104
  -14
  -45
 -121
  -46
 -114
 -116
  -60
   -4
   23
  -91
  -18
  -76
   11
 -114
  -73
   70
   86
   74
  -41
  -65
   -4
  106
 -123
  109
  -20
  100
   19
   39
   26
   52
   25
  108
  -71
  117
   96
   -3
   16
  -12
  125
  122
   11
   51
  -60
   86
  -46
   79
  127
   10
  -75
   96
  -77
    2
  -85
  107
  -72
  -81
  -61
  -12
  -61
   63
   34
  -73
  -37
 -119
 -117
  -27
  -94
  -95
   89
   90
  127
   46
  -21
  108
  -20
  -63
   22
  -78
   82
  -84
  105
  -87
  -62
   39
  -62
 -116
   15
    4
   16
  -21
  -64
  -91
  -29
  -47
  103
  102
   47
  -59
 -102
   50
  -65
   62
   -6
   15
  -16
   17
  -17
   44
   -2
   55
   54
   36
  -88
  -54
  -51
  -15
   33
   91
   95
 -118
   23
 -122
   49
   37
  -95
   96
  113
  -57
   72
  -62
   44
 -123
  -16
  -58
  -87
  -16
 -108
 -105
   97
 -119
   28
   64
   22
  -47
  -91
   29
   67
   68
   33
  110
   63
   -4
   56
 -122
  -63
   98
  -84
 -109
  -59
  -80
  106
  -41
   42
   83
   82
   95
  -53
   57
   77
 -112
   91
  -24
  -64
   23
   46
   11
  -62
   60
   47
 -115
  126
   58
    6
   97
   30
  -21
   14
    3
   13
 -113
   -5
   17
    8
   87
  -91
  -79
   91
   48
  117
  121
   47
  -57
   -1
  -66
  -94
   17
  100
  -70
  120
   -3
  -36
  123
 -101
  109
   69
   26
    6
   -4
  -39
   38
  -78
  -88
  -28
  -61
   58
  -15
  -86
   67
   95
   41
  -42
 -108
 -105
 -113
   -4
  -11
    7
   83
  -86
   25
  108
   73
   38
 -113
  126
   45
   18
  -72
  -55
   35
   69
 -120
  -91
 -103
  -49
   74
   13
  -60
   14
  -50
  101
   45
  -53
   35
   54
  -20
  -50
  126
   25
   37
 -119
    2
   93
  -49
  102
  -39
   23
 -107
   30
  -73
  111
   20
   82
   62
 -117
   33
   -6
  -53
   46
  -92
 -118
   20
    4
   33
  -83
 -100
  -79
   35
  122
   39
  -77
  107
 -120
  -97
   66
   19
  -39
   52
   77
  -65
   77
   -5
  -30
   67
  -64
 -105
 -127
  -32
  123
   19
  113
   33
    7
  -55
  -95
  -92
   43
  -51
  113
  -20
   36
   55
   49
   96
   94
  107
   24
    0
   69
   80
 -125
   16
   80
   37
   43
  114
   -6
  107
 -108
 -121
  -67
 -119
  -28
  102
 -104
   87
  -58
  -32
  109
   -2
  116
 -104
 -116
   73
 -119
  -30
  -58
 -101
   49
 -106
  110
  -87
  -50
   62
   46
    1
  101
  -96
  -98
  127
 -126
  -86
   -7
  -73
   -3
  104
  -97
   58
  -80
  -81
  -35
  -85
   28
   81
 -109
  -17
   56
  -22
  -29
  -61
  109
  -21
   50
   92
  -77
   38
   77
 -100
  111
  -85
  -87
 -126
  -21
  125
 -104
   19
   38
   22
   42
 -123
  -55
 -113
  -28
  103
   79
   61
   35
  -93
  -12
   35
  -80
  -45
   77
 -112
  -20
   65
   79
  125
   -3
  -65
  -10
 -111
   22
   52
  124
   25
  101
   39
  112
 -102
   61
   47
  -43
  -32
  -29
  125
   74
  -84
 -104
   62
   51
  -25
  -70
  -68
  -13
  125
   88
  -58
  -41
  -50
    0
   61
  -81
  -54
   48
  110
   69
 -119
  -69
   63
   76
   -4
  -15
   42
  -20
    5
   20
  -94
   42
   41
   56
  106
  -22
   61
   58
   24
  -17
  -88
   85
   60
  -96
  -44
   23
  -93
 -114
  -10
 -115
   20
  -65
  123
  -93
  -46
  123
  126
   31
  -32
  -25
  -79
 -119
  -53
  126
  -83
  -91
 -127
   57
    0
 -113
 -120
  -56
    1
   49
 -119
  -91
  -58
 -116
   45
 -119
 -118
  -66
  -86
    9
  -78
 -107
 -104
 -111
  -55
  121
   45
  103
 -113
  -82
   -6
   48
  -15
 -107
  -89
   41
  113
  109
 -104
   54
 -127
   87
   39
   45
   -3
  127
 -109
   26
   45
  119
   -4
  -68
 -111
 -125
 -112
  -32
   -5
  -98
   -1
 -123
  106
   96
   61
    4
 -117
  -14
   54
  100
 -126
   50
  -20
  110
  -65
   83
   91
  -77
  -37
  -42
  -15
 -117
   81
   -4
   11
   54
  -30
  105
  -91
  111
  -83
   71
   -2
   -3
  111
  109
  -90
   34
  -36
    4
 -106
 -106
   91
  -57
   24
   95
  -80
   74
  -89
  111
  -63
  -17
  103
   45
 -122
 -118
   91
  -79
   43
 -103
  -53
   54
  -26
    8
   94
  -43
   -8
  -37
  -57
  -31
   43
  -96
  -43
   59
    4
 -107
  -53
   30
   76
   72
   -2
  -66
  -60
    9
 -106
 -118
   80
   90
   45
 -111
    2
  -44
 -112
  -44
  -94
   37
   70
   54
   65
  -45
 -105
   55
   26
 -124
  -13
    5
  -17
  115
 -125
 -108
   51
   17
  -94
   -8
  -90
  121
   97
  -92
  -20
 -114
   14
    5
   82
   32
  -78
   78
  -47
  -59
 -123
  -13
   87
   68
   36
 -110
  -33
 -127
   29
   40
   87
  126
  127
  -21
   97
  -12
  115
 -122
  -70
   35
  -49
  -24
   31
   23
 -107
 -102
   24
  120
    9
  101
    2
   29
   18
  -35
  -62
   12
   63
   89
  -52
   11
  -24
 -121
   34
 -103
   16
 -106
  -74
    6
 -111
   14
  -70
   55
  -13
   35
    0
  -91
   26
  122
  121
  -39
   49
    2
   92
  -24
  -96
  -22
   40
 -100
   33
  -81
   50
   97
  103
   48
  101
   24
   30
   80
  126
 -121
  107
  -51
   45
  -37
  -13
   -3
  -43
   61
   95
  -31
   53
   81
  -60
   -2
  -64
   17
  -84
   99
   86
  -17
  124
  -36
   31
   35
 -107
  123
   54
   88
  -52
  -65
 -102
 -102
   51
   32
    6
   -6
   28
  -28
  -40
   67
 -101
   11
  104
    6
   70
   42
  -16
   44
   62
    8
  116
  -72
  -33
  102
   59
  -56
   61
   56
  -92
   85
  -45
  -23
   17
  -16
   29
 -109
  -15
  -15
  -26
   17
  105
  -46
  -89
   30
 -127
  113
   -4
   37
  -15
   80
  -56
  -39
 -109
   55
  118
  -61
  -49
 -105
  -66
  -40
  -13
  -98
  100
  -68
  125
  100
   57
   66
   -4
  -32
   11
  -87
  -27
  -31
   80
   83
  -93
  -85
   43
   79
   48
  119
  -21
   27
   72
   29
   89
   20
    5
   31
   94
  -30
 -100
  -36
  -23
   17
   19
   51
   37
  126
   -3
   31
  -91
  -54
  119
 -101
  -19
  107
   50
   65
   19
   77
  -60
  -76
 -121
   42
   85
  -98
  -36
  -77
   98
  -96
   34
 -103
   99
   48
  -92
   23
 -106
   42
  -24
  -97
   20
 -125
   47
   42
   34
   73
   -2
   54
 -107
  -65
 -115
  -71
   32
 -116
 -107
  -83
  -18
   60
  105
   92
   -3
  -72
   82
   63
    4
  -99
 -106
   72
   53
    3
  -50
  -48
   76
  -90
  100
  105
  -98
  -30
   -6
   20
 -101
   65
   17
  -84
  -18
    5
  -30
  100
   41
  111
    6
  117
    7
 -126
  -67
   76
   -5
  110
   10
   59
  112
 -111
    6
   77
   -7
   88
  -52
    6
 -122
  101
  -27
  -82
  -53
  -56
   20
    0
    4
 -114
  125
    1
  -99
   25
 -118
  -34
  -57
  -95
  -98
   61
 -109
  108
  -63
  -35
   -8
 -126
   84
    4
  -26
   86
   97
   33
 -103
  -66
   59
   51
    4
   61
  -29
 -113
   88
  -87
   95
  -52
  124
  -75
   49
  105
  -91
   66
    8
  -80
   23
 -107
   80
 -108
  108
  109
 -118
  -17
 -101
    6
  106
   22
   31
   32
   16
   50
  123
    7
  -93
  -33
   -7
 -111
  106
   80
   69
   58
  124
  -27
  -14
  -30
  -66
    4
   69
   85
  -98
   89
  125
  -99
  -76
  -84
   46
  -21
   90
   49
  -44
   10
   61
   69
  -73
  -47
  -29
   56
  -10
   14
  105
  -35
   -2
   59
   78
  -15
  -17
   68
 -112
  106
   21
    0
  113
  -53
 -112
  -59
   -3
  115
   74
   28
   34
   -1
  -56
  108
   51
   35
  -65
  -78
    2
  -39
  -57
   89
   78
   49
  -48
  -75
   89
 -118
 -102
  -85
   46
  -83
   90
   25
   22
   83
  108
   87
 -126
  107
  -78
   32
  -24
  -98
  113
  115
   79
  -71
  -14
  -49
  -13
   38
   71
   41
  -71
  -15
  112
   51
  -17
   93
  -30
   43
   41
 -123
    9
   73
  112
    5
   83
  104
  -41
   83
  -50
  -41
  -76
 -111
   50
   65
   -2
  -15
    9
  -45
  -85
   83
  103
   11
   81
   76
  -21
   25
   92
  121
   59
   99
  -61
   25
  117
  -33
  -99
  -48
  -72
   39
  -77
  106
   36
  -91
  -86
   70
  -88
 -100
   85
   31
 -105
  -63
  -93
  109
 -110
  101
  -69
  -41
   74
    4
   14
  102
  109
    5
   50
 -119
  -12
 -116
  126
  101
  -71
 -124
  -10
   19
  -93
   -2
   90
  -44
   58
 -119
   52
   95
 -123
   -2
   42
   24
   33
   10
   96
  -10
 -104
  -40
   86
   37
  -60
 -101
  -53
   63
   49
   57
  -72
   22
 -101
  -68
 -101
 -123
   96
    5
  -32
   52
 -106
  119
 -109
  -84
  -15
  -17
  -65
  -27
   66
  -15
  -91
  -41
   -4
   37
  118
   -6
   67
  -25
  125
   95
   -4
   38
  -50
   81
   27
   83
   75
  -92
 -114
  -18
   17
   61
   28
  120
   11
 -118
   45
   11
   31
   83
    3
    2
   26
  -66
  -73
  -28
   99
    7
   92
  -37
    6
   19
  126
 -113
  125
  -36
  -92
   48
 -101
  -77
   11
   56
  121
 -119
  -54
  -49
  -71
   81
   -1
  -58
  -75
  -97
  -55
   58
  112
  113
  -78
 -106
  -50
  -31
  -42
   65
   84
  -25
  -29
    6
  -67
   -8
   19
   57
    1
   69
  -93
   47
   -6
  -47
   45
  115
   67
  -37
   -2
  121
  104
   27
   29
  -99
   -7
   34
  -67
  -24
  -42
 -100
  -49
  -28
   52
  -66
   69
   61
  -16
   75
  -93
  -32
   66
 -109
 -120
   65
  -20
   54
   22
   32
  107
   69
  120
  126
   96
   84
   50
  -76
  123
  -26
   78
   85
   14
 -121
  104
   59
  110
  118
    9
    8
  100
   91
  -63
   63
  121
  -90
  -71
  -94
   17
   45
   12
  104
  -94
   16
  -29
   77
   82
  -86
  111
  -78
  126
   52
  -48
   25
  109
 -112
   61
    2
 -114
  -73
  105
  -82
   22
   -5
  -64
    2
  -38
  101
  -92
  120
  -51
   55
 -127
    8
  -64
   69
  -27
   61
   60
  -71
   74
  -23
  120
   30
   83
 -100
   29
  -36
   13
  102
  -73
  115
  -68
 -100
   16
 -121
  -86
   50
   70
   80
  -84
  -54
   82
 -108
  125
  -94
  -20
  -24
  -32
  -31
   64
   41
   92
  126
   49
   -3
  -96
   46
  -11
  -78
  106
 -115
   94
  -40
  -15
   34
  -50
   52
   98
 -105
  -77
  -51
  -79
   90
  -77
   69
  -74
   32
 -103
   51
  -61
 -112
   82
   82
  -50
   15
   58
  100
 -102
   -2
   85
  -79
  110
   89
  -92
    4
 -111
    1
  111
  -55
   49
  -59
   14
  105
    9
   80
    1
  108
  -80
   45
   20
   54
   29
  -26
 -123
    5
   17
   53
   98
   68
  105
   84
  -86
   73
  -46
  -58
  -10
   46
  -17
 -116
   96
   50
  -29
  -61
  -48
   10
  -34
  -20
  -46
  -28
  122
  -94
  -36
 -121
   24
   96
  105
  110
   73
  -13
  -98
  -64
  126
   98
   76
  -36
  -11
  106
  -42
 -100
  -22
    0
   35
  -63
  -10
  -10
  -80
  -27
 -127
  116
  -87
  -28
   56
   82
  117
   63
  103
   44
  -74
   94
   23
  -91
  -55
   31
  -34
  -99
   93
  114
 -116
 -107
   22
  -98
  -53
  -53
    6
  103
   87
   21
 -123
   34
  -26
  -20
    9
  -73
   28
   61
   17
  -98
   94
  -24
 -105
    9
   97
   39
  -29
   75
  -46
 -109
   29
 -106
   41
  104
 -103
  102
  -32
  -31
 -120
  -40
  -65
  -65
  -44
 -111
   54
  120
   88
 -109
   67
  -27
  -69
   85
  -36
  108
   56
  -45
   95
  -67
  -86
   92
  -92
 -109
  -26
  -30
   46
 -115
  -76
  -82
  -34
  -55
 -100
  -13
  -71
   96
  -34
   21
   85
   80
  -43
  -67
  -48
 -103
  -43
  -58
 -106
  -88
  -54
  127
  -61
   68
  -51
  -34
  109
  -81
   65
   40
   58
    0
   34
  -84
   43
  -98
  -15
   82
   66
 -103
  -27
  -31
  -56
  -26
  -27
 -117
  104
    6
   42
  123
  -35
  111
  -25
   59
  -41
   11
   22
  -82
   56
  122
  -56
  125
   64
  -22
  -20
 -118
  123
  -66
  -96
  -13
 -109
  -43
   37
  -69
  125
  -88
 -114
   -2
   64
   69
   34
  -66
   26
  -82
   -5
 -111
  -92
 -106
   60
   78
 -126
  104
   34
  -65
  118
  104
  -32
  -24
   17
   79
 -125
   -6
  -26
   55
   -4
    6
  -95
  -39
   -4
   81
  110
   85
   95
    0
  111
   27
  -58
  -83
   -9
   40
  115
  -90
 -114
  115
   59
  -87
  -76
   14
  -71
   44
 -122
   69
 -107
  -77
   51
  -29
  -91
   80
 -122
  -88
  -49
  -31
  -47
  -55
   16
 -110
   16
   54
   67
  -64
  -56
  -74
   76
   15
   33
    1
  -65
  124
   46
  103
    5
  -18
   78
   58
   76
   42
  -24
  115
  127
  -42
    4
   18
   81
  -40
   31
 -106
   80
  -92
    3
   75
   -9
   14
  -22
   12
  107
  -11
  124
  -72
 -121
  -90
  -76
  115
   56
   52
  -59
  -25
   33
 -102
  -52
  -80
   -8
   92
   78
  127
   21
   -5
   96
  126
  -14
  126
  102
   88
  105
   46
   76
    3
   68
  -54
  -10
 -104
  -34
   59
   23
 -102
  -29
  -23
  -52
   23
  -64
   22
   87
  106
   37
 -121
  -78
  121
 -127
   33
  -88
 -122
   44
 -114
  -55
 -111
  123
  -73
  -66
  -53
  -51
 -118
  117
   73
   -4
 -124
  -62
  -33
 -127
   -1
   91
 -123
   56
  122
  -87
   65
  -66
  -96
  -90
    6
 -111
  -72
  101
   64
    5
   77
   81
   71
    9
   76
  -89
  108
   49
  -12
  -39
  -75
  -39
 -109
  100
  -86
 -122
   -9
  -40
  114
   79
   85
   95
  -61
   99
  -73
  -35
   11
   55
   24
  -89
  -10
  -86
  -94
  -10
  113
  -21
 -115
   85
   39
 -125
   50
  -17
   51
  127
   30
   99
  -99
  -29
  -31
   48
  -88
   19
   -8
  111
  126
   90
 -119
   14
   -2
  -65
  -40
   55
 -107
  -23
   87
   34
   74
   84
 -116
  -28
    3
   11
  -92
  -65
   40
  118
  -16
   64
  -90
   41
   -9
  -33
  -60
  -89
   19
   19
  101
  -37
  100
  -73
   85
   86
  -14
  -63
   60
   62
   80
   -8
   25
  -37
 -106
   59
   89
   92
    8
 -109
  125
  121
 -125
   87
  -99
   33
  -18
 -123
  -18
 -111
 -112
   99
   61
 -102
   42
    1
 -102
   78
   52
  -21
  -20
  -53
 -107
  100
  104
    9
   57
   24
  -44
  -14
   93
   35
   52
  -35
  -74
   14
 -109
   82
  -57
   -4
   98
  -29
   79
   22
  -54
   50
    7
  -44
  -30
  116
  -96
  116
   71
  -49
  114
   76
   40
   43
   66
   45
  -36
  110
  -52
   96
  -97
  -94
  -46
  -47
   77
 -116
  -21
 -121
 -104
   19
  -30
   77
  -74
    8
  -24
  -63
 -109
  -57
  -78
 -124
  -96
   44
  -40
   91
  -74
   87
  -23
    1
  -34
  -17
  -40
  -92
  -52
    6
   24
   91
   21
  122
   36
  -99
   76
 -122
  -51
   94
  101
   17
   28
  -90
   67
  -62
   59
   84
 -102
   12
 -122
   11
   60
  -56
 -119
  -67
  108
  -62
 -126
  -57
  -38
  125
   35
   75
   31
 -121
  -76
  118
  -70
 -123
   64
   40
   92
  118
  -77
  -81
   61
 -113
   48
   35
  112
   49
   60
   59
   78
   55
  -56
 -125
  -92
   91
   84
 -125
   -3
   91
   36
   11
  -36
  -91
  -61
 -121
  -43
   33
   47
   77
  -37
   13
 -123
   73
  -80
  -87
  -96
  -43
 -118
   26
   19
   41
   18
  -89
   14
  -23
   26
 -103
   -8
 -103
  -75
  -34
 -123
  -31
   18
  -61
  109
   -7
 -104
    7
 -117
   67
   70
  -57
 -101
   84
  101
   66
   68
  100
    5
   99
   -3
   67
   66
   25
   48
  110
 -114
  -57
  -56
   91
  -70
   49
   11
   51
  -10
 -106
   -6
  -28
    7
  -61
   71
  -46
   53
  123
   70
   70
  -23
  -62
   17
  -98
  -96
   69
   62
  -21
  -25
  -64
  -18
  110
 -116
 -115
 -102
   20
   32
 -115
  -39
 -114
   72
 -102
  -39
   91
   16
   18
   55
    1
  -71
  -18
    2
   49
   15
  -72
  109
  119
   69
   81
   54
  -65
  -64
  -19
   81
  -71
   44
   70
  -60
 -114
  -84
  -81
  114
  103
   75
 -106
   11
  -63
  -17
   46
  -29
   75
   94
  113
   96
  -96
  -18
  -37
 -105
 -110
  -89
    5
   51
 -115
  -59
   60
  -31
   15
   33
   58
  122
 -121
  103
   36
  109
 -115
  -33
  -23
  -23
   61
   69
  122
   42
  -99
  110
  -24
   54
  -45
   36
   35
  -42
   40
    7
  -46
   58
  -32
   95
   15
   25
   14
    5
  -13
 -114
  -32
  -74
  -55
  -43
   76
   79
   30
  -68
  -84
  116
 -127
  -97
 -118
  124
   20
  -49
 -121
  -62
  -78
  -98
 -111
 -114
   88
   47
   66
 -117
 -116
  -78
   31
 -110
   24
   17
   73
 -126
    3
  -32
   31
  -60
 -124
  -74
   30
  -86
  100
    2
  -17
  126
   -3
  -96
  -44
    9
   35
  -79
   57
  -37
  -55
  -31
  -55
  -17
   25
  114
  -74
   33
   -6
   98
 -117
   83
   75
  -11
 -110
  112
  -55
   27
   38
  117
   27
  -63
 -107
 -104
  123
  -91
  -59
  117
  -88
   78
  -27
  -34
  -26
 -111
   26
   94
  -15
  -14
  -54
   71
   -1
   49
   99
  -32
   42
 -105
 -112
 -102
   84
  -42
  114
    8
  -29
  -23
   69
 -108
  -41
   62
  -42
  -96
   65
  -45
   52
  -77
  -13
   33
   29
  -92
   12
  -37
  100
    4
   30
  -36
 -124
  -60
   -4
  114
  -71
   17
  119
   40
   23
   21
   92
   25
    7
 -118
   76
  -42
  -32
   74
  -74
   70
   49
   40
   28
  -49
  108
  -42
  -48
  -61
   63
  -57
  -58
   43
   79
 -122
   15
   41
   11
   22
    6
   31
   -9
   32
  113
 -106
   82
   47
 -123
  -54
    9
   -4
   49
  100
  120
   45
   74
  -22
  121
  -91
  -18
   63
   81
   43
 -112
  -10
  -65
   27
 -119
    5
   46
   97
   -6
  -49
  -30
  -43
  -72
    1
   62
  115
  -43
   32
   24
   14
  -44
   36
   45
 -105
  117
   -8
   48
   30
    0
  -30
   28
  -74
  -76
  -38
 -118
 -103
    5
  -49
   38
   29
  -84
  111
 -119
  123
   30
  106
  126
   99
   61
  117
   99
   53
  -83
   12
   -3
   87
  -11
  119
  -40
   -4
  113
  -84
  -60
  -48
 -105
   50
  -89
 -105
   35
   66
 -108
   -7
    7
 -108
  -67
 -105
  -43
  -71
  119
  -47
   92
    2
   34
  106
   70
  109
   80
  -56
  -12
  110
  -39
   -6
 -122
   54
  -90
    7
  -21
 -103
  -46
  -38
   84
   39
 -104
   84
  -38
 -119
  -65
 -125
   65
   57
   13
  -36
   -6
   54
   -8
   43
  -75
   43
  -46
  -63
  -52
   24
    2
 -121
   -4
  -62
   93
    8
  -17
   43
   -9
  -91
  127
  -48
  104
  111
 -112
   29
   29
 -124
 -112
  -45
  -57
  -72
  -68
   28
  -41
   15
  -24
   -9
   48
  116
  121
   40
 -103
  -39
   61
   60
  -73
   -8
   43
  -93
  -10
   -4
  125
  -64
    3
  -22
   64
  104
  -87
    3
  102
  -62
  101
   49
   66
  113
   47
    5
  -82
   77
   -2
  -43
  -30
    9
   47
  -39
  -78
  -61
    3
   86
    1
  -83
  -34
  -22
   27
   27
   61
   93
  -46
   64
  -49
 -119
  -12
  -32
 -126
  -85
  -62
   86
   50
   94
  -75
  117
  -30
  -57
   33
   45
   91
  -87
  -30
  -18
   90
  107
   13
   -9
 -115
  -21
  -57
  106
 -113
  -76
  -22
   94
  -46
   37
   50
  -33
  -55
  118
  -30
   61
  -35
  116
   21
  -43
  -78
   64
  100
   89
   62
  -46
   84
  -56
  -59
    4
   26
  -32
   48
  -11
   30
   63
 -125
   86
   81
  -26
   50
  -66
  105
   57
   44
  -52
   53
    2
   30
  -56
  114
   39
  -39
  -56
   58
  108
   13
  -19
   47
  -25
   71
  -15
   27
   85
 -106
  113
  -47
  -60
  -85
  103
   -7
 -105
  -30
  -70
  -63
  -15
   61
   13
    0
  -39
  -90
  -29
   76
  -94
 -118
    5
   86
  -84
   58
  -41
   -7
   72
  107
 -101
  -94
 -122
  -66
  -36
  -45
   23
 -120
  -85
  104
   38
   30
   38
  -96
 -100
  -52
   82
 -104
  -71
 -117
 -120
  -13
   57
   43
  102
   84
   84
   48
   48
  -13
  -25
  -51
  -45
  -19
   63
 -103
   58
  -67
  -49
 -104
  -47
  -28
  -60
   29
  -82
  -62
  -59
   88
  107
   47
   83
  119
  -40
   -3
   66
 -100
  -67
   59
 -100
   24
  -91
    4
  -32
   85
   94
 -112
   58
   43
   55
  -23
 -123
    9
  -43
  -48
  -41
   12
   57
   71
   10
 -107
  -11
 -117
  103
  -96
   23
 -125
   93
  -72
 -105
   23
   69
 -104
 -126
 -102
  -79
 -124
 -124
   71
  103
  -49
   -3
  -17
  119
 -127
  -92
  125
  -48
   62
   -3
   39
  123
  105
   96
  -41
  -51
    9
 -124
  -36
    0
  106
   -8
   25
   13
  -82
   59
    0
 -110
 -119
 -109
  -12
  -10
  -52
  105
  115
   96
 -122
   55
   57
   39
   18
  -52
 -125
 -105
   36
   78
 -124
  -57
   62
  -99
   53
  -91
   60
   18
  -21
   73
   49
 -126
  -15
    2
  -98
   71
   10
   23
   81
  -45
  -29
  -69
   42
   14
  -63
   -6
   11
  116
  -62
  108
  -81
   44
   82
   19
 -112
  -59
   64
  124
   -4
  -98
   71
   34
  115
   24
   16
   78
   22
   75
   64
  -71
  -51
  -88
   88
   64
 -115
   12
   -3
  109
   31
  112
  -16
    1
 -103
   47
  -83
  -23
   -5
  -18
    4
 -117
  116
   35
  122
  -93
   33
   37
  -54
   30
  109
  -26
  -27
 -123
  -75
  -24
   -1
  125
 -113
   11
  -98
  -34
  101
 -106
  105
   41
 -121
    8
    6
   83
    7
   89
   64
  -69
 -109
  -59
  -87
   -5
  -79
  121
   96
    3
   78
 -121
   85
   68
  -82
   66
   78
 -127
   35
  114
   -8
  -35
   70
   18
  114
  -76
   62
   94
   96
   44
  -49
 -125
  -26
  104
  -69
 -118
   34
   80
   15
   52
  -13
  -15
   59
   66
 -106
  -55
  105
   65
   84
   37
  -43
   78
  -51
    6
   17
   37
   48
   34
  -38
  -42
   40
  -57
    1
  -53
  -61
  -44
    9
 -117
   57
 -113
   60
 -119
 -102
  100
   -9
    3
 -116
   13
   30
   91
   -3
  106
    4
  -60
  -76
  -48
  120
 -121
 -126
  -47
  -46
  -84
  -32
   48
  -64
   70
   91
   65
 -111
   62
  -69
  -10
   65
 -101
  -96
   71
  103
   60
  -89
    4
 -115
   45
  -97
   44
   14
   18
   54
  115
   51
   84
    3
  -33
  111
 -103
   89
  -61
   85
  -91
  100
   53
    7
   87
   52
   30
  -27
 -121
  -47
   65
  -53
  -68
  -20
   46
   10
   64
  -84
  105
   51
   42
   23
 -103
  -54
  -99
  -91
   30
  -81
  -27
   46
 -114
  -22
  125
  -73
 -127
  -12
   -3
   67
    2
  -35
   16
  -15
   60
   27
  -53
  127
   -5
    5
  -33
  -39
  -35
  123
  -21
  -30
  -29
  105
   -3
  -76
   49
  -93
   90
 -124
   33
   89
    5
  -51
  -50
   54
 -102
  -58
 -125
  -33
  120
 -120
   33
  -59
   57
   42
  -20
  108
   45
  -14
  -72
   16
  -31
  -48
 -125
   31
  -83
  -82
  -18
 -121
   12
 -124
  -70
  -55
  -37
  -82
 -118
  -63
  -10
  -71
    2
   76
    0
  -87
  -45
  111
  116
   90
  -22
  -76
  -71
  102
   58
   -3
  -79
  -92
   61
  -63
    1
  -60
  -80
 -105
 -111
   80
   55
   65
  123
   48
  118
   99
  106
   34
   65
    1
   22
  -54
   55
   55
    1
    9
   10
  -24
 -101
  -67
 -104
   71
   65
 -104
  -53
  -36
   68
   18
   23
  120
   25
   59
  125
  -56
  -90
   63
    7
   12
  116
  103
  -39
   22
   17
  -98
   16
 -124
   53
  -64
   13
  -46
   -7
   66
   29
  -10
  -86
   56
  -24
 -110
  -91
   61
   20
   68
  -97
 -111
 -105
  -79
  -34
   13
  110
   15
   77
  126
 -101
  -88
  -92
   -2
   58
   26
  -10
   22
   58
   13
   -9
   26
  -20
  -21
   97
 -104
   49
   49
   36
   73
  -76
 -107
  -78
  -54
  115
  -96
  -12
 -109
   99
  -40
  114
   73
   -1
  116
  109
   26
   73
   -4
  -54
  125
   64
  -59
   94
  -60
 -106
  -94
 -117
  -14
 -127
  -70
   51
   73
   -9
  125
   93
  -26
   32
  -25
  -34
   30
   -7
    4
  -65
    5
   54
  -29
 -109
  109
  -46
 -102
  -23
   94
  -52
  -64
  -85
  108
  127
  -73
  108
  -34
  -64
   99
   66
   48
  108
  -42
   13
   92
  -97
 -109
 -111
   45
  -21
 -124
  111
   -5
  -72
  -39
   51
  -61
  -79
  -94
   49
   78
  -79
   39
  -32
  -69
  -86
   -5
  118
  105
   41
   13
   85
   33
   67
   16
   96
 -114
   85
 -104
  -34
   14
   74
   16
  -81
   96
   63
  -39
   82
 -107
 -117
  -67
 -101
  -47
  -16
  -50
  -98
  -19
  112
   25
  -39
 -100
  -72
  -56
  108
  -28
  123
   49
  -74
  -56
   32
  -21
  -50
  100
 -116
   73
   59
  112
 -108
   66
 -114
   39
   43
   21
 -101
  -15
   88
  111
  112
  -87
    6
   85
   41
   -2
   18
  -33
 -112
 -108
  -53
   14
   38
   55
   66
  -99
   74
  -87
  -59
   69
  -52
  -27
   56
  -67
 -126
    7
  -16
   35
   94
  -13
   19
   27
   80
 -106
 -119
   94
   46
   -9
 -126
  -24
   25
   93
   66
  118
  112
  -81
  -69
  -24
   23
  -17
   66
 -115
   24
   12
  -33
  114
  110
  -11
  103
   83
  -89
   35
   23
   35
  -86
  122
   95
  103
  -92
    0
   39
 -106
   63
  105
  113
  -16
  -27
  -23
   60
  120
   48
   49
   70
  115
 -104
  125
   22
  -80
  -94
    4
  105
  -91
  -92
   12
  -40
  -42
  -64
  118
  -98
  -86
  -29
   21
   47
  111
  -26
   31
  -49
  -21
   86
  -17
   32
  -57
 -111
  -77
  -19
   92
   72
   46
    4
  122
  -10
  -50
   -1
   53
   -5
  -15
   11
  -10
   47
  101
  -69
   79
 -113
  -57
 -117
    5
   66
  -69
   56
   25
  -85
  112
   66
  -21
   97
 -124
  121
  -95
  -33
 -126
  -69
 -105
  -55
   91
   31
    5
   21
   39
   84
  -54
   65
  -24
    4
  -61
  -15
   99
   50
   64
   76
 -123
   15
   90
  -55
   34
  111
  -88
   -4
  -42
 -113
   51
  -74
   76
  102
  -67
  -35
 -113
  107
   61
   79
  -86
  -38
  127
   67
  -26
  -67
  -21
   90
 -115
   22
   37
  -38
  -13
  -58
   38
  114
  -36
  -60
   21
  -24
  -81
  -84
   24
  -27
  124
  -94
  -97
  -99
   -2
   89
   64
   13
 -117
   77
   86
   11
   77
  -70
   78
  -48
  -76
 -100
   11
   -8
 -108
   15
 -123
   70
   -6
  -16
 -123
 -114
 -115
   70
  -14
   -8
 -114
   79
  -79
   20
  -47
  -29
  -88
  -30
  -52
  -38
 -127
   -8
 -100
  -85
   17
  100
   18
   79
   -8
   54
  -15
   14
  103
    0
   98
  -95
  -86
  -38
   94
  -98
   44
  -67
 -117
  -40
  -61
   64
 -120
   92
   66
 -116
   65
   61
   50
   18
   84
  120
  105
  -29
   20
   42
  -29
   61
    6
  -18
  116
  -56
  105
   68
   -8
   57
  -62
   26
 -121
 -112
  -46
   67
  -67
  106
  118
    7
   48
  -34
 -127
   12
   23
   72
 -114
  102
  -18
 -127
  -26
   81
  -44
   72
   79
   59
 -121
  -62
  -71
   77
  122
   -3
  -56
   86
  -33
    1
 -127
  118
  -60
 -119
  -59
    6
   44
  -45
  -86
   97
  -10
  123
  -99
   21
  -94
 -110
   58
  117
  -53
  107
   25
   73
    8
   47
 -104
   93
  -60
 -120
   59
   56
  -26
   -5
   21
   39
   28
  -70
   31
  -22
   98
   50
 -117
  -90
   -2
  -71
   24
  -58
 -104
   60
  -59
   47
  -77
  102
  105
  107
  109
   70
  -94
    5
  -84
  -56
   85
   74
 -113
   49
   90
   63
 -108
  -27
  100
  108
   -9
   97
   89
  -68
    7
  -73
  114
  108
   68
   75
  -39
   -4
  106
   13
  -29
   17
  -34
   48
  117
  123
   57
  -84
  -92
   17
    1
   15
  -43
  -25
  -91
  -66
  -93
 -101
  118
  -62
 -127
  -65
  125
 -101
  -93
    2
 -126
   85
  124
   78
  -65
  -90
 -100
    3
  -78
  114
 -122
   26
    1
  -39
   73
  107
  -58
   14
 -123
   50
  -15
  102
  -95
   47
  -44
 -102
  -37
   23
  -57
   99
  102
   12
  -32
    6
   49
   -2
   30
  -34
   25
  -56
  -26
   43
  120
 -115
  -52
  108
  -61
  -22
   78
   10
   79
  -84
   28
  -40
   87
   35
  -17
   48
   82
   39
   89
   53
  -12
 -120
  -98
 -111
   -2
   83
   80
   54
  -38
  -58
  -99
  -72
   51
   53
  -43
   79
  -65
  -51
   92
  -25
  -60
   -4
    5
   83
  122
  -37
   62
 -122
 -111
   74
   -7
   86
  -83
   -3
 -112
  -53
  104
  121
   79
   10
   65
  -54
    3
   37
    1
  -13
 -126
   22
   79
    9
  -31
  108
   87
   72
   67
  106
  -71
  -99
   85
  124
   79
  -79
  121
 -115
   78
   70
  113
  -31
  -75
    3
   42
   18
  -30
   60
   21
  -86
  126
  -31
   29
  107
   41
   18
  -98
   83
 -106
  -17
  -80
  -10
  -43
 -115
  -17
   14
  -44
  -87
   84
   80
  -24
  -66
  127
   73
  -22
   -6
   -5
  -86
   80
   80
  -99
  -39
  -20
  -42
 -121
   15
  -49
  105
  -28
 -126
   69
  -57
 -105
   56
   77
  102
  -85
 -105
   76
   -8
  -34
   63
  -74
   53
   51
  -66
  -95
    0
   56
   76
   21
   58
  -60
   -3
    6
  -46
  -65
 -118
 -110
  -46
  100
 -123
   75
 -102
  -71
  -69
   -3
   58
    4
  -48
 -107
   75
  -69
  118
  -94
   76
   19
  -55
   87
  114
  -53
  107
  -66
   59
   17
  -69
  -26
   74
   70
   -1
  -23
 -105
  117
   47
  -93
   -7
  -62
  113
 -119
  -61
   32
    3
  -47
   14
  123
  109
   -5
 -119
   -7
  -98
   80
   93
   55
   34
   40
  -36
  -96
  -97
    4
 -103
 -114
   47
   26
  -40
  -37
   81
    2
  123
 -106
  -70
   47
 -125
  100
    0
 -111
   17
   34
   55
  -53
  115
  -35
  -50
  104
  -15
   65
   53
 -112
  -88
  111
   30
  -73
  -88
 -103
  -91
   37
   73
  -19
 -102
 -120
   45
 -114
   97
 -100
   98
  -49
 -118
    4
   76
   37
 -105
   72
   96
   52
   92
   99
   60
    4
  -71
  -74
 -104
   -2
 -114
  -26
  117
   19
  -20
  -62
 -125
 -113
   50
   96
  -35
   53
  119
  -95
   52
  -35
  115
   32
   55
  -91
   16
  -65
   21
 -103
   -9
   58
  -63
  112
   18
  -59
   -4
  -75
   82
   44
 -104
  -98
 -107
  -45
  -18
  -28
   58
 -115
   20
  -10
  105
  -55
 -100
 -123
   18
   82
   53
  -94
 -111
   45
  -85
  -96
  -59
  122
  -15
   33
    2
  -53
    3
   74
   60
   -5
   12
   69
    5
   25
   -2
  110
  102
 -100
 -103
   37
    9
   34
   25
 -116
  -85
  111
  -29
  -94
   25
   87
    8
  101
  -49
  -85
 -107
   16
  116
  -89
   62
   62
 -120
  -70
  108
 -108
   92
   35
  -66
  -33
 -105
   79
   79
 -108
  -17
  -62
  -43
   11
  -30
   11
   67
   39
  -44
  100
  -76
  -77
   91
  -24
   92
   70
  -15
 -112
   35
   40
  110
   -9
  -35
   82
   37
  -89
  -20
  -19
  -21
   -5
  -17
   97
  116
   89
  -43
  -85
  109
  -52
 -101
   -4
 -105
   86
  -95
  -74
  -15
  -47
  -49
   -1
  -11
   55
   91
  -62
   77
  -46
  -59
 -120
  -46
  -26
  -12
  -99
   39
   15
   84
   16
   11
  -51
  113
  -45
   56
   19
   87
   38
  -25
  117
  -34
  100
  -29
   39
 -104
  -47
   95
  -77
 -117
   30
  -59
    2
  -48
   24
   59
   -4
  -11
 -120
  126
   89
   65
   92
   86
  -86
  -60
  -10
  -95
   34
  -46
   91
   90
 -126
  106
   53
 -123
  -54
   29
   97
  123
  106
  -51
 -127
   83
  -45
   73
   95
  112
   80
  103
   -1
   47
  -82
  -19
  113
  -28
  103
  113
  -70
  -73
  -93
   51
   -6
   87
  -59
   79
   94
  -93
  119
  -49
  -71
   63
  -75
 -124
  115
  108
  -17
   81
  -69
 -103
  121
   96
   38
   14
  101
  -75
 -100
  -48
   57
  108
  -43
  -82
  -87
 -120
  111
   64
  -20
   92
   75
 -101
 -108
  118
  -55
   94
  -61
  104
   99
   81
  108
  -29
   55
  -72
 -115
   64
  -55
    2
  -26
  -67
 -107
   28
  -13
  -54
  -90
  -69
  -83
    1
  100
   48
   26
    4
   34
  116
   98
  -46
   77
  -26
   86
  121
  -92
   97
  -36
  -55
   17
  -94
 -122
 -117
   -5
  -46
   -3
   94
  113
    8
  103
   62
   28
   15
   66
   15
   44
  109
   86
    0
   32
   73
   50
   -1
  -63
   39
   39
 -120
   72
 -108
  126
 -114
   51
  -13
   30
  -42
   62
    1
   -3
   44
 -111
   22
  -86
 -121
   10
  107
  -35
  105
  -21
  -22
   31
  -66
  -52
  -55
 -100
  -24
   91
   30
  -68
  126
  -93
  -49
   54
  104
 -112
  -31
  -46
  113
  -21
  -79
   45
 -115
   38
  -76
  -83
   99
 -107
   59
   57
   74
  -51
   72
   70
   50
   -9
   19
   18
   94
  -74
   -6
 -123
   33
  101
   76
   78
    8
   86
  101
    6
  -93
   40
   61
  117
   -2
  -84
  109
   72
  126
  -59
  -99
  127
 -121
   39
   -2
  -34
  -39
  -27
   29
  -80
  -82
   59
  108
   14
   76
   58
 -116
   67
   19
 -121
  -27
  105
   95
   61
 -114
 -120
  -71
 -108
   59
   17
   78
  -13
 -121
  -41
  -32
  -31
  -11
 -100
 -108
  -80
   60
   20
  -70
   19
  105
  -10
 -117
  -37
   16
  -73
   17
  -80
  -79
  -53
  -44
   -5
  -67
  -64
  -24
   50
  -38
 -111
   16
  -19
   98
  -36
  -32
    9
   16
   69
  115
  -49
 -112
   67
    1
   15
 -118
  113
   -9
   92
   77
  -21
   79
 -100
  -31
   26
  -24
   -7
  126
   41
  110
 -115
   84
 -121
 -103
   61
 -105
   17
   42
   20
  -12
  116
   58
   54
   40
  126
   -8
  110
   24
  -61
   14
  127
   75
    5
  -65
  106
 -118
  118
  -64
  116
 -106
  -81
  -88
   -4
   44
 -126
  -95
 -105
  105
    7
  114
  -11
   64
 -122
  104
   26
  -42
   89
  -34
   56
  114
  126
   56
  124
  109
   38
  104
  -49
   78
  -27
  -90
   92
  -72
   13
   75
   -8
   -8
  -32
   94
   -9
   20
   22
  -38
  -10
  -25
  -68
  -54
  -19
  100
  -70
   34
   55
   17
  -65
  -67
   -1
 -116
 -106
   -5
   60
   -1
   -7
   31
  -15
   95
   -9
  -29
  -47
  -71
  -45
  -61
  -72
  -31
  -65
   38
  112
  -40
  -56
  -37
  -87
  -35
  122
   -9
 -109
  -43
 -115
  -19
   -6
  125
 -123
  -64
   71
   83
   54
   69
 -110
   54
  -26
  -60
  -29
  -97
  -42
   85
  -56
 -122
   17
   30
   28
  -89
  124
   88
  -37
  -22
    0
   46
   -4
 -111
  -66
  -86
  -83
  -96
  -66
 -110
 -107
 -111
   72
  110
  125
 -101
  -92
   22
  -77
  -16
   14
  -95
  100
  -99
   74
   17
  -51
  -23
 -127
   28
   43
   40
 -113
   45
   83
    0
  -33
    3
    3
  -90
 -119
   69
   -2
  -47
    9
  -31
  -35
   24
   74
   54
   86
   14
   58
   46
  -36
  -78
 -101
  117
   29
   89
  -87
  110
  -77
 -119
   46
    3
   50
   96
  -64
  -63
   58
   74
   64
 -105
   93
   49
   17
 -106
  -48
   12
   10
   96
  -78
 -117
  -16
   55
  -84
  127
   54
  -70
 -104
  -24
   22
 -122
  -26
  -34
   91
   76
  106
  108
  124
  -15
  127
   43
  -45
    6
   97
   47
  -90
   42
   89
  -26
   74
  -66
   26
  -28
   83
 -124
  125
   61
  -80
  -95
  124
  -85
  -16
   84
   81
   92
   87
  -24
  -91
   65
 -119
   45
  109
   26
  -85
   56
  122
  -89
   75
 -100
  -65
  -74
   67
  -52
   70
 -107
 -120
   82
  102
  -24
   -4
  -99
   92
   44
  -85
   54
  103
  100
 -123
  -23
  -24
  -64
   29
 -113
   12
  -52
  -15
   45
  -54
   48
   14
 -119
   87
  -12
  116
   62
  -32
   64
   12
   60
  -40
  -39
  -74
  -80
   67
   48
  -98
   81
 -113
   97
  -97
  119
   55
  -75
   77
   89
  -69
   81
  -36
  -71
   10
   -7
  -32
  -83
   29
  120
  -71
  -69
   95
  -85
  -95
   10
   -4
   58
  -61
   83
   78
   -7
   56
   32
   95
   91
   -9
  127
   37
   69
  -75
   69
   12
   78
   59
  -96
  -61
 -104
 -113
   85
   37
   80
   19
   26
   47
   58
   75
  100
  -41
   15
  104
 -103
  -32
  -91
  -22
  -41
   71
  -37
   71
  -69
   99
  -10
  -54
  -34
  -64
  -42
  -56
  -90
  -49
  101
  -49
   95
  -81
    2
  -10
  -16
 -101
  -12
 -116
  -79
    9
   34
  -95
   46
  122
   86
   -7
  -32
  -92
  -74
   88
   16
  104
 -103
  -80
  -27
  -59
    3
   71
  -16
  -57
 -108
   60
 -113
 -107
  -72
   35
  107
   13
   89
  -78
   37
  -23
  -17
   65
   50
  -60
  119
    7
   29
   57
  -82
   64
    6
   61
  -38
  -58
   55
  -72
  -78
   54
  -54
 -100
   99
 -113
  -86
   71
   38
  -47
  -49
   63
  -42
  125
 -115
  -55
   35
  -30
  -15
   41
  -37
   34
  -57
   20
   34
   27
   55
 -110
  -49
  -13
 -119
  -17
   51
  -48
  -64
  -75
  106
  105
   55
    4
  -57
   65
  -58
 -116
  -77
  -57
 -116
  -96
   25
  -58
   56
   25
 -113
  112
 -117
  -64
   85
  111
  -68
   48
  -54
 -107
   11
   44
   18
   50
   76
   71
 -124
  101
   24
  104
   -3
  -57
   30
   81
  -66
  -23
   95
  -72
  -75
  -80
  -27
   29
 -117
   66
 -111
  -38
 -106
 -127
  -16
  116
  100
  -94
   85
   98
  -43
  -64
  101
  -84
   16
  104
  -34
    2
   91
   -6
  -15
   65
  -67
 -107
   13
 -120
   90
  -61
 -106
    6
   53
 -109
   59
  -50
  -41
   99
   16
  -32
  -91
   57
   75
   98
  125
   10
   21
   88
  118
  -60
 -120
 -121
   61
  -29
   13
   88
   53
  -60
  -69
  -67
  -86
  -12
   23
  -25
   65
   47
  -43
   86
   17
  -64
 -112
  100
   21
   10
  -50
    9
   79
  -96
  -91
  -85
  -41
  -73
   33
   48
  -28
 -106
   52
  -43
  110
 -111
   91
   43
  111
   67
   81
  -88
  -80
   55
  -57
   84
  -99
   90
  -34
   81
   54
  122
  -90
  103
   83
  -64
  103
   50
  -68
  -54
  -88
    4
   65
    7
   32
   26
   95
    4
   65
   74
  -18
   89
 -116
   17
  -49
 -127
  -82
   17
   69
  -42
   52
   73
 -111
   -5
   49
  -66
  -43
  103
   70
  -71
   58
  127
  -82
  -49
  117
   -1
 -100
   57
    1
  -94
   47
   -2
 -115
  -57
   81
   85
   36
  -27
  -78
  119
  -54
  -43
  -49
  117
  111
   85
   -1
  105
   70
  -25
  122
 -122
   -1
  -54
  -16
   93
  101
   22
  -20
  115
  -18
   44
 -101
 -104
   84
   96
  -99
   -6
  -32
   10
   64
  -97
   80
 -114
   50
   18
  119
  -97
   35
 -115
  -74
  -62
  110
  -26
    7
 -102
 -111
  120
   13
   25
  -87
   97
   54
  -47
  -24
   33
  -86
   47
  -37
  123
   99
  -87
   38
   97
   73
   41
   77
  108
   95
  126
  -11
   35
    3
   88
 -125
  124
  122
  125
   67
   56
  -48
 -116
   56
  -95
  -63
 -100
    7
   91
   98
 -124
   27
 -101
   72
   75
  106
   67
   18
  109
   47
  -14
  -97
 -120
  -57
   71
  114
   65
 -108
   29
  121
   -2
  -52
   13
   78
   60
  -88
   88
  -26
  124
   92
  121
   -3
 -111
  -44
   29
  -10
  -60
 -120
   14
  -88
   82
  -79
  -47
   -5
   -7
  101
 -118
   49
    4
   57
   45
  -36
  -83
   10
 -119
  -59
   16
  -71
  116
  -42
  -63
 -105
  -99
   99
 -119
  127
   40
    3
  -70
  -47
   24
   70
  -17
   46
   93
   -9
   55
  120
   84
   11
   74
  -35
   38
  -75
  -20
   38
   52
  -19
  -76
  102
    0
  -22
 -100
  101
  -95
   91
  -84
  -80
   16
  -69
   28
   40
   35
   29
   84
    8
 -111
  -99
  101
  106
  121
 -107
  -57
  -17
 -107
  -17
  117
   47
   15
   25
   74
 -118
  -84
  -83
  -26
 -103
  100
  124
 -125
   -1
  113
  -10
  122
  -49
   93
   59
  -72
 -100
   90
   85
  122
  -62
  -81
  -41
  101
  -44
   79
   31
   -3
  -44
   51
  -35
 -123
  121
  109
  -41
  102
  119
   71
   35
  -30
   57
  -11
  103
  -32
   43
  -20
  -61
   34
  -72
  -68
   16
   76
  105
  -68
 -119
  -47
   -5
   46
   83
  100
  -49
  109
   -5
   -3
  -35
  -77
   11
  -54
  123
   61
  -25
 -122
  -66
   27
 -109
   81
   84
  -72
   49
   79
  123
  -52
 -108
  116
   93
   51
  -15
   15
   -4
  -70
   26
  -67
  -44
   69
    7
   63
   94
  -83
   76
   24
   55
  -90
  119
  -62
  -92
   -1
 -120
 -105
  -55
   32
   47
   34
  -43
  -59
  -96
  103
   45
 -121
   64
  112
 -116
  124
  -60
   22
   55
  -79
  -50
 -114
  105
   91
  -82
    7
  -12
  -98
   -5
   70
   20
   77
   13
  -25
 -107
  107
  -26
   98
   50
   99
    7
 -117
  120
  -69
   83
   29
 -110
  126
  -35
   52
   33
   59
  -37
  -23
  -13
  -53
   20
    5
   11
  -76
  -75
  104
   83
  -95
   43
  120
   34
   51
   31
  -77
  -15
 -124
  -74
   84
  110
   86
  -54
   33
  -65
  111
   14
   44
   14
   81
  -13
   37
   55
    6
  -96
  -18
  -78
   15
   74
  -20
   46
   38
  -51
   23
  -92
  123
   64
   -4
   86
  -56
  -57
  -92
  -24
  108
   -8
  121
  -72
  110
   93
   40
  106
   19
  125
   79
   43
 -119
 -124
   -8
   10
   65
  126
   -5
  118
  -10
  -94
   66
    3
   77
   27
 -114
   84
  -13
 -115
  122
   46
    2
   62
  119
  -67
   78
  101
  -71
  -71
  -21
   11
  -15
   40
  -42
   35
   50
   10
  -86
  -22
   95
  -26
  -46
 -116
    3
   93
   30
    4
    0
  111
  119
   33
   84
  107
  -97
    9
  -20
 -109
 -126
 -127
   53
   50
   61
  -47
  -75
   24
 -101
   59
  -72
  -72
   86
   83
  -88
  -84
  -36
 -106
 -110
   58
   17
   32
  -56
  -66
  -47
  -97
 -109
   48
   92
   70
   90
   84
  109
  114
   81
   17
   14
  -17
 -100
   84
   89
  -54
   15
  -79
 -116
  -28
  -34
   14
  113
    9
   93
  -33
 -108
   22
  -14
  -23
   29
  123
  -63
 -101
  -86
   47
  -51
  125
  -45
 -106
   48
    5
   -9
   12
   52
  -59
  -16
  -82
  103
   63
 -127
  103
  112
    9
   21
  -57
 -102
 -100
  -55
  -62
  -68
  -21
   31
   63
   45
  -19
   44
   49
  -60
   10
   79
 -116
   55
   70
  -26
   55
  113
  101
 -101
   23
  114
  125
   -2
   88
  -15
  -98
 -127
   80
  -56
  102
   -3
   21
   48
   -8
  -89
   93
  -73
   -1
   73
  -86
   14
  -19
    6
  -14
   21
  -29
  -72
    1
   15
   16
  -43
  -66
  108
   28
   12
  -75
  -43
  127
  -16
  -71
  104
  -22
   59
  -47
 -118
   59
   30
   -4
  104
 -115
  124
    9
    2
   45
 -121
  111
  120
 -107
   51
    8
   23
 -121
   60
   27
  101
 -108
  -38
   62
  -25
  -16
   92
    6
  120
  -53
   10
 -122
  -28
   38
 -107
   76
   -3
   22
 -126
   97
  -74
   28
  -70
   44
  -76
   72
  -66
  -74
   30
 -124
  -10
  -70
  121
 -102
   -7
    3
   17
   28
   27
   66
   93
   74
  -87
  114
   62
  -41
  -43
  -11
  -31
  -31
   78
  -18
  -16
  -82
 -117
 -127
 -111
 -124
    7
   17
 -103
  -18
   10
  -79
 -108
  -30
   20
 -122
  -57
  -97
  -75
  -45
  -47
   93
   42
   28
  -30
  -26
  -87
  116
  -27
  114
  -93
  -12
  -58
   95
  -42
   71
   95
   98
  -53
   23
    6
  -50
  -26
   46
   97
  -53
  106
 -108
  -58
  107
  -40
   56
   -8
 -106
  110
  -36
  -17
   -3
  109
  -27
   23
    0
   -9
   65
   92
  102
  -88
   88
  -28
   71
  -33
   64
  120
   42
   20
  -53
   18
  -61
  -68
  110
 -116
  -52
   62
   43
 -124
  -29
   51
  -65
   76
  -40
   29
  -20
 -114
  125
  119
  -81
  -56
  -30
  -87
  104
   62
   12
   57
   29
  -77
   61
    5
   87
   34
  124
  -62
   24
 -124
  -11
  -34
  120
   71
  -94
   43
  114
   87
    2
   -5
  -79
  116
  -47
  -36
 -126
   14
   70
 -110
  -93
  -37
  106
   88
   71
  108
  -10
  -91
  -82
  -14
  -64
    0
 -105
   -5
   90
 -113
   86
   53
   80
   88
   64
   77
   59
   93
  121
  -42
  -18
  -98
   59
  124
  115
 -108
   50
 -123
 -124
  127
 -104
   -6
  -76
 -102
  -50
  -83
  -85
  -96
  -33
  -66
 -115
   89
   28
  -34
   12
  -58
  100
  -16
   82
 -106
  -22
  -62
 -119
   24
 -105
   65
 -126
   50
   22
   30
    3
 -105
   14
  -29
   14
  117
   -9
    3
 -106
  -19
   21
  -71
    8
  -67
   -4
   -9
  -90
   53
  125
  -52
  -51
 -123
   62
  -93
   83
  -52
  -86
   53
   54
   88
  -77
  -90
  -30
 -122
  -57
  -38
   25
  -23
   36
   16
 -101
   81
   73
   63
  -85
   79
    7
   90
   -5
   46
  -62
   82
  -82
   41
 -102
  -91
  -82
   -7
 -124
 -114
   42
   62
   67
  -44
 -115
  -50
  -12
   -4
   81
  -90
   78
   23
  -31
   27
  -23
   -7
   97
   28
  -12
  104
  -94
  -21
  -83
   22
    3
   90
   53
   30
  -53
   23
   -9
  -63
 -127
   -7
   48
    2
   96
  126
  -77
  -20
  118
  121
   30
   58
  -62
   37
 -119
  101
  125
  -64
   14
 -119
   21
 -122
   36
  -68
   15
  -56
  -60
  -43
   -2
   10
   92
   56
  -20
   66
   36
  -20
   70
  -17
  120
   75
  -19
   12
  -60
  106
   43
  -56
  114
   82
   35
    2
   98
   35
  -58
  -50
   31
   40
  -71
  -44
 -127
   91
   24
   42
  -72
   27
    0
  -55
  -41
   28
   85
    2
 -100
    5
   72
  -78
  -70
  -88
  -95
   75
  118
   37
  -72
  -52
  -22
  117
    7
 -126
 -102
  -17
  -74
  -10
   59
  -28
  -51
  121
  -87
   22
   10
   52
   35
  108
  114
   45
   21
  -48
   39
  -36
  102
 -126
  -70
  -84
   29
   44
   56
  106
  126
   35
   39
  -60
  112
   24
   90
  -83
 -123
  -44
  -52
   29
 -102
  -46
   69
   63
  125
   21
  -89
  -89
   70
  -38
    9
   11
   99
   88
   52
  -57
  108
    8
  127
   47
  121
  -65
  -76
  125
    6
  110
   19
  -88
   33
  -20
  -60
   31
 -111
   -2
 -101
 -114
  -44
  -43
  -13
  -51
   63
   38
   27
  -97
  -34
   94
  -44
   89
  -22
   39
  108
  -85
  -72
 -109
  -57
  -80
  -34
  -52
  -73
  -11
   14
  -50
  -18
  115
   13
 -105
  125
    4
   58
  -70
  -13
   20
   38
   92
  -92
   48
   86
  -63
   87
  115
  -48
 -112
   96
   24
   64
 -111
  -27
   69
  -96
  -55
  125
  113
  -83
   60
  -11
  102
  -69
   20
   -3
   88
  125
   15
    8
  -22
   83
 -123
   97
  -46
    2
  -73
  -70
   56
   55
  -77
  -48
  -45
 -119
   46
   90
  -20
  -39
   27
  -10
  -97
  -74
   31
   26
  -90
  -78
   68
   65
   96
   64
 -121
  -74
   82
   64
  -51
 -100
   67
  -12
  100
   50
 -127
   99
  -50
  -29
  -45
   48
  -12
  -85
  122
   66
   -1
   99
  -90
  -33
   38
  -94
  -34
   59
  -23
 -125
  -28
  -92
 -108
   40
 -126
   50
   73
  -82
   37
   83
  118
   87
  -76
  -54
  -15
   33
  103
   17
  -80
  -89
   -3
  -57
  -22
   95
   74
  -10
 -119
   33
  -91
  102
   17
  118
   83
   68
 -120
  -34
   67
  -79
  125
   20
    1
  109
  -36
  -13
  -72
   56
  -55
  103
  -35
 -100
   -7
   19
    1
  -35
  114
  -39
   40
  -90
  -87
   38
   32
  -98
 -105
  -26
  -60
  107
  -39
   30
   35
  -40
  -29
   27
   30
   83
   25
   68
  -84
 -109
   -4
   73
   30
  -65
   84
  -23
   64
 -101
  105
  123
   14
  -91
  -72
 -127
  -80
  -71
 -115
   46
  -75
 -107
   75
  -47
  -65
   16
  -89
   17
  -35
  -74
 -118
  -10
  -94
 -123
   75
  -46
  100
  109
   70
   91
  -37
   83
  -81
   79
   61
   26
   20
  -92
  -85
   29
  124
   59
 -122
 -112
  -62
  -50
   18
   10
    5
 -112
   65
   85
   83
   28
   32
 -100
  -29
  -34
  -54
   88
 -125
   -7
 -109
  -88
   55
   79
   93
   75
   30
  -47
   -3
   18
  -53
   -4
 -127
  120
  -90
  118
  -28
  -81
   70
  -28
   95
  -58
   40
    9
  125
  115
   48
  -52
   33
 -107
   59
   59
  127
   60
 -122
   21
    9
   -3
 -124
   66
  -73
  -95
   77
   15
   -3
 -115
  -78
  -98
   58
  -84
  -71
  -37
 -105
  -95
   40
 -113
   31
  -98
 -123
  -82
   84
  -60
  106
  -93
  -39
  -98
   50
  -13
  -74
 -107
   59
  -46
  -44
   43
   56
   87
  -78
  -48
  -66
   10
  -34
  -89
  -96
   90
   95
   19
  -34
 -124
   74
  -80
   18
   37
  -40
  -43
 -111
   25
   -9
    9
   99
  -55
   62
    1
   75
    7
  -60
   34
    8
  -11
   67
 -114
 -107
  -98
  -38
   38
   45
  122
  -84
   43
   38
   38
    0
   57
 -118
   35
 -100
   71
  108
   97
  121
  -41
  -17
  101
   27
   26
    7
    0
   27
   52
  119
  -54
  -22
 -105
 -105
   95
    0
   52
  -69
   27
   44
  -21
 -114
  -34
   82
   75
  118
   67
   13
   16
  -45
   60
 -121
   26
 -109
   31
   -2
  -30
   68
   15
   60
  -67
  -13
   45
    0
  -27
   11
  -28
  -43
   48
   16
    0
   60
   60
   19
   -6
   63
   32
  -67
   -8
  -45
  -10
   87
   11
   51
  -85
   46
 -112
  -93
  106
  101
  -16
  -85
   -9
   62
 -115
  -65
  -82
  -34
   64
   77
  -99
  -98
  -70
   90
   47
   67
  -26
  -11
   89
  -39
 -116
   -1
 -103
    0
   -3
  -86
   74
   37
  -20
   14
  101
   57
  -36
   -9
   93
   84
  -60
   26
  -53
    0
  -52
  -91
  -91
  119
    4
   56
   -8
   60
   15
   36
 -108
   64
   23
 -114
  -94
  -47
    2
   20
   87
  -60
   19
   48
   45
  120
  -88
  -37
   21
  -42
  -30
 -119
  -89
   72
  123
   75
  118
   70
 -112
   18
 -110
    3
  123
   97
  -42
  115
  -67
  -99
 -123
   99
   47
   30
   11
  -47
  -53
 -108
   76
  101
   86
 -126
   54
   60
  -77
 -101
   57
   -2
   16
   12
 -116
   85
   33
  -38
  104
  -37
   49
  -20
  -22
   74
   48
  -84
  -71
  -86
 -104
   44
  -22
  123
 -111
  126
  -13
  -60
  -33
   51
  -33
   83
   50
  -89
  -76
 -115
  -10
   95
  -37
  -78
  -50
  -20
 -112
   63
   52
  -34
  103
  100
 -126
  -30
 -119
   49
  125
   68
   90
  -68
 -115
  -85
  -53
  110
   88
  -69
  -98
   48
    0
  -81
  -42
  116
   28
  108
  121
   -8
 -108
  127
   93
  120
   76
   74
  -91
   22
 -103
  110
  -98
   68
  -59
  -39
    6
  -14
  -18
 -112
   48
    9
 -122
  -10
  -68
   -7
 -120
  -68
   48
   41
  -35
  -44
   46
  -30
   21
   60
   72
  111
   60
  114
   43
  -97
   33
   56
   23
  -26
   36
   68
   -7
 -126
   13
   62
   99
  -78
    9
 -127
   39
  -50
 -107
   26
   50
 -122
   83
    3
 -107
   75
   54
 -104
 -103
  -80
 -117
   38
  -55
   97
 -101
  -62
  103
  -52
  -96
  103
   71
  -38
   68
  -27
   83
   74
   40
   45
   19
  116
    3
   33
  122
  -10
    5
   -9
  -48
   56
  -80
 -101
  -98
  -26
   26
   14
   70
   65
   58
   42
   54
  -69
   42
  -95
   16
   42
   37
    7
  -33
  -69
  -67
    1
  -30
   22
 -112
 -125
  -82
   56
  114
  -18
  -37
   94
   83
  -52
   32
   35
   61
  115
  -10
  -12
   25
  -47
   66
   84
   63
  -45
 -105
   63
   -7
   91
  -61
  103
  -85
  -90
   25
  -94
  -38
  -30
   18
  -62
  -43
  -16
  -43
  -39
   50
  123
 -116
  -72
  -60
  101
 -114
  107
   18
  -45
  -84
   53
  -65
  -27
  -29
  -14
   -8
   89
   60
   75
 -102
  -99
  -38
    6
 -111
 -115
   52
  -80
  -44
   -5
   99
  106
   55
  -96
  -99
  -33
  123
  -88
    6
    0
   94
  -91
   86
  -63
   93
  100
   62
   97
   38
  -37
 -116
   98
   16
  -62
  -76
   14
  -36
  -18
   18
   55
   10
 -102
   15
  102
  -77
   89
  -18
   65
  106
   13
  -27
  -49
  -12
   92
  104
  -34
   96
  -14
  118
   25
  -72
   23
  -77
  -23
  -86
   70
  -61
  -83
  115
   52
   43
 -126
   63
   82
  -75
  -94
  -25
   66
    6
 -106
   92
  -89
    0
   29
  -84
  -75
  -17
   -1
 -105
  -91
  -24
 -121
 -119
  -74
   37
  108
  -78
  -56
  101
  -22
   15
   46
   89
 -127
   80
 -115
   20
   74
   35
   22
   70
   40
 -106
  -18
  -96
  -70
   83
   -1
   69
  110
   85
   96
 -100
  -72
 -117
   83
   12
  124
  -62
   86
  -46
   98
   89
  -26
 -106
  -88
 -101
  -85
   36
  119
   48
  -95
  -59
    0
  -37
 -125
 -122
 -113
   40
  -27
   73
  113
   66
   56
  -17
  -74
  -18
  -11
   19
   27
 -110
  117
  -81
   76
   10
   39
  -49
 -118
  -93
    0
  -40
  -42
  -61
   92
  -77
   90
   17
   -5
  -11
  -94
  -71
   -1
   35
  -73
  -19
   -3
   86
 -102
  -62
   -2
 -122
 -113
  -50
   96
  -52
  -80
   73
  123
   41
    6
 -118
  -79
    1
  -79
   68
  -43
    9
    4
  -28
   54
  -12
  -20
  117
  -19
 -119
   99
   21
  -84
  100
  -74
   41
   91
  -80
  -31
  112
  -51
 -118
    9
   87
 -103
   52
  108
  122
   55
   99
   47
   77
  117
   93
  115
    3
  111
  -76
  -67
 -114
  -22
   -9
 -121
   95
   84
   55
   81
   -4
   55
  -74
   44
   35
  103
   36
 -105
  -34
  -24
 -117
  116
   43
   24
    0
   81
   87
  -99
   48
 -102
   88
   11
   43
   94
   64
   13
  -84
  124
  122
  -88
  -24
  -72
  -63
   33
  -64
   65
    3
   -5
   51
  -94
  -17
  126
  -62
  -98
   45
   86
  -56
  -99
   69
  120
   72
  -86
    3
   58
  -87
  -73
   40
  -60
   10
    2
   99
  -66
  -83
   22
   76
  -19
   65
   44
  -96
    6
   94
   49
   77
   -2
   -9
   65
   21
   42
  -92
  -30
  111
  100
    5
  115
  -41
  -41
  -56
  110
  -12
 -119
 -107
   40
  -48
  -83
  -42
  117
  -41
   57
  -26
   62
  125
  -85
   21
  -79
  122
   68
   -1
   14
  -80
   -9
   17
   73
   83
 -107
  -48
   84
  -96
  115
  -62
  -34
   43
  -82
   92
  -93
  -17
  -90
  -60
  -39
   53
  -79
  -57
   -9
   71
  -58
  -72
   35
   62
   95
 -110
  -65
  103
  -10
  -90
 -108
  119
  114
   83
   -5
 -106
 -109
   91
 -127
   81
   10
  127
  -71
   56
 -102
  -70
  109
  -64
   72
 -106
 -119
   89
   93
   79
   67
   41
 -109
  -64
   53
   29
   42
  -27
  -66
   68
 -109
   88
 -109
  -99
   22
  -88
  -67
  -45
   15
 -127
  -68
  -21
  -15
   83
  -94
   81
  100
   17
  -95
  -34
   72
  -93
  -38
  -62
  110
 -115
   -6
    7
   56
  -60
  -14
 -105
 -106
   84
   37
  -60
   81
   84
   80
   -8
 -101
  -54
   96
  118
  -69
 -123
  -55
 -121
   75
  -31
  118
  -55
  126
  110
   96
   44
   80
   24
   92
   85
   68
  -22
   12
   -9
 -112
   60
  100
  113
   67
  -44
  -28
   90
  105
 -112
  112
 -127
  -40
  -10
 -104
  -55
   60
  113
  -86
  100
  -76
   39
   90
  -25
   66
  111
   36
  -98
  105
   40
  -49
  -80
  113
  -63
   45
   -8
  -31
  -41
  127
    8
   26
  116
  -15
  -68
   74
   43
   53
  -95
 -108
  -59
   46
 -118
  -44
  -84
  -39
  -37
  -97
    6
  118
   83
   72
   25
  -37
 -108
  119
  -43
 -124
   35
  -25
   86
  -40
  -49
   61
 -122
  -11
    6
  123
  -84
  106
  -77
  115
  -36
   38
   84
  113
   19
 -121
  -91
   37
 -125
   43
    8
  -76
   99
  -28
   -9
  -88
   -3
  -15
   34
   86
  -76
 -112
  -10
   70
  -19
  -78
  -13
  -76
  -41
 -117
 -111
 -110
  -45
   92
  -57
   -5
  124
 -110
   70
   58
  -48
   99
   96
   76
   55
   51
  -32
   30
 -122
  -93
  -15
   56
  -81
   89
   62
  -15
   82
  -14
  -53
  -71
   78
  -27
   38
  -48
  -35
   16
  -81
  -58
  -10
  -93
  -10
 -100
   79
   40
   -4
  125
  117
   28
  125
   73
   72
   66
   31
   60
   53
  -31
   62
  -83
   59
   25
   49
 -126
  -87
  -77
 -107
    0
  -73
   60
    7
   17
  -86
  115
   39
  -83
   91
   85
   78
  -74
  -48
  -46
   42
  -69
  125
  -25
  117
  -63
    5
  -24
   22
 -103
   29
   48
    8
   -5
  118
 -127
  121
  -32
   79
   69
  -36
  -14
   70
   62
 -101
   78
  -26
  -48
   51
   57
  119
   77
   10
   45
   88
    9
 -109
  -11
    8
  -31
  118
   -1
   72
   41
   45
   92
  -29
   59
    2
  -44
  -15
  -88
  102
   20
  121
  103
   61
  -67
  -52
  106
   62
 -121
    6
  -63
  -68
   53
   39
  -16
   99
   43
   82
   58
   16
  -36
  -11
  -68
  -47
 -119
  -29
   -8
  -79
   -5
 -123
   71
 -102
   78
    2
  114
 -103
 -109
   61
   50
   -6
  -28
  126
  -71
  -86
  -52
  -18
  108
  -78
 -115
   80
  -19
 -126
  102
  -74
 -113
  -35
   48
   88
   12
   79
   25
  -39
   96
  -75
   85
  -88
   89
 -103
  -83
   90
  113
   23
  101
  -56
   19
   28
    1
  109
   93
  -68
  -52
   17
  122
  -19
   91
  -55
  122
  123
  -86
   75
  109
 -127
 -127
  -30
    2
  -37
 -104
  -84
   73
   88
   66
   61
   81
    8
   27
   33
   29
 -105
  -16
    6
 -112
   87
  -47
  -75
  114
  -36
  -58
   28
   71
  -65
 -114
  -10
   14
   20
   47
   67
   70
  -27
  -51
   99
   46
 -116
 -112
  -23
  -12
 -118
 -122
   74
 -120
    0
   39
  115
   46
  122
   67
  -49
 -105
   50
   62
  122
   96
   46
  -36
  -24
  -13
  -20
  -70
  114
  -21
   66
 -105
  119
  -25
   61
   61
  -26
  -22
  -87
  127
  -40
  -66
  112
  -51
   54
   94
   71
  113
  -23
   64
   71
  -42
   60
 -103
   73
  -10
  -19
   97
  -70
  -82
   12
  -67
   96
   53
 -103
  -22
  118
  -91
  -89
  116
 -107
    9
  -85
  -67
  -47
   41
   18
  -21
  -18
 -119
  -14
   79
   17
   42
   19
  120
   -3
  -63
 -121
 -107
   68
   80
   -1
   54
   83
  -76
  107
  -19
   -7
  -50
  -88
   -6
  -52
  -58
  -13
  -83
  -54
  114
  -48
  -78
   25
 -110
   89
 -100
  120
  116
  -14
  -37
   40
   59
   60
  -52
  -43
  -51
   99
    1
   19
   16
  110
 -114
   19
  -28
   88
  -17
   46
   45
  -36
  -53
 -103
  -60
   12
   89
  -64
  -10
  -34
  100
 -120
   61
  -21
   78
   -4
    0
    3
  114
   52
  -31
   85
  -34
   43
  -31
  -80
   82
  103
   70
  -48
 -123
   76
   79
   31
   -1
   -2
  -73
  -17
  119
  -52
  116
  -36
 -119
   82
  -34
   22
 -124
  -56
  -81
    9
  -76
    0
  -97
    7
   62
   93
   26
  -99
  -89
  -28
   -5
   47
   49
   -4
   21
   36
  -75
  -61
  -10
   77
   64
  105
  -73
 -122
  -52
   42
 -105
   38
   99
  -57
   -1
  -43
   43
  -24
  -89
   97
  -83
   26
  -29
   99
   42
   -1
   25
 -111
  -63
  -45
   74
   27
  -79
  -12
  -20
  -97
  -80
   98
 -123
   81
  106
 -127
   51
  -82
   88
  -49
   68
 -104
  -44
   16
  126
   74
  -98
  -95
  -51
  -74
  -49
   37
  -89
  -97
   82
   92
 -105
   75
  -92
  -57
  -36
  -17
   74
 -100
  -45
   79
   -2
   10
   82
  -14
 -122
    4
  -17
    1
  -57
  -22
  112
  -46
   39
   64
   14
  -55
  -45
  100
  -54
   20
   27
 -123
  107
   56
 -127
   29
  -23
  -82
 -116
  -19
    8
   70
  -22
  -48
  -82
 -106
  -91
  -80
   16
   58
   86
  -35
  -56
  -62
   41
  -34
  -76
   88
  -56
   -9
   46
  -90
  -51
    1
 -125
   51
 -122
  103
   77
 -111
 -122
   15
   55
  -95
  -97
   53
  -20
 -104
  114
  -46
   17
  -57
   94
   87
   99
  -56
  -68
   80
   77
  122
  106
   67
  -39
   20
   21
   20
   94
   27
  -41
  122
  -78
  -81
  -69
  -17
   25
  -45
    9
  -79
 -112
  -26
  -84
  -42
   45
   85
  -89
  112
  -71
  113
  -44
 -117
  -19
 -124
   64
 -110
  -39
 -121
  -59
  -50
  108
  -26
  -86
   49
   80
   13
  100
  -35
   47
  -37
   49
  -69
  111
   45
  118
   67
  -43
   40
  -60
  123
   10
  -15
  -39
   49
  115
   66
   81
   -8
   74
   -5
 -100
 -113
 -100
  112
  -93
   71
   40
  -85
   24
  122
  -56
   21
  -51
   72
   31
   27
  -36
   72
  100
 -123
   28
  113
  123
   22
  -34
   56
   87
   80
   47
  126
   75
   45
   90
  121
  -40
   56
  109
   79
    3
  -75
  115
 -110
  -26
   -2
  118
  -27
   26
  -45
    0
   60
 -104
  -29
   34
   31
  124
  -97
  114
    9
  -30
   33
  -14
   10
  -83
   66
  -59
  104
 -114
   67
  -26
   81
   -2
   -8
    7
   59
   86
 -125
  -24
   27
   71
 -104
  -65
  -59
  -42
 -109
    8
  -18
   84
  -65
  -32
  -48
   -5
  -42
 -118
 -123
  -50
  -76
    0
  -42
   56
 -120
  126
  -62
  117
   16
   66
  124
   61
   58
 -104
  105
  108
   30
   69
  -41
   18
  -40
 -106
   -4
   72
  113
   74
  -90
  -40
 -126
   23
   77
   51
  -28
   51
  -31
  -71
  -30
  126
 -108
   -3
  -83
   53
 -125
   10
   60
   90
 -118
  -41
  -92
   76
 -106
   67
   39
    2
  -15
   21
 -115
  109
   -3
   19
   49
  -57
  -38
   20
  101
   78
   91
  -47
  -46
  -47
  109
   24
   74
    1
   32
   64
   74
   -1
  -89
   50
  114
   12
  105
   14
  -21
   28
  110
  104
   27
   -1
  -45
   75
   32
  114
  -13
   90
   29
  -11
  -45
  -57
  107
  -82
   -9
 -103
  -46
  -68
   32
   -6
   54
   79
   33
   13
   21
 -109
  -75
   44
  -66
    4
    6
   58
  103
  -33
   -1
   14
  -44
   95
  -67
  -79
  -25
  -52
  -34
  -83
  108
   -8
  119
   18
    9
 -107
   34
  101
  109
  106
  -39
   90
  -48
 -122
   54
  -35
  -53
   90
    8
   27
 -126
  113
   62
   -9
  113
    3
  -12
 -106
   -7
   83
   41
 -107
  -74
    3
  -69
   86
   53
   41
   49
  -30
   -5
   45
 -115
  -55
  -56
  114
  -77
    7
   90
  -77
   40
 -101
  -12
 -108
   34
   77
  -65
   48
   18
 -123
  -49
  -74
  -98
  107
   95
  -94
  -11
   12
  -40
   76
  116
  106
   77
    6
   36
   89
   18
  -28
  -54
 -113
   13
   38
 -118
  -77
  -37
  -15
  -34
  -77
  -65
   38
   -1
  117
  -30
  114
  -18
  -67
   57
  -98
  -98
   41
  -11
   89
  -46
   -7
 -110
    6
   22
  100
   36
   78
   39
   16
   23
    5
   74
 -105
   18
  -10
  -85
   52
  119
  -94
    0
   67
   -3
  112
  -13
   13
   31
  105
  108
   57
  116
  -41
   85
   33
  -62
   82
  106
  -83
   47
  120
   66
   52
  107
  -49
   66
  -83
  -65
  -28
  -19
   47
  -15
  -69
   11
  -11
  -89
   28
  -41
  -91
 -104
   69
  -95
 -103
 -114
  -15
  -13
  -43
   34
  -91
   33
  -77
   25
 -116
   95
   -1
  -79
   23
  123
   22
  -58
   25
  106
   12
 -127
   63
  105
  -11
  -83
  107
  118
   42
   -9
    0
   72
   75
  -71
   47
  -38
 -123
 -121
  127
  -66
  -28
   13
  -74
  -31
   60
  -97
   37
   53
 -110
   51
  -51
  -32
   -4
   95
  -55
  107
 -101
   81
  -83
  -84
 -104
  -25
  -62
  109
  124
   47
   90
 -109
  -28
   67
   55
   -9
   50
  -34
   23
  -87
   87
  -21
  -15
   74
   -1
  -46
   39
  -54
   21
   10
   91
   81
  -50
    0
   84
  -10
   98
  -45
   87
  -61
   77
  -13
  -62
   52
  -58
   -6
   34
 -104
  -23
   27
  114
  -27
   97
  -46
  -15
   85
   30
  -14
   86
   21
 -121
   18
  -22
  -95
  -83
   48
  104
  125
  110
   95
  -42
  -47
   61
 -121
  -11
  -70
  -16
  -97
   79
   21
  -82
  -29
    2
   25
 -121
  -45
   62
   96
   77
   -3
  114
   93
  -45
 -111
   19
  -89
 -107
   59
  120
   35
  -10
   19
  -68
  -84
  -61
    0
    5
 -124
   99
  -98
 -100
  -82
  -49
  111
  -74
 -104
  108
 -107
 -124
   26
  -31
 -106
 -119
  -51
   78
   71
   42
   94
  111
  -77
  126
   36
 -117
  -61
   -9
   75
  -39
   75
   71
  -80
   35
 -119
   28
   50
  -87
  102
   19
 -127
   27
   -5
   92
 -104
   94
  -48
    0
  106
   99
   65
  -29
  -51
  -37
  109
   54
    1
 -126
  -53
  107
   52
  -28
 -105
   -6
  123
   21
  110
  -85
   77
  -42
  -29
  -44
   85
   -2
    3
   36
    7
   98
   96
  -65
  -31
   27
   92
  -32
   -7
  -20
  122
 -101
   13
   50
   18
   94
 -119
 -104
   63
   78
   69
   11
  -17
  -51
  -55
 -108
   -5
   70
  -49
 -102
  120
   77
  -93
   21
  -47
   14
   78
  -14
  -58
  -82
 -108
  120
   30
    3
   93
  -66
  -61
   44
  -11
   85
   43
   11
  -31
   35
  126
   89
  -18
  -88
  125
   29
  -50
 -104
   11
 -107
  -77
  103
  -52
 -123
   64
   90
  106
  116
    7
 -109
  -41
  -69
   95
 -107
  -76
  -98
   48
 -101
  -75
  -47
  -42
  -56
  -28
   54
    8
  102
   -9
    3
   67
   -9
  -16
   95
   56
  112
  -84
   72
   20
 -114
 -122
   10
  -14
  124
   80
   74
   30
    3
   82
  -43
  117
   99
   13
   -9
  -56
   76
  -82
  -62
  -29
   95
  -54
    0
   97
   50
   80
   63
   73
  -55
  104
 -113
  -82
   86
   29
   33
   41
 -111
  112
  116
  -45
   61
   73
   30
   73
   51
  -86
   42
  -41
   62
    5
   47
  -29
  -63
  105
  104
  114
  103
   61
  -43
   80
  -22
  -16
  115
   49
  115
    9
   78
    2
 -126
  -78
  -93
  -94
  125
   94
  -40
   14
   29
  115
 -122
  -30
  -14
   89
    9
   72
   20
  -46
  -21
   88
   57
   -3
  -24
  -95
  109
   56
  121
   53
  115
  -72
  126
  -48
   -5
  -15
  -22
 -123
 -126
 -105
  -62
  -31
   49
   23
 -112
   73
   93
 -104
   39
   79
  -86
   84
  -42
   74
 -101
  -54
   26
  110
  -23
  111
   19
 -127
  -95
  -92
  -87
  -56
  -32
 -115
   -3
   79
   18
  -27
  103
   51
   45
   60
  -12
   51
 -124
  -23
  114
   29
    7
   80
  -21
  -66
  -59
  -24
  125
   74
  -26
  -27
   97
  -57
  -34
  110
   95
  -26
  120
   -9
 -108
   57
    0
  -62
   92
  -87
 -100
 -101
  -82
 -102
  -43
  121
  117
 -115
    0
  108
  -90
   65
   23
  -81
   70
   29
   -7
   26
   -6
   93
   -8
  -97
  -14
  -87
   54
   74
   80
 -100
   -7
  -10
  -57
   17
   40
   -5
   17
  -96
  -91
   93
   16
  -98
  118
 -118
   80
  123
   93
   11
   22
 -125
   55
  121
  -61
  -80
  -35
  -33
  -57
   -2
  -74
   14
  -30
  -74
  -40
   72
  -39
   96
  -92
   70
  -90
  118
   22
  -40
  -75
  -95
  112
   40
  -40
   49
  -61
   85
   80
   96
  -87
   12
   64
  -14
  -15
   31
  -50
  -19
   21
  124
    7
   94
  -32
  -35
   31
   32
  -51
   62
   -8
   97
  -95
   34
 -127
  -47
 -103
   31
  -40
  109
   28
  -77
  -50
  -49
  -28
  -69
  -10
  -40
   45
 -124
   42
  -68
    2
  -75
   13
  103
 -125
   71
    0
  -60
 -127
   52
  -27
    6
   57
  -93
  122
   89
   23
  -41
  115
  -47
   13
 -113
   72
  -82
   32
   67
  -32
   47
  -39
   18
 -119
   -7
  -83
  -61
    2
   94
  -86
   57
  -76
   80
   36
  -57
 -127
  -41
  -83
  -69
   92
  -71
  -97
  -74
 -104
   87
  -33
   95
  -71
   23
 -123
   94
   83
   55
  100
 -104
  125
 -104
   -3
   -8
  111
  -78
   64
   37
   10
    7
   42
  -99
  -38
   59
   49
   17
  -20
   61
  -80
  -50
  -63
   72
    1
   -5
  -38
   64
   96
  112
  -92
 -111
    1
 -121
  -15
 -108
  -63
  -88
   15
 -123
   31
  -16
   66
  -48
   63
    8
  -30
  -42
 -116
   84
   35
  -77
  -32
   74
 -119
 -103
  -32
   80
  101
  102
  -50
   59
  123
  -50
   44
  -47
  -77
   34
  120
   92
  -35
   14
  -16
   90
   19
  -64
  -70
    0
  -42
  -37
  -67
   62
  -75
    0
 -120
   -8
   -9
  -38
   42
  -21
   17
 -124
  -90
 -108
    1
   95
  -71
  -27
   32
   16
  -73
  122
 -127
  -80
   64
  -72
 -104
   84
   67
 -121
 -115
   38
   28
   12
  -19
  -28
  -73
   52
  100
   47
  -17
  107
  -47
  106
  -52
  113
   55
   95
    9
  107
  -67
   63
  101
   45
  -10
   67
 -105
    5
 -120
    5
  -27
   59
 -105
   43
    8
   30
  -85
  -85
    6
 -116
   54
  -13
 -111
   81
   85
   12
  -69
  119
    2
  -62
   76
   54
  118
   94
  -63
  -49
  -95
   11
   18
  -86
    9
   23
  -93
  -39
   39
    0
   14
   53
  -93
  -89
  -43
  120
  -23
   -5
  -44
  111
   79
 -111
   72
  -14
   98
   43
 -106
  -16
   19
  -21
  -36
   50
 -120
  -43
   92
  -92
  -10
  -71
   82
  124
  -95
  -60
   26
  -87
  -30
  116
  -25
 -102
  -17
   83
    0
  125
  -22
    9
  122
  -66
   56
  112
  -17
   -6
   57
  110
  -24
  -15
   82
   53
  -23
   83
  -66
   62
  105
    4
   74
  111
   57
   80
   84
  -87
  124
   28
  -45
  -99
 -117
  -99
  113
 -112
 -108
  -60
 -117
   75
    1
   77
 -113
  -27
  121
  -40
   48
   17
   11
 -113
   53
  -73
  -14
  -65
   18
  -81
  105
 -114
   29
  111
  123
   55
 -106
   21
  111
    7
   78
  -94
  -94
   48
 -107
   78
  -30
  116
   -1
  -75
  -80
   23
   71
   35
  -85
   82
   70
  100
  112
  -56
  115
   59
  123
  -57
   90
  124
  -75
 -113
  105
 -115
  -12
  110
    6
  -70
  110
   85
   20
   25
 -106
   96
  -24
   49
   71
  126
   -3
  -38
   87
  -53
  -84
   81
  -92
   36
   63
  -21
  -13
  -98
  111
  -82
  -85
   21
   73
 -127
  -94
   87
  100
   48
   86
   56
   88
  -42
   -2
    4
  112
   72
  -17
  105
  -33
   31
   94
  106
 -104
    2
  -82
  -28
   81
  -83
  122
  -85
   94
   90
   89
  -15
  -43
  -55
    4
  -47
   62
  -18
   93
   19
    4
   37
  119
   98
   -8
  -30
 -106
  -10
  -71
  120
  -80
   14
  -71
    8
  -67
  108
 -110
   47
   80
   12
  -83
   13
  -60
  -63
   45
   94
   77
   96
  -84
  -46
 -112
  -42
   88
  -18
  -26
   57
  -77
 -123
   78
 -110
  -34
  108
   86
 -115
 -106
  123
   44
   50
  -49
  -23
   -1
   -6
   50
   58
   98
   22
   85
  -30
   44
   69
   41
  -85
  -44
  -97
  -24
 -108
   26
   54
  -40
   -7
   85
  -63
   37
    8
 -113
   57
   47
  -34
  116
   49
   56
   91
  -62
   51
  -42
   34
 -102
   98
  -87
   33
  -56
 -107
  -53
   17
   95
  -28
 -118
 -100
 -114
  -43
  -53
   43
   26
  -50
   50
  -22
  -50
  110
    3
  117
  -94
  113
   57
  -67
  -58
   -3
  -35
   94
  -34
  101
 -121
   27
  -18
   57
   35
  125
  -14
  -97
   85
   44
   19
 -109
  -34
  -96
  -58
 -118
  -68
 -114
    6
   70
  127
  -44
  -82
 -104
   85
  -26
 -115
   -8
    2
  -77
 -102
  -29
  -82
  -32
   56
   -6
   38
   64
   -6
 -107
   21
   35
   10
  -78
   -7
    0
   32
  -34
   28
  -82
   15
  -33
  -48
  -29
   67
   28
  -72
   52
   60
   27
   31
 -110
  -61
 -103
   77
   20
   65
    1
   84
  -43
   14
   93
  104
  -83
  -52
  -24
  -53
 -100
  -59
 -108
  125
   17
  116
 -115
   16
   14
   86
  -98
   77
    0
 -105
   -4
 -114
  -30
   19
  -12
  120
  -48
  -33
  104
  -71
   29
   11
  109
  120
  106
   69
  -12
   98
  -90
    9
  -87
  113
  122
   75
  -80
 -113
 -106
  -39
   39
   97
  -77
  -46
  121
  -91
   11
   65
   11
  -94
  -36
  -94
  113
  -61
   29
   53
  101
    3
   88
    0
  112
   49
  125
  -30
   50
  -98
   44
   49
   85
  -29
   27
   27
  123
  119
  -28
    6
  102
  -79
  113
  -89
   20
  -33
   -9
  -87
  122
  -84
  -79
   47
  -20
 -122
   45
  113
   -4
  -34
    3
  114
  -82
  -77
  -70
   55
   72
  -77
  127
 -101
 -102
   57
  -38
  100
  -15
  -49
  109
  -23
   77
  104
   99
  -35
  -64
  -83
  -95
   -7
  -40
 -126
   34
 -106
   44
   87
  109
  -47
  103
   -3
  -50
  -71
   33
    9
   46
   44
   92
 -109
  -69
  -95
  -92
  115
  -85
  -45
  121
  124
   39
  -22
   24
  -15
  -19
   -1
   -9
   71
  -74
  -55
 -116
   93
  -23
  -85
 -118
 -105
  102
   35
  -20
    8
   69
  -79
   83
  -14
  -57
   18
   20
  112
 -105
   98
   35
  -46
   86
   12
   21
   11
   98
  116
 -122
  -76
 -114
  -64
 -117
  -12
   39
 -118
  -98
   15
  -98
 -118
  -26
   87
   82
 -104
   56
   96
  -19
   80
  101
   95
  124
 -127
  127
   27
  -10
  105
 -125
 -106
  -83
   82
  -35
   82
 -124
  -11
  -45
  -23
 -126
  -95
   11
  -56
  -62
  -67
    9
   36
   49
   73
   13
  -34
   42
 -126
  -34
  -87
   58
   79
  116
  109
    0
  -64
 -113
   71
   67
  104
  -56
   58
  -66
   97
  123
  109
  -59
  -86
    8
  125
  112
  118
 -107
   40
  103
  -24
   94
  -98
  -60
  -81
   23
  -16
  122
   87
  119
   25
  102
  -63
  110
   87
   -3
  113
   50
    2
   79
  -59
  -97
 -119
  -92
  -42
  111
   56
   -4
  -39
 -117
   35
   22
  -12
   21
  -62
  -69
 -114
   87
  -40
  100
  -39
  125
 -105
   33
   15
   68
  -96
   56
   18
 -117
   91
   61
  114
   28
    0
  -73
  -20
   82
  -26
   29
   89
   37
  -43
  -87
   76
    4
  -83
  -18
 -126
   54
   -9
   82
   84
   94
  -24
  -54
    8
   48
  -77
 -108
  -73
   45
  -21
   97
   64
  100
  -32
  127
  -87
 -104
   92
  -67
   96
  -84
  -92
  116
  -60
   57
   82
  117
  -70
   11
   68
  -13
 -125
 -121
    2
   30
  -79
   -7
 -109
   87
 -124
    3
   37
  -12
  -33
   57
  -85
  -14
  -70
   58
  -57
   42
  102
  -23
   12
  107
  -64
  -40
  -43
  -10
  -98
   33
  -67
   10
   53
   73
   43
 -120
   11
  -81
    7
   67
 -111
  -91
  -53
 -123
   30
    3
  -97
   46
  -99
  -47
   60
   15
   89
  107
  -11
  -89
   97
  125
   88
 -125
   71
  -84
  -25
  -45
   80
  -53
   15
   78
   24
   91
 -121
  -73
   38
  122
   20
   -9
  -43
   13
  -65
  103
  -57
   48
  -23
  -27
  -14
   99
  -14
  104
  -80
   44
  -89
 -101
   68
  -15
   16
   25
   62
   72
   44
  -83
  -98
   49
   60
  -75
    6
   -8
  -52
  -33
 -102
  -81
  -27
  -98
   64
  -76
 -104
  -37
  127
  -83
   12
   -4
  124
  -59
  -56
  -31
   -8
  -48
   21
  -86
  -44
   54
  -19
  -57
  -42
   -9
   69
   10
  -47
  -55
   53
  104
  123
  -33
   45
   70
 -124
   95
    9
   53
  -58
   11
  -85
  -81
  -28
   19
   39
  116
   71
  109
   70
  -52
   73
  121
   85
  -18
 -121
  116
   22
 -106
   69
 -115
   65
  -80
  -42
   79
   43
  -88
   31
   14
  100
   77
   60
  106
  -22
   77
 -109
   61
    7
  -55
 -106
  125
 -127
   69
   98
   94
   92
   10
   39
 -104
  126
   49
  -70
  -76
  -32
  -76
  -34
 -107
  -39
   64
 -109
   27
  -84
   39
 -109
  103
  -89
   -8
   64
   89
  -15
   45
   77
   10
  -58
 -101
  -36
  -52
   56
  -98
   96
 -103
   49
   -4
   58
  -52
  -37
 -106
  124
  124
   17
  122
  123
   77
  -87
 -111
   26
  -16
  111
  102
   27
  -39
  -48
   16
   94
   20
  -10
   99
 -126
   26
   88
  -52
  -86
   10
 -108
   18
  111
   36
  -82
   49
   60
 -126
   68
 -119
   25
 -123
  -74
   58
 -123
  -66
  -99
  -24
  -34
   17
  -14
  -40
   47
  -11
  -84
  -46
   60
   63
  -43
 -115
   48
  -83
  -12
  -43
 -120
 -121
  121
   97
   94
   36
   23
  -73
    7
  -89
   80
   55
   43
   81
  -76
   68
   36
   17
  -76
  114
  -44
  -98
   43
  -33
   63
   72
  -28
  -72
  -11
  -49
  -54
  -75
   41
  -35
  127
  -68
 -101
 -125
   76
  -23
  120
   30
   73
   92
   99
    6
  -16
   66
  107
  118
   31
   63
  110
    4
   95
  -88
  107
 -117
  -17
 -120
  103
  -27
  -24
   10
  -80
  -27
    5
  -27
  -85
  -88
   71
   28
   35
  -93
  -72
  -18
   14
  108
   93
  -80
  -41
  108
  -67
   41
   37
 -114
  -38
   41
  -87
   32
 -122
  100
 -127
   76
   85
  -59
   40
   75
   17
    7
 -120
  120
   58
   95
    3
   22
  -31
  -69
 -113
 -101
  -48
  -80
  106
   75
  -12
  -53
  -21
  -39
   63
   53
   65
  -25
 -120
 -107
  114
 -126
  -11
   29
    3
  101
  126
  102
  107
  -76
  113
   80
  -90
   58
  -97
 -124
   60
   14
  -66
  -31
  127
  -19
 -110
   17
   92
  -98
   40
  -57
   -6
  106
   36
  -34
  101
  -78
  118
   -7
  -35
   -2
  -67
 -124
   81
   50
   20
   -2
   -5
  -49
 -112
  118
 -104
 -126
   88
  -92
  -51
 -115
  -31
   52
   38
  -11
  -36
  -76
   16
    4
   67
   67
 -121
 -126
   26
   28
  -10
  -90
   31
   40
  126
  -83
  -34
  112
  -30
   88
  114
  -86
  -42
   37
  -95
   86
  -63
    4
  -19
  116
   48
  -49
  118
   86
   90
 -114
  -18
  -29
  -71
  117
   45
 -104
   10
   62
  -20
   13
   88
   23
  104
    4
  -36
 -106
   58
   70
  -17
   15
   69
  -77
   75
   12
 -116
  -49
  -65
  102
   21
  -55
  -20
  -26
  -40
  125
  -19
 -121
  123
  109
  -97
  -54
  -58
 -124
   83
   25
  -35
  -21
   73
   93
 -114
   33
  -11
  -15
  -24
  -20
   44
   58
  -35
   -1
  -54
  -62
   26
   51
   29
  -18
 -123
   -3
   17
  107
   -5
  -25
   18
   -1
  -23
   49
  118
  -89
   56
   11
   -4
  -18
  -57
   63
    5
  -51
 -101
  -79
   58
  -28
  -30
   38
   40
    1
  -38
   59
   66
  -85
  100
  -72
   95
   53
   -2
  -56
  -73
   74
  -87
   93
   72
   97
    0
   19
 -102
  110
 -117
  -46
  -81
 -106
  -77
    2
   34
  -15
   22
    0
   98
  -11
   69
  -99
   33
   35
  -87
    8
 -125
  -77
   41
  -42
    0
  107
   84
 -127
  -58
   -2
  -64
    1
   88
  -77
 -109
 -115
  -82
  -35
  -69
   68
  104
   98
  -42
   81
 -124
 -126
 -119
   66
   59
  109
   52
    8
   64
   39
  -89
  -15
  -79
  -10
   46
    5
 -123
   96
   36
 -105
  -43
  -85
   -5
  125
   60
   53
   63
  -61
  -23
 -119
   66
  110
  -28
 -100
   79
   49
   22
 -100
  -99
  -27
   43
  -78
   84
   -1
  -51
  -46
   75
  -14
   90
  -27
   66
  -12
 -101
  -34
 -104
   64
  -52
  -81
   18
  -80
   -2
   95
   75
  116
   24
   82
   41
   99
  100
 -121
 -101
  -56
  -77
  -41
  -33
   22
   16
  -57
   72
   83
   70
 -116
  -60
  -10
  -75
  -81
   91
  -96
  -13
   -5
   -8
 -101
   16
   46
   66
    5
   89
   31
  114
  -71
   23
  108
   -4
   82
  100
  -43
   51
 -110
   20
 -101
  -96
 -118
 -103
  -40
  -99
 -109
  -88
  -59
  -33
   43
   40
  -61
  105
 -111
   89
  112
  -87
  -23
   32
  -45
  -77
  -63
  -10
  -14
  -68
    2
 -107
  -58
  110
 -124
   71
   94
   78
 -111
  -66
   93
  -55
  -25
 -112
   14
    8
    3
  125
   -8
  -36
   76
   24
   -9
   37
  119
 -109
   15
  101
  -13
   88
   31
   74
    6
  -89
 -121
   95
 -117
   55
 -112
 -101
   69
  -39
   46
  -29
   67
  -31
   87
  -76
  -44
 -125
 -103
    9
  102
  -43
   76
  -14
   13
  121
   56
  -21
 -116
   55
  -51
    0
  117
   -6
  108
  -27
  -23
   70
  -95
  -81
   -4
   74
  125
   58
   66
  -57
   35
   52
  124
  -78
  -71
   96
   58
   58
   52
  -23
 -123
    1
   61
   60
    5
  -97
  107
  -18
  124
  119
  -32
   91
  -28
   -9
  -76
  124
  -94
  -14
  -57
  113
   70
  -94
  -74
  -14
   43
   44
  -40
   35
   -1
   32
  -50
  107
  118
   29
  -64
    7
   -8
 -100
  -51
   44
   -5
   60
   60
   -2
  -64
  -82
   79
 -116
  -81
  -11
 -123
  -70
   57
  124
   84
 -101
  -82
  -11
  -12
   95
   16
   30
  -58
   76
   22
  -54
  -76
   92
  117
 -105
   34
  124
  -33
 -116
  -62
 -111
  -89
   49
   65
  107
   22
   96
 -111
   57
  -81
  -98
  124
 -126
   19
 -114
   74
 -125
 -107
  106
    0
  -27
 -107
 -110
   32
  -78
   26
  -49
  -12
   88
   72
   -5
   55
   94
  -20
  -69
  -63
    3
   66
   87
  100
 -118
   31
   99
  -45
  -34
  -95
  -58
   -8
  -69
   85
   58
  -23
   80
  123
   44
    8
   43
  100
  -93
  -66
   65
  105
 -100
  -89
  -23
   58
   21
  -86
   50
 -109
  -61
   47
  107
   75
    7
 -126
   57
   25
   41
  -19
  -21
  114
  111
  -65
   63
    2
   -2
   49
  -21
  -68
   -7
   62
  113
    7
 -105
  -43
  -78
   90
 -126
  -42
  -81
   30
  -97
   56
   20
  -94
  -67
   -7
   36
 -114
   99
    7
  -41
   98
  -74
   24
   21
   79
  -27
  -51
  120
   73
    8
    3
  -95
  -96
 -121
   88
    1
 -103
   78
   83
   74
  -18
   96
  -33
  117
   90
    0
 -120
   63
   27
  -28
  105
   33
 -124
   84
  -51
   58
    5
  -90
   72
  -20
  -15
  -85
 -109
   -8
   -1
  -78
   27
   47
  -66
  -59
   13
   67
  -57
  -65
  125
  106
  -34
  -56
   89
   72
  -69
   44
   27
    5
    4
    0
 -121
   92
   11
   81
 -108
  -84
   43
  109
   53
   76
  124
   -1
   93
   61
  -67
   40
  -27
   16
   28
   97
   99
 -108
   38
   -3
    5
   48
  -67
  -15
   40
   27
  -22
  -77
   17
   21
  -92
  -54
   37
 -116
  -65
 -118
   85
 -100
    8
  -34
  -28
   29
  -33
 -108
 -106
  -53
  -98
   45
   63
   68
  -67
  -45
  -13
   33
  -67
  123
   72
   17
   14
 -114
  -46
  106
 -104
   46
    9
   55
  -47
  -17
 -121
   -9
   -2
 -109
  102
  -38
   67
  -75
  -20
   49
  -81
  101
  -65
  -40
  -38
 -100
 -102
 -108
   76
  -14
    9
  -88
  -85
  -27
  118
 -113
 -121
   55
  -95
  -97
   54
   26
  127
   42
  -51
   -4
  117
   42
  111
   -3
   13
  -68
   77
  127
  -95
  121
   62
  -54
  -19
  101
  -39
  -69
 -126
  105
  -88
   80
   76
 -109
    2
 -120
  -36
 -103
   46
 -114
   18
 -110
  -48
   93
   96
   72
  -14
  -69
  123
  -79
 -115
  -62
  -66
  -96
  123
   76
   41
  -56
  -42
  -63
   81
   84
   71
  -48
   21
   71
   18
  103
   97
  -37
  -61
   34
   -5
  -79
 -125
 -101
  -40
  -13
 -107
  104
   79
 -118
  -27
  -27
  115
   -1
   64
 -104
   30
   17
  -67
   13
  -66
   48
  116
   34
  -96
  125
   80
   74
  -26
    6
   56
    6
 -116
  -70
   44
   72
 -114
  109
   41
   31
   34
  118
   35
   46
   25
  -65
   55
    8
   43
 -116
  112
   53
   15
   45
  -64
  108
  -99
  -30
  -37
  -34
   30
   -7
  -57
   50
  -90
   29
  -41
  -97
  126
  -57
  -25
   19
   41
   54
  -55
  -35
  120
   21
  -91
  -48
   26
  -83
  -45
  -29
 -115
   38
  -84
   -7
 -109
   95
  119
   72
  -45
   70
  110
  -43
 -126
   61
   71
 -115
 -110
    4
  -34
  -26
  -41
  -30
   98
  -17
  -86
    6
   77
  -83
   34
   14
   -5
   35
  -47
  100
  -69
  -18
  -59
  -12
   61
  -81
  -22
  -41
  116
   38
   67
   82
  115
  -17
   33
   96
  -43
  -65
   53
   85
  -91
  -75
  -24
    8
  112
   -6
   48
 -118
 -108
   28
  -78
   36
 -111
 -118
  -81
  -31
  -12
   16
  113
  -15
   50
   28
  -79
  -44
  -54
  -86
    1
  -22
   62
  -30
  -59
   40
   -6
  -51
   99
   78
   76
  113
  -83
  -21
   89
   73
   36
    0
  -48
  118
  -29
   60
  -62
 -108
    2
  -40
   55
  -27
   59
   56
    5
  -75
  -56
  116
  115
  -52
  -10
   19
  119
   58
  -25
  117
  -91
  -31
 -116
   50
    4
  -79
  117
  -59
   69
  -19
  -88
   93
 -105
   53
   92
 -123
   35
  -39
   -1
   17
  -40
   45
   11
  105
   33
   -2
   58
  -69
  -88
   23
   38
 -106
   67
  -43
  -91
   24
  -26
    8
   78
  -63
   96
    5
   83
   17
 -121
   47
  -30
  -75
   47
   67
   16
   10
 -125
   73
 -119
   69
  -69
   52
   80
  -91
    7
   54
   36
   98
  -97
   23
   74
  101
  -96
 -119
  106
   25
   61
   -4
  -94
  -98
    5
   75
   95
   72
  -87
   73
  -53
   94
   16
  102
  -59
  -78
  -80
  122
   46
   13
   85
  -84
  104
   -6
  -99
  -75
   31
  -39
  -93
  106
   98
  -18
  -24
 -124
  -68
  -11
   -8
   15
   45
  124
   81
   73
   44
  -55
  122
  -70
   42
    8
   94
  -50
  -31
    6
  110
  109
   25
 -127
  -48
  -40
  -19
   64
  -93
  -22
   68
    2
  -78
  -27
   73
  -34
   84
  114
  -37
  -74
 -108
  -37
  -36
  -27
  -22
    1
  -31
  -42
  -89
   85
 -112
    3
 -108
 -119
   34
   90
  -50
   17
  -90
  -12
  -33
   39
 -113
   45
   93
   15
  116
  -64
  124
   50
  119
 -103
  127
  -51
  121
  118
  101
  -82
  112
   72
   18
  -63
   27
  117
  -63
    6
 -122
  105
 -122
  -33
  118
  -31
  105
 -113
  -26
   69
  -74
  108
  -17
  -84
   29
  -76
  104
  -93
   42
  -96
  -21
  -73
 -111
    3
  -15
  -75
  -77
   72
  102
  -59
   67
   48
   78
   -9
   73
  109
   -2
  -22
  -43
  102
  -23
  -24
 -117
   12
   -1
   31
   -8
  -34
  126
   92
  -89
  -95
   23
   11
  -74
   35
  -66
  -47
   -6
  -86
  -26
   35
   22
  -40
   24
  -11
   34
   28
  -54
   70
  -99
   13
   12
  106
   82
   52
   62
  124
 -124
   63
  -62
    9
  -72
 -120
 -116
  -56
 -110
   -5
  108
   79
 -113
  -98
 -107
   18
   72
   16
   75
  117
 -117
  -95
  103
  -62
   20
   44
  -45
  -40
   18
  -62
 -110
  116
  -56
    1
   13
  -66
   22
  102
    8
  100
  115
