  -63
  -42
   59
   46
  -44
  -36
  -43
   -9
   95
  116
   16
  113
   85
  -58
  -41
  -85
  119
  -23
   93
  107
   73
  -40
 -110
   67
   24
   16
   47
   32
   62
   58
  -42
  -62
  -68
  110
  -14
   66
  -23
   53
   43
  106
   61
  -46
   99
  -54
  107
  124
   -9
   90
  -42
 -106
  127
  -58
   29
  108
  -61
  -38
   69
    5
  -37
  -37
   69
 -101
 -107
  117
  104
  -33
 -103
  -34
   49
  106
   16
   23
  -38
  -46
 -124
  -22
  110
  -42
  -50
  -93
   30
   12
  108
  -74
   85
  -30
   69
  -72
   98
  -13
  101
  -36
   50
   23
   81
  -85
  -85
   16
   19
   96
   25
    0
  -50
  -35
   83
    6
   16
   63
   40
  125
   48
   24
   66
   19
   76
  108
   69
  -59
  114
   93
   23
  -89
   63
   22
   65
 -111
  -22
   99
   96
  112
  -42
 -104
   -1
 -103
   94
 -100
   36
  -42
  -47
   90
   18
   -5
   35
  -62
 -101
  -36
    5
  -88
  -96
   93
  -59
  -43
  -56
   54
 -121
 -126
 -107
  -53
   92
 -105
  105
  -91
   45
  -73
  -45
    1
 -127
 -116
   98
 -110
   24
  -41
  106
   42
  -58
  -27
  -87
   63
 -118
  122
    1
   42
   10
  -16
  -26
  -69
  -45
   37
   57
 -121
  -37
  -33
  -97
  -83
  -15
  -73
  -36
   48
   69
  -41
 -123
  -87
  -54
  -21
  -49
  -11
  -42
  -91
  -57
    5
   78
  125
   46
  -77
  -92
   18
 -101
   84
   81
   71
   68
   65
  -63
   80
  -19
   94
  -91
  115
  -89
 -117
  -29
  -54
  -41
   40
  -33
   64
   61
  -43
   68
  -59
  -78
 -117
  -27
   62
   58
   -4
  -94
   48
  -60
  -34
  119
 -127
  -20
   68
  -43
 -125
   98
  101
 -107
   63
 -123
 -107
  -57
   45
  -46
 -117
   43
   19
  -82
    7
  115
  115
 -103
   69
  -19
  -29
  107
    8
  -72
  -55
  -56
 -102
  -31
   59
  -22
  -66
   14
 -112
 -100
  -32
  115
 -105
  103
    1
  -63
  -51
   27
  -91
  -97
  -98
 -119
 -112
   70
   57
  102
  -78
  -48
  -69
 -124
 -100
   38
  -36
   91
   -5
  -88
  -45
   24
  102
   64
   56
  -93
   70
   24
  125
 -124
   85
  -91
  114
  -40
   27
 -110
   75
  -57
 -119
   81
   70
  -94
  -96
  -41
  -28
  -59
 -118
  -30
   15
  -53
 -122
  -57
   32
  -67
  -80
   70
   87
   40
  -71
   21
  117
  -45
  -94
   61
  109
  -34
  -97
  -87
   94
   -3
  -76
  -63
   52
   68
   -4
  108
   31
  -70
   82
  -84
  107
   70
  107
  -70
  -16
   39
  127
 -114
  -54
  -87
  107
  -99
 -109
   37
   -9
  -25
   79
 -112
 -111
  115
   20
  126
  -79
  115
   37
  -21
  -97
  -58
 -113
 -122
   28
  111
   56
 -115
   92
 -115
   80
  -49
   96
    6
   -5
  -12
  -41
  -27
  -28
   24
 -104
  -27
  101
    0
  105
  -87
  -53
   86
   73
  108
  -73
  -37
   49
  110
  -17
   28
   48
   75
   93
  -14
   56
   70
   -8
   31
   48
  -85
  -59
    1
  -75
  -12
   78
   44
  -60
 -123
   32
   44
  -25
   98
   -5
   -5
  104
  -47
  -57
   92
   88
   82
   22
  123
  -64
   64
  -49
 -122
  -58
  125
  -31
  125
  -61
   38
   55
   55
   60
  -99
  -93
   22
    4
   34
  105
  -36
  -18
   76
  -52
   25
   85
 -105
   22
   74
 -114
  -50
 -113
  -59
  -50
   -5
   59
  -26
    5
  -96
   41
  -19
   91
  117
  -65
   66
  120
   48
   25
   -7
  -96
   -7
   47
  -21
  -38
  -75
  -78
  -74
  -97
   33
  118
  121
   98
   61
   66
   87
  -60
  -45
  118
  -43
   88
   88
  -14
  110
  -87
 -125
   86
  -40
  -95
   15
  -73
   39
  -22
  -21
   54
  107
   36
  -43
   56
  -72
  -46
  -86
  -78
   91
  -83
  -73
   65
   89
  -45
  -15
   76
  111
  -15
  -87
   76
  -69
 -120
   61
  -44
 -104
  -68
 -113
   76
  -13
 -111
  121
  -50
  -74
   29
   75
   44
  -73
   45
 -101
   50
   79
  119
   84
   97
   18
  107
 -103
 -104
   52
  -95
   34
  122
  -47
   18
  -50
  -42
   33
   93
  -71
  -30
  -72
  -15
   -2
   67
  -88
   99
  118
  114
  -27
   72
   86
   67
  -28
  -40
  122
   77
 -110
   42
   75
   62
    0
   66
   17
   70
   32
   78
   12
  -64
  101
   91
   23
 -114
   -1
   65
  101
 -106
    2
 -123
  -77
  -32
   58
   36
  123
  -28
  -96
   95
   75
   90
   83
  123
  -45
  -65
  -79
 -122
  -60
  -60
  106
   -4
  127
 -120
   99
   -7
  -88
   38
  -38
 -102
  -37
   42
  -90
   59
   -1
   -8
   18
   36
  -60
   -1
   92
   49
    4
   66
 -102
   -9
   62
  102
 -102
  -50
  -96
    0
   67
   42
   31
  -79
  -19
  116
  -93
   15
 -115
  -78
    2
  -19
  109
   27
  -30
 -113
   11
    7
  101
   60
   25
   91
 -102
   14
  -50
  111
  -20
 -121
  -67
   64
  101
   59
  -54
   75
  -69
   12
  -43
   44
   51
   19
   51
  103
   -3
  -60
   48
   86
  121
   95
  -28
 -110
   23
   42
  -59
   34
   70
   37
   37
  -54
   74
  -53
  117
  -20
  -14
  -37
  -57
  115
  -47
  -62
 -115
  -52
  -98
   62
  -60
   87
   66
  -62
   49
 -103
   55
   37
   98
  -34
  -86
  -82
  -15
  -42
  -45
 -103
    4
 -116
    4
 -118
  -30
   21
  111
 -123
  -48
   41
  -43
  -41
   73
  -69
 -111
  111
 -113
 -112
    6
  121
 -115
  -12
   75
   85
  -81
  -22
  102
  -27
   22
  -44
  -57
  -36
   33
  -14
   41
   -5
  -29
  -32
  116
  -86
   -6
  119
  109
 -124
 -122
  -16
 -114
   91
   82
   -5
   39
  -62
   45
  -60
   92
  -16
  102
  106
  101
    5
   32
 -100
 -124
   -2
  -24
  127
  127
  -52
    2
   88
   20
    4
 -121
 -124
   44
   90
   91
   66
  -69
    6
    4
   32
    1
  -47
 -120
 -116
   -1
 -114
   94
  -42
  -20
 -127
  -23
   49
  -18
  -71
   96
   90
  -46
  -30
  -67
  111
  -85
   33
  -92
  -88
   92
  -77
  117
  -35
 -126
   91
   89
   10
   -6
 -106
  -31
    6
  120
  -16
   80
  101
   84
   -3
   68
 -124
  -39
  -73
   33
  -43
  -77
   93
   56
  -43
  114
   23
  -17
  -75
  -79
 -125
   88
  -56
  -25
   55
   89
  -14
   54
   99
   33
  124
  -83
   33
   47
  -85
  -89
  -91
 -104
  106
   90
  -36
 -104
  -43
 -110
 -105
   57
  -23
    5
  -59
   57
   94
  -82
  -27
  -25
    6
  -83
  -21
 -126
  106
  -17
   60
 -102
 -106
   72
  108
  -69
  -12
  -75
 -100
 -106
  126
  -15
  -63
   59
  -29
   22
   71
   54
  114
   66
  -83
    0
  -52
   92
   42
   48
  -98
   28
  -35
  -24
  -79
   84
  114
  103
   26
  -19
 -125
 -115
    5
   -5
 -124
  -10
 -121
   69
  -17
  118
   17
   95
   19
   -6
   24
  112
 -124
  -56
 -108
   43
   33
 -104
   43
 -100
   34
  -84
  -49
  -41
   89
  -71
   80
   18
   22
   42
  -85
  -11
  -36
  -98
  -60
   63
   28
  -42
  -38
   -6
  -35
   58
   -2
 -113
  123
 -109
  -27
   61
   50
 -124
   11
  -26
  -49
   -4
  127
  116
   81
  119
  -41
   98
  -32
  -80
  -63
   21
   -8
   59
   83
   75
  -37
  -90
  -88
  -35
   -2
   -1
  -18
 -105
   68
    2
  109
   13
  -70
   48
  -56
   93
  -57
   36
    5
   55
   -3
  -70
  -22
  -56
  -41
   49
   57
   23
 -111
  -67
  -92
   77
   78
   44
  -21
  -36
  -99
 -105
  -79
  107
   70
   89
  127
   63
 -114
 -122
   79
   47
  108
   87
   20
   68
   91
  -27
  -97
  -14
  -72
  -97
 -110
    0
  -31
  -85
   77
 -127
    3
  -55
  -50
   39
  -11
   31
  -28
  -57
  -90
    4
    5
   13
   -8
   36
  -30
  -75
 -118
  102
 -115
  -53
 -112
 -103
  117
    8
   91
   30
   68
 -104
  -24
  121
 -120
  -95
 -119
  -70
  -93
   67
 -115
  -74
  121
  -59
  -29
 -112
  -75
   88
   30
   59
  -92
  124
   44
  100
  -65
   30
  -19
  -29
  102
   88
   12
   76
 -103
  -40
   10
  -14
 -102
   29
   37
   20
  -17
   45
  -79
  104
  124
  113
  -46
 -108
 -124
   55
  102
   33
  -58
  -79
  123
  -23
   31
  109
   34
  -88
  -68
  112
   -2
   -4
    9
  102
   -4
 -109
   68
   -4
  -84
  -53
  -57
  -53
  113
  -23
  -21
   -9
  -48
   92
   14
   14
 -107
  -38
  -42
   87
  -50
  -42
   76
   26
 -102
   63
  -39
  -59
  -67
   88
   17
  -68
  -58
  100
    3
   78
  103
   51
   -2
  -23
   -2
   17
   82
    3
  -75
   -3
 -118
 -120
   23
  -75
   27
 -102
  -67
   86
  106
  -98
  -83
  109
   99
  123
   49
   59
  111
   55
   -6
   23
   55
  -99
   80
   -5
   47
  100
   49
 -125
  -50
   12
   30
    9
 -122
    9
 -123
   82
   64
   -7
   69
   20
  -46
  -35
  -85
  -34
   92
 -116
  118
 -123
   -3
  -30
   48
   15
   99
   18
   53
    2
   38
  -78
   -6
 -102
  115
  -34
   91
  122
  -49
   86
 -116
   94
  -42
  -51
  101
    5
  -61
  112
   78
 -102
  124
  -98
    6
 -101
 -106
   15
  107
 -112
   97
   -2
  -40
   82
  114
   38
  122
    1
  103
   11
   81
   95
   82
   72
   98
 -119
  123
   96
   38
   53
  114
  -17
  105
  123
  -15
  -64
   33
   25
 -125
    9
    5
  108
  -83
   25
 -126
   79
   22
  -55
  -69
 -103
    8
  -92
   68
 -116
 -124
   83
   85
  -83
   73
  -49
  110
   97
  -75
   10
   59
   77
   89
   -7
   93
   34
  -71
  -92
  -91
   70
    0
  -43
   84
   59
 -119
   76
   66
   49
    0
  -78
   42
  -86
  -28
  -88
 -114
   49
 -110
   18
  115
 -100
   17
  -94
  -99
   77
  101
  -54
   17
 -122
  -50
  104
   24
   21
   94
   85
  -91
 -114
   96
  -20
  -90
  -70
  -49
   67
  -48
 -122
   84
  125
  122
   27
   20
  -36
   95
   83
  -57
   -6
 -110
 -125
   87
 -103
    1
   85
   39
   31
   45
   84
  -16
 -114
  -71
   97
   17
  -78
 -108
  -79
  119
  -31
   59
  -96
   28
  -67
   72
  -49
  -53
   98
  -44
  -94
    7
  -73
  103
  -20
   -3
 -107
  118
   -5
  -84
 -112
   78
 -125
  -77
   54
    0
   83
  -85
   88
  -51
   21
  120
   92
   56
   44
   76
   78
  -38
 -122
   14
  -67
  -35
  -20
   34
   88
   95
  114
  100
  -98
   55
   37
 -110
   70
  -48
  -37
  -97
  -62
  -27
  122
  -43
   15
   69
   13
  -54
   -4
   42
  115
  104
   89
   68
  -94
   41
   24
  -17
   57
  117
 -112
  -58
   17
   70
  -69
   -1
  -73
  121
  -52
   47
  -33
  -29
  -31
   14
  -43
  -62
   93
 -108
   93
   86
   -8
   69
   66
  -83
  118
   97
   26
 -122
  -81
  -51
   11
   52
 -119
  -34
   19
  -42
  -63
   16
   78
  110
   85
  104
   19
  114
 -117
   57
   34
  -77
   53
   99
 -109
  112
   32
  -47
   16
 -106
  -65
  -39
   93
 -102
   61
  -56
  -97
   85
   67
   68
 -103
   54
   -9
 -103
   22
   82
  -90
   94
  120
 -103
  -29
   69
  -52
   96
  -89
  115
   12
   87
   84
  -28
  -60
   70
   85
  -59
   63
   30
  -24
   40
  -11
   64
 -101
  -87
   14
  -22
  -43
  -73
   69
   58
   87
  -89
   81
 -104
    7
  -84
   35
  -90
  107
   66
  109
   86
 -124
  -45
  -53
  -98
   89
  122
    8
   13
    9
  -44
   13
  -82
    9
  -67
  -12
  -65
   91
 -115
  -78
  101
   70
  -93
  -36
   12
  -93
   16
  -20
  -31
   19
   90
   88
   74
  -89
   30
  -83
   -9
 -116
   88
    9
  108
   59
  -27
   29
   28
  101
  120
   19
  -41
   97
  116
   62
  107
   44
  112
  -92
    5
   -4
  -11
   62
    0
  -88
   44
   79
   36
  -15
  -61
   22
  -48
   82
  -44
   15
  104
 -113
   46
   53
  114
  117
   81
   93
  -85
  -44
   70
 -119
 -118
  127
  -71
   42
  -11
  -58
  -53
  110
   93
 -103
  -93
   44
  -22
    3
 -126
   72
 -124
   46
  102
  118
  -68
  -30
   20
   81
   97
  -86
   12
 -120
   24
   99
   -5
  -61
  -81
   94
  106
  -72
  113
    9
   87
  119
  125
  -34
    6
   39
  -88
 -105
  -64
  -92
   55
 -124
   30
  121
   22
    1
  -88
   42
   53
   21
   25
 -122
   64
   43
 -125
   38
  -91
   39
  -43
   37
   28
   79
   98
   57
   14
   50
   13
  -23
  -85
  -69
  -96
  -77
 -112
  100
   59
  -96
  -78
  -26
   58
  -32
  -55
 -101
   76
    3
   26
 -115
  -20
   86
  -27
  -23
  -56
  -67
   98
 -119
   58
  -54
   27
   69
  114
  -62
  -22
 -121
   -8
   33
   36
    1
  -24
   17
   19
   65
  -97
   44
   89
  -56
   68
   -6
  -85
   68
  117
  -67
 -114
  -99
   77
  -28
   18
  -90
    1
  114
  102
  -21
  -12
  -46
 -102
  -18
  -47
  124
  -17
  -25
  -27
  -86
  -21
    2
  -56
   39
   31
   53
  -63
   -2
  -45
   38
  123
   72
  -27
  -11
   13
   43
   73
  -23
   50
  -56
  -93
 -124
 -118
  -38
   77
  -16
  -91
  -48
  -95
   87
  -14
 -102
  113
  118
  -57
   88
   97
   32
  -10
   49
  -47
    4
  -39
   14
   54
  -35
  -84
   38
  -41
    6
   31
   46
  108
 -105
    3
   25
   61
  -83
   13
   49
 -122
   52
  -31
  117
   27
  -20
  -35
 -118
  -83
  -25
  -66
  -95
  -18
  125
   12
    2
  -51
   18
  -48
 -116
   -6
   52
   53
   22
  -29
 -116
   21
  -57
  -49
    4
  -40
   74
   68
  -61
  -35
  -58
   -2
  -12
  106
   74
   34
   -4
  -50
  102
   42
   55
  -75
   83
   47
   58
   63
    8
 -117
   -9
   49
   76
  -10
 -107
   46
   82
  113
  -99
  110
   59
  -50
   10
   48
  -30
   63
  113
   95
  127
  -69
  -90
  -29
 -108
    3
 -108
  104
    1
  -91
   18
 -103
   74
  -47
  -54
  -31
  -36
   39
  -25
    1
  109
  -18
  -21
    0
   95
  110
  -11
   38
   69
  -38
   34
  -85
  -58
  -72
  -22
  -55
  -12
   63
  -69
 -111
 -110
  -66
   79
  110
  -39
  -19
   -2
   95
   45
   -1
   93
   -5
 -115
   23
    0
  112
 -126
  118
   84
   65
   64
  -82
  -49
  111
  -57
   91
   -2
  -94
   28
   57
   21
   42
   93
   -1
  -53
  127
   -1
   85
   61
    2
  120
 -113
 -100
   62
 -104
   34
   -5
   -4
  -20
   21
   64
 -101
   -7
 -100
  -93
  -41
 -104
  105
   41
   21
  -88
   23
   33
  -56
  -88
    6
  -61
 -107
 -116
 -108
   -5
   10
   92
  -53
 -126
   11
   30
  -33
   -8
   81
 -106
 -110
   80
  -63
  -68
  -33
 -124
  -29
   79
   71
  -28
   84
   -5
  -67
   69
  -20
 -120
  -35
  -17
   -2
  -54
   -7
  -13
  116
   23
   -2
  -71
   38
  -41
   47
  102
  -46
  -51
 -103
  -76
  120
   37
  -23
  -70
   30
   91
  102
   26
   42
  -14
  -90
   20
  125
  -35
    6
  -38
 -124
  -17
  -64
   41
  -26
  105
  -22
  -21
  -90
    0
  -29
  -50
   71
  -96
   10
   90
  -33
  -38
  119
  -48
  -70
  112
   41
  -24
  -24
   -3
  -43
  117
   96
    1
 -100
   17
  -30
   26
 -114
   50
   70
   81
   99
   46
  102
   93
   38
  -25
    9
 -118
  -96
   17
  125
  -36
  107
   -8
  -12
  117
   33
   90
  -42
   12
   32
   81
  -19
 -116
   75
   72
   46
  115
  -27
  -95
   39
  100
  -86
    8
   -9
  -57
   78
  -19
 -110
  -90
    6
  -55
  -13
   75
   83
   20
   72
  -37
 -119
   91
  -41
  -27
   69
  113
  -95
   41
 -108
  -18
  113
   26
 -112
  -61
   52
  114
  -45
  -22
   46
 -126
  -17
   27
   99
   23
   64
  -22
   94
   38
   21
 -117
   32
  -25
  -73
   -9
   48
  -59
   50
  114
  -12
  -58
   74
  -21
   28
  -82
  -65
   99
  -93
  -55
  -68
  -60
 -123
 -101
   37
   50
  125
   93
 -118
   51
 -102
   79
 -110
   37
   39
   52
   -7
  -98
   75
   80
   34
  -45
    1
  -92
  -25
   26
   94
 -111
   48
   59
  -99
  109
 -107
 -104
   75
  -98
 -126
 -123
   18
  117
  -96
 -103
   39
  -72
  -65
  -81
  102
  -17
  -11
  -79
  110
   75
  -82
  -72
   75
    1
  -47
 -109
   61
  117
 -120
  -76
  -86
  -75
  -48
   92
    2
   23
   20
   -9
 -110
  -77
  -25
   15
  -18
   -9
  107
  -10
  -72
  -59
 -125
   82
  110
   -1
   40
  -50
  -90
  -68
   14
   61
  -84
  -72
  -15
   33
  -68
 -106
  -38
  -94
   -9
 -103
   55
  -34
   67
   -6
   17
  -56
  -89
  -71
   43
  -62
 -101
   44
  -79
  -35
   11
 -102
   11
    4
   29
  -87
  -58
   75
  -16
  -93
  -58
   40
    1
  -29
  -33
   94
   37
  -12
 -124
  -64
   40
    1
  -22
   68
  -63
  -63
   -1
  122
   58
  -92
   31
   61
  -39
  -49
  -70
  -83
 -119
  -95
   78
  -90
  121
  -79
    2
  -71
   -2
  -18
 -126
  -78
   66
  -46
  -38
   44
   26
  -22
   76
   48
  119
   99
   29
  119
   -8
   24
  -30
   77
  -22
  -59
  -62
   70
   53
  -17
  -34
   95
   63
  -53
  -59
   -6
  -80
   -9
  110
    6
   23
   94
  -16
  -45
   65
   87
   20
   42
  -11
  -97
   -5
   13
    5
   13
  -51
  -30
  -29
  -53
 -125
  -68
  -80
   66
   75
  -48
  -28
  -68
  -11
  112
   81
  -23
   55
 -119
   85
  109
 -118
  -14
   79
 -109
  -42
  -75
   98
   66
  -55
   -5
   63
  -44
  -52
   90
   16
  -31
 -104
   -7
   44
  -24
   38
  119
  -84
  -95
  106
   57
   42
   84
   29
  -55
 -115
   93
 -112
   -3
   34
   56
  -38
   54
    8
  -79
  -97
   37
  -93
   72
  -80
   13
   32
   50
   92
   13
  107
 -111
  118
   93
 -115
   41
  103
  -76
  -95
   32
 -121
  -42
  105
 -105
   13
   92
  -23
  -23
   40
  -45
  -89
  -15
  121
   86
  -59
  -58
    8
   49
  -20
   27
   26
   88
  -58
  -30
   91
  -75
  -92
   93
   70
   67
   24
  -47
   34
   63
   97
  -30
 -102
   62
  -84
   68
   46
  -72
    9
   29
   92
 -120
   17
 -104
  -40
   68
   15
  -90
   98
 -110
  -43
 -121
  -56
  -75
   69
 -104
  -73
 -105
   73
   23
  -46
   32
  103
  -61
  -27
  -77
   81
 -113
  -12
  -64
  -33
  -87
   23
   14
  -91
  122
   60
 -100
 -104
    7
  -45
   -5
 -101
  121
   68
   99
   44
   82
  -72
   79
  -62
   63
  -27
 -125
  -86
  -84
   -9
  -31
  -74
  -92
   48
   42
  -70
  -39
   62
 -102
   80
  -28
  -50
   90
   18
  -38
    5
  -47
   -2
  -14
   74
   12
  -22
  -69
  -73
   78
  113
  -64
   87
 -123
  -92
   88
  -48
   13
   78
 -123
  -47
  -16
 -126
  -13
   15
  -65
   21
   32
  -33
 -103
   62
   51
  -35
   67
   54
   25
  -46
   16
  -72
  -87
    7
  -49
   27
   -5
   17
  -91
   -8
  -24
  -14
   49
  -65
  -68
  -95
   13
   12
 -103
  -46
  -84
   90
  -37
    8
  -41
  100
  -98
   86
  -57
  -66
  -39
  -86
   79
 -110
   60
   66
 -111
   76
 -103
 -120
  102
   61
 -103
   22
  -32
   70
   84
   90
   -9
  -16
   32
  105
   69
   95
  -86
  100
  -23
   36
  -97
   89
  105
  -88
  -88
   58
   11
  -95
   85
    8
   77
 -106
  -70
   90
   32
   53
  -98
  108
   73
   41
 -105
   82
  126
  -86
  105
   27
  -71
   49
   52
  115
 -117
  -98
   36
   71
 -115
   47
  -19
   68
  -35
  -77
  103
 -101
   19
  -66
   56
   31
  -11
   72
  -41
  -89
   32
  -57
 -123
  121
  -98
  -69
  -99
  121
  -88
   50
  -96
   56
  104
   61
  -68
  -72
   55
   73
  -24
   79
 -112
  -81
  -57
  116
  -87
  -36
  -43
   82
  -88
    8
  -30
  112
  115
  126
  -31
  -30
   43
  -95
  -21
  -95
    2
  103
   51
    8
   31
  -98
  -93
  -21
   54
   54
   28
   66
   22
  -28
  126
   27
  109
   96
 -105
  -55
 -114
  -89
   64
  -26
   51
 -105
   42
  -29
  -17
   75
  -51
  -29
   97
  103
   73
  -49
 -123
  -85
  -62
   -7
  -30
 -119
  126
 -100
   84
  112
   85
  -86
  -80
  -36
   44
  110
  -88
  111
   80
  -84
   19
 -110
  121
  -68
   99
   38
  -26
  -22
  -89
 -121
 -107
  -88
  121
  -85
   58
  -71
  -62
   -1
 -127
 -117
   22
   97
  -75
  119
    5
   40
  -77
 -104
  -13
  -51
   10
   31
  -52
  -43
 -127
 -105
  116
  -80
   50
   44
  -29
   69
  -62
  -74
   73
   91
  -51
   83
    0
  -42
  -90
  -60
   38
 -107
   79
   22
   64
   38
  120
  122
   51
  -96
   80
   59
  110
 -103
   67
  -30
   -2
   16
  -98
 -104
   12
 -103
  -90
  101
  -61
   90
 -118
    8
   58
 -126
   72
  -22
  -79
   43
  111
  -51
  105
  -33
    8
   29
  -18
  -95
   39
   69
    6
   30
  -46
   24
   95
  106
  -53
   23
  -22
   17
   67
   25
  -23
  105
  -86
  -89
   27
   82
  -30
   -3
  -61
  -74
   21
   79
  -17
    0
   45
   66
    4
   36
  -99
  -74
   -4
   33
   94
  -84
   51
   13
  111
   23
  112
   96
  -33
  -14
  -70
   -2
   83
  -86
  105
   90
 -106
  112
  117
  114
  -45
  -76
  -40
   72
   93
  117
  -67
   82
   66
  -39
   -5
  118
 -106
   44
  -27
  -27
  124
    5
   40
  -96
   32
 -100
 -118
   14
  -85
   74
  -93
   72
  -21
  -47
  -28
  102
   42
   79
   93
  102
  113
   38
  -30
  112
  -71
   67
  102
   -3
  -36
  -71
  -70
  -64
    4
  -82
   39
  -89
  -21
   68
  -60
  -64
   69
    4
  114
   -5
  -42
   62
   29
   31
   28
   51
   29
   62
   41
  118
    1
  -86
  -22
  -23
  -94
  -50
   45
 -102
  104
   97
  -98
   48
  -12
   88
  -78
   43
   10
   -3
  -50
  114
 -108
  -41
    4
  127
  -86
  -84
  -87
  -57
   59
   42
  -87
 -120
  109
   62
   26
  -36
   31
  -25
   38
   16
  -78
 -106
   58
    5
    4
 -121
   -9
    0
  -64
   86
  110
  124
   40
  -65
   -2
   34
 -113
 -105
  -78
  -66
   69
 -127
 -115
   81
  -93
  -46
  -75
  -82
  -81
  117
   15
   70
   88
   -6
 -121
  -45
  -74
   93
  -33
  -45
   12
  -74
 -101
  -58
  -28
   52
  -18
   24
  -48
   58
  -40
  121
  -22
   -5
   36
   69
  -61
  -81
  122
   76
  -44
  -43
  -75
   46
  -77
  -57
   35
 -101
 -107
   62
  -42
   30
   -6
   64
   32
  -51
  110
   -3
  -99
   81
  103
   34
  -41
   12
 -107
  -39
  108
   88
  -78
   79
  -58
   36
   14
   17
   91
 -102
   96
   59
  -15
  -75
  -88
   58
  -51
   17
   14
   54
  124
   -4
   63
    8
  125
  -96
  115
  -94
  -97
  105
  114
   42
   15
  -87
   50
  -22
   21
  125
 -123
   31
  -92
   77
 -107
  -43
  -62
 -109
  -58
    3
  -26
 -126
  -95
  107
  -57
   64
  122
   19
   -5
  -97
   13
   51
   53
  -66
   -2
   14
  -15
   43
  111
   39
  -85
  -66
  -29
  -46
   20
  124
  -59
   20
  -53
  107
  -98
   -7
   76
   83
  -32
  -53
  -32
  124
  -17
   80
 -111
  -18
 -122
  -30
  -22
   15
   98
   -3
   67
   44
   79
  126
   84
  -75
   96
  -94
  -29
  -93
  120
 -108
   70
   70
  -47
  -23
   13
  -17
  -97
   67
   41
   92
  111
   -8
   83
 -105
  -51
 -107
  -38
   79
   51
  121
  109
 -104
  -93
 -113
   29
   84
   24
  -36
  120
  -60
  121
   13
  -14
  102
    1
  107
  110
  -98
   61
   41
   68
  -94
  122
   44
   96
 -114
   -2
   -3
   21
  105
   65
   98
  -83
 -109
  -59
  -73
  -44
   41
   -5
  -74
   84
  -71
   57
   41
  -70
   62
  100
   56
  -23
   55
  113
  111
   17
 -118
 -112
  -79
  -32
   18
   43
  103
   71
   98
   39
  -95
 -127
  -83
   34
   81
  -13
   79
 -120
 -119
  -30
  -49
  -46
  -69
   98
   -3
 -117
   54
   37
  116
   41
  -56
   71
 -109
  -54
  -43
  -76
   22
   16
 -126
   49
  -52
    0
  -25
   32
   39
 -111
   33
   -3
 -125
 -126
   -3
   77
   53
  -68
  -24
   52
  -52
   97
 -111
   32
   25
   74
   25
   89
  -87
  115
   42
   96
  -98
   66
   -2
  -69
    3
  -90
 -106
    0
  120
  -94
  119
   76
  122
  106
    7
  120
  -60
    2
   -3
   -1
  -45
   50
  -57
   -9
   49
  -76
   10
  -29
   75
  -86
   42
  -47
  -42
   -1
   29
  -52
 -115
   77
  -77
  -16
  -30
   10
  -27
  -18
  -87
  -71
 -121
    8
   55
 -127
  -32
  -70
  109
  -35
   98
 -101
 -122
 -121
  -87
   37
   73
  -36
  -12
  -29
  101
  113
  -71
   71
  -12
    6
  114
  -84
   48
  -36
 -108
  -52
   64
   73
   54
 -102
  -20
  106
  -20
  -97
  -58
   42
   85
  -34
  113
  -88
   81
   51
   37
   18
 -127
   89
   65
 -100
  100
  -36
  -89
   74
    9
  -49
  -22
   59
  -31
  -43
  -85
  -32
   23
  -40
  -58
  -64
   91
    8
   39
  -60
  101
  119
  -16
   96
   91
  -85
 -123
  -25
  -40
   64
  -95
  117
  -76
    5
   51
   69
   42
  -53
  118
  -35
  -81
   24
   -3
  -65
  113
   -4
  105
  -94
  -49
  -21
  -24
  119
  -80
   65
  114
   18
 -107
 -112
   33
  -76
   64
  -44
  -10
  -10
  -42
   49
   32
  -98
 -113
  -17
  110
 -100
 -122
   46
   60
  -66
   97
   24
   23
  -22
 -108
   58
   90
  -40
   95
   82
  -79
   41
 -106
   36
   16
  105
   83
  -36
   67
   60
 -107
    2
  -50
   25
    1
  -84
   79
   39
    9
  100
 -114
  -53
   18
    0
   58
   -7
  109
  116
   43
    3
   77
  -71
   98
   56
   83
  -99
   16
   95
   81
 -110
   12
  124
   74
  -67
  -28
  -95
 -101
  -43
   63
  -22
   91
   23
   45
    9
 -104
  -28
  -13
 -113
   55
  -51
  126
 -106
 -124
  -77
   78
   -8
  -48
  -55
  122
   66
  -94
   32
  -11
   45
   53
  -83
    1
    8
    9
  -21
   14
   45
    3
   17
 -103
   -8
  -85
   56
  123
  107
  -24
   63
  -16
   89
  -14
   55
   40
 -110
   29
  -67
    8
  -81
  123
   49
  -53
   43
   19
   81
  -64
  -68
  -59
  -73
  120
  113
  100
 -119
  -51
  -40
  -73
  123
  -49
   52
  -12
  112
  -31
   99
  -65
 -103
  -73
   -9
   79
   36
   15
   46
  -44
  -12
   42
  -45
  -33
   50
  -28
  -18
  -71
   64
   70
  -16
 -109
   42
  -18
  109
   63
  -36
  -32
  -88
   42
  -82
   98
 -124
 -113
   69
 -116
   96
   69
 -103
  -14
   21
   27
  -75
  -88
    2
   -4
  -96
  -51
  -93
 -114
  -29
   61
   40
  117
    1
   35
  -39
  -65
  115
  -85
    7
  127
  104
   39
  -94
   57
   34
   76
   63
 -119
    1
  -32
  100
  -81
  -98
  -25
   46
   64
   56
   59
  -47
   43
  -98
  115
   -6
   24
   26
  -26
 -106
  -61
  -60
    1
  -73
  -37
  -78
    2
   48
  -12
  119
   67
 -124
  102
    4
   32
   56
 -121
   43
   67
  -95
   47
   53
   57
   85
   26
  121
  103
 -112
   64
    1
  -81
 -122
  120
 -111
   47
  106
   59
   87
   77
 -100
   55
  122
 -104
   84
  -56
 -115
   11
   75
   10
  -74
  -51
   24
   45
   25
  -47
   97
  119
  107
  -38
  -96
  -66
   -4
  107
  -57
   34
   23
  -17
   85
  -98
   -9
  -44
  -77
   79
   87
   63
   74
  110
   77
   58
   33
 -120
  -28
  -86
  -52
   43
   97
 -110
  -93
   14
  102
 -125
   -2
  -11
   90
   37
  -49
 -113
  -96
  113
   95
  -20
 -118
   71
  -46
   33
   53
   99
  -17
  118
   12
   47
    3
 -112
  -46
  -41
   18
  -71
    4
  101
  -71
  -14
   -3
   79
  127
  -21
 -114
  100
  103
  -96
  -74
   10
    2
   13
 -123
   65
  -15
  -38
   98
  117
   20
    3
  -47
  -45
 -109
  -17
   24
  -39
   -1
  -23
  -57
   88
 -115
   59
  115
  -45
   93
  -46
  -66
  -67
  -37
  -80
   16
   88
  -13
    4
   56
   56
 -113
  -25
  100
   13
  -26
  124
   71
  115
   27
  -66
   18
   55
   14
  -28
   52
   71
  -45
  115
 -121
  -43
  -51
   55
  -22
  105
   35
  -15
  -12
   96
  -31
   53
  -88
  107
  -90
  -44
  -41
  106
  -66
   69
  -96
   38
  -34
  118
  -31
   22
  -19
 -120
  -59
  -38
   84
  -31
  110
    9
   55
  -22
   -3
   15
    8
    0
 -116
   87
   78
 -114
  100
   64
  106
 -117
    3
   24
 -118
 -104
  120
  -47
   20
  -86
   56
 -121
  -40
   -4
  123
    8
   35
  -38
  123
  -94
  -58
   59
  -11
   88
  124
   95
  -24
  -49
   23
   77
   28
   93
  114
  -45
  119
    5
   59
   37
   47
  -33
   53
   13
  -12
   52
   57
  -80
  100
  -67
  -87
 -118
   28
  -19
   99
   15
  -35
  -32
    9
 -112
   26
  -99
  -81
    2
    1
  -23
   34
   66
   37
   62
  -34
  -26
   18
 -105
   84
 -111
   23
   13
  104
  -73
  -53
   92
  103
 -108
   94
  108
  101
   44
  -31
  -72
  -32
   21
  -65
  111
  -21
   38
 -116
  -39
  -52
  -49
 -100
   91
 -121
  -94
   77
  -21
  116
    7
  125
  116
   19
  -45
  106
   85
  -59
  104
   70
  -21
   82
  -29
    8
 -116
  125
   -6
  109
   46
  -11
 -104
  122
  -53
  -46
   24
  104
  -35
  -57
    0
   11
  126
   54
   69
   53
   56
   54
   90
  -53
   88
  121
   41
  -23
  -84
  -12
  104
    5
   90
  -45
   93
    5
  106
  -56
  109
   92
  -47
  -96
   43
   72
  -29
  -29
   90
  -13
   84
   86
  100
   64
   45
  -97
 -120
   29
   59
  115
   32
   -8
   -4
   93
   81
   28
   17
    2
   93
   44
  -54
  103
 -112
    7
    2
   -3
   89
   98
  110
  -89
 -120
  -78
   35
   64
  -49
  -19
   32
   32
   22
  -49
  -45
  113
   94
   34
   14
  -33
    8
   50
   60
   36
   69
  -70
  -17
  -56
   83
   17
   71
  -25
   47
   84
   79
   88
  -39
  112
 -109
  -79
   13
   -7
 -108
 -120
 -114
  -27
  120
  -36
    8
   65
  -35
  -73
 -124
   44
  -81
    9
  -60
  -44
  122
  -77
   77
  -11
   18
  -80
  -97
  -61
   30
   -1
  124
  -91
  -37
    7
   47
    4
 -104
  117
  -14
  -44
 -118
    3
   78
  111
   -4
   -8
   88
  -97
  -89
   42
   81
   80
   95
  -23
  -98
 -121
  -92
   45
   87
   27
  -84
   17
   88
  -29
   29
    3
  -20
 -102
   70
  -61
 -113
  -35
  -75
   47
  -97
   -1
   39
    8
  116
   54
   89
   -9
   85
   13
  -35
   45
   68
  -10
   30
  -78
   45
  -77
   17
  115
  118
   72
   69
    0
  -99
  106
   91
  -78
  -31
  -77
   34
  -99
  120
  113
   37
  -18
   86
  -91
  -85
  106
   -5
  -26
    5
  106
   42
 -102
  109
  -70
   84
  108
   79
   57
  -91
   57
   69
   47
  114
   55
  -65
  -80
  -61
 -107
 -120
   -4
  -24
   -8
   33
  -53
 -101
    8
  106
   28
   98
  -45
  -70
   59
  -38
  -32
  -53
  -42
   85
  110
   41
   77
  -54
  122
  111
  -63
   52
  -70
   52
  -33
   67
   20
  -39
   38
   74
  -73
  118
  -80
   48
   96
  117
  -13
   41
  -82
   18
   96
  -79
    5
  -22
  -28
  -10
   87
 -101
   21
  -21
  -55
   90
  -45
 -115
   60
 -121
 -126
  -19
  -98
  -99
   26
  -33
  -77
   11
  -24
   99
  -45
  -33
  -15
  -99
    8
  -92
   38
  117
   42
   75
  -19
  -90
   -4
   84
  -49
  102
    9
 -110
  -83
 -110
   82
  -56
   77
  -96
  -30
  -75
  -81
   60
   66
  122
   47
   82
  -86
 -109
   -6
  -34
   39
   72
   31
 -117
   14
   83
    6
  121
    8
  113
   69
  125
   11
   50
   -7
  -63
  -83
   99
   52
 -105
   41
  104
   60
  -62
  -86
  -63
   42
   -6
   -3
  -54
   42
    3
   32
   -6
  -42
  100
  -35
   11
  -80
  118
   91
  -74
    4
 -114
  -22
  -42
  -39
 -115
  -69
  -74
  -75
   52
  -81
  -44
  -63
    5
   18
  -66
  -88
   91
  -58
    9
   36
   94
  120
   18
   68
   53
  119
   33
   12
   16
  -76
   45
  -81
   36
  -16
   44
   87
   74
   68
   12
 -125
   79
   80
   39
 -114
  -14
  -51
  -17
  126
  117
   32
  -37
  111
  -92
  -58
  -59
   43
 -109
  -85
    6
  -75
   42
  116
  -22
 -116
   -9
   79
  118
  -95
  -23
   28
  -84
   46
    0
  -19
  124
  -15
   73
   12
   92
  103
   73
   97
 -102
  -70
   38
   -7
   51
  -90
  -76
  -31
  -43
  -39
   29
    2
  -62
  126
    9
  -48
  -24
   74
 -122
  -97
  -54
  103
    2
  105
  -59
   85
   31
   22
   31
  -36
   -6
  -47
 -111
  -66
   27
  -17
  -17
 -103
 -112
   95
  -85
  -91
   40
 -106
   70
    6
  -66
  -95
  -97
 -116
   74
 -108
  -10
   90
   39
   77
  124
   53
  -33
   52
   78
 -105
 -110
   70
   93
  -37
   47
   27
  -78
   38
  -44
  -19
   79
   53
  -51
 -102
  -38
   93
   97
  123
  -17
  -79
  -33
  -29
  -76
   85
  -38
  -17
  -41
  -89
  -69
   31
   71
  -68
 -121
   23
  -88
  -94
   26
   56
   60
   98
   89
  -57
   -2
  -33
   68
   78
   22
   46
  -70
  -73
   47
   99
  -63
   88
  -95
   35
  114
   73
   28
   18
 -126
   26
  -64
  -49
   52
   -1
  119
 -114
  109
  -60
  113
   37
   -7
   73
 -125
  -90
   47
   10
   12
   -4
 -100
   17
  -39
   82
   -6
  122
 -112
  -71
   18
  -52
  -38
    1
  102
   -2
 -114
  -82
  -23
   38
   -3
  111
  102
   41
   85
   93
  -37
  -27
 -112
   20
   60
  105
    0
  -40
  -63
   92
   15
  119
  109
  -23
 -108
  120
  -32
 -101
  -65
   99
   49
  -66
   96
   58
   57
   40
   52
 -126
   85
   31
  -52
   15
  -99
  -71
    9
   25
   99
  -89
  126
  -70
  116
  -85
   42
  -42
    3
  -10
   41
  -95
   11
  -94
  -21
   33
    3
  111
   29
  126
  117
   33
  -65
  -17
  -21
  104
  -95
  124
  -70
   57
   91
  -53
  117
  -28
   28
   71
  -48
  120
   80
  115
  -20
  -33
   39
   97
   80
   25
    0
  -21
   -3
  108
    8
   73
 -104
 -102
  -58
  114
  121
   57
   43
   93
  -17
  -61
  -19
   90
   77
  100
  -92
   70
  -49
  -76
  -20
 -115
  -55
 -105
 -117
  -49
   84
 -125
   90
  -41
  -36
  -27
   43
  -92
  -28
  -46
   83
 -100
  112
  -22
   71
  -17
  -79
 -107
  105
  -35
   97
    6
  -20
   99
  -30
  -34
  -72
   98
  -26
  -91
   81
  -10
  -61
   52
  -15
 -121
  -45
  -18
  -58
  -87
   74
   12
  -48
  101
  -34
  -44
   29
  -78
  -44
  -82
  -11
   77
  -16
 -106
   21
   14
 -118
  -85
  107
  -30
    5
  -46
    8
   46
  -43
  -75
   42
  113
  -93
  -49
   62
   25
 -114
   29
  -65
  -37
 -122
   22
 -105
   43
   18
  107
  -58
   79
  -93
 -100
   77
  -49
 -107
  121
  -68
  -81
   87
  -65
 -104
  125
  -11
   16
  -38
 -114
 -124
  110
  -15
   51
  113
 -123
  -61
   -6
   17
   66
  -63
  -25
 -108
  -76
   99
   40
   34
 -123
  -80
 -121
   75
  -51
   -3
   -2
 -112
   55
 -127
   56
  -10
   52
   74
 -125
  -64
 -104
   73
 -123
   85
 -110
  -79
 -108
   64
  -90
  -28
  -10
  -77
  -45
  117
  -87
   55
  -68
   79
   72
   62
   62
 -105
  -50
  -11
   11
  -19
  -70
  -37
 -105
  -20
 -114
  127
  -79
  -59
 -100
  115
   40
   96
  105
 -120
  -11
  -19
   -3
  104
  103
   33
   93
   43
  -38
  -70
  -84
 -126
   -3
   -5
  -57
   68
   65
  -51
   -4
  -26
  -31
    2
   68
  -29
   36
  -49
  -22
  -97
   56
    6
  -29
    1
 -109
   24
   35
  -41
  -69
  -34
 -118
  -82
  -97
   49
   57
 -127
   42
  115
   42
 -121
 -115
  -20
  -91
  -43
  -57
  120
  -60
  -25
  -59
   71
   54
   66
  -68
  -19
  -88
 -123
   15
  -26
  -82
   73
  -49
    7
  -48
   96
 -106
   -6
  -98
   54
   12
  114
   45
  -57
   -9
   41
   31
 -103
   61
   90
   45
   53
 -103
  -29
 -114
   74
  -80
  -40
 -107
   81
  -86
   72
  120
  -32
   77
  -89
   97
   -1
  -88
   46
   30
   27
   69
  -58
  121
  -12
  -18
    0
 -113
  -15
  -67
  -77
    3
   35
  -93
  -60
   56
    0
  -86
  -35
  -97
   56
  -58
   46
   45
  -61
   -4
   -4
  -24
   94
   96
  -34
   22
   78
   63
  -76
  -81
  -65
   95
  -17
  -52
  -17
   22
   55
  -82
   99
  -37
  102
   19
  -12
   -5
   60
   22
   58
  -27
   98
  117
   20
  -45
 -117
  -26
   59
   27
   56
  -63
 -114
   66
   73
 -106
   68
   71
   74
   80
   23
    0
   20
  -96
   74
  -59
   71
   93
   78
  -40
  -72
 -100
   77
    3
  -13
   22
  -48
  -75
   35
   -4
 -101
 -111
   57
  -66
   51
   12
   69
   58
   15
  -59
  -39
   67
   15
  -98
   24
  -21
  -18
  -96
  -41
  -35
   26
   44
  -73
  -89
  -96
  -62
 -119
   89
   58
  -22
  -90
   12
   78
  -35
   -7
  -13
   54
   79
  -71
  -51
  122
   52
  -25
  -31
  -43
   59
   11
   13
  -92
   47
  -54
  107
  -96
   66
  -14
   99
   89
   38
  121
   93
   -7
  104
  -45
   35
  111
  -24
   98
   30
 -104
   56
  -95
   90
 -115
  -35
   95
    4
   22
   51
   93
  -74
  -29
   77
   -1
 -102
  -27
  101
  -89
   67
  122
  -88
  103
  -37
   49
 -109
  -36
   91
  -13
 -101
    4
  -20
   72
  106
   45
   23
    0
   92
  -34
   23
 -112
   61
  -27
  -72
  -86
   25
  -92
 -125
   83
  -80
 -107
 -104
   65
  108
 -100
   33
   83
 -105
 -123
  102
   -4
   80
  109
  -92
  -91
   95
  -49
  -84
   87
   -8
    9
  124
  -99
   35
  -94
  103
  107
   14
  -44
  105
  -17
   72
  -68
  -64
 -112
    9
   -3
   76
   45
   50
  -37
   14
    8
  -30
   64
   46
   23
 -109
  -89
  -46
   95
   74
   44
  -25
  116
   90
  -28
   46
   -8
  -89
  -66
  -72
   21
  -45
 -121
   26
   12
   27
   -3
  127
  -48
  -58
  -75
   92
  -95
   81
   92
   -1
   95
   54
   33
   34
  108
  123
   43
  -90
 -119
  -73
  -42
   15
  -26
 -115
    0
  -14
  -49
   92
   10
  -37
 -106
  -24
   -9
  -71
 -110
   57
  -73
  -52
   19
   67
   82
   -4
   -8
    0
   66
  -53
   80
   52
 -126
  -87
   41
   91
  -27
   49
  123
  107
    4
   34
  -31
 -104
  -68
 -106
  124
  -10
   68
   63
   -8
  -13
   77
   25
  -19
  -48
  -49
   56
   48
   14
   97
 -111
  100
   32
 -112
  123
  101
  -50
   11
  -39
  -34
    3
   77
   -6
  125
  -32
   89
 -119
   71
  -43
  -61
   38
  119
   21
   94
    6
  -22
   10
  -54
   46
  -24
  -93
   21
  -96
  113
  -45
   56
   84
 -112
  -67
   27
   84
   48
 -115
   47
  102
 -113
 -103
  -26
  101
   44
   83
   94
   33
   18
  -11
  -15
 -106
 -120
   78
   45
  -56
  -78
  -27
   34
  -70
 -117
 -105
  -45
   27
  -18
  102
    6
   84
    4
  -26
  -75
   56
  -34
   14
   36
   65
  -12
 -122
  -77
  -61
    4
  -64
   35
   49
   66
  -61
  -78
   87
  -73
   56
   25
  -89
   19
  -25
  -41
   13
   91
  -12
  -37
  -22
  -45
  104
  115
   52
 -104
   79
  -58
   48
  105
 -104
  -52
   69
    5
   30
  -97
   15
  116
   58
  108
 -114
   57
 -107
   57
 -116
   22
  -51
  -22
  117
  -77
   -2
 -105
   87
   37
 -126
  117
  -70
  -69
   71
  126
   12
 -101
 -113
  -70
  -49
   80
   91
  -91
  -73
 -121
  -42
   45
  116
 -115
   54
  -68
  -87
   62
  120
  -33
   40
   46
  -95
  119
  -66
    8
   85
   46
    4
  -23
  -90
  -65
   51
  -21
  -89
   80
 -103
   95
    4
  -86
   63
  -18
  -87
 -106
   93
   71
  -59
  -55
   27
 -115
   86
  120
   64
  108
 -100
  104
   81
   37
  127
  -73
  125
 -122
  -27
   16
   16
   -8
  -14
  -76
  -77
   90
   49
  -31
  -79
  -62
  -52
  101
  125
 -106
  -39
 -105
   33
  -63
  -19
    2
  -56
   10
   77
  -96
   64
   -5
  127
   -8
   10
 -105
  120
   31
  -13
  105
  104
  -95
  -62
   26
  -80
  -60
  -83
    2
   32
  -22
 -104
  -38
    7
  126
 -101
   33
   27
   70
   -8
  -90
  -72
   95
  113
 -100
    1
  -50
   70
   58
  -59
   68
   87
  -25
  112
 -124
   29
  -87
  -30
  -19
   46
  -29
  -63
   69
  -81
  127
  -46
  -97
   71
  118
  -27
   45
  -52
  -69
   87
  -28
   31
   80
  117
   -1
   88
   11
   26
  -14
   46
   44
  107
   29
  -68
  -91
  -83
   65
 -108
 -109
  -62
  -88
  -79
   37
   73
 -125
  123
 -125
   79
 -100
  107
 -120
   27
   57
 -108
   57
  106
   50
   99
   26
  122
   79
  119
  -15
   51
   28
  -27
  -94
   38
   15
  -52
 -115
   53
  -95
  102
 -113
  -60
 -108
  110
 -126
  -95
  127
  -45
 -122
  -81
  -70
  116
  -94
  -38
  107
  -27
   96
   25
    6
 -104
  116
   10
   79
   11
   51
  124
 -105
  115
 -115
  115
  -78
  -76
  -41
 -122
  -35
   -3
  -82
   84
 -121
   43
   58
 -113
   27
 -125
   39
  -15
   28
  -88
  -90
  121
   59
 -122
  -45
  -33
  -76
   -2
  -89
   88
    8
   25
  -48
  -40
  -10
 -111
  -52
   48
  -90
  122
  125
  -90
  -20
   49
   26
  103
  -86
  -39
   -6
  -39
   20
   16
  118
   -4
   -6
   15
   51
  102
  -56
   52
   31
  -54
  104
   73
  111
  100
  -42
   30
   -9
  -97
  111
    7
  105
  -67
  -45
   36
  -28
 -114
   74
   43
   30
 -107
  -59
   26
  116
  -68
  -82
  -26
  -19
   26
 -104
  115
  -80
  121
  -36
  122
  -92
  -63
  -81
  -23
   -3
   75
   19
   -6
   10
 -117
  -10
   55
   25
  120
   41
  -89
  -94
  105
  107
  -92
 -115
  -62
  113
  -26
  -30
   67
  -87
   89
  -42
   34
 -120
   33
   71
  -15
 -100
 -106
   32
  -47
   89
 -107
   66
   49
   52
  -86
  -44
   64
  -98
   94
   13
   95
  121
   30
  -57
 -124
  116
   50
  -89
   34
  -75
  111
  -70
  -89
  124
  118
   92
  -17
   -5
   80
  -20
 -126
 -106
  -12
  118
  -53
  -43
   56
  -91
   65
   83
   44
  -74
  127
   95
   78
   -1
    7
  -70
    6
  -70
  -45
  -72
   -6
    0
   85
  -39
 -116
   78
   46
   83
  -94
 -113
   87
   74
  125
 -120
   65
  -85
  -49
  -35
  -19
  105
   67
   41
   88
 -112
 -126
 -110
 -107
  100
  -51
  -98
  -89
   66
  -24
   33
 -108
   53
  101
  -63
  102
  -86
  102
   48
  120
  -23
  108
  -44
 -114
   34
  -77
 -121
   21
    3
   35
   80
   74
  -21
  -56
   40
    6
 -117
   45
  -58
  -34
   78
  115
  -29
  121
 -102
  108
 -127
   81
   95
   71
  103
  -38
   94
   28
  127
  -57
  -52
   94
  -43
  -74
  -10
   23
 -125
 -102
   57
 -115
  -44
  -52
  107
   51
 -102
  -62
  -72
  -44
  -38
   88
 -100
  -92
  -75
 -116
   19
   89
  -46
 -123
  -20
   48
  -90
  -65
  -76
  -60
   34
  -51
  -30
   26
  -70
   14
  -45
   55
  -83
  103
 -112
   77
 -125
 -109
  -37
  -24
  -16
  -80
 -114
  110
   26
  115
   11
  119
  -86
 -127
   92
  -46
  -78
  127
  -74
  -58
  114
 -124
   99
   39
  116
  -30
   26
  -63
   26
  -76
   47
  -89
  -43
   70
  -40
 -111
   58
   25
 -117
   75
   76
  107
   16
  -93
  -42
   19
  -72
   64
   47
    5
   35
  114
 -121
  -36
  -10
  -62
  -40
  102
   91
   20
 -119
  -58
   65
   71
   47
   88
   37
   64
   47
 -122
  -67
  -44
  -38
 -121
  -28
  -79
  -20
  -49
   34
  -84
 -101
  -50
  -47
 -118
  -61
  -43
  119
  -18
   58
  -79
  -67
   22
   35
  -18
   36
   99
   40
  -30
  -50
  -52
   99
  -89
  103
    4
  -42
 -115
   87
  107
  112
  -50
  -35
  -49
  -27
  -88
  -86
   90
   69
   -2
  127
  -24
   60
  101
   -1
   19
   60
   86
   37
  -13
  -53
 -105
   56
   99
   36
    6
  -80
  -62
   13
  -44
  -86
  105
   86
   44
  -10
 -114
 -116
  -61
  -89
   37
  -79
   71
  -70
  -11
  -61
   68
   85
  -50
  -24
  110
  -76
   68
   33
  -64
  -29
  -62
  101
  -26
   95
 -101
   41
   -4
 -100
   41
 -110
   56
   13
  123
 -112
   -8
 -116
  119
  -17
 -100
   21
 -113
  100
  -57
   -7
   55
   13
  -76
   -2
   42
  -98
  -71
  -16
   49
  -12
  110
   70
 -125
  109
 -101
  -23
 -110
   58
  113
   44
   -9
  -88
 -108
  -11
  -26
  101
   10
  -62
    0
  -69
  -85
  -47
   26
   -7
   70
   82
  -56
   40
  -96
   66
 -122
  -10
  -64
   57
   90
 -111
   43
   45
 -118
  -11
  -97
  -13
  103
 -123
  105
  -49
   89
 -110
  -65
  -39
  -14
  -95
    6
   88
   44
  109
  -14
  -79
  -23
 -100
  -93
  -99
   76
  108
  -15
  -37
   64
   -5
   17
  -80
  -24
  -33
 -102
  109
   64
 -105
  -39
  -60
   -5
   -2
  107
  -86
   86
   68
   10
  -91
   26
  102
  -68
   26
   49
 -119
  -45
   24
   14
  -61
  -65
  -43
   98
  -10
 -115
   32
  111
   34
   55
 -118
  -11
  -54
  119
  -21
 -116
   30
   -9
  -70
  116
   27
   83
  -89
   24
   65
  -96
  124
 -110
  -77
  -69
  -47
    2
  -29
  115
  -43
   42
   78
 -108
 -107
 -113
  -33
   33
   85
  -30
    3
  -57
  -27
   75
 -102
  -88
 -114
  -15
  124
 -102
   81
   33
   -3
   -9
   10
  -35
   47
  111
   -2
   20
  -53
   38
  101
   74
 -125
   34
 -112
  -23
  111
 -118
   71
   50
 -127
   -3
  -65
   26
   35
   48
  -35
   37
   22
 -126
 -101
   88
  -89
  -99
    5
  -21
   48
   54
  118
  -24
    8
   53
   99
  127
  -19
  -42
  -82
  -31
   55
   31
  -51
   47
  -61
 -116
  -71
   29
  -62
  -41
  -10
  -46
  -34
  -22
  118
   24
  -13
  -58
   65
  -25
  -35
  -22
   11
   60
  122
   61
  122
  -91
  -73
   69
  112
   84
  -67
   13
   31
  118
  116
  -76
  -53
   19
    1
 -117
  -71
  -53
 -118
   36
  -37
   15
  -74
  118
   17
   36
 -126
   -1
  -46
   44
  -96
 -124
    8
  -18
   46
  123
  -42
  -30
   63
   56
  123
  -16
   14
  103
  -98
 -108
   87
  -45
   -9
   54
  -12
  -48
 -122
 -126
 -110
 -116
    0
  -65
  -35
   92
  108
  113
 -125
  110
  -57
 -104
   81
   35
   18
 -127
  -51
   97
  -15
  -69
   59
  -86
   17
   40
 -117
  -85
  -90
   54
   92
   -5
   -3
    4
  -37
  -77
  -46
   73
 -112
   26
   65
   69
  -67
   50
  -44
  109
    2
  -65
 -101
   71
  101
    5
  -14
   51
  117
   30
 -117
   71
   25
   -8
  -67
   -6
   64
  -39
  103
   39
    7
   21
   24
   36
  -95
  -56
   89
  -79
  -47
   70
    8
  -36
  103
 -111
   69
  -64
   92
  -42
  107
  -33
  107
  -33
  -74
   26
  -70
  -48
  -66
  -90
  -32
   33
   69
   -5
 -114
   97
  -32
  -18
  -75
   53
    9
   71
  -91
  -60
    4
  -27
  -94
 -100
  -97
  114
  -44
 -118
  -26
  124
  -65
 -126
   43
  -59
   17
   66
  -84
  113
  -17
 -114
  -25
   93
 -115
 -115
  -49
  -15
  -21
  -11
  -79
 -117
   33
   76
   15
   52
  -69
 -109
  -26
  -47
  -63
  -94
   13
  -47
  -50
   40
  -23
   -3
 -101
 -103
  -66
   53
   79
   58
 -117
 -100
  127
   85
   91
  -67
  126
  -29
   39
   92
  -22
   16
    3
  -61
   83
  -13
  -28
   73
  -36
 -111
  -66
   15
 -102
   16
  -93
   63
   29
   62
  -85
  -80
  111
  -59
   95
   31
 -109
   87
   59
   19
 -124
   77
  117
   71
  -42
   61
  125
  -78
  -80
  -13
 -120
  -45
  -44
   18
  -24
   43
  -18
  113
   -3
   62
  -86
  -51
   59
   63
  118
 -112
   84
   28
  -32
   84
  -55
 -104
   22
   64
  -64
  -27
   17
  121
  109
   76
  -76
   12
  -70
   47
   92
    1
   -5
 -101
   85
   45
 -108
  -74
   59
  -84
  -51
   97
   73
   -2
 -109
   -6
   29
   -2
   83
 -115
  -50
 -125
   84
  107
  114
  -47
   73
   36
   38
  -93
  103
   82
  -67
  -90
   76
  103
   44
  -39
   95
   18
  -73
  -64
 -118
  -34
   40
   59
 -107
  -85
   92
  102
  100
  -58
   29
   81
   64
  -72
   -5
  111
   27
  -37
  120
  -51
  -70
   -8
   51
 -105
 -120
    5
   97
 -101
   66
   88
 -105
  -46
  -85
   89
   -4
   51
    2
  -53
   33
   35
   68
   36
   50
  -86
  118
   41
  -67
  -73
  122
   59
   -7
   39
  -71
  117
  -62
  126
   88
   22
   70
  -56
  -64
 -108
   34
   40
  -56
  -27
   27
 -105
  -33
  -37
  -25
   -8
  -92
  -35
  -97
  -19
  -85
  -46
  -62
  -62
    7
   60
 -101
   63
   24
  -62
 -109
   30
 -109
  -95
   77
   -4
 -113
   43
 -114
   76
   31
  -20
  -91
   30
   85
 -100
   64
  -73
   49
   37
  -76
   10
   -9
   29
  -79
   71
  -48
 -108
   28
  -62
   54
  112
   57
   11
  102
   62
   -3
   20
  101
 -116
  -95
 -100
   -6
   88
   59
   32
  127
   93
 -112
  -82
   65
 -126
   63
   53
  -48
  120
   25
  -13
   78
  -18
  -72
  -37
   24
   33
  -69
 -123
   44
   18
 -107
  116
   82
 -113
  117
   49
  -68
    3
  115
  120
   69
 -115
    5
   20
   61
   84
   39
  -26
  -31
 -113
  -25
  -75
   78
  -82
  -30
  -60
 -122
   21
  -68
   41
 -118
  -86
    8
   28
   11
 -110
 -103
   75
  -52
  -78
  -80
  -81
   72
    6
   69
  -19
   77
  111
   -3
  -35
  -20
  -28
   42
  119
   64
   24
  122
   14
   65
  -59
   89
   28
    0
  -15
  -79
   95
 -104
   67
 -126
 -108
  -95
  112
   69
   12
   76
   16
  103
   88
   85
  -77
   37
 -109
  101
   50
  -76
   33
 -123
   79
 -123
   88
  -87
   54
  -33
   18
  116
   32
 -111
  -75
 -109
 -123
   10
  102
   83
  -16
 -103
  -24
  -30
   37
   16
  -78
   30
  -45
   95
   66
   64
   10
   10
 -108
  -39
   49
  -57
  -91
   30
   12
 -102
   48
  -48
  106
   71
   10
  -25
   78
  -84
   62
  -55
  -65
  -61
  -34
  102
   89
    3
 -100
   25
   16
 -125
    5
  -60
   -8
  -72
  101
  -77
   41
  -72
   41
  -57
  -18
  124
 -102
   69
  120
  -98
   49
   33
  -43
   35
   33
  -67
   44
  -57
  109
   53
   -6
  -23
   68
  -50
  113
   -2
   46
  -45
  -29
    6
  -89
    4
  -16
   63
  117
  -15
  120
    0
  -73
    2
 -115
   62
 -126
   16
  -64
  -15
   80
   86
  120
   12
  -59
 -124
    0
  -65
  -17
 -124
   28
  -58
  104
   91
  -18
  -72
   10
   47
   57
  -33
   43
  -78
  -60
   29
   42
   11
  -28
  106
  -58
 -106
  -86
 -119
   67
   40
 -112
  -98
   74
  -20
  -34
   69
   77
  -25
  -30
  -67
  -43
    3
  111
  -38
  116
  -35
    1
  -68
   65
   75
 -108
  109
   75
   21
 -110
   37
  -82
  -83
  -15
  -75
   82
   70
  -10
  107
   67
   12
  -73
   15
  -98
  115
   67
  -18
    4
  -58
 -127
   82
   77
   57
 -119
   37
   17
 -126
  125
  111
   64
   54
    4
 -119
   66
  -67
   -4
  -62
 -124
   39
  -26
  -20
  -75
   75
   53
 -108
   95
  -21
 -119
  -28
  104
    5
   27
   54
  -28
  -53
  125
  101
  -98
  100
   34
  114
  -17
  -17
   99
   98
   -1
  -47
  -41
   -1
  -90
 -118
   99
 -105
  -80
   43
  -48
   92
   58
 -113
   61
   50
  103
  107
  -47
   -9
  -92
 -104
   10
  -93
  -41
  -38
    1
   45
 -123
   61
   57
  -64
  114
  -98
  -93
  -89
  110
  -87
  -97
  -34
   85
  116
   85
 -106
   28
  -76
   23
  108
  -25
  112
   61
 -111
  -91
   93
  -45
   67
   97
    1
   -7
   47
  -52
   40
  104
   77
   56
   49
   25
   37
  -31
   29
 -109
  -74
  -48
   97
  -76
  -62
   85
  -15
  115
   23
   11
   44
  -41
  123
  -24
  116
   75
  114
    0
  -99
   15
   36
   39
   76
   81
  -82
   18
 -101
   79
  -46
   64
  110
  123
 -113
   88
   46
    1
  -52
  -51
  109
  121
  122
   38
  -88
  -78
  112
  -64
  -71
   80
  -15
   67
  -89
 -104
  -83
  -74
    8
  -62
  122
 -117
   73
   55
   61
  -21
    4
  -17
  -82
   15
  -53
  -62
   26
   49
   -6
  -98
   36
   -7
  127
  -40
  -69
 -109
 -120
  -86
  -71
  -32
  100
  -87
   19
   30
  -26
  -91
   93
   59
   54
  -63
  115
   47
  -74
  -78
   39
  -95
 -100
  103
  -60
 -108
  -50
   43
   33
 -107
  -34
  107
   81
  -61
  -27
   46
 -126
  -15
 -103
    6
  -27
  124
   40
   20
   67
   76
  104
  -49
  -85
   91
  -57
  -78
  -22
 -102
 -125
 -117
   19
  -61
    4
   28
  -82
 -110
  115
   46
   59
   17
   -1
  -29
 -109
  -34
   67
  -80
    5
   80
   -6
  -38
   74
 -102
   87
   32
  -37
 -105
  125
 -106
   77
  -88
  117
   77
  -97
   96
   94
  -11
 -116
  -89
  125
   -2
  110
 -114
  -49
   96
 -118
  118
    3
  105
   19
   57
  103
   73
   22
   74
   63
  -47
    1
   62
    9
   51
   45
   68
   34
   10
   29
   77
   29
 -112
  -40
    7
  -42
   19
  -68
  -88
   66
  -90
  -12
  -53
 -125
  112
 -103
  -10
   51
  -25
   99
   29
  121
   16
  -82
  -27
  -64
  -93
   83
  -95
 -101
  -70
   12
   96
  -43
  -33
   73
    0
 -104
  -42
 -111
  -38
   52
   38
  -91
 -122
  -79
    1
  -75
   86
   44
 -123
   -5
  -97
  -85
  -86
  -37
  -13
   87
  105
   67
 -122
  109
   18
  101
   98
   68
  -82
  -10
   31
   -7
   -2
   48
 -119
 -104
 -127
   82
   29
  -18
  112
 -121
  -81
  -18
  -71
   48
  -49
  -13
  -91
   80
  112
 -124
  -14
   14
  -45
   95
  -90
  113
   23
   39
  -85
   38
  120
   88
    8
    8
   -8
   65
  109
  102
  -38
   90
   63
  -70
   88
  -69
   65
  -25
  -40
  -90
  -63
   79
  -58
  -85
  123
   46
 -112
   -6
 -110
  -29
   32
  102
   72
   20
   47
  125
  -89
  -45
  -97
 -104
   20
   -7
  100
  -88
 -108
  -43
  -74
  -74
 -117
  123
  -73
  -26
 -112
  -14
   61
  -91
    3
   79
  -61
  -83
  -51
 -102
  -39
   11
 -105
   36
    4
 -125
   56
   49
   19
   79
 -118
  -46
  -22
   92
   36
  -27
  -31
   44
 -108
   31
   26
   46
  121
   11
  -44
   37
   51
  -30
  102
 -105
 -118
  -61
  -45
   60
  101
   62
    7
  118
  -64
   17
   25
   46
   26
  -50
  -45
  -87
   25
   20
   81
  -72
  -84
   42
  -48
   56
  -92
    0
  -35
  -87
  -40
 -116
  -46
  -68
  -30
  -57
   -6
  113
  -42
  -24
  -30
  -41
   21
    0
    9
  -79
  108
   67
   98
   -9
   22
   -8
   61
  -56
  -93
   97
  -67
   83
  -17
  -22
   99
  -48
   65
   83
    3
  -46
   80
   94
  -55
 -103
  -14
   57
  -29
   74
   36
 -121
 -106
   18
  109
  -91
   30
  -34
   81
   17
  124
   39
  -77
 -106
  -95
  124
  118
   95
   68
   18
 -113
   77
   -6
  -15
  108
  -62
  -88
 -121
  -67
   78
 -113
   98
  -32
  -77
  -49
 -101
  -73
  -43
   36
   28
  -47
 -108
    2
   13
   61
  111
 -126
  -86
  106
 -106
  -37
  -57
  -78
  -36
  -55
 -105
  -96
   -8
    6
  -40
   21
  -40
   85
   92
  -61
 -118
  -34
   -7
  -43
   51
  -51
  -64
   64
  -19
   60
   -9
 -102
   20
  -12
   45
  -55
   58
   97
 -119
   62
   49
   96
  -66
   83
   76
   77
 -103
   34
   98
  -52
  -62
   15
   84
   61
  -81
   90
   49
 -110
  111
   13
    8
  -45
   59
  -50
  -74
  -89
 -102
  -81
   86
  -41
   64
  103
    4
  -18
  -69
  -31
  126
  -54
  -94
    3
   60
  -47
 -111
   94
   40
  -90
   38
  -78
  102
  122
   10
  -61
  -13
 -126
  -29
   13
  100
  -61
   56
 -114
   70
   58
  -28
   19
  -31
  -34
   58
   91
   42
   37
   22
  -44
  -68
   21
   69
  -75
   62
   -8
  124
  -30
  124
    5
   56
  -62
  118
  109
  -86
 -109
  -75
   11
   -8
  -55
  104
  -39
   10
 -109
  -14
   49
 -111
   18
  -13
 -123
   68
   14
 -123
  -41
   30
  -91
 -124
   21
   31
   25
  -42
   80
  -28
   97
 -126
   81
  -39
  -49
  -52
  -64
   82
  -63
  -24
   39
  102
  122
   10
 -117
  108
  -46
 -115
  -66
 -109
   26
   -3
   98
  -74
   44
  118
   87
   24
   26
   -2
   43
  -29
  -62
    4
   -5
  118
 -105
  -75
  -80
   83
  -50
   14
  100
   96
  -23
 -111
   89
  -67
 -113
   87
 -103
  -81
 -111
   16
   96
  -50
   39
  -71
 -119
   37
   10
  127
  -21
  115
  126
  -77
   94
   51
  -70
   26
 -123
   54
    6
   59
    8
   93
  -49
 -126
  -79
  105
  101
   87
  -62
  -74
  -39
  -17
   25
  -31
  119
  -45
   20
  -89
   35
   28
  -41
 -121
   59
  -34
  -17
  -96
  106
  -45
 -123
  109
   38
  -17
   63
 -112
  -72
   65
  -70
   89
  -82
  -53
  126
  -25
  112
  125
  -54
  102
   85
   42
   40
  -65
  -99
  116
   76
  -61
    0
 -114
  -22
  -57
  -58
  108
  -61
   64
   33
  -42
  -81
  -18
  121
   44
   62
  -90
  -34
 -123
  -65
   89
  103
  -44
 -105
   28
  -73
   -9
   79
 -122
  125
  -18
  -10
   42
  -48
  -26
   74
   52
   63
   19
   31
  -77
  102
 -103
  -52
  101
   71
  -83
  108
   87
  -78
   -9
  -53
   46
  -68
   47
   58
 -104
   19
  -71
 -105
  -79
  126
 -127
  -47
   51
  -62
  -48
  -53
   20
  -19
    7
  107
 -118
  -18
  -99
  -70
  -86
  -10
  -39
   68
   76
   35
  -62
 -127
   89
   45
 -122
  -42
   68
    4
 -123
  -46
  -11
   14
    2
   43
   16
   54
  120
  106
  -30
  -54
  -57
   71
  -29
   90
   90
  -68
  -54
  -88
  123
   84
   25
  -23
  -83
 -109
  120
  -55
   83
   92
    9
   39
  118
  -36
   80
   46
  -66
 -125
  -98
    7
  -14
  -67
   73
   14
  125
   -3
  -27
   75
  123
  -55
  -13
   97
   75
 -125
 -118
   11
    7
  -68
  -32
   41
  -96
   -2
 -105
 -127
  -71
   36
   18
   15
 -119
   32
   37
   12
   88
   76
   96
   54
  -85
  105
   69
  -42
  100
   87
  -76
   68
    9
  -28
 -100
  -80
 -116
  -11
  111
    8
 -121
   32
   39
   25
    2
 -110
  -91
   96
   -1
   26
    1
  -45
   36
 -119
 -112
  101
  -29
  -94
   75
   79
  -67
   -7
  -95
 -124
  -23
  -73
   73
 -125
   88
   82
   52
   68
   68
   82
   27
 -106
    3
    8
   10
  -32
   75
  -39
    4
  -49
  127
   11
    1
 -110
  -16
  -83
 -116
  -80
  -26
  -88
   44
  -81
   95
   68
   -8
  -20
  105
  -50
   -8
   88
  -81
  -31
 -110
   95
 -103
    5
    6
   10
    0
   13
  -78
  -22
  -75
  -82
   42
   27
 -119
  123
  -66
  -60
   74
 -118
 -105
   74
 -111
  -59
  -60
  -75
  -45
 -121
  -73
  119
  -98
  -67
  -71
   39
  113
   96
  -95
 -110
 -117
  -38
   64
  116
  -25
   51
    4
    3
 -104
   26
 -125
  101
 -113
  -80
  -67
 -111
  -88
  -30
  -82
 -118
  -85
 -107
   81
  -81
   89
  -67
  -63
   87
  -65
  -74
   70
  -51
   72
  101
  -80
   86
   94
   60
  -22
   -7
   36
   65
  104
  -57
  -34
   70
   35
 -115
  -53
   13
  103
   53
  124
  -27
   16
  -54
  -66
   55
    4
 -121
  103
  -71
  -59
   78
 -111
  -78
  -18
 -121
   36
 -121
   18
  -44
  123
   48
  -70
  -45
  -36
   84
  -51
   25
    4
   10
  -35
    2
    4
   49
  124
   60
   53
   32
  -14
  -18
   -3
  -13
   30
   93
   42
   42
   33
 -106
   -1
  -26
  -60
  103
   77
  -94
  -82
 -127
  114
  -93
   20
   27
   73
   93
   10
   26
  -93
  -90
   -8
   58
   62
  -39
 -113
  -21
   -7
 -113
   33
  -31
  -43
   32
  -43
  102
   74
 -121
   89
   20
 -104
   57
  -11
   -1
  -82
   81
   75
  -45
  -52
   65
   35
  -26
  108
  123
   45
   -7
  -99
  120
   -9
   43
 -117
   34
   54
   -1
   64
  -37
   17
    0
   70
   40
   66
   74
 -123
   58
   33
   85
  -86
  123
   79
   33
   57
  -66
   50
   27
 -124
  122
  105
   -5
   28
  -51
   67
  -43
  -65
  -30
 -112
   23
  -58
  -91
   38
  107
  108
  -44
  110
  -20
   23
  -72
  123
  122
  -66
   67
 -117
   20
   51
    8
   -3
  -66
  -31
  -73
   19
  122
  -92
 -100
   25
   -9
  104
   48
 -123
  -81
   76
  100
  -55
   76
   96
  -79
  -25
   51
   38
  -93
   55
  102
   37
  -90
  -46
   -4
   74
  117
   -6
    2
   21
   66
   72
  -70
  -87
   22
    5
   89
   15
  -62
    6
  -63
  -92
 -120
   49
   18
    8
  -78
  -12
  -74
   -6
   57
 -118
   33
   74
  119
 -124
  104
  108
  -64
  119
    5
  -66
  -71
  -12
  120
  -94
  -86
 -125
   42
  -90
  -76
  -58
  -72
   23
  -91
  -49
   -1
 -125
   11
  -28
   13
   39
 -109
   79
 -109
 -101
  123
   22
  -44
  126
  -20
  -61
   91
   25
 -127
   91
 -125
   78
 -124
   12
  -26
  -54
    5
  -12
  104
 -115
  -37
  -74
  -80
  -75
  -98
  -39
   31
  -74
  -15
  -48
  102
   93
 -108
  -22
  104
 -104
  109
   97
  -51
 -126
  127
   21
  -57
   18
    9
  -60
    5
   93
  120
   94
 -114
  -68
  123
  -14
  -55
   20
  103
  -25
  -11
 -125
  123
  102
  -12
 -127
   21
  -16
   52
   39
  -96
  -24
 -125
  -80
   68
  -92
  -13
  -36
  -47
  -13
  123
   53
  126
  -93
 -123
   61
  -79
  -37
  -56
  -23
   81
  -74
  -94
   86
   46
  -65
   36
 -112
   54
  127
   54
  117
   73
  -64
 -126
   11
  127
   31
  -60
   27
  111
   15
  -40
  -16
   61
  -68
  -82
  -87
   58
   45
 -115
   50
 -123
   79
   20
   98
  -88
   11
  -29
  -28
  -72
   -2
   55
  -16
  104
  -12
  -18
   -1
   -7
   38
   -7
    0
   30
   60
   -6
   74
    6
  126
   39
    9
   70
  -25
 -120
   92
   95
  110
   26
  -76
  -61
 -101
 -104
   55
  -70
   74
  -47
   84
   95
   38
  100
   28
 -112
   58
   75
  -61
  -22
  112
  -36
 -111
   70
  -80
  105
    5
   56
  105
  109
  -32
   27
   26
  -51
  -31
  -55
   -9
  -54
   84
 -110
  -30
  -24
   -6
  -72
   81
  111
   95
   -6
  121
  -80
   27
  -11
  -78
  -50
  -46
   27
   -9
  -33
  112
  105
  119
   19
  -18
 -126
 -121
   25
  -94
  111
  -48
   84
 -119
   92
  103
  -79
    4
  -59
  -91
  -51
   91
   91
  -92
  -53
   94
   10
  -77
   88
  -45
   98
   11
   -7
 -106
 -101
   87
   99
   -4
   -4
 -113
 -112
  -78
  -37
  111
   20
 -113
  -63
   66
  -65
  124
  -37
  107
  117
  115
   26
  -66
  -81
  -87
   63
  -23
  -71
   49
  -13
   37
   81
  101
   98
  -45
  -76
 -114
   91
   82
  -99
  118
   77
 -107
   51
   77
  -48
   32
  -98
 -106
  -74
  -88
   96
  -27
   46
   40
  -56
   84
   95
  -54
  -25
   80
 -115
 -103
  -47
  103
   19
  -84
 -107
   12
   85
  -91
  103
  -28
  -99
  -50
  110
 -102
   62
  -19
  -54
  -59
  125
  -47
  -63
  -14
   99
 -108
  -47
  107
  -57
   32
   -2
    2
  -44
 -124
   30
  123
   26
    3
   -2
  -74
   35
   61
  -63
   39
   24
   10
 -105
  125
 -108
 -105
 -124
  116
   12
   27
 -124
   13
    1
   77
    2
   66
  122
  105
  -45
   13
   89
   57
   59
  113
   44
   -3
  -40
   94
  -40
  -38
  -70
 -110
  112
  -51
  108
  -71
  -12
  -69
   -6
  -58
  -37
  -35
   40
  -56
 -112
  -33
  -61
  -20
  -77
   72
  -94
  -40
  -47
   97
   12
 -113
   80
   41
  -98
  -56
    8
   59
   83
  -69
  108
  -34
 -118
   38
   81
  -20
   78
  -75
  -48
   95
   22
   64
   65
 -120
   36
   49
  -68
  -53
  -75
   88
 -103
  -79
   67
  -73
 -116
  -82
  -16
   51
  -16
  -43
   -4
 -125
 -114
  -36
   69
   29
   21
   52
    3
   19
  119
  -90
   70
   48
  -97
   66
  -42
   45
  -26
  -93
   30
   76
   23
   17
  -81
    3
  119
   12
   14
  -78
  -59
  110
 -101
  -81
  -66
   62
  -65
  -23
  -60
   -8
  -30
  -74
 -108
  112
    6
  -56
  -21
  -60
    6
  -24
   14
  -58
   75
 -119
   46
   95
  125
   76
   38
    9
  -54
 -102
   23
  106
  -33
  -55
  -71
 -114
  102
  -77
   55
   59
  -69
   48
   67
  -38
  -65
  -71
  -65
   59
   78
   71
  -86
  -39
 -120
 -119
   -5
 -121
   96
   45
   81
  -78
  -11
  -13
  -69
  -99
   22
   20
   62
   70
    7
  -36
  -41
  102
   44
  -44
   92
   52
  107
   27
  -47
    2
   92
 -126
   22
   89
  -89
  -42
  -74
    2
   79
 -122
  119
  -39
   22
  -53
  -95
 -127
  -81
  -58
  -96
   61
   79
    9
  102
 -104
 -104
   25
   70
   91
   82
  -52
   47
  -96
   39
  -58
  116
  -22
   21
   51
  -54
  -93
   92
  -49
   87
   11
  -87
  -27
 -109
  -91
   32
 -115
 -101
  -76
   14
   12
  -22
  -30
  -50
  120
   85
   68
  -83
 -123
  -83
  -16
  -94
   75
   57
 -105
 -109
 -122
  -10
  -95
   64
   37
   79
   -1
  123
  -27
    0
  -33
  -63
  -48
   79
  -45
   -2
  119
 -126
  -62
  104
  -17
    7
  -66
    9
  -18
   42
   36
   18
   54
  -83
 -115
  126
   95
   64
   81
   87
   98
   47
  -24
  117
   76
   46
  109
  -18
   -2
  -12
 -125
  113
   72
  118
    4
   91
   37
  -87
   16
  114
  124
  -23
  115
   25
  -40
  121
  -12
  -54
  -27
  123
  -96
  -26
   56
   56
   47
    5
 -108
   18
  -31
   74
   60
 -117
   18
  -45
  -21
  -79
  -76
   -4
  -66
  -84
  111
   46
   66
   -6
  113
   44
   -6
  -82
   43
  -21
  -94
   47
   15
  101
  -60
   21
   19
 -110
   45
 -126
   20
   67
  -38
   83
   77
 -101
 -111
  -75
  -60
   -3
   68
  125
  -38
  -30
  120
   -9
   -1
  -86
 -112
   -2
  -85
   74
  -63
  -80
  -49
   96
 -104
   35
  -87
 -105
   67
    9
   53
  -97
  -31
   22
   31
  -61
   64
  122
  -37
   95
 -107
   97
   65
  -24
   29
   45
   91
   62
   90
   -3
 -104
  -19
  -64
   28
   91
   52
   39
   73
  -22
  -99
   77
  -40
   52
   38
 -127
  -61
  -68
   84
    3
  -31
   37
  -86
   20
   18
  -16
  -59
   49
  121
  103
   44
   22
  -20
   10
  -31
  -97
  120
   65
   16
  107
  -88
  -40
   -5
  -58
   95
  -18
   64
   99
  -68
   77
  118
  -86
   38
   30
  -72
  124
   49
   34
  -19
   87
  117
  116
   -2
   71
  -38
  100
   34
   21
   60
  -38
   87
 -110
  -91
  -26
 -110
   69
  -25
   -2
  -17
   46
  -89
   30
   37
  109
 -111
  114
 -115
  -84
    8
  -91
  -62
  100
   56
  -26
 -117
  121
   47
  -14
   80
  105
  -76
   21
  117
  -57
  -37
  112
   15
   33
   82
  101
  -26
  -11
   -5
  -25
   88
  -41
  -14
    2
  -39
  123
   45
  -79
  -65
 -103
   37
  121
   45
   12
   23
   52
  -98
 -103
   32
   98
  -93
   39
   80
   13
  -22
  -57
   44
   27
   33
  -90
 -113
  -95
  -25
    6
  -77
   -9
   66
  -23
   85
  -11
  105
 -103
  107
   31
  -44
  -69
   -4
 -103
  107
  -25
  -14
 -110
    9
   14
  -61
  104
 -124
   57
   91
    6
   24
   -1
 -112
   36
  -46
  126
  -67
   38
  -81
  -47
   11
  -46
 -101
   66
   91
  -61
   54
  -11
    4
  -44
  -26
    4
    9
  121
  125
   78
  -68
  113
 -118
  -19
  -27
   24
  113
   13
  -61
   39
   11
   67
   46
    4
  -18
   88
   62
    6
  -95
 -100
  -18
  -11
   87
  103
   36
   71
  -78
   47
   54
   66
   75
   44
  -97
   54
  -32
  -69
   70
  -15
   56
  120
   90
  -50
  113
  112
  -10
   72
  -16
   11
   40
   10
 -118
  -65
   36
  -83
   91
  -17
  115
   29
   33
   92
  106
   13
   82
  -11
  120
 -126
 -104
  100
   93
  -24
  -45
  -68
  -67
  116
   31
 -113
   52
  -60
  -93
   38
   -9
  -66
  114
   -6
  -13
   71
   -3
  -97
   78
  -79
  -15
    2
    0
   32
  109
 -125
  123
  -77
  -37
  124
   -4
  -85
  117
  122
  -50
   42
  -88
  -18
   11
  -71
  114
   -9
   -8
 -108
  -54
   84
   26
  -50
  -92
  -33
  -30
  117
   97
  -76
 -105
  -11
  -96
   78
  -91
  -69
   53
   71
   48
  -97
   43
    4
 -115
  104
  100
  -98
  -19
   27
  -31
  -63
   70
  119
    9
   71
  -93
  -48
  -73
   59
   89
    0
   43
  -18
  -70
  -51
  126
   82
  -48
  111
   52
   92
  -99
  -69
   -6
  107
   26
  -63
  -14
  -86
   23
    6
   63
  -91
   76
  -86
  -72
 -123
   65
  -22
  -25
   79
 -119
   48
  -63
  -48
   -4
   84
  -17
  -47
   52
   10
  -94
   67
  -23
   66
  -86
   42
 -102
   69
 -122
  -54
   53
   80
   56
   83
   99
  -40
   -7
   44
  -99
  -93
   86
  -27
   84
 -122
  121
 -100
   55
  116
   86
  -26
   72
   -7
  -44
  -67
  -85
  -92
    8
 -126
 -109
   90
   26
  -27
   58
 -119
   10
    8
 -108
  124
 -119
   44
  -23
  -37
  -62
  -53
  -57
  -64
  -50
   62
  -70
    3
   29
  -61
  105
 -108
   -1
 -120
    9
  -34
  -82
  -66
   18
 -111
  -76
   86
   57
   67
  -45
   56
  -73
  -52
  -47
  -78
  -59
 -112
  -20
   89
  -38
  108
   43
   17
  -84
   -3
  114
   46
   94
  121
  -17
   73
   25
   39
 -112
  -37
  -10
  -41
 -117
  -25
   88
  -11
   77
  -31
   15
  -25
   61
   74
   39
  124
  123
  -13
  122
   88
 -118
  -19
  117
   79
  -51
  -70
  -82
  -29
  -65
   -1
  -24
   75
   16
   35
  -94
  -20
  -22
  -68
  -42
   27
    0
   81
  -67
  -35
  -10
   62
   42
 -101
 -102
   41
   46
   43
  -10
  114
   33
 -121
 -123
 -114
   69
   23
  -22
   81
   82
  -14
  123
   16
  112
  -50
   88
    2
  123
  -43
  -21
   91
   -4
  125
   28
  -49
   55
  -86
  -74
  -86
  -46
   32
 -112
  -75
   38
  -67
  -85
  -61
  -61
   63
  -96
  -11
   23
   87
   93
   55
   88
  -92
  -93
  -60
  -62
  -93
   93
   21
  112
   -1
   54
 -112
 -116
  110
 -126
  -28
   -8
  -55
   90
  -11
  -76
   85
 -127
   90
   -8
   59
   16
 -120
   95
  -16
   55
 -111
  113
   72
  115
  -32
   18
 -123
   -4
  -77
  -35
  -35
   10
   68
   99
 -122
   22
 -123
 -116
  -30
   45
    5
  111
  116
   81
  -22
 -107
 -127
   11
   28
   92
  -37
   89
  -12
   65
   84
   -4
   16
  -65
  108
   -8
   37
  110
  -39
  -37
   66
  -94
   15
  -33
  -13
   -9
  -82
  -38
   85
 -124
   38
  123
  -59
   43
 -102
   70
 -126
   29
  -57
  -23
  123
   93
  111
  -50
  -26
   16
  -97
  -62
   90
  -82
  114
   97
   51
  -20
   31
  114
  -14
  125
   86
   -3
  106
  -77
   -3
   26
   15
   95
   62
  -45
 -116
  -37
   66
  119
   69
  -55
  -35
   60
  -70
  104
 -123
   72
   33
   -6
 -127
 -109
  -11
   24
  -21
   52
   50
   30
  -23
  -35
 -124
  119
  -92
  -71
  -47
   99
  -99
  -87
 -114
   78
   82
  -39
  127
  -57
   -4
   72
  -87
   95
   68
   -2
   26
 -111
  -72
  -85
 -115
   11
  115
  -53
   -5
  -63
  -46
   29
   60
  125
 -122
  104
   60
  -84
  113
  -67
  111
  -41
  -65
   30
  108
   35
  122
   77
   -4
   22
   79
  -29
   41
   28
   12
  -76
    8
   20
  -68
  127
  -47
  -76
  -61
   81
   96
   36
  105
   17
   18
   60
  -98
  -38
   -3
  -99
   60
   11
  -95
 -112
 -101
 -110
  -36
  -14
  -43
  -89
   95
   19
  126
  -59
  -69
    1
  -14
   22
   86
  -26
   77
  -55
  -92
   60
 -112
   51
   26
 -119
  110
  121
    3
  -91
  -86
  -98
  -12
    9
   82
   88
  -50
   94
    2
   19
  -93
  109
 -126
  -76
  -83
  121
   29
   -4
   12
   50
  -95
  -36
  -55
   99
  -86
  -23
   51
  -28
   85
   91
   50
  -47
   89
   95
  -64
  112
 -123
  -92
  -85
 -127
    0
   95
  -55
  -58
   -6
 -103
   47
   98
  107
  118
   93
  101
   -3
  -69
  -32
  -80
  -42
    6
   74
   26
 -111
   45
 -114
  -62
  125
   78
  -64
  -23
  -82
   53
   93
  -39
  -52
  -71
  106
  -36
   -2
  -70
   50
   79
   14
  -62
  -69
  -61
   30
 -105
  -47
  -57
   -7
 -111
   72
  -56
  111
  106
   19
  123
  -61
  -31
   72
  121
   41
 -104
   72
   10
   62
  124
  -82
 -100
   12
  -75
   22
   95
   37
    9
  -71
  -51
  -34
   84
   83
   19
 -125
  -17
   38
 -114
   55
   19
 -103
   16
  -88
  -12
   58
  -40
  -52
 -118
   11
  -72
  120
 -115
    4
 -127
   69
  -88
  106
  -32
   -3
  102
  -63
   24
   81
  -99
    9
   82
   36
   20
   45
  119
 -114
  107
  -51
   23
  -78
   29
   35
  -59
  -12
   68
   80
  -95
  -17
  116
  -12
 -106
   31
   82
   38
  -90
  -37
   -6
   16
  -81
   70
   18
  126
  125
  112
  -98
  -19
  -74
  100
    9
 -101
  -63
   99
  -62
   89
  -68
   56
  -88
 -109
   20
  -40
  111
 -117
   99
  -43
  124
  -63
 -119
   94
   27
   -5
  -27
  117
 -119
  -31
   51
  -74
    9
  -36
   54
 -126
   36
  -95
   70
   10
   24
  -97
   29
   -3
  -31
 -125
   92
  100
   65
   76
  -93
  -57
  111
  126
  115
    0
   33
 -123
  -33
 -125
   12
  -20
   71
   69
  -90
  -89
    9
   16
  -48
  -75
   30
   -9
   29
 -126
   -4
  -40
  -96
   -5
  -16
   45
   41
  -94
  -70
  -93
    9
 -114
  -62
  -14
  -76
   99
   19
   28
    6
   36
  -53
  -45
   76
   72
   33
  -13
 -124
  -96
   65
  -15
   54
  117
  -62
  -99
  -28
  -64
  -68
    5
  -30
  -56
    8
   35
  -76
  -10
 -101
  -37
   43
   -8
  -80
 -120
    6
  -30
   13
  113
   15
 -101
  -71
   67
 -113
   38
  -85
    4
  -56
   38
  -29
  -23
 -111
  -31
    7
  -12
   23
  119
 -104
 -113
   94
   50
   88
   25
   73
  -36
  101
  -95
   19
   56
   56
   54
   74
   -2
  -34
   73
 -105
  -21
  127
   21
   67
  -32
   13
  104
  104
  -12
 -115
   63
    6
  -69
   76
  -45
   79
  127
   95
  -44
   39
  -63
  109
  -15
    4
 -101
   51
   27
    6
   39
  125
   75
   37
   98
  -73
  -19
  120
   40
   25
  -48
 -125
  124
  -72
   59
   77
   26
  -90
  -85
  -38
   52
 -126
  -89
  115
  126
  -35
  -44
   30
    2
   17
  104
   41
   73
  -58
  -81
   86
 -115
  -94
  -51
   17
  -14
  109
  127
   26
   79
   80
 -112
  -75
  -38
  -74
  -73
  -44
  -57
   59
   53
  -54
 -126
  -49
  -41
  -14
  -77
  -33
   63
  -46
  122
  117
   89
   23
 -100
  -78
   -1
 -105
  110
   94
   48
  -46
  -53
   26
  -60
  -49
  -54
  102
  107
    4
   -1
   97
   30
  -91
  -99
  -90
  118
   -2
   33
  -27
   74
   48
   54
  -98
  111
  -45
  122
    4
    3
  -97
   36
  -43
  123
  122
  114
 -121
  -35
 -112
  -88
  110
  -42
  -43
   -5
   50
  -38
  -64
   90
   97
   94
  -83
  -71
  -16
 -116
   32
 -104
   19
   40
    5
 -110
   96
  -43
  115
  104
  116
  -66
  -74
    1
    9
 -116
 -117
   67
   -8
   46
   25
    7
  116
  -24
   78
  127
   32
  -64
   95
 -113
  -77
  109
  -12
   72
  -61
  125
   26
  -20
  111
  -34
   22
  -82
   25
   15
   21
  -38
  -78
   12
   76
  -33
   -5
   99
   84
   94
  114
  -56
 -115
  -87
  -96
   48
 -123
   77
  -64
  105
  -59
  115
  -38
   75
 -103
   43
  -59
   78
   98
 -122
   43
   56
  -18
  -81
   67
  -87
  -27
   97
  101
   -2
  -38
  -41
   72
  105
  104
  -31
   65
  -14
   50
   63
  -89
   43
  -91
   44
   42
 -122
  -50
  -96
   22
   29
   74
   54
  113
   -5
   11
   -8
   48
  -85
  -53
   17
  -25
  -99
   89
   -6
  -30
  -72
   19
   -8
    1
    2
  -45
  -99
  -47
 -111
  -92
  -63
  -90
   98
  -98
  110
   87
  -10
  -79
  -63
   82
  -20
  -53
   98
   94
   81
 -117
   47
   85
  -61
 -109
   26
 -119
    9
  -71
   45
 -123
   88
  -72
   67
  -67
 -109
  -18
   23
  120
   47
  -26
 -114
   35
 -104
  -46
   27
  -25
  111
  118
   -4
  118
 -109
  -78
 -127
   95
   92
 -122
 -126
  -44
   77
    8
  117
 -100
   82
   48
   80
   72
  -15
   65
  105
  -92
   82
  -48
  -58
   83
  -67
  -74
   76
  -50
  -32
 -122
   24
    6
 -123
  -29
  -39
  -98
    6
   98
  120
   59
    8
  127
  -39
  -34
 -125
 -126
  -74
   67
   75
  -40
 -113
  -78
   21
  108
  -33
  -64
  -93
   98
   -5
  -41
  -45
   54
  -28
  -43
    2
 -119
   72
   53
   71
  -63
  -49
   81
  -93
   50
  112
  -27
  -32
 -113
  -95
 -101
   65
   93
  127
 -102
  -83
   -4
  112
    2
  -72
 -114
   38
  -25
  -71
 -115
   -9
   18
   59
  120
    1
  -32
   65
  -19
   30
   85
 -102
    1
   80
  -31
  -93
   58
 -102
   66
   52
   96
   88
  -44
 -102
   49
 -106
    3
  -16
  -55
   50
   18
    1
 -114
  105
  -57
   49
 -115
  -45
 -122
 -100
  -73
  109
   48
  -34
  126
 -111
    3
   78
   59
   25
  -99
   12
   99
  -62
  -27
  -63
  -20
   43
  108
  -82
  102
   47
   56
  -28
   83
   31
   85
 -106
 -121
 -125
   78
 -103
  -42
  -23
  125
  123
  -72
  -33
  -79
  -82
   30
  113
  -87
   88
   61
  -29
  -61
   72
  -45
  -31
  115
  -15
   -1
 -113
  -49
  -95
 -122
  -93
  -51
  -68
   37
  -31
   63
  -83
   79
 -123
   24
  -51
  -87
 -123
   83
   56
   69
  122
  -49
  -57
   98
  -22
   -6
   58
  -89
  -21
  -68
  -84
  111
   19
  -49
  -96
   50
  117
 -114
   54
   94
   62
  119
  113
  -84
   54
   23
  -33
    1
   85
  -71
  117
   36
   19
  -14
   25
  -49
   94
  -42
  -48
   66
  -61
  -94
   20
  -94
    8
   11
  -60
   22
  -68
  -56
   17
  -13
   88
 -118
  -78
 -122
   16
 -114
  -42
  -11
   96
   48
  -68
   -3
   40
  -75
  122
  107
  -98
  112
  -22
  -67
 -121
   28
  106
   37
   32
  -71
   13
   -8
   22
    7
   63
   30
   19
  -45
   20
 -115
  -89
   12
   93
  -85
  -16
  -75
   51
  -63
 -106
 -104
  124
  123
   98
   66
  -97
  104
  -16
   83
 -105
  -52
  -41
  -62
   68
    4
  -56
   -8
   51
  -31
   46
  -22
 -126
  114
   84
   94
   92
    5
   40
  -97
   54
   72
   -3
  100
  -88
   66
  -78
   49
  119
 -109
  103
 -105
    2
  -37
  -68
   69
   16
  -53
 -104
    6
  -40
   66
 -107
   10
   47
   66
  -19
  -64
  -79
  -46
  -26
  -42
  -62
   22
   38
   -7
  -51
   31
  100
   95
   84
   73
    8
 -125
  -27
   97
 -123
  -99
  -79
   36
   -6
  -70
    7
   46
   62
   81
  107
   91
    6
  -83
   12
  101
   13
  -47
   17
   -2
  -70
  127
  125
   84
   69
   78
   35
  -91
  105
  -59
  125
  -11
   35
   41
 -114
 -117
  -57
 -109
   34
  -39
   16
 -127
 -108
   64
 -115
    4
  -83
   67
   24
  101
   82
   43
   31
  125
   20
   -3
   41
   79
  -90
 -100
  123
   83
   57
  -81
 -109
 -106
   74
  -49
   42
   75
   30
   16
   86
  -11
  -82
 -125
  104
   41
  -32
   30
  -86
  -92
  -94
  117
   28
  -46
  -54
 -102
   52
   93
 -125
   45
  -84
   18
   66
  -87
    0
 -110
  -96
   41
   -4
   -1
  -36
  -90
   51
 -124
  -84
  -85
  109
   53
  -87
  -46
   49
  -12
 -121
  -41
   72
  -22
   62
  -19
   47
  103
   71
  -10
  -16
 -126
   91
  -18
   54
  -36
   72
   27
   11
   30
  -92
   46
   -4
   60
  -32
   -1
   57
  124
   85
  127
  120
   28
  -64
  117
  116
   41
  -23
 -104
 -101
  118
  109
   89
 -124
   -4
   16
   54
  -48
   36
  -20
   34
  -66
   67
   -5
  -40
  -94
   34
  -11
 -119
    3
 -127
 -123
   24
   54
  -68
   69
  -66
   43
  -91
    7
  -74
    2
    1
    7
   80
   71
   27
  110
   39
 -105
 -109
   75
  -19
  -67
   65
   16
   41
  -91
   31
   11
  111
 -127
 -106
   38
  -11
  -38
   -1
  -66
  -50
 -107
  102
   17
  -94
    0
   -4
  -18
  -26
  -13
   65
  -13
 -127
  -64
   -3
   32
  -56
  -44
  -99
   69
   -7
   27
   13
   48
    5
  -91
  -32
  -75
 -120
  -70
  -65
  -82
   83
   26
   53
    8
  -31
   -2
  -43
   36
  109
   36
   31
   59
   21
   99
   37
  -61
  -98
  107
 -120
  -37
   16
   -8
    6
  -11
   58
   44
  126
  120
  -11
 -108
   97
  -75
  118
  108
  -28
 -120
   39
   75
  116
   14
   39
  -71
    0
   32
  -39
   21
  -88
 -107
   22
  -35
  -73
 -110
   -6
   57
  -64
  -80
 -114
  -16
  -69
  -15
   62
  -73
   29
  -43
 -100
   81
 -109
   32
   71
 -124
  -64
  122
   44
  -50
   18
  -63
 -113
  -79
  -28
  108
  -75
 -113
  -34
   86
  125
  -76
   56
  124
  121
 -105
 -109
   -7
   43
  -98
 -121
  -81
   87
  -83
  -43
  -26
   43
  -18
   24
  -78
  -32
  -27
    3
   82
 -105
  -75
   66
   96
   99
  114
   77
   97
  -90
  120
  -19
  -87
  -89
   13
  -80
  -52
   59
  118
   34
  -74
  -94
 -118
  -38
  -80
 -121
   42
   -2
   85
 -112
  -41
  -23
  -47
   16
  -12
   65
   49
   55
   -4
   -8
    0
  -30
  105
   37
   89
   36
  -88
  -98
  -48
  -42
   58
   64
  -12
   61
   81
  118
   33
 -115
 -100
   68
  -48
  101
   83
  -77
   97
  -64
   79
  109
  -84
  -31
   38
   -6
 -100
   49
  -56
   40
   85
   28
 -111
   17
  116
  -41
   82
 -108
   16
  115
    0
  -40
    1
    8
  109
  -66
   39
   21
  -65
  -81
 -115
    7
   40
  -43
  -85
  -85
 -116
  -69
   20
  -24
  -86
  -33
   26
  118
  125
 -110
  -68
  -57
   79
  121
 -127
   -7
   -6
  -95
  -34
   -4
   77
   47
 -122
  -94
   35
  -22
 -109
   93
  -37
   93
  -43
   50
   37
   16
  109
   23
  -23
    6
   96
  -10
  -16
   24
 -108
 -118
  -53
   66
   68
 -105
  -50
  -75
 -124
   38
   53
   71
   89
   45
   47
   80
 -127
   97
  -13
   82
   84
   95
  -57
 -105
 -126
  111
   59
   82
  -91
   51
   51
  -33
   18
  -33
   30
   50
  -33
  -31
  -38
   69
 -100
   43
  104
   76
  -75
   16
   25
   10
  -41
  -89
  -60
   43
   11
  -47
   89
  -28
  -72
 -105
  -97
  -58
   84
   41
  113
  115
  -17
    4
 -113
   94
  -45
   -2
   26
   24
  -50
   55
   71
  125
   -4
    8
   46
 -106
 -100
  -19
  -47
   91
    5
   26
  -76
   67
  -62
   48
   34
   10
   60
  107
  102
   51
   59
   56
   42
  -45
    4
  -16
 -112
   64
 -108
  -86
   80
   87
  -68
  -94
 -106
  -76
  -47
 -121
   69
  -59
  -53
  -56
   14
   -4
   63
  117
  -97
   75
 -118
  122
    2
  -85
 -115
  -59
 -114
   75
  -79
  -24
 -103
   76
  -38
  104
  -78
   14
  -86
  -73
   40
  118
   63
  123
   28
   21
   74
  -31
   73
  -52
   13
  107
   34
  -99
  -84
  -84
   76
  -59
 -109
   85
  -96
   84
   22
    0
 -101
 -101
   -4
   94
 -104
   49
  -94
   52
  -10
    3
   97
 -118
   91
  -29
  -94
   42
  -58
  -21
  -19
   78
   54
  -95
   68
    6
   62
  -38
  127
    6
   71
 -120
  -66
   55
  -16
   -2
  -80
  -66
 -110
  107
  -56
  126
  103
   42
   28
   19
  -67
  -48
  -16
   -8
   10
   96
  -11
   39
  127
 -107
  -23
   20
   71
  -47
  -45
  -81
  -92
  -83
  -67
  -63
   53
    9
   77
  -17
  -36
  -73
   99
 -116
  -45
  -90
   26
  108
  -24
  120
  -21
  116
  -12
 -107
   56
  -77
   60
   25
  -95
 -104
   44
  -18
  -62
  -27
  -49
  -41
    5
  -69
  126
 -112
  -37
  -55
  -17
  -38
   83
    0
  -40
  100
   -2
  120
   54
   97
   22
  -21
   34
  -20
  -51
   68
   84
   81
  -58
   78
  -14
  -20
   61
  120
   54
   -3
   93
  -74
   54
  -40
  -88
   51
  108
   71
  102
  -37
 -118
   91
  -41
   61
  -11
  -90
   71
  -47
 -100
  124
  -46
  124
  -80
  -51
  120
  100
   42
   39
  -37
   50
    5
  -63
  -38
  -82
   48
  -80
   94
  -37
   58
   88
   92
  116
   96
  -25
  -69
   -7
  -13
   -5
  -82
  -31
  -34
  -19
  -67
   33
 -107
   95
  -56
   -1
  -99
   42
   18
  -91
 -107
    1
    7
   65
   62
  -82
  -51
  -54
   73
  -66
   12
  -72
   42
   70
  116
   74
  -38
   37
 -112
 -103
   48
  106
  -25
  -82
 -110
 -110
  103
  -19
  -22
   11
   80
   -2
  -26
  -40
  102
  -58
   53
  -10
   28
  105
   39
   40
  116
  126
   39
   52
  -72
  -79
  -55
   37
   29
   95
  -56
  -68
  -61
   19
  111
  112
  -88
  -87
  -66
   76
    2
  121
 -103
  -44
  126
   -1
  -10
  -11
  124
  -41
   46
  -33
   73
 -114
  -99
   63
  -45
   -3
 -106
  -25
  -83
  -45
  -29
   69
  -16
   49
  125
 -100
   -3
   79
 -110
   33
   98
   85
  -38
  -86
   10
   65
  -56
   80
   63
  -11
    0
  -86
  119
 -104
  106
  -99
   68
   -3
  115
  -20
  -75
   40
   81
   87
  -57
 -117
  -13
  120
   55
   -2
   11
  -54
  -85
   40
    2
  116
   33
   98
   89
  -38
   66
  -19
  100
  -70
   19
  -92
 -102
  -15
   46
  -23
  -45
  121
   43
  -63
   43
  -75
  -16
   88
 -125
   24
  112
  -54
   84
  -93
   75
  -86
 -119
  -62
   66
  106
  -51
 -122
   47
  121
  -63
  -32
   66
  -29
  -35
   74
   66
 -110
  -53
   88
 -121
   64
   38
   33
  -75
   69
  -42
  126
  -81
   16
  -96
   19
   48
  -93
    5
   25
  -91
  106
   32
   63
   71
  -13
 -112
  -44
 -120
   16
  -49
  -14
    3
   99
  -99
   52
  -84
  -57
   55
  -86
   50
  -72
   11
  127
  -58
  121
   56
   67
  -40
  -26
   91
 -101
  -21
   74
    5
  -89
  -86
  -46
  -40
  -23
  -29
    4
  110
 -119
   11
    2
  -27
 -125
  122
  101
   58
  -22
 -116
   90
   77
    5
  -73
  115
  -92
   37
  -24
 -121
   12
  -54
  113
   66
 -121
  -87
   21
   22
   70
  -66
    6
   14
  -41
   98
  -80
   23
  -93
   58
  -62
   25
 -115
 -100
  -79
   12
   10
   -2
  -90
  -45
 -118
 -110
 -119
   16
    8
   22
  -65
   64
   70
   12
   86
  -74
  -19
  -97
   49
   99
  -88
  -14
  125
   15
    6
   71
   98
 -100
   35
  -42
  -72
 -127
 -126
    4
  -38
  -61
   83
  -58
   68
 -104
   52
   91
  -22
  124
   17
  -27
   47
  -77
  -81
   79
   50
 -107
   42
    3
  -85
 -114
  -26
 -109
   22
 -106
   49
 -100
 -107
  114
   -4
 -120
   32
  -65
  -29
  -51
  -91
  -94
 -110
   77
  -11
   26
  -42
  -72
   16
   96
  -10
   84
   29
   53
  -96
  -51
   47
   64
   12
   57
   -9
 -116
 -115
   41
   93
   -2
  -19
   75
  -28
   -6
  -85
   14
 -115
   46
  113
   41
  -98
  -88
  -53
  109
   79
   19
   16
   13
  112
   40
  -45
 -118
  120
   -9
   23
   56
 -125
   84
   32
  127
 -113
  -45
  124
   71
   56
   60
 -100
   96
   94
 -112
   70
 -102
   69
   72
 -119
  -25
  -78
   25
   40
    0
  -62
  -69
  -64
  -19
  -51
 -107
  -77
  -82
 -107
   36
  -70
  114
  -90
  -25
  -23
   24
  -20
  103
 -125
   45
  112
   35
   19
    2
  -30
   94
   29
   51
  116
  -69
   58
  -77
  -15
  -41
   43
  123
   43
  -92
  -10
 -122
  -34
  -43
  109
  -46
   34
   59
  -74
  -30
  -98
  -95
   47
   54
  -24
 -126
  -39
   19
    8
  -69
  122
  -66
   -9
   34
  126
   86
    0
  -77
 -117
   19
  -68
  -17
 -107
   98
   -8
   10
  -98
   80
   -7
   32
   19
   10
   28
  -87
   74
  -90
   30
  -45
   50
   28
  -36
  -88
  -62
   -8
  -68
 -113
    6
  107
  -11
   -8
  -28
  124
 -112
   73
  -30
   27
   13
    9
  -48
  100
  -78
  -76
   60
  -87
   71
 -119
  -20
  -88
    2
  -83
  -25
  111
  -53
  -91
  105
  108
  -82
 -118
  -30
   67
    2
    0
   41
  -88
   53
   17
   85
   75
 -121
  -13
  -52
 -117
   78
   46
   -7
  -71
  -51
    9
  -63
  -63
   64
  -61
 -125
  -11
  -70
   91
   36
  -92
   74
   18
  -96
   21
  -55
  110
  -33
 -120
  104
  -85
  -20
  -38
    2
 -120
  -71
   48
   47
    2
 -122
   54
 -103
  -71
    9
   30
  -17
   11
  105
 -109
  -82
   71
   35
  -91
   32
 -104
   70
   74
  -56
   19
  109
  -40
   18
   62
   80
  103
   98
   75
  118
  118
  -54
   98
  -92
   73
 -112
 -127
  -49
  -67
   -9
  -59
 -111
   84
  100
 -105
   70
   78
  114
  -84
  104
  100
   53
  -12
 -127
 -115
  -73
   -6
 -115
   50
   77
   -8
  -26
   25
   28
  -91
   68
   74
 -118
   64
  -29
  -21
  -34
  -46
  -13
 -125
  -27
    4
   83
  -64
 -125
  -56
 -115
 -109
 -105
   30
   45
  -50
  108
 -125
  -83
   77
   90
   80
   84
  123
  -48
  -69
   -2
   52
  -19
  -91
    8
  107
 -100
  -70
  105
 -121
   51
  -84
   21
   93
   85
  -32
   31
  -52
   -5
    4
  -87
   -3
   87
   42
  -27
  -93
  -26
  -74
  -47
   85
   11
  -87
  -94
   65
   35
   51
  121
  -22
  -68
  -87
  -93
  -95
   27
  119
  -82
 -113
   51
  -98
  -60
 -124
 -106
  -30
   98
  110
  -80
    1
  -93
  -41
   21
  -73
  -35
   79
 -118
  121
   82
  -51
   19
   -2
  -25
 -127
  -45
  -35
   53
  113
  -64
   21
   67
  119
   62
 -126
  -57
  -97
  -94
  -30
   56
   19
  106
   43
  -16
  124
  -68
  -70
  -21
  -77
  -92
  -62
  -54
  -22
  -75
  -41
    1
  107
  108
  -18
  -23
  126
  118
   82
   40
 -124
  -29
  -27
 -106
  127
  -25
  -18
  104
  119
   58
    4
    1
   90
  -23
   18
  -63
 -115
  -28
   29
   93
   14
  -65
   33
    1
  -93
  -73
  -79
   15
   66
   41
   54
   12
   15
  -44
  119
  -99
   43
   97
   61
  112
   -9
  -56
   -5
   98
   62
  -41
 -111
   35
  111
   69
  101
   53
 -101
  -44
   17
  -70
   12
  -83
   51
   78
  -89
   48
   50
  -20
  -51
  -90
   -7
  -51
   33
 -114
 -124
  105
  -49
  -14
  -28
  -67
  105
   53
  -94
   61
   87
 -125
  100
   44
   97
   15
   64
  -77
  116
 -122
 -106
   16
 -120
   22
   95
  102
   25
  104
   61
   48
   65
   74
   80
   40
   14
    3
    7
 -127
  -47
  -31
   98
  118
  -62
  104
  -33
  -26
  101
  112
  106
  -81
  -90
   92
  -16
  121
   87
  -27
  -63
  -13
  -24
  101
  -63
  -64
   51
   -5
 -101
   -5
   90
  -10
  119
  -63
  119
    3
  101
   70
   83
  -19
   42
   79
   79
 -124
 -102
   93
 -114
 -125
  -81
 -109
   53
  -80
   77
    3
   63
   13
 -125
  -51
  -96
   31
   27
   47
 -112
  108
   36
   75
   14
  -31
   89
  120
 -108
   43
  -17
   31
   22
  -91
   59
  -31
  -45
 -123
   25
  -42
  -65
   91
   59
  -31
  -10
  -95
   28
   30
    9
  113
   -1
   61
   62
  127
   -3
  -25
  -99
 -114
  -36
   33
   11
 -108
  114
 -125
   35
  111
    3
   69
   12
  -68
  -34
  -25
   69
  -75
  -62
  105
   43
   68
  -91
    5
  -69
  -33
  111
   25
  -87
  -12
  -46
  -38
   69
   48
  -71
  121
  -76
  -16
  -10
 -110
  119
   84
  -59
  105
   43
  -85
   73
  -83
  -27
  -22
  -73
   11
  -36
 -110
 -117
  -63
   57
   88
   70
   79
  114
  -66
 -107
  -71
  122
  105
   34
  126
   22
  -27
  -43
   45
   45
  -33
  -12
   49
  -39
  -91
  -35
   73
  114
 -107
  102
   77
   61
  -55
   49
 -103
  123
  102
   88
   38
   47
  -10
   84
   31
   98
 -111
   40
  119
 -106
  -86
   39
  -66
   65
  -55
  -23
   -6
 -123
   49
   18
  110
  -49
 -119
   12
    5
   73
   42
  124
   49
   13
   33
  120
  -96
  -46
  -35
   55
   76
  -65
  -63
  121
  120
  -98
  121
   81
   28
  -56
   59
 -119
   63
  113
    6
   42
   18
   94
  -52
 -125
  -19
  -68
  -13
    9
   23
   51
 -123
 -101
   36
   94
  -69
  -18
  124
  -82
   55
 -120
  -87
   40
   27
   41
  -13
  -77
  -75
  -39
   52
 -102
   19
   85
 -113
 -110
  -98
 -117
  -55
  -68
  106
  -32
   32
   -2
   54
  115
  -79
   23
   63
  -46
   59
   33
  102
  -22
  -54
  113
  -44
  127
  120
   66
  -88
   80
  122
  -25
  -99
   13
   35
   74
 -113
  -34
   98
   49
   18
  112
  -49
   76
  -28
  113
  -62
   17
   95
   46
  -64
   23
  -32
  125
   54
 -113
  -13
   64
 -103
  -54
  -12
   96
   87
   19
   72
   31
  -40
 -113
   69
  -31
 -102
   30
  -64
  123
  105
  -10
 -103
   79
    4
   78
 -121
   40
  -38
  101
   90
  -90
  -63
   73
  -12
   72
   76
  -57
   93
  127
   77
  -90
   14
  -54
   96
   67
   65
  115
   18
 -101
   24
  111
  118
   40
   90
    7
  -91
   66
   51
  -56
  -13
   88
  -38
  118
  -84
  -28
   78
  -49
 -107
   86
   39
  114
  -72
   24
 -107
   84
   61
  -35
  -86
   92
 -120
   -3
  -72
  -60
 -114
 -124
   65
   31
    9
   83
  -62
   76
   51
 -125
  115
  -26
 -117
  -21
  -35
   43
   10
  105
   82
  -87
  -50
  -87
  -36
 -112
   66
  127
   51
  -47
  -41
   84
  -77
  -58
  -29
   25
  -57
 -127
   77
 -126
  -76
    8
  -75
  118
    2
 -114
  113
  -50
   -3
   16
  102
   52
   28
 -120
   14
    9
   73
  -79
    1
   66
 -114
  -55
  -14
   49
  -99
  114
  -97
  -28
  -39
  -54
   29
   67
  -61
  -25
  105
 -113
  108
 -114
   66
    8
 -125
  102
 -111
  -49
  104
 -117
   47
  -59
  -83
   54
  -28
  -27
   13
   -2
   20
   -5
  -95
   80
 -120
  -67
  -64
  101
    0
  -38
  107
   -2
    0
   -3
   46
  -69
   23
    8
   12
    4
   31
   50
   97
  -24
   27
  -66
    1
   91
 -113
   48
  -64
  -96
 -102
   18
   54
   16
 -105
  -66
   35
  114
   52
  -24
  -89
  -89
   40
 -119
  -28
   47
  116
  -20
  -64
   99
  -73
   31
  -34
  110
   71
    5
   81
   39
  106
   98
  -21
   94
 -100
 -124
   52
 -103
   98
   71
   47
  -20
  116
   -3
   74
   -5
  -22
  -96
  -24
   30
   26
  105
   78
  -43
   22
   43
 -109
   22
   -3
  -70
  105
 -121
  -25
  103
  -89
  -43
  -16
 -121
  -75
  122
  -99
   11
   15
   17
  103
  -34
  109
  -21
   65
  124
  -17
   25
  -94
  122
  107
 -124
   32
  117
  101
   71
  -19
   55
 -108
   25
   34
  -30
    0
  -26
 -127
   62
  -33
   49
  -88
  -99
 -114
    8
  -90
  -35
   89
  -93
  -75
  -73
  -65
   17
   88
   14
  -65
  -76
   22
    9
  -92
 -116
   -4
   46
 -109
  115
  -56
   50
  -92
  111
   57
   63
  -23
  -58
  -56
   85
  -75
  -29
  112
  124
  -33
 -126
  -94
   30
  -53
   79
  -78
   49
   54
   46
   37
   98
 -115
 -120
 -123
  -20
   73
  115
  -14
 -102
  113
   98
  -10
   -3
   42
  105
    2
   63
  -78
   60
    9
  -93
    8
   28
  -12
  -48
   -1
   16
  100
  -83
  -31
   76
    2
  -75
   74
   93
 -116
  -25
 -100
  121
  -46
   43
    4
  124
  -65
   67
   41
 -117
 -127
  -94
  -20
  123
   94
   16
   39
  -20
  -89
   70
   56
  -72
  -13
  -70
  119
 -104
  -48
  -82
   21
   20
  -59
  -94
   44
  -68
 -117
 -117
  117
  -27
   16
 -127
 -125
  -70
  124
  -36
 -104
   40
   81
  -89
  100
    3
   61
   -6
   -9
  113
  -87
   54
   12
  -64
   70
  -10
  -62
  124
   57
  -49
   54
   36
   84
   90
   58
  -27
 -110
  -85
  124
  -66
  110
 -101
  116
 -121
   49
  -60
  -75
  105
  -53
  -60
    2
   21
 -120
 -112
  126
   27
   84
  -35
   66
   29
   91
  109
    4
   69
   74
   30
   49
  -38
 -109
   34
   84
  -15
 -108
 -105
 -101
   -9
   85
  -69
   53
   33
   58
  -72
  -40
   31
  -16
   -4
  -63
  110
   69
  -46
   -1
   73
  -89
   23
  -60
 -104
    6
   48
   16
    6
  -49
   -6
   88
  101
  -75
   36
  -66
   31
  102
    0
  -19
  112
 -125
   44
   35
  -52
  -56
  -84
   27
  109
   77
  -47
  -62
  -61
   -6
  -14
   83
   -1
   11
  -79
   37
   15
  -64
  -71
   66
 -126
  -92
 -118
   44
  -58
   37
  -84
  -58
 -121
  102
 -109
 -105
    2
  -86
  -75
   24
 -127
   47
  -14
  -99
  109
   19
  -58
 -126
  -39
   80
  -33
   87
  105
   23
   28
   27
  104
   86
   85
  -10
  -93
   47
 -106
 -112
   49
    6
  106
  -11
   73
  -31
  -23
  108
  -64
 -115
  121
   97
   74
   39
  -95
  -15
 -127
   34
   38
  -84
  108
  -87
   21
   46
  103
   44
   15
 -121
   66
  -27
  -13
  -69
   77
  106
   54
  125
  -86
   61
  -83
  -60
  -60
 -119
  -29
 -123
  -39
    1
    8
  -25
  -91
   90
   93
 -114
  116
  -34
  127
   11
   78
   73
   42
 -102
  -95
  -16
   72
  -59
  -43
  107
   -5
  -74
   97
   32
  -22
  115
  108
  117
  -47
    3
 -113
   31
  -61
  -48
 -104
  -91
  -89
  -48
   92
   38
   67
  -95
   68
    7
   90
   39
  -18
   73
  -69
   64
  -17
   68
  -87
  -42
   57
  -30
 -107
 -116
  -69
   69
   74
   38
   63
   52
  -40
   79
  -66
   12
  -25
    7
  119
   -3
 -101
  -17
  109
  113
 -108
   75
   40
  105
   97
  -85
   60
  -78
    6
  -11
  119
   21
  118
   46
  -24
  -96
   -8
  115
  100
  -57
  -50
  -78
  -27
  119
   20
 -124
  107
  -63
  -12
  -40
  -28
  -51
 -120
   10
  106
  -55
  105
   26
  -94
 -123
   61
 -116
  -69
  -83
   -4
   57
   14
  -68
  -56
 -105
  104
  -28
  101
   62
  117
   82
  -46
  -94
   71
  112
 -126
  108
  104
  -48
   -5
   21
  -65
  -17
   28
   -6
   -6
   84
  -33
   69
  -65
   76
   74
   -8
  101
  -28
  115
  -74
  -86
   50
  -75
  120
   35
  -70
  -61
 -112
 -114
 -125
  -86
   22
 -105
 -111
   10
   83
  -37
    5
    8
   90
   80
 -111
  -69
  -14
  -91
  -16
  113
  -51
 -102
 -117
   17
  120
   53
  108
  -24
 -105
  -70
   90
   26
 -115
   61
   20
  -28
   92
  123
  125
   77
   -2
  -54
   -6
  -11
  109
 -122
 -123
  -78
   -2
 -112
  -71
 -121
   -9
   62
   68
   -1
  103
   54
  -94
 -110
  -32
  -42
   15
 -100
  117
 -102
  -32
 -126
  -76
   85
   47
   56
    3
   18
  -47
  -20
  115
  111
    6
   62
  -20
  113
   53
    9
  127
  -72
  -43
   23
   70
   96
  -42
   63
 -100
  114
  -71
  -63
   57
   73
 -112
  119
    6
   98
   -3
  107
  -46
  -84
   97
  -13
   90
  -89
 -112
  -40
  -39
 -112
  -65
  114
 -108
   19
   -8
 -113
 -100
 -107
  -33
   36
   37
   52
  127
 -109
   -8
 -118
   40
   52
  -99
   21
  107
  111
  -12
  124
   87
  -28
   97
   26
 -116
  -24
   81
  -43
   -9
  117
  -91
 -125
   33
   90
   27
  -69
  119
   33
  -78
   46
  -89
 -104
  -27
 -110
   68
  -70
  105
  -71
    9
  -40
   -1
  -57
  -89
  -54
 -110
   16
   11
 -123
   92
  -22
  -69
  -16
  -90
   21
  125
 -105
   24
  121
  102
  -58
   37
  -94
   58
  -16
   10
  -96
  -48
    5
    6
   15
  -51
   -4
   79
    2
   83
 -105
  -70
   70
 -113
   47
   96
  -34
 -120
  -41
   11
  -17
   64
  -56
  117
  106
  115
   34
  -76
   91
   57
 -119
  -24
   29
  -14
   34
  -63
  -90
 -127
 -125
  -42
  -22
   91
   31
   56
   58
   69
  -53
  126
  120
  106
  -16
  -46
   31
   51
  -93
  123
  126
   67
  -37
   55
   72
   83
   10
  -81
  -59
   11
   38
   22
   47
   78
   26
  124
  -77
   92
  -21
  -28
  -15
   40
    2
 -123
   39
  -10
  -59
  118
 -126
  -87
    8
   89
  -84
 -106
  -73
  -75
  -27
    8
 -113
   75
   -1
  -34
   31
  -16
   51
 -113
  -79
  101
   15
  -67
   14
  118
  -66
 -124
  -16
 -119
   12
   27
  -31
   88
   61
   15
  -61
  -91
 -114
  -53
  -27
   18
  124
  -58
  127
   24
   -4
  121
  115
  -15
  -43
   -1
   19
  118
  119
  123
  -16
   84
    3
   21
  -11
   -7
  -99
  -28
  -18
  -70
  -32
  -38
  108
   39
 -112
 -127
  112
  108
 -112
  -13
  -12
   30
  -78
   82
   19
   27
  -88
  -18
  -44
   52
  114
   -6
    8
  -81
  120
   14
  126
  -29
 -124
  -16
   65
  -84
   86
  -58
  -55
 -105
   19
  -65
   96
  112
   51
   22
   22
   12
  -13
  -13
   58
  -87
  -76
 -122
   98
  -61
  -79
   86
  -93
   46
  119
 -121
   11
   37
   62
   23
  103
  109
   32
  104
   50
 -122
  -83
  -14
 -117
  -90
   50
   24
    0
   61
  -51
  -40
   48
 -119
  -14
  -28
   54
  -14
  -30
   31
 -120
  -36
  -13
   72
  -45
  119
  -30
 -124
  -14
   29
 -104
  -70
   94
  -27
  -73
   25
   33
  102
   37
   -2
  -98
  -94
 -107
  106
   50
   10
   26
  -74
  101
   15
    3
  -99
  111
 -105
  -81
   28
 -104
  -78
 -113
   90
   79
   70
   -8
   49
  -63
   51
   96
   34
  -22
  -10
 -123
 -112
 -101
   46
   68
  -78
 -114
   17
   23
  110
 -104
  -67
  104
  124
   40
  -19
   88
  -32
  -61
  -97
  126
  -45
   29
  -47
   26
    6
  -14
  -97
   90
  -20
 -115
   18
 -101
  -88
    7
   72
   63
  103
  -71
  -26
  -91
  -69
  -34
  -67
   20
    8
  -43
  -69
  -15
 -109
  -13
   31
  -80
  117
  -18
   99
   57
  127
   99
  -59
  -51
   70
   48
  -93
  -54
 -126
  -70
  -65
  116
 -116
   81
   77
  -50
  -37
  -18
   83
   41
  -86
   85
   95
  -95
 -101
   49
 -113
  -30
  -57
   -8
  115
    1
   51
   73
  -92
  -47
  110
   58
   95
 -104
  -44
  -77
  -10
  -75
  -90
   77
   -9
  117
  104
  -43
   -8
  104
  -76
   49
  -47
   56
  -32
   60
 -111
   41
  -12
    6
   83
  123
   -2
   29
  -28
  -17
  -45
   41
   41
    4
  -12
  -10
   -4
  116
  126
  -61
   71
  110
  -76
  126
   73
    7
   42
  -95
  -90
   80
   11
   93
  -92
 -108
  -81
  -74
   20
   86
 -117
  -75
    8
   11
  125
  126
  -60
  -50
  -48
   34
  -64
   -3
  -34
 -117
  -26
   29
   40
  -75
   73
  -57
    0
  -91
   -6
  119
  -62
  -10
   41
  -20
  -44
   87
    7
  118
  121
 -100
   35
   87
   80
   -7
  -66
  -99
  -73
   68
  -40
  -86
  -12
  -58
    2
  103
  -14
   83
 -122
 -116
   39
   89
  -43
   75
  -63
  -37
  115
   -4
  -84
  120
   80
   33
 -103
   76
   69
  -25
  -87
  -66
  -32
  -40
  -65
  -59
  -70
 -121
 -104
 -106
  112
   26
   42
   68
   44
   20
   -2
  -58
   38
  -30
  -73
 -124
  119
   30
   71
  -12
  -16
  100
   43
 -114
   46
  127
  -88
   38
  -19
  -40
  127
    0
   74
  -34
   71
  -79
  -51
   29
  -69
    0
   26
 -122
  -59
   51
   -4
    7
  114
   32
  101
   99
    5
 -116
  -60
  103
  -37
  -45
   91
    7
 -108
  127
  -87
  -41
  -81
  117
  107
  111
  -24
  -63
   97
  -71
  -14
  -33
  -29
  -79
  -61
  116
  -34
 -127
  122
  -98
  -51
 -116
   19
  -36
   32
   51
   99
  -85
 -123
  125
  112
  -35
   64
 -122
   95
   60
   48
   24
   42
   12
   19
  103
 -117
  -49
   59
  -18
   62
  -93
  127
   13
   59
    2
   19
 -111
  107
   41
  -73
   44
   74
 -106
    6
   29
   60
   19
  -96
  -41
   11
  -32
   49
  115
  126
   66
   14
 -104
  114
   42
   87
  121
  -83
  107
   85
  -55
    2
   45
  -65
   52
  -95
 -108
   10
   45
   50
 -104
  -41
   81
   28
  -76
  110
  -86
  -43
 -127
  115
   -2
  122
   12
   39
  -55
   91
  -99
   50
  -22
  -50
  -82
   65
  -23
   63
   97
   26
    2
   36
  -65
 -104
  107
  -97
  -84
   89
   47
  108
   35
   11
   94
  -37
   49
   42
  -86
  120
   -4
  -66
   -2
   94
   80
  -46
  111
   36
    3
  -92
   32
  -97
   88
   13
   66
   56
  -89
   39
   12
 -116
  -59
   11
  -61
   -9
   -2
   39
  -34
  -16
  -20
   68
  117
   53
   67
   73
  -98
   91
   49
  125
   97
   95
  117
