   25
  -35
   48
  -87
  -59
  -42
   -1
  118
   11
   51
  -38
  -67
   50
  109
   30
  -12
 -119
   72
 -113
  -62
  120
   33
   72
   37
   65
  -51
   15
  -63
 -112
   24
   56
 -114
   -9
   78
   44
  -88
   34
   81
  -87
  124
   35
   44
   85
  -39
  -93
  -32
  -43
   12
   38
  -78
  -63
   39
   14
  -40
  -19
  -87
  -39
  -55
  -59
  -76
   45
  -38
  106
   65
  -50
   -3
  -86
  -67
   97
  -25
 -116
   77
   87
   -1
    0
 -108
  -35
  -93
   47
 -116
  -89
   64
   84
  113
 -101
   44
   17
 -100
    5
  -38
  -57
  -17
  -62
 -124
   58
   39
  127
  -58
  -42
    4
 -102
  105
  -58
  -96
    6
   57
    7
   56
  106
  -81
  -24
   65
 -100
   44
   -6
    0
 -105
  -28
    1
   56
 -123
   65
 -105
  -99
  -21
   32
  -82
   87
   97
  -43
 -108
   -1
  -31
  -20
   58
    1
  102
  -93
 -109
    4
   57
  -91
  -37
  -18
    4
  127
   64
  -79
  -91
   37
  -92
  -40
  -15
   93
  -50
  106
  118
  -93
  -42
  111
   16
   24
 -104
   97
   60
   64
  -49
  -81
   32
   90
   62
   42
  -19
  -62
  -12
  -45
   68
   38
   33
   59
 -113
   55
   45
    8
   90
  -76
  120
  -88
  -76
   33
 -100
  -41
   65
 -120
    3
   11
  -60
  -97
  119
  114
  122
   35
  -52
   28
   31
  -95
  -61
   27
 -125
   13
  -51
  121
 -101
  -76
  -22
  -52
  122
   11
  -89
   46
  108
 -117
 -115
  -69
   68
  -83
  -56
   83
  -72
  -21
   90
   42
  104
   36
 -106
    7
   89
   61
   16
   35
  -39
  -41
 -103
  -81
   52
  106
 -117
   65
   -3
 -104
   80
   91
  -77
  127
   82
  109
  103
 -127
  -11
   73
   95
  -67
   28
   82
 -117
  120
  -58
  127
  110
   41
 -121
 -122
   81
  -88
  -52
  -33
   -4
   39
 -104
   14
  -78
    2
  -39
  -73
  -69
  -73
 -100
  -51
 -118
   70
   35
   33
  -98
  -60
  -95
   85
  -18
  104
  -20
  126
  -42
  -39
    1
  -79
   36
 -100
   52
   -3
    6
   55
    7
 -100
  -18
   47
   54
    5
  -17
  -38
  120
   30
   66
    1
   35
  127
   15
 -126
  -32
  -70
  -27
   73
  120
  -46
  -91
  104
  -55
   13
   98
   -5
   56
  121
   94
 -107
  101
  -69
   68
 -108
   26
 -120
   51
    2
  -28
   43
   23
  -41
 -123
 -100
  -32
  -73
   96
   38
  -60
    0
  115
   50
   -1
  -38
 -106
  -90
  -41
   80
   64
  -51
   34
   14
    3
   44
  124
  -72
  -74
  -22
   59
  -16
 -107
  -98
    2
  -38
  -90
   33
   62
    5
 -109
  -49
  -77
   79
  -43
   33
   93
  -59
  -35
 -126
  -44
   60
  -37
  100
    6
  -99
   30
  -98
   79
   35
  110
  -81
   88
   14
  -19
 -112
 -111
  -58
   86
  106
   15
  -31
   28
   16
   10
   60
   78
   96
   75
  -12
  -44
  -19
 -113
   59
   31
  -48
  -33
  -93
  112
   95
   21
   -7
   35
   59
  -97
   61
  -38
  -28
  -75
   43
    8
  -86
   50
  101
  -76
  -90
  -11
 -105
  -82
  -46
  -28
    7
   98
  -65
   22
  -10
 -100
  -89
  -80
   45
   97
   53
  -95
   91
  -29
   30
  -89
  -72
  -54
   18
   95
   76
   93
  -81
  117
  103
  -22
 -125
   59
 -120
   -3
    7
   71
   50
   27
  -61
   37
  -69
  122
   78
  -92
   63
   46
  -81
  -71
   58
   90
  -22
  -49
   69
   83
   67
   55
   36
   16
    3
   68
  123
   95
   61
 -111
   15
  126
  -48
   27
  -67
   95
   66
  -45
  106
 -123
  127
   96
   93
  -89
   77
   10
   50
   -7
 -118
  -18
  122
   19
  -46
  112
  -99
   94
  -38
   49
   90
  -77
  -69
 -124
   53
  -52
 -116
    6
   22
    3
  104
  -77
  -17
   -1
   56
   61
  105
   72
  -25
    0
   45
  102
  -89
  -87
  -79
  125
   65
  -95
 -101
 -101
  -47
  -51
   86
   95
  -43
  -37
   13
   55
  -88
   45
  -78
   79
   44
  -76
 -105
 -119
 -111
   94
   94
  -60
   -5
  125
  -27
  -58
  -45
  -18
  101
  -97
  -99
   75
   94
   -7
   96
 -108
   79
   18
  -81
  -58
 -101
 -101
   71
   81
  -51
   88
   46
   28
  -31
    0
  -22
 -107
   -7
    5
  124
  108
  -66
  -78
   87
  116
    4
   10
  -20
  124
  -95
 -112
  103
    8
   47
  -70
   23
  -60
  -72
  -56
    6
  -18
  -70
  -89
  119
  103
  102
   50
   54
   21
  -70
 -123
   60
   20
  -17
  -59
  -76
  118
   -8
   85
   79
 -100
   46
   88
  -10
   48
   94
   13
    4
  122
  110
  -42
 -106
  -68
 -104
   63
 -123
   33
   96
   37
  -28
   90
  -65
  -19
   55
   -4
  -28
   77
  -12
  -28
   50
   -9
   65
    3
   79
   91
   -6
    5
   55
  -19
  -62
    5
  -95
  -29
  -29
    1
  -24
  -32
   28
  -63
   99
   88
  -57
 -105
   82
  117
    7
 -118
 -111
  -54
    4
 -106
  -89
  103
  104
   61
  -27
  -18
  -53
   37
 -124
   13
  103
    8
   38
  -90
   85
   89
  105
   65
  103
  127
   -4
  -93
   70
  -82
 -105
  -33
    2
  -76
  -56
  -76
   79
 -115
  -73
   32
 -120
   42
  -13
 -119
  -28
  113
   54
  -81
   56
   56
  104
   78
   20
   29
  -16
   33
 -117
    4
   41
  -67
  -39
   73
  120
   95
  -49
  112
  -28
  -40
    2
   85
   13
  126
  -34
   17
  -78
 -106
   10
   49
 -110
 -116
  -90
   84
  -34
  -37
   -4
  -90
   17
   89
  -65
 -124
  -62
   39
 -114
  -67
   77
   -5
   64
  -71
  -18
   22
 -117
   85
   19
  -41
  106
   57
  -13
   65
  -87
  127
   58
   91
   -6
  104
    7
 -122
  -30
   59
   97
   92
  -82
   78
   40
   42
  -85
  -79
   15
   16
  118
   50
   15
  -63
   41
  -31
  107
 -117
  -16
  107
  -48
  -30
  -24
   -7
  -81
   55
   63
   65
  -26
  -95
   -5
   66
   17
   45
   53
  -42
 -118
 -120
  -44
   43
  -75
  -17
  100
  -77
   51
  -29
  -33
   44
  -22
  -88
   25
   -1
   -1
   92
   14
  -13
 -108
  124
    6
   31
   50
  127
   57
   77
   60
   93
   98
   30
  -48
  101
  126
  -93
  -20
 -115
 -125
  -93
  121
 -113
   43
  101
  -51
  -47
   34
   89
   -8
  -53
  -90
  -36
   66
   31
   62
  115
  -35
 -122
  -64
   94
   63
 -121
   -4
  -19
    0
  -28
   21
   12
   -6
  119
  126
   75
  -31
   38
   25
 -122
   -9
  -96
  -18
  -79
   55
  -49
 -100
   84
  -27
  111
   31
 -119
   29
   96
   33
  -79
  121
  -13
  -92
   52
  -93
   43
  -67
  124
  -71
  -26
   70
   89
  -57
   96
  -15
   14
  -83
  -29
  -96
   56
  126
  -34
  -87
   35
   73
   10
 -114
 -105
   88
  -78
 -124
  -32
  125
  -47
  -74
   32
  127
  -84
 -105
  -90
  -25
   30
  105
   68
  -86
   82
   17
   20
 -114
   29
   42
   87
  -27
  -67
  -17
   99
  -74
  101
  110
 -104
   32
   59
   40
 -113
  -26
 -105
  114
  114
  108
  -33
 -112
   31
   66
  111
  -54
   79
  -96
  -24
   95
   52
   80
   10
  -69
   92
  101
 -122
   38
  -98
  -87
   -3
   61
   43
   10
 -125
   46
   92
   12
   10
  -96
   31
   10
  -62
   -1
   42
   80
   -1
  -92
 -109
  -30
 -116
 -101
  -97
   93
   -5
  -94
  -37
   22
  -39
  102
  121
   75
   36
   86
  113
   36
   37
   85
  -91
   15
  -55
   88
  -92
  -88
  -69
   -9
   -5
   58
   82
 -109
   24
  106
   72
  118
  120
  -50
   53
   19
   -6
  -26
 -108
  -61
  -83
   39
  -29
  124
  -70
  -11
 -116
   76
   15
  -16
  -68
 -111
   22
  106
   26
  127
   28
   84
  -67
   63
   88
   90
  119
   77
    6
  101
  -56
  110
    6
  -26
   24
   57
  109
  -30
 -111
  108
   20
   99
  127
   80
  -38
  -78
   20
  115
  -88
 -126
  -23
    2
  105
   45
 -121
  -46
   95
  -60
  -57
   81
   -8
  -47
  -85
  -53
   -1
  -30
   66
  105
  -97
 -102
 -114
  109
 -110
  123
  106
   15
   47
   -1
  -12
   78
  -57
  100
  -40
  -85
 -127
   92
   69
  -46
   30
  -37
  -15
  117
 -121
  -91
   10
  -10
   96
  -83
  -31
   35
  -40
  114
   61
   86
  109
    2
  -79
  -21
   60
    4
  -58
   76
 -124
    2
  -31
   91
    2
  107
 -124
 -124
  -54
  -90
   48
   31
   38
  -64
   94
   17
   93
  105
  -17
 -109
  -98
   85
  -98
  -50
  -62
   63
   -2
  -23
  -89
  -38
   54
 -111
  116
  102
  -51
  123
   53
 -113
  -45
   42
   94
   44
 -121
   88
  -87
  -19
   42
   38
    6
   92
  116
  101
 -113
  125
   -1
  -56
  -24
    1
  -32
   47
  -34
   58
  -82
  -25
   47
  -33
 -120
   86
   31
  -43
  -94
  -49
   -9
  -26
   33
   57
  -68
 -106
   87
  115
   13
  102
  -55
   25
  -81
   70
 -113
  -45
  -84
  -60
  -26
   53
   99
   36
   69
   94
   87
   78
  -66
   58
 -100
  -30
   40
  -50
  -47
  111
   34
 -123
  -96
   46
 -108
   63
   12
   86
  -43
  112
   -9
  -54
   92
  -43
 -109
   58
 -125
  -11
 -111
  -88
  -91
   63
   46
 -125
   81
  -93
  -42
   45
  117
   -9
  -76
   80
  -28
  -18
   52
  -40
   51
  -11
  121
  109
   94
   24
  -22
  -88
   30
  -57
   83
   21
   20
   98
   -5
  117
  -79
  -55
 -100
  -34
   39
    2
   63
   73
   80
  119
 -122
   45
    8
   58
 -103
   -1
  -23
  -60
   83
  -21
   93
 -120
   25
  -56
  -87
  110
 -108
   99
  -17
  -66
   47
   32
  -52
   51
   31
   88
   50
  111
   68
   65
  -86
  -77
  -39
   88
   36
   41
 -105
  104
 -115
  -51
   27
  -74
   73
    3
   47
  -86
  -55
  -21
   36
  -65
   32
   22
   76
  100
   64
   72
   54
  -63
  -35
  108
   64
  -64
   36
   -2
   28
  -47
   58
  -51
  -23
   14
  -97
  -90
   92
 -112
  -87
   74
    7
   13
   17
   -3
   89
 -123
  -26
 -114
  -10
  116
   17
  -36
  -98
 -106
  -81
   76
  -37
  -87
   52
 -102
   62
  -39
  -91
   -2
   64
   97
   72
  -21
 -116
    3
  -16
  -16
  -65
   93
  -98
   75
  -65
   77
   82
   88
   30
  -28
 -120
   35
 -105
   19
   34
   62
   80
   67
 -125
   75
  107
   72
  105
  122
   46
   36
   91
  -25
  -95
  -21
 -109
 -109
  -92
    4
  -43
   75
  -11
   22
  -69
  -33
   35
   96
    6
  103
   35
  -40
   16
   11
  -45
    3
   97
   99
   19
   41
 -126
  102
   74
 -108
  -56
   54
 -113
  -38
    1
  101
   15
  126
    1
   82
  -50
  102
  104
  -57
   64
  -70
   21
  -18
  -98
   20
   49
 -100
  109
   10
   59
   68
   94
  -29
  -87
   40
   36
  -54
 -127
   81
    9
   -2
   15
  -34
  -24
   57
  104
   75
  -49
  -92
  -22
  -21
  -58
  -40
   63
  -94
   84
  -78
   -3
  -73
   14
   -8
  -77
 -113
  -71
  -74
 -105
  -84
  -10
  -23
  127
   42
   87
   69
   73
  -54
  115
  110
  -31
  -95
   45
  -50
 -106
  -70
  119
  -17
   75
 -114
  -32
  -49
 -107
   98
  -69
  -64
  -43
   49
  -40
   96
   58
   40
 -105
  125
   22
  -87
   65
 -102
    8
  105
   19
  123
  -74
   20
  -12
   20
  111
   51
  -65
   46
  -19
 -117
  100
  -78
   40
   64
   84
   85
  -87
 -117
   74
  -49
 -109
  -67
  -45
 -101
   72
 -108
  -95
  -52
   85
  -22
   96
  -25
   92
   94
   33
  -92
    2
  -55
   47
  105
  -98
   93
  -36
   10
   83
  -83
  -92
   42
  -61
  102
  -28
   93
   33
    3
  -70
 -127
   76
    6
   87
  -42
   35
  121
  123
  -75
  111
   96
   79
  -72
   90
    6
  -17
   22
 -100
  -15
   27
   53
  -54
 -108
   73
  -83
  -44
   22
  -95
   75
  -66
   92
 -127
  -24
  113
  -36
   93
  -32
  -45
  -71
   54
   67
   25
  -37
   38
   43
 -101
 -126
  -64
   60
   41
    3
   82
 -113
  -89
  -99
   70
   62
  -82
   72
   -1
    5
    1
  -91
  -40
  -63
 -102
   42
   29
   50
  -50
   72
    0
   19
  -21
   60
 -123
   50
   49
   67
  120
   -5
   -5
  -27
  -35
 -127
  -93
   -9
   44
 -120
   58
    1
   90
   28
   81
   37
    7
   23
  -45
   58
  -32
   45
 -120
   -4
  -39
  105
  -75
  -96
  -29
  -38
   26
  111
   -6
   74
  -83
   79
   42
 -109
  -29
   32
   58
   16
  -96
   57
   21
   -5
  -41
   75
  -84
  103
  100
  101
  -76
    6
  122
  -46
  -81
   61
    8
  103
  -95
  115
  -17
 -107
 -103
  -12
  -51
   66
  -89
   97
 -125
  -87
 -121
   85
  -37
  126
 -126
  102
  -71
  -67
   11
   97
   33
  -33
  110
  -25
 -108
 -115
 -118
   90
  125
  -89
   -5
  101
  -27
  -44
   83
    4
   74
    5
  -43
  108
   52
 -119
  100
  120
  -10
   41
   72
  -80
  115
  -64
  -66
  114
  -95
  -84
  -28
   14
  102
  -56
   23
    4
   18
 -116
 -110
   72
   79
   71
 -101
  105
  -67
   33
  -46
 -108
   84
   40
 -100
  -84
   25
   44
  -31
   70
   97
  -31
    5
   20
  105
  -18
   22
   45
  -51
   36
  -41
   34
    7
  -45
  -19
   76
  -21
  -38
  -80
  -75
  -22
   33
  -65
    9
  -11
  119
   60
  -17
  -12
  124
   15
   70
  -32
   -4
  -37
  -86
  -14
  -51
 -123
  -60
   87
  125
  -10
  -34
   -8
  -32
 -111
  -46
  -18
   45
    2
  -10
   83
   87
   22
   94
   62
 -124
   19
    6
   18
 -108
  -81
   23
   55
   65
   59
  106
  105
   20
   12
   27
   62
  108
   12
  -68
  -79
    3
  -65
  -53
  -74
  -69
  -79
   33
   76
   52
  113
  -11
  118
  -25
 -102
 -105
  -21
  -70
  -69
 -103
   48
  -72
   69
  -56
   47
   16
 -117
   28
  -81
 -117
   65
   42
  -35
   97
  -18
  -57
  124
   36
   66
   11
  -78
  -51
   75
  -77
  -97
 -122
   80
  -52
  -81
  -95
  -14
   18
   -6
    9
   25
    8
   95
  -56
 -114
  -77
    0
   47
   87
  -95
  -78
   13
 -106
  -56
  -98
   -5
  -97
   -7
   89
  122
  -99
   23
   66
   39
  -44
   24
   -1
  114
  -56
   35
  -33
   29
  -50
   53
  -38
  -67
   77
  -88
 -119
 -122
  -17
 -108
  -17
  -77
   15
   91
   42
   64
   86
  104
 -108
  -76
    2
 -120
  112
  -52
   59
  -88
   16
   76
  126
   83
  -28
  -55
    5
  -43
  -50
 -114
  108
  -90
  -43
   45
   96
   -7
   39
  122
    1
  -47
  125
   74
  -89
  -88
  -65
   12
    9
   47
  108
   41
  -61
  -36
   95
  -10
 -119
  100
 -118
  109
  -12
  -42
  -29
 -123
   15
  127
 -123
  -93
    0
  -60
    6
 -109
   24
  -54
  -76
   70
 -124
   57
  -50
 -123
  -38
   54
  120
   38
  -90
  -19
   71
  -15
  -75
   79
  -73
  105
  110
  125
   44
  116
   37
 -101
 -104
   21
   85
 -125
  119
  -52
  -40
   38
   81
  107
 -118
   70
 -110
 -125
  -22
   52
  -82
   -7
  -65
   51
    1
  -30
  -90
   64
 -122
  119
   72
  -53
 -124
   20
  -69
   97
 -117
  110
  -93
   15
  -44
  -61
   22
 -108
  121
  -64
 -105
    5
   67
   57
 -101
  -11
   90
   -3
 -106
  -43
 -112
   28
 -121
 -101
   24
  -67
  116
   76
   18
  120
   97
    9
   70
  102
   86
   36
   51
  122
  -83
   22
   35
  -27
 -107
   40
   44
   93
  -63
   77
   42
 -122
   -1
 -119
   91
   -5
   -5
    8
   33
   -1
  -92
  -15
   -2
   61
   13
  -44
 -110
    4
  -69
  -20
   94
  -18
  -33
  103
  122
   88
   48
   83
  -55
 -114
  -73
   47
   11
   74
   53
   19
  -87
  -97
 -109
   11
  109
  -19
   89
  -71
  -87
  -71
   76
  -88
  -68
  -36
   55
   13
  -51
   92
  -77
  -84
 -105
  -46
  121
  103
  -33
  -91
  -62
 -111
  -91
   75
  121
  -83
 -100
  110
   42
  -91
   74
   32
   26
  -46
   73
  102
  -60
  -17
   16
  -82
  115
 -106
  -58
  -31
   82
  -73
   58
  -19
   39
  -59
  -15
 -114
  -50
  -82
   74
  -31
  -85
 -125
   19
  -64
  -88
  -78
 -100
   51
  117
   68
  -25
   25
    2
   -2
 -101
  -18
  125
  -84
   18
   72
  -62
   91
   41
   43
   56
   61
  103
   36
    4
   96
   40
  100
  -64
  -65
  -13
  -52
   41
 -117
   68
   78
   32
  -75
  -46
   12
   47
   78
 -119
    5
 -113
 -126
 -119
 -127
   47
  -50
   35
  119
  -16
  -43
  -37
  -79
   31
  -26
   59
  -79
   63
  -63
   46
   60
  -88
 -113
 -121
   -8
   82
 -121
  -42
  118
  120
   64
   32
 -111
  -31
   58
   59
  -89
 -114
  -23
  -10
   12
  112
  107
   44
 -126
  -19
   72
  -20
   85
  -56
  124
  -47
  -22
  117
   42
  -43
  -79
  100
   85
  -15
   49
   -1
   32
   -4
  -16
 -105
   45
  -58
  114
  113
  -40
   55
  -19
  -73
   54
  -34
  -64
   30
  103
 -109
   -2
   10
  -90
  -70
  -90
  123
   25
  117
   14
  -42
   16
 -115
  -73
  -59
   81
  -81
  -83
   24
   29
 -116
   63
   38
    6
   18
  -65
  120
   26
  -32
   17
    4
  -19
 -102
   44
 -106
   67
  -40
   -5
   60
  101
  -87
   27
  -36
  100
  110
  -15
 -101
   97
  116
   11
  -80
  -54
    8
    7
  116
  -52
    0
 -119
   43
   67
   27
   93
  121
   13
   73
   27
   29
 -102
   66
  -63
   32
   97
 -123
  -52
   25
  -62
   75
 -125
  -44
  -55
  -82
   93
    2
   91
  113
   65
   22
   85
   94
  -34
    1
  -12
  117
  -13
  125
  111
  123
 -118
 -111
   17
   50
   99
   33
  -64
   91
 -121
   84
   30
   23
  -13
 -123
    2
   48
 -101
 -123
    6
   57
  108
  -74
  -94
 -105
   -1
  -32
  -84
  -22
  112
    7
  107
   97
   78
  106
   23
  104
 -100
    7
  -39
 -124
    1
   58
   50
   18
   95
   50
   82
  120
   94
  -18
  -24
  127
   23
  -28
   49
  -26
  -74
   80
  105
 -117
  -69
   40
  112
   44
  121
  122
   23
 -103
  -44
  -76
   48
  103
 -121
  -54
   32
  -89
  114
   38
   20
 -123
   76
   53
 -107
  -22
   94
  -55
 -115
  -37
  -90
   98
   46
  -81
   39
   34
    2
  -75
  -11
  -84
   94
   63
   95
   53
   34
  -24
  -47
  -59
   68
   33
   87
  107
  -94
  -97
  -83
   82
 -120
  105
  112
  -36
   14
 -108
  -66
  116
 -122
    1
   47
   63
 -125
  115
   21
 -110
 -119
 -119
   25
   93
   -4
   43
  101
  -82
   23
   25
   56
   29
   56
  -83
  125
 -100
  -84
   -7
  -22
   24
  -40
 -107
   19
  -74
   21
  -44
  110
 -125
  -61
 -113
   73
 -107
   77
   56
 -126
  -96
  102
   35
   20
   22
  104
 -124
   33
   17
   71
  -20
   18
  102
  -36
  -23
   51
  -42
  -73
 -118
  -39
  -43
  -34
   31
 -116
 -115
  -91
   74
  -51
 -110
  119
   42
  -48
  108
  -63
 -110
    8
  -20
  114
    8
 -124
   45
  127
   65
   84
  -33
  -67
   70
 -117
  117
   47
  -61
   80
  -42
   40
   72
   20
 -106
   48
  107
  -54
  -87
 -124
  -67
  -65
   20
   70
   31
   94
  -96
   90
   -5
  -31
   33
   44
  110
  -14
 -126
   -4
  -66
   47
 -121
   43
   60
  -18
   -1
   48
  -93
   -6
  -50
  -31
  -50
   41
  105
 -121
  -25
  -52
  -31
  119
  -63
  -69
   15
    7
  -21
  -62
  -66
  102
  -41
   41
  -45
   51
   60
   91
  101
  -83
   93
  -87
 -110
   55
  114
  -51
 -123
   53
   45
  -11
  -13
 -117
  -57
   30
  -98
  -44
  -98
   47
 -125
   91
   43
   -6
  123
  -93
   46
  -85
    8
   31
    0
   54
   83
   30
   58
  -64
   64
  -83
   21
  -95
   -2
   55
  102
   51
   44
   33
   34
   81
  115
  -71
 -105
  -58
   41
   52
  -92
  120
   78
   93
  -13
  -41
   74
  -93
   35
  -55
   64
  108
   16
   60
  -11
 -114
   -1
   97
  -82
  -56
  -91
   14
   63
 -118
   96
   40
  -30
  -59
  -34
   54
  -57
  -79
   57
   41
   13
   20
   94
  -92
   -4
  -23
   39
  109
   67
  -41
   49
  -81
  -26
   52
  107
   73
  -79
  126
   75
    3
   49
   -9
  -17
   96
   56
  -48
 -111
  -20
  -92
 -106
   49
   13
  104
  101
  -60
  -43
    5
   37
  119
  -65
 -127
   89
  -25
   54
  123
  -86
 -115
    1
  -66
  -86
  111
   12
   69
  -47
  108
   94
   98
   40
   85
   36
  -44
  -57
  -72
  -56
  -63
   54
 -107
  -51
  -99
  -68
  118
   63
   31
    4
   79
  -57
  119
   88
  -54
   99
  -67
    0
 -119
   40
   34
   60
  -44
    6
 -108
  -54
 -114
  -15
   30
   -7
 -125
  -50
   37
    7
  -62
  -46
  -99
 -109
   23
  119
   54
  -66
   69
   51
  -41
 -110
   29
  -14
  122
   73
 -108
  -64
  106
  -69
   29
  -35
   -4
  -76
  -65
  127
   33
  114
  111
  111
  -75
   88
 -127
   25
 -107
  116
 -104
  -18
   86
  -41
   74
  -35
   76
   49
  -23
  -36
   36
   12
 -119
   40
   17
  -91
  113
  -58
  113
 -102
  -13
   98
  -94
 -120
  -48
   70
  125
 -109
   87
  117
   13
  -51
   -6
   87
   -6
   50
  -82
   94
   54
 -114
   79
    8
   82
  -15
 -106
  -75
 -102
   53
   41
  -55
   36
  117
   71
   79
  -91
  -21
  -42
   88
  -97
   74
   53
   35
 -115
   44
  -51
    2
   62
  -66
    4
   64
  -92
   44
 -116
  -43
   27
   89
   88
 -121
   -1
  -12
   21
   -1
  -60
    8
    7
  103
  -26
   85
  120
   69
    0
    0
  -19
  -21
   98
  -59
   50
   14
  -77
  -92
   73
   73
  -62
   42
  126
  -93
  -28
   34
  -53
  -40
   55
  117
 -102
    8
   36
   86
 -126
  117
  -65
  114
   28
  -54
  -11
  -21
   83
 -121
   45
  -87
  -47
    3
  -73
  -95
   22
   85
  -29
   -8
  -22
   37
  -85
   20
   78
  -59
  -72
   90
  104
  -55
 -112
 -110
   10
 -107
  -36
  -35
  -72
 -116
 -115
  -36
  -37
  -73
   57
  -64
  102
  111
  103
  -72
   12
   75
  -84
   93
   43
  102
   -8
 -100
   51
  -57
 -103
  -21
 -120
  -28
  -78
 -108
   54
  -16
   23
    9
  -88
  -55
  121
   33
  -43
  -57
  -91
  -45
   28
  -69
   86
   56
   42
   87
  -64
 -105
  100
 -121
 -106
  122
  -90
  -45
   40
  120
   82
   51
   97
   43
   43
   30
 -114
  -61
   56
  110
   54
   37
  103
  -85
  115
   -4
   21
   58
  -82
  123
  -57
  123
  -34
  -11
   81
  -12
  -13
   68
  -74
   82
  -73
   34
  125
  124
   34
  -64
   61
 -127
   -1
  -65
 -116
   39
  -98
  107
  -71
  -62
  -37
  -81
  -11
  -54
 -114
  -82
   27
   24
   88
  -20
  103
   -9
 -110
  -59
 -123
  -12
  100
   99
   86
  -58
  -83
  -32
  -86
   40
 -106
   12
  -82
  117
   69
    7
  112
  104
   64
 -106
  124
   56
   31
  -23
  -58
  -78
  -19
  -70
   33
  -96
  -37
  -18
  126
   98
  -99
  -23
  -93
   25
  -90
    8
   56
 -121
  -50
  -42
  -18
  -44
   99
   84
   -7
   36
   -4
  -28
  -93
  -64
  -31
  -63
  109
  -93
  -88
   77
    3
   52
   75
   43
  -87
   65
  103
    0
  -92
  -51
   14
  -44
   33
  -92
   75
  -56
  -59
  -29
   58
  -41
  101
  -57
    1
  113
   -8
  116
  -19
   84
   64
  -94
  -50
   77
  -82
 -116
 -110
  -55
  122
   -9
  100
  -42
  -74
  -12
  114
   90
  -26
  -11
   24
  126
   86
  -22
   50
  -69
  -97
  121
  -37
  -35
    2
   85
   19
    5
   80
  -72
 -114
   67
  -24
   20
  -97
   62
   50
   18
  -65
   98
 -112
  -47
  124
  -10
  -49
   -2
  -14
   30
   83
  -62
   59
 -107
   29
  -47
   -6
  -14
   16
  -85
   30
  117
  -71
  -22
   54
  112
  -52
   29
   48
   15
  -53
   13
  -55
   81
  106
 -114
   89
 -108
   56
   85
   49
  -23
 -120
   60
 -105
 -123
  -51
  -88
  -40
   80
   96
   75
  -62
  126
  -95
  -34
  -90
  -55
  -39
  -19
   90
   61
 -108
  -55
   53
  -61
   82
   36
   -5
   -7
   94
    4
  -92
 -111
  -50
   27
  -65
   82
 -104
 -102
  -72
  127
  -35
  -41
   52
 -122
  125
   53
   57
  -35
  117
    7
   27
   35
   65
  106
  -38
  -70
   84
  -18
  -36
   17
  -56
  103
 -111
  -12
  -43
   58
  116
    0
  -10
  115
   -2
  -16
   -5
   64
   12
   77
 -118
   91
   10
  -47
  -45
 -102
   -4
   52
 -101
  -91
  120
 -109
  -53
  102
  -27
  118
  -58
  106
   64
  -46
  -64
   18
  -70
   70
   75
 -120
   86
  -56
   49
  -14
   99
  -20
   63
  -95
    8
   58
   84
    3
  -55
   98
   90
   56
   30
  -28
  100
   16
   60
   -1
   83
   56
   84
  -81
  -65
   60
  -23
  -16
  -82
   -8
   59
  -91
  -87
   73
  -79
  -27
   -1
   35
   46
  -60
  -62
   -9
  -18
   39
 -124
   40
  -72
   66
 -109
  -96
    3
  -54
   23
   64
   98
   69
  113
  -92
    2
  -94
   59
  112
   13
  113
  -53
 -104
  110
   84
   70
   29
  117
  -94
 -119
   27
  -24
  119
  122
   24
   60
   29
  -42
  119
   14
   99
  -41
   96
   90
   76
   97
  -96
   11
   23
 -120
   32
   24
 -112
  -83
 -102
   72
    4
  -92
  -85
   80
   94
  -54
   21
   -4
   94
  -47
  -72
  -28
    3
  -56
   -6
  -24
   21
   54
   76
   91
  -73
  101
   12
  113
 -104
  -98
  -25
  111
   82
  -93
  -20
   90
   55
  119
  -96
   83
   78
  125
   82
  109
   29
   29
  -84
 -107
   22
  -76
   40
 -116
   -8
  -65
   74
   62
  113
   24
  -78
  -93
   -3
  -77
    9
    5
 -117
   55
    2
  -71
   33
  -10
    2
  -35
   44
  -20
  -94
   51
  -84
 -125
  -20
  104
  -78
   60
   82
   -5
   63
   38
  -96
 -106
   34
  117
   46
   28
   -4
  123
   -6
    5
   16
   46
  -51
   37
  -48
   70
  -33
    4
    9
  -65
  -99
   32
  109
  -81
   32
  -86
   56
  100
    9
  -69
  118
   20
  -61
  -95
    5
  -45
   -3
   39
  -24
   55
   19
   76
  -71
  -60
  -45
   33
 -125
   84
  -49
   46
   11
 -112
   13
  -76
  -57
 -106
  -81
  -90
  -38
  -35
  -75
   20
   10
   74
  -54
  116
 -107
   64
 -103
  -40
  -46
  -39
   -2
   22
  -76
  -58
  -66
   92
   64
  -47
    2
   72
  -33
   74
  -74
  -97
  -35
    1
    3
   92
 -116
   51
   77
 -100
   92
  -23
   17
   97
  106
   59
   92
   77
  -58
   34
 -119
  -92
 -119
  -32
  -24
  -11
 -105
    5
   -4
  -36
  110
  -13
 -108
  -99
   85
  -42
   84
 -106
  -63
  111
  -65
  -51
   27
   54
   88
  -46
   95
  111
  -96
  -44
  109
   22
  -45
 -107
 -124
 -108
   -5
  -42
   17
 -108
   24
   72
  -99
  -74
  -98
   45
   26
   15
  -68
   45
   67
 -104
  -20
   32
  127
   77
   41
  -11
  118
 -124
  -71
  -41
 -116
  -99
 -126
  -54
   69
   53
  114
   48
  -93
 -111
   61
   95
   23
  -53
   92
   26
  -27
   71
   10
  -57
  -75
   44
  -82
  -16
   38
  104
   70
   -8
   30
   79
  -20
  123
   36
  -67
   60
  125
  -66
   26
   87
    3
   68
 -105
  -96
   64
  -55
   78
  -17
  -78
  -80
  -78
  105
  -82
  -98
   81
   33
   67
   25
  -60
   27
   84
  105
   69
  126
   97
  -97
  -36
   63
  -21
  -98
   47
  -22
   31
  112
   18
  -24
 -121
  -25
   47
   27
 -125
  -46
   92
   60
  -68
  -43
   97
   74
   30
 -126
   19
   17
  -73
 -114
  111
   41
  -39
    6
  100
 -119
   26
   99
   14
  112
  -32
    2
  -54
  -78
   34
  113
  -99
   61
  -65
   93
   23
   -3
    7
 -119
  -19
  -85
  -39
   30
 -107
   32
  -32
   99
 -121
   19
  -78
   74
   13
   -5
   43
   85
   75
 -126
 -110
    8
   57
   99
  -91
  -51
 -112
   50
 -120
  -78
 -110
  -91
  114
    8
 -101
  115
  -74
 -104
   92
   32
  -26
    2
  126
  -27
  -10
  -51
  -87
   58
   -5
   55
  123
  -24
    8
   97
  -65
  -82
  -32
 -114
   76
   56
  -37
   68
  -72
  -51
  127
   72
   30
  -97
   22
 -102
   -1
  119
  -41
   37
  119
   28
  -80
 -107
   -8
  -40
 -124
  -31
  109
  -97
  102
 -107
  -81
  114
   48
 -102
  -36
   77
  -97
  -50
 -105
   55
   53
   17
  -63
  -16
 -114
 -110
  -98
  -17
 -122
 -122
    6
   15
   67
  -42
  -91
   76
  -89
   44
  -23
   10
   -7
   74
 -112
   -7
  -10
  -49
   54
  -79
  -32
  -61
   13
  122
  -42
  -60
  -29
 -105
   40
   43
  -91
  103
   -3
  -59
   86
  -60
  -31
  -90
   -4
  -57
   95
   32
    3
   95
  -34
  104
 -124
 -108
  -27
   23
   20
  121
   52
  101
   21
  -98
   63
  107
   72
  -88
 -125
  105
 -120
   54
   40
  116
  -75
  -79
  -90
   11
  -93
   99
  -58
  110
  -42
    3
  -20
  -96
  -88
  112
  124
   24
  -72
    8
  116
  -73
 -123
   99
 -106
  -18
    8
   33
  -23
  -50
  -32
  -96
  122
  -90
   24
  -10
  -72
  -44
  -35
   59
   -7
   82
  -80
  121
   85
  -93
   60
  -18
   33
  -86
  -48
 -118
  -19
   58
   78
  -78
   14
  126
   64
  107
   61
   -5
 -102
  103
  -55
   45
  -40
   96
  -97
  103
  -24
  -65
   42
  -65
   87
  -33
 -120
   73
  105
   98
   83
  -79
  -80
  -65
  -56
  118
   94
  124
   13
 -117
   -2
  -90
   70
  112
   38
  -49
 -100
  -26
 -102
   84
 -126
 -102
  -98
  -15
  -37
  -66
   -3
  -68
   32
  -58
   -3
 -100
 -127
   81
   84
   35
  -41
  119
  121
  -21
   73
   51
   87
  -89
   16
  112
   34
  -58
  -82
   53
 -115
  125
  -52
   30
  -37
   46
  -21
   27
  -73
  -96
   24
   36
  106
  -65
  101
  -90
   53
 -107
   85
   40
  -65
   71
   46
  -19
  -73
   89
  -39
    0
   79
  104
  -41
  -77
 -117
  -84
  122
  126
  -37
   57
 -104
   36
   77
  -35
   80
   66
  -50
  121
    2
   14
 -104
  -38
  111
  -40
    6
  123
  -36
   97
   32
  113
  -65
   14
  -45
  -28
   51
  -90
   97
  -76
  -96
 -101
   10
   82
   -8
   95
   -1
  -47
   12
  -32
   18
    9
  127
   76
  -88
 -103
   23
   14
   63
   37
  -84
 -115
    1
    6
   -1
  -54
 -123
   24
  -69
  -37
  -36
  -67
  -37
  -10
  -73
   20
   59
   -2
  -10
  -11
  116
   11
  -46
 -127
   46
   97
   43
  -56
  -80
  -88
   77
  -67
  -92
   47
  -81
 -119
 -112
  107
  -98
   58
  -66
   -5
  100
 -121
   60
  -75
  -84
  103
   99
  103
   86
  -13
   30
   41
  -51
   33
    2
   93
  -19
    6
   25
   98
  -93
    0
  -89
  117
  -39
  -83
  -28
   82
   42
   31
 -127
   75
 -117
  -48
   -2
  -62
  -47
   41
  -76
  -27
   35
   99
  103
   99
  108
  114
  -60
  -11
    3
  -24
   25
   55
   14
  -27
   88
  -26
   61
   63
  -85
  -69
  -39
   95
  -61
  -96
 -101
   58
   -3
   53
   28
  -51
   71
  119
   48
 -127
   12
   21
  -81
   59
   -6
  -36
  -70
   72
  -85
   69
  124
   -8
  -43
   27
   47
   84
  -96
   56
  -86
   15
   -3
  -46
 -121
  -87
  117
   58
  111
   99
   79
  -67
   50
 -109
   72
  -69
   95
 -115
  -58
   90
   -3
  -90
   30
 -102
  109
  104
  -29
 -106
 -116
  111
   -7
  102
   25
 -125
 -122
   11
  -38
   65
  -50
   71
   55
  -44
   69
  -95
   19
  -37
   56
   43
  -96
   37
   11
 -119
 -119
  -12
   29
  -52
  -29
  -98
   32
   -7
  110
  124
   -2
  111
   72
  -65
   32
 -102
  -57
  120
  -23
   64
   62
 -121
  -60
  -69
  -45
   15
  -11
 -121
   29
  -10
   17
  -97
  -52
    3
  -37
  -78
   48
  -73
  -66
   58
  120
 -109
   93
  -53
  -24
   77
   51
  -23
  -33
   76
  102
   -1
  103
  -44
  124
  108
  112
  -96
   -7
   44
   34
  -18
   13
  117
  -79
  -11
   -1
  -75
   27
 -114
   55
    3
  -75
  113
  -45
  -59
 -108
  -57
  -71
   56
   54
 -123
   75
   13
   38
   57
    5
  118
   80
  106
   43
   74
  -36
   29
  -94
  -89
  -25
  -97
 -113
  -85
   79
  -89
    9
  -57
  -13
   27
  121
    3
 -100
   82
   -7
   51
   32
   14
   -9
  -75
  -61
   61
  -68
  -54
  -84
   42
   88
  -33
   76
  108
  -20
   76
   68
  -89
  -96
   72
   21
   87
  -91
  113
  -32
  -27
 -118
  -73
  -56
   26
    9
  -39
   -1
   94
  123
  -14
  -77
  -72
   49
   22
   20
    9
   -3
   10
  -83
  108
   65
   76
  118
   82
  -42
  -70
  -72
   96
  -70
   59
 -127
   -5
  -29
   67
   31
   27
  126
  100
  123
  -58
  123
  -48
  112
   41
  -79
  -22
  114
 -100
   97
  -58
  -54
   37
 -120
  -80
  121
 -120
   75
  -16
   57
  -26
  -46
   27
 -114
   90
  101
    5
  -81
  -22
   22
   93
   43
  -47
  117
  107
  108
   22
  -82
  -42
   32
   -5
   83
   59
  -70
  -75
 -127
    8
  -47
   65
   21
   25
   -9
  108
 -127
 -126
  -22
   58
   94
   55
  101
   59
  -64
   90
   78
  -52
   18
  -53
  -33
  -73
  -29
   43
  -86
   87
  122
   35
   -8
   -5
   84
   96
 -108
  -48
   23
  113
    0
   35
  -67
  -86
  -96
  -61
  108
 -111
  -77
  115
  -32
 -123
  -64
 -116
  -93
    4
  -77
   92
    2
  -51
   32
   65
  -93
   -1
  -63
  106
  -79
   20
  127
   30
 -102
   17
 -114
  -40
  -81
  106
   49
   45
   -3
   81
  -26
   71
   75
   57
    6
   68
  -13
   37
  101
   80
  -70
   81
   94
   53
  -73
   10
  100
  122
  -42
  116
  127
  -91
  -62
 -102
   -2
  -85
  -30
   24
 -101
  -38
  115
  120
  108
   -5
  -50
 -103
 -126
  108
 -107
  122
   64
   45
  -10
   70
  126
   37
  -39
 -118
   66
    4
   50
   22
  -65
  -38
  -79
   61
   80
  -20
  -74
  -70
  121
   34
  -17
  -44
   99
  116
  -88
    3
  -53
   66
  -89
 -124
 -118
  -33
   83
  -69
  -84
  101
  109
  -85
   91
   94
 -125
   22
    3
   19
   82
   89
   36
  -84
  -98
   29
  -87
  -95
  127
   89
   70
   54
  -54
  -58
  -48
   94
  -74
   26
   60
  -46
  -15
  -81
  -59
  115
   81
   -1
  -79
   34
  102
  -75
  127
   28
  101
   20
   85
  -70
  -83
   88
  -38
  -28
   13
  -70
  -93
 -111
 -111
   42
    9
   76
   53
  -28
   31
   62
  -19
 -101
  106
   -2
   79
 -124
   74
  -95
   -5
  122
   40
   69
   48
  -80
  -60
 -120
   91
   59
  -76
  -35
   77
  114
  -46
   93
   56
  -46
  -77
   10
  -60
   62
   74
   50
  124
  -48
   91
  -55
   63
   47
  -87
   38
   99
  105
  -30
  -36
  -15
   43
   13
  117
 -103
  -68
  -68
   97
   57
   42
  -41
  -13
  -61
  111
   97
  -59
  -33
  -93
   77
  -13
  -17
 -104
   52
  114
   35
 -125
   24
  -97
  -34
  -44
 -122
    3
  -91
  -61
   97
 -118
 -111
  -43
 -119
   37
    0
   48
  -41
   77
  -26
    8
   15
   -1
   10
  -26
   47
   29
   48
   87
  -14
  127
 -103
  -15
   96
  -30
  103
   50
 -109
  -72
   41
   98
  -74
  -58
   92
  -69
   80
   92
   22
   42
   86
  -88
   10
   57
  -60
   54
    9
   27
   92
  127
 -115
   65
   16
  127
  -22
   43
  -64
  -78
  -71
  101
 -122
  -27
   87
   14
  110
    6
  -30
   94
  124
   59
 -106
   36
  -13
 -118
   77
   68
 -112
   30
   26
   62
   61
   95
  -16
  -74
  -45
  -27
   61
   88
  -96
   51
   29
   63
  -46
   29
   17
   58
  -92
   37
   77
 -122
   38
  105
  119
  -91
   43
  -99
  -41
 -116
  107
   12
   57
  -19
  -61
 -111
  -80
   85
  -64
 -103
   50
  -13
   21
  -30
   61
  -13
   63
   52
  -59
   14
   68
  -96
 -123
   -4
 -127
   -4
  -35
   25
  -11
   83
  -29
   15
  104
  104
   12
  -66
  -35
   65
  122
   -9
   87
  -15
 -104
  -67
  -32
   70
 -106
   93
  -32
   72
  -73
   38
   59
  -18
  -65
  109
  -37
  -99
   26
   15
   -8
 -109
    4
  -95
  -97
    5
   94
  -49
  -51
  -61
 -104
  -24
   22
   11
   13
 -105
  -94
  126
   16
  -60
  -85
   20
  -42
   11
  -47
  -34
  -39
  -89
  105
   80
  117
  -17
  -34
   52
   63
   58
  -62
   -5
   23
 -108
   23
   27
  -19
   10
 -103
 -124
 -108
  -20
   32
  -97
  -92
   -6
 -101
  -90
   64
   94
  -88
   92
  -14
  -45
  -69
  -40
   79
  -34
    8
  -16
   84
  -26
  -24
   81
   59
  -95
  -72
 -108
  -76
  -62
  -13
   56
  -95
  -96
 -123
   29
  -69
  -71
   40
   30
  -46
 -117
  -22
   55
  -47
   46
   52
  -99
 -109
   40
   50
   52
   33
   10
  -70
   61
   54
   80
 -113
  108
 -111
 -127
   64
   15
  -79
  126
  -52
  124
  118
   32
   53
    7
 -104
  -86
  -60
  -68
  -52
  122
   78
   49
   -9
   -7
   84
  121
  -39
    6
   61
 -116
  -18
  -46
   -1
  -37
   67
  -34
   84
  102
  -17
   -5
   28
   75
   86
  108
  116
  -39
   11
 -102
  -16
  102
   -6
   87
  111
   20
  -99
   65
   76
    0
  -62
  -51
  -65
  -17
   70
   25
    3
  -42
  -62
  -90
  115
  -81
  -73
   42
   69
  -63
   87
  126
  -24
  109
 -121
  112
   58
  127
  -17
   -9
    0
  -39
   18
  -43
   83
    6
  104
  -37
 -107
  -90
   96
   -2
  102
  -80
    2
 -110
  -67
  -19
  -79
   56
  -94
  -60
  -15
  -41
   -2
   32
  118
    1
  -54
  -31
  -28
  113
  -25
  -34
   13
   59
 -111
   46
  -80
  -48
   66
 -111
   91
  -22
  100
  -88
  -64
   59
   35
  106
  -57
  -52
   17
  -49
   -6
  107
  -95
  105
  -22
  103
  -83
  -87
   83
   -6
    8
   63
    5
   88
 -118
  -98
    2
  -33
  -84
   74
  -97
   -5
 -103
   24
  -35
  104
   29
 -124
   16
  -42
   68
   24
   31
 -127
   48
  -89
  -94
  -76
   54
  -11
    3
  -45
   96
   32
   32
  111
  -32
  108
  -81
   56
  118
  -54
  -69
   74
   60
  -90
  -29
   83
   58
   44
  -96
  124
  126
  116
  -83
 -125
   65
  -58
 -114
  -80
   71
 -116
   14
  118
   61
  101
  126
    2
  -43
  -11
 -101
   -3
  103
  -50
  -90
   83
 -100
  108
  107
   64
  -68
  -54
  118
   17
   52
   16
   -9
   60
   72
    4
  -77
  -53
 -108
  -30
   39
   58
  -81
  -75
 -114
  -85
  -42
 -106
    4
    9
   70
   -7
   -9
  108
   95
  126
 -113
  104
  -70
   75
 -120
  -83
   46
  123
    1
   27
   84
   44
   64
  -33
    4
   70
   87
   47
   33
  -63
  -21
 -113
  110
   78
  -17
  126
   44
  107
   41
  -64
   63
   53
   -1
   67
    7
 -107
  -75
   17
 -125
   57
  126
  106
   85
 -113
   68
  -44
 -107
   53
  -63
   45
   80
  -44
  -30
  -24
  -16
  -54
  -69
  -73
   70
  102
   58
 -100
   85
   69
   87
  -93
  -36
    9
   72
   98
  -31
  -16
 -120
  106
   20
   60
   43
 -127
  -23
  125
 -121
  -74
   46
   14
   16
  -18
  -77
  -26
   32
  -26
   43
  -64
   94
    4
   82
   55
   -5
   64
   28
  118
   89
  -49
  -76
  -41
   39
   20
   55
  -99
   99
   52
   86
  -78
  -62
 -118
  -79
   11
 -120
   81
  -68
  -72
    1
  -30
  -81
   10
  -77
 -126
  124
  -27
   73
 -114
   -4
   13
  -72
   18
   50
   97
 -113
   45
   12
  111
  120
  -53
 -121
  110
   -9
   98
  101
  -52
   13
  126
   13
   47
   84
   68
  119
  -78
  117
 -103
  115
  -24
   49
  102
  -68
  -83
  -84
   87
  -70
   56
   -1
  -68
 -100
 -101
  -38
   43
  115
  -43
  112
   90
  -46
  -86
   43
 -122
   87
   53
  118
   69
   29
  -93
   71
   34
  -36
   73
  -51
  -69
  -82
  -61
  -48
  -53
  127
  -16
   37
   19
  105
  125
   17
  -32
   54
 -122
   70
  -43
   -5
 -107
 -110
  -94
  -43
  -50
   28
  -43
   79
  106
 -113
  -49
   94
  -19
  -39
    9
 -106
   72
   64
   24
  -96
  -80
  -66
   97
   30
  116
  115
   10
  -83
  -44
   98
  -18
   54
  -25
  -95
   81
   60
    4
  105
   78
   -2
  -55
  -49
 -115
   99
  -68
   33
   27
  -99
  -15
   51
  -46
   55
   30
   -9
  -64
   98
  119
   16
  -58
    5
  -89
  -54
 -114
   38
   -4
  114
  -20
 -115
  -90
  105
   98
   52
   43
  -11
  -66
  126
  -48
  -19
  -87
   74
  -37
 -122
   -8
   71
   63
   88
   78
  -38
   -8
  114
  -30
    5
  -15
  -47
  101
   67
    3
  -73
 -117
  -69
 -118
  -17
    1
  -18
  -85
  -55
   82
   73
  -86
   30
  118
  108
   71
  -78
  105
   73
  -62
  -18
   11
  -74
   38
  124
    5
   31
  -49
  -30
  123
  -38
   13
   -2
  -85
  -75
  107
  -69
   11
  103
   15
 -108
  -71
   80
  113
  -93
   32
 -100
   21
  111
  -18
   95
   70
 -121
    6
  -10
    9
  -43
  127
   60
   16
 -102
 -101
  -54
   67
  -91
 -125
   50
   62
   94
   88
 -122
  -40
   -7
  -56
  -41
   -1
  118
 -100
  -63
   58
   34
   98
  -58
  -67
  -37
   56
  -21
   97
  -35
  -29
   23
   47
 -116
  -12
  -39
  -65
  -24
   -6
    4
  -66
   10
  -43
 -125
   92
  -47
   23
  -31
 -107
   96
  -86
   76
  -23
   48
   36
  -71
 -100
    9
  -37
  -60
   49
  102
  -80
   83
  107
   76
  -95
   50
  -13
   21
   59
   87
  -36
   54
 -125
  -57
  100
  115
  -25
  108
   57
  -26
  -30
  -82
   44
   -7
 -120
   21
 -116
   21
  -44
  108
  -98
  101
   75
   81
  127
   89
   47
 -126
  107
  -30
   51
  -54
  -72
  111
  -28
 -112
   73
  -62
  -18
   28
  123
  -55
   22
   -4
   -9
   14
   12
  -43
 -112
  -83
  -22
  -37
   68
   12
   85
 -105
 -126
   72
   -8
  107
   15
   21
  -96
  -52
  125
  -69
  -27
  -52
   22
  -56
  -67
  110
  -39
   54
   34
    3
    1
  -32
  -32
  -75
    4
  108
  -60
 -112
  -84
   -5
   36
   52
   12
 -127
   -4
  119
  -86
   20
  -81
   17
  -45
  -86
   34
   74
   25
   43
   12
   28
  -37
   29
  111
    4
   80
  106
  -52
  -33
   80
 -111
   77
   20
 -114
  -89
   14
  -92
  -37
  -34
  110
  -70
  105
  -58
   90
   84
  114
 -119
   15
  -83
   -2
  -97
 -103
 -105
  -83
   79
   46
  -68
  -48
 -119
  -17
  113
   83
   60
   -4
  -37
   23
  120
  -69
  -36
   34
  -90
   95
  -40
  -19
   76
  -21
   79
 -121
    5
 -126
  -40
   45
  -52
 -117
  114
   22
  -26
   83
   72
  110
 -118
   93
   86
  -26
   -7
 -111
  -17
   82
  -52
  -17
  -79
   98
 -108
   -7
 -110
 -100
  -16
   52
  -61
  -49
   88
   39
   77
  125
   27
  -86
 -104
 -105
  -41
 -108
 -115
  115
   -3
  -86
  -29
  -74
   95
 -103
   94
   36
   -3
   35
  -85
  -39
   59
  -31
  125
 -127
   69
    9
   96
  -69
 -122
  124
   58
   -2
  -34
   99
  -68
   82
    7
  111
   39
   10
  -37
 -102
   39
  -45
   62
  -25
  -76
   47
  -64
  -99
 -109
 -123
  -58
  -17
  -45
   25
   36
 -104
   48
  -31
   26
 -113
   69
 -101
   46
   74
 -109
  -46
 -101
   46
  -86
   35
  -89
   65
   82
   13
  -60
   74
   73
   69
   -9
   11
 -101
  -25
 -119
  -21
  -37
   -9
   67
   77
  -90
   20
 -123
  123
   88
   94
  -79
  -76
  -83
   37
  -73
  -11
  -52
   85
   67
   56
  109
  -93
   -7
  113
  111
   70
  -47
  127
   49
   91
 -102
   81
  -12
 -112
   -4
   31
 -103
  -48
   26
   63
  -31
  -42
  -93
   -5
  104
  -59
  -72
  -58
   48
 -104
   90
  -43
  -42
  -63
   96
  -90
  -57
   44
    2
   35
   29
   32
 -126
   -5
 -114
   15
  -69
   75
   -7
   36
  -87
   52
 -113
  121
   79
  -49
   81
   81
  -85
 -101
  -95
  -90
  -97
  119
  -34
   50
   78
  -90
  -87
   89
   54
  -67
   -7
   33
    6
  -53
  -26
  -71
  106
   21
   62
  -60
 -105
   73
   47
  106
   21
    7
  -85
   64
 -115
  -78
   48
  -69
  127
  -71
  -20
  -29
  -34
 -114
  108
  111
  -67
   45
   64
  -90
  -45
  -33
  107
  -16
  -42
  -14
  115
   86
   83
  -99
   28
   65
  -63
   68
  -75
   26
   -1
  -71
  -21
   55
   25
    8
  -33
  -45
   91
  127
   47
   62
   65
   64
  107
   76
 -123
  -40
   41
  -57
 -112
   74
 -105
  -19
   60
   96
  -97
  -24
 -111
   19
   81
  122
   81
  108
  120
    4
  -37
   44
  -32
   40
   75
  -31
  -80
   64
   52
  -43
  105
   95
  -86
   80
   88
  111
  -35
   71
  117
   84
 -115
   87
  -53
   44
 -113
   80
  101
   44
   90
   52
  -43
  120
   72
  123
  114
  -88
   87
  -91
  -80
  -41
  100
   81
  114
  -66
   20
  -79
  -38
   27
   37
   29
   97
   64
   77
  -63
  -71
  -96
  -29
  -91
   22
   71
  -74
   39
   -6
  105
   23
  -12
   67
  125
  -99
   26
  -59
  -27
   38
   19
   29
   78
   25
   37
   59
  -90
  -67
  -81
  -90
  -70
  104
   81
  -51
  123
  -99
 -106
  -50
  -16
  -58
   23
  -57
   79
   34
  -33
   55
  -37
  -82
 -116
    3
  -80
   33
   76
  -53
  -90
   55
  -84
   86
  -88
  -61
  112
   -8
   33
 -121
  104
  -63
   48
  -77
  -16
  -70
   17
   85
  -66
  111
 -100
  109
    9
 -116
 -127
   61
  -96
    8
  -86
   31
 -122
  -34
   -3
  -61
   89
 -123
  -46
   39
  -38
  118
  -75
   89
  100
   89
   79
  111
   20
  103
  111
   84
   13
   -6
  -36
  -84
  105
  -39
  -90
   49
 -119
  -83
  -31
   69
  -31
   -9
 -127
 -123
  120
   71
  -76
   13
   67
   13
   82
 -106
  -28
   73
   71
  104
   32
   19
   47
   99
   67
   28
   -6
   59
  -18
 -109
   95
 -122
  -48
  109
   80
   12
   68
   16
   87
  -98
  -22
   25
   61
  -65
   53
   58
   50
   23
   -6
  -66
    3
  -77
  -39
  -47
   11
  -15
   62
   20
   -8
   64
    4
   74
   75
   70
   78
   95
   94
  -44
  115
  122
    1
  -52
  -68
 -121
  105
  -85
  114
   18
  127
  110
   50
   68
  -66
 -126
   21
   -4
  -56
  -47
   25
  -57
   39
  -16
 -101
   91
 -115
  -93
 -118
    3
  -95
  -74
  -90
  -48
   76
  -41
 -123
  -77
  -11
  -14
  -30
  -34
   21
  109
  127
   -5
  -71
  113
    1
   73
  127
    0
 -119
 -108
   36
   74
   68
   92
  -92
   14
  -12
  -54
  117
   93
  -52
  -62
  -22
  -25
  -70
   78
   88
   88
  -79
  -90
   21
  -33
   21
 -112
 -123
  112
  -36
 -105
   51
   60
  -30
   15
  126
  -94
   -5
   18
  -89
   29
  -93
  -55
   24
 -115
   53
  -29
  -78
  -93
  -67
   78
   74
  123
    3
   20
   89
  -43
   90
  -35
   61
  -33
 -111
   43
  -26
  -34
   17
   59
  -99
  -16
 -119
  109
  -83
   -4
  119
  -75
  124
   19
    6
   50
  -77
  100
  -66
 -101
   90
 -108
  -64
   73
  -97
  -83
   -1
  -41
  -81
  107
  -63
   17
   26
   79
   84
   24
   77
   36
  -68
  -22
 -124
  120
   -2
  -46
  -23
   31
   29
   83
  -42
  -47
   37
  -49
   90
  -36
   52
  114
  -22
   16
  107
   31
  -99
  -93
   22
  -92
  -43
   -7
  105
  121
  -78
  -99
  127
 -107
 -113
   30
  -88
  116
  -76
   12
   46
 -121
  -96
  -60
  -28
  -24
  -91
  -15
  -99
 -121
   95
  -50
   46
   44
  -84
   45
  -57
   83
   12
  -15
   52
   13
   75
  108
  -68
  120
   -2
   12
  -80
  -37
   38
  -83
  -20
    8
 -118
   65
   83
  -80
 -117
   52
  -73
  -27
  -69
  -96
  -27
  -26
   74
  -57
  -28
  -15
  -93
   20
  -20
  -85
  103
   13
  -33
   42
  110
  -77
 -115
   56
 -120
   64
 -100
  -58
  126
   -6
 -116
 -119
  -32
   76
  -85
  -33
  -44
    1
  -16
   39
  -26
    3
  -35
   97
   54
   97
 -102
  -38
  123
  -69
 -114
  -44
   56
 -126
   11
  -83
  112
 -102
 -121
  108
   94
  -50
  -79
   86
  -80
  112
  -78
  115
  -94
   10
  -35
  -28
  -32
   51
  -50
   49
  109
   11
   20
  -68
   88
  -61
   81
  -64
  -82
   56
   -9
  -21
   25
   28
  -61
  114
  -88
  111
   40
  -16
  -24
  -69
 -103
  119
   99
   93
  -39
  111
  116
  126
   -3
  -53
   36
  -36
   -6
  -95
  -97
  -40
   29
   69
   64
   82
  -75
   74
   58
   77
  -36
  117
  120
   42
  -72
   81
   31
  -96
    3
  109
  -62
  110
   40
  119
  -43
   57
   46
 -108
   18
   60
   37
   31
   -4
    1
   22
 -107
   51
  -51
    6
   51
  -60
   14
 -121
  -30
  -39
  -11
  -32
  -29
  -86
   -6
  113
  -78
  115
  -53
   90
  -60
   42
 -102
  -87
   -5
   11
  -77
   83
   56
  -32
  -57
   82
   32
  -35
  -23
  117
  -53
   13
   38
   71
  114
 -110
  -60
  -71
  -88
  -70
  -46
  -31
  126
 -104
   43
  -85
  116
   77
  -41
  -53
   72
  -55
   46
  -35
  -19
  -44
  -69
   18
   35
   58
  -44
   97
  -85
  -58
  -30
  102
   11
  -89
   37
   58
  -87
   97
   34
   87
   -3
  119
   30
   -8
  -92
   71
   45
  -79
   89
   21
  116
    1
   97
   52
  116
  -24
   91
  -67
  122
   96
   24
  -83
   62
 -108
   95
  107
  -84
   62
   68
 -114
   47
  -57
   47
   45
  -88
  -40
  -38
  -68
  126
 -116
  -75
  -41
   77
   -9
   41
   87
   90
   -7
  -87
   31
  109
   21
 -109
  -27
  -32
   57
  -45
   32
  -50
 -110
   15
   47
   88
  -25
  -20
 -108
   81
  -76
 -111
   13
   12
   97
 -112
   34
   13
   82
  117
  120
 -124
 -125
  127
  106
  -52
  -67
  -96
   35
   60
   75
  -88
  -70
   -3
 -126
   90
   48
   34
  -13
  104
   62
  -91
  -73
  102
  -83
   44
  126
  -24
   67
  116
  -91
  -58
  126
  112
  -40
  -20
  -99
   59
  111
   60
  -64
  -50
  -37
   -1
   22
   31
 -110
   98
  -55
 -123
   65
  -54
   29
  -81
  -75
  -31
  -77
  -15
   71
  112
    0
   33
  -10
  -85
  -10
   62
 -127
   69
   81
   28
 -101
  -90
   -5
  -19
  -67
 -120
  -56
   62
   62
   99
  -76
  -10
 -108
  -17
  -81
   56
  -30
  -44
  117
  -90
  -13
  -68
   11
  -26
  117
  -34
   20
   55
  -23
   72
  -30
 -110
   11
  -18
  -21
  125
  107
   15
   90
  -45
   16
   -4
   73
   31
   15
  -79
  -35
  -98
  117
  -35
  -75
  -99
   29
  -70
   17
  125
   67
  113
 -104
   99
  -92
  -22
   14
  -35
   80
  117
   57
  -47
   -9
  -68
  -39
  -74
  102
  -43
  -45
   80
 -110
  -24
   16
  -40
   57
  -80
  -25
 -108
  -10
  111
  -42
  116
   -7
  -82
   11
   32
    2
   -4
  -11
  100
    9
   -2
  125
  -82
  -71
   54
    3
   26
   37
  -17
   -5
  127
   11
 -118
 -105
   28
   96
  -95
  -86
  114
    0
  -23
    5
   97
  -18
  -73
  113
  -66
  -52
  -21
   59
  -59
   -1
    5
   32
  -94
  -45
  -70
   17
  115
   72
  113
    4
   10
  -17
  -30
    8
   18
  -59
   21
   77
   25
  -10
   33
   -2
  -21
 -127
  -64
  125
   76
 -106
   91
   23
  -97
   48
   82
  115
  -67
  -95
   98
   63
  -63
   94
  -38
  -32
  -77
   80
  126
  108
   -9
   71
  -98
  121
  120
  -17
 -112
  -94
 -107
 -123
   -6
  -82
   32
   35
  -19
   16
   48
   38
  127
   68
  117
    6
  -36
  -91
  -70
   35
  107
   70
  -75
   72
  -44
   82
  -25
   88
   78
  -48
   96
   84
   81
  -45
   86
  109
  124
  115
  -54
  -60
  107
  -41
   17
  -42
   20
   35
  122
  -77
  -66
 -112
   83
   67
  -72
   34
  107
  -87
   -4
  -26
  -56
   47
  -97
  101
  116
   57
   66
   12
   98
  -48
  -73
   86
  -64
   40
 -122
  -73
  108
  -36
   78
    6
  121
   90
  -81
   71
  -65
   51
  -18
  112
   49
   63
  -89
 -105
  105
   18
 -124
  -64
  104
   45
  118
   20
   -6
    4
  -90
   50
    3
   17
  122
   72
   80
   17
  105
  -43
   56
  -92
  104
   87
  -45
  -70
   74
  109
  -44
  -91
   25
  -68
  -75
  -74
   53
   94
  -51
  -84
  -81
   52
  -38
   89
   -3
   53
   -9
  -66
   73
 -100
   88
   11
   63
 -121
   48
  127
   96
  102
  -86
  -59
   -2
  -56
  119
    8
   69
  -72
   90
   46
    5
    4
   30
  -77
   50
  -81
    6
   75
  -54
  -14
 -102
   11
  119
   43
  -54
    0
  -34
  -38
   26
   62
  -34
  -85
   23
   22
   50
  -41
    8
  -77
  112
  -80
  -33
  -37
   18
  103
  -58
  127
 -122
   36
   25
   75
    8
    6
   31
    0
 -103
   63
  -45
   52
   30
   74
  -52
   41
 -109
  -37
   64
  100
  -17
  -36
   39
 -117
  -92
   51
  -35
  -84
  -10
   24
  -89
  -79
   70
   93
  -70
   96
  -12
  116
   63
   63
   25
  -87
   28
  102
   11
  -10
   74
    5
  -70
   20
 -101
   27
  -65
   16
   94
   92
  -82
  -64
   64
   25
 -119
  -15
  -54
 -100
   -9
   -3
  -30
  -57
  -16
   83
  -84
  -20
  -88
  -23
   37
  -29
   34
  120
   70
   81
  116
  -24
  -63
   75
   66
   52
   80
  -66
 -113
  106
  -99
   67
  119
  105
   52
  109
  -90
  -87
  103
  -13
   -9
  -79
  -88
  111
   55
  -31
   48
   41
   -5
  -18
 -124
  -68
   -7
   90
 -122
 -116
  -55
  -78
  120
 -105
   71
  115
  108
  103
  -92
 -114
 -117
  -94
    9
  -12
   -3
   63
  -95
  -53
   50
  116
  124
  111
  127
 -117
   88
  -58
  -19
  -66
  -81
  -57
  -76
  -68
   72
   52
  121
  108
   51
  121
  -43
  -27
   31
  -92
   94
  -43
   98
  -52
  115
  -36
   10
   29
   77
   50
  -79
   13
   38
   31
   82
  -63
  -97
   28
  -33
   87
  118
   64
  122
  120
  -23
   42
   10
   98
   74
  -11
    0
 -103
  -49
  -40
  -84
   63
  -17
  -75
  -51
   12
    2
   95
   -4
   10
   84
 -108
  126
  120
  -72
  122
   79
 -125
 -124
  -75
  -90
   45
  -60
   79
   87
  -56
  -23
 -123
   43
   47
  -39
  -70
   90
   87
  111
  -49
  101
  121
  -52
  -65
  -44
   57
  -19
 -105
  -97
  111
  101
  -54
   -4
  -48
   26
   77
   83
   55
 -108
  -64
  -57
 -116
  -38
  109
 -113
  112
  -83
  -33
  -51
 -119
   35
  -42
 -105
   42
   99
  120
  -74
  -72
   19
  -36
   13
   63
   10
  107
  -44
  -35
   74
  -61
   96
  -20
  -70
  -74
   59
   49
  -25
  108
  116
  115
  -45
  -65
  -42
   83
   74
  100
   95
  -69
   -1
 -107
  111
  -44
   29
   83
  -42
  -25
    1
   15
   -5
   14
  -12
  127
  102
    7
   71
  -15
 -116
   12
    7
  -82
  -54
   59
  -85
  -17
  -41
  -99
 -107
   -6
  -16
  -63
   72
  121
   69
  107
   43
  -70
  -25
  -82
   13
  -83
   31
    8
   93
   76
  -19
  -84
 -120
   54
   96
   -1
  -60
  -79
 -102
  100
  -11
  -31
   94
  118
   50
 -119
   71
  117
   18
   17
 -102
   -4
   66
    0
   15
  104
  -47
  -72
  127
   18
  112
  -17
  -67
  115
   17
   18
  -46
  -96
  -55
   45
   46
  -58
    5
 -100
  -26
  -45
  -64
   58
  -55
  -69
  -24
  -17
  -54
   14
  -86
  110
  109
  -96
  -34
  -34
   78
   18
   59
  -48
  127
  125
    9
  -11
  -22
   75
  -94
   -3
  126
  -18
   78
    4
  -77
  -48
   17
  -76
   28
  122
   87
  -59
   60
  115
   93
   28
 -110
  -95
   63
   33
  -10
   15
  -32
   43
  -73
   31
   86
  -51
  121
 -118
   19
   85
   47
   64
   32
   54
   31
  -75
    6
  120
  -97
 -106
   -3
  125
  -33
  -59
  -79
  -67
   76
   99
  -50
  -35
  -97
   -4
  -22
 -112
  113
  -64
  -94
   82
  -37
 -121
  -34
    0
  -71
  109
   -3
  -31
  -84
  107
  -94
   30
  121
  -67
   36
 -120
  -57
  -39
  -67
  -64
   37
  118
   18
  -16
  -54
 -111
  -93
  114
  -89
   33
  -37
 -108
   91
  -42
   99
  -72
 -111
  -68
 -121
   35
   -3
  -60
  -41
  -19
  -72
   18
  -17
    5
  -82
   24
 -112
  -67
  -74
  -84
   42
   -8
   40
    1
  -90
  -23
 -126
 -103
  126
  -46
   -4
  -99
   56
   23
   71
  -18
  -88
   99
  -97
  -97
  102
  -21
   39
   61
  -83
   63
  -96
 -121
   62
   84
   23
  -16
  -93
   26
   29
  -27
  -27
  112
  -35
   46
    3
   25
   63
   24
   23
   68
   96
  120
  -82
  -48
  -51
   78
    9
   74
  -68
   61
   63
 -116
   73
  123
   40
   13
   41
   18
  -83
 -121
  -61
  123
   66
  111
   -8
   77
   50
  -69
   85
   75
  -98
   54
 -103
 -106
  -44
   23
  118
  119
   78
  -30
  -56
   83
   35
   37
   81
  -76
   17
   82
   44
  -49
  -57
  112
   17
  -27
   39
  -96
  -10
   -4
  -31
  -20
  -42
   94
   48
   96
   81
 -107
  104
  -88
   79
   45
  -45
   32
   57
  -58
   57
  -27
  -47
   33
   56
    8
   69
  115
   -6
  -71
   72
  -57
 -118
   28
  -73
   75
  125
   15
    2
  -19
   95
    7
  -79
  -76
   68
  116
  -18
  -72
  -37
  102
 -119
    1
   94
 -118
   83
   37
 -123
  -58
  -60
 -124
    0
   40
   87
  122
  120
  -41
  -38
   60
   21
   29
  -27
  -22
  115
  -71
  -94
   -8
   69
  114
  -62
   21
   28
   10
 -102
  -69
  -83
   29
  121
   86
   21
  -80
  -87
  -21
  -84
   34
   90
 -103
   -9
   26
  -29
  -17
  118
   -9
    0
  122
 -109
  -43
  -86
  -17
   67
  -23
   -9
  102
  -42
  113
   22
  -78
 -111
  -23
  -80
  -85
  -97
  -11
  -20
  -29
  -52
   80
  -25
   81
   16
   85
   53
   38
   74
  120
   85
   33
  -12
  -49
  108
  119
  -56
 -115
  -55
   82
  -33
   24
  -18
  -16
   -7
 -126
  -20
  105
  -11
  -15
 -108
  -16
   49
   46
   48
  -19
   54
  -56
   19
  -70
  -61
   94
  -62
   70
 -117
  -46
   20
 -123
  -57
  125
  -66
  106
  -52
  -28
  -96
 -110
   -6
   -9
   45
  -30
  -56
 -121
 -112
    7
   78
  -59
  -99
  -94
 -119
 -107
   63
  -92
   58
   45
   70
   27
 -120
  107
   35
   93
   24
  -41
   75
  -59
  124
   74
  -32
   63
  -94
   80
   89
  -49
   71
   91
  101
 -126
  120
  -78
   35
   89
   73
   38
  -57
  -48
  -23
  -19
   19
   25
  -35
  -42
  -17
  -64
  -54
   66
    0
  113
  -56
    9
   23
  -51
  113
  -25
  -58
  -70
  -59
  -68
   93
  -12
   97
  -39
   96
  -90
   25
  -61
  -48
  -79
   -7
   31
  -37
 -116
 -127
  -10
 -108
   80
  112
 -106
  126
   11
  -72
 -101
   36
  -57
  -30
   31
    9
    9
  125
   56
 -123
   95
  100
   86
   86
   81
  -91
  -39
  126
   37
  -43
  -80
  116
  -45
  -19
 -118
  -65
  -44
  101
  -89
   12
  -24
  -44
  -14
  -41
   70
  -51
 -103
  -46
  -61
  -50
    0
    0
  -79
 -125
   87
  115
   54
 -120
   12
   68
  -90
  -40
  -45
   97
   -4
 -119
   74
  126
  -96
 -121
   65
   76
   94
 -102
   35
   46
 -113
 -109
   95
  -76
   12
  -26
   -3
 -112
  -78
    5
  -32
  105
  117
 -120
  -70
   21
   -7
  -21
   67
  -95
  112
   36
 -122
  -43
   32
  -73
   93
 -104
  -66
   82
  -52
   12
   11
   62
  -15
   62
  -60
  -65
   54
  -10
  -93
   85
   80
   28
   16
 -115
  107
   63
   85
  -75
  126
  123
   50
  124
  119
   53
  -78
   55
   98
  -46
  -61
  125
   29
 -106
  121
  -61
   26
  -97
   78
   92
 -106
  -84
  -36
   10
  -73
  -70
   69
  101
 -123
   83
   23
  123
 -114
  -30
  -77
   27
  -99
   80
 -121
   60
 -112
   94
  -43
  -56
 -116
  -24
  -35
   67
  -78
   54
   63
  124
   52
  -75
 -111
    7
   50
   22
   21
 -109
  114
   91
   85
  -39
  120
  -77
  -66
  -46
 -102
   57
  126
  -93
  -76
  -15
   45
  -61
  -85
  122
  -14
  -54
  -17
  -57
  -81
   73
   86
   85
  -47
   17
  -59
  119
   29
 -117
  -64
   25
   -3
    4
   63
  106
  -96
    8
   92
   88
   53
   78
  -59
  -62
  -47
  -11
  -46
  -30
   26
  124
 -113
   93
  -31
 -112
  -98
 -117
  102
 -125
  109
  -54
   70
  -50
   97
  -64
  -51
  -66
  -14
  -72
   -8
    7
  -99
  -78
  -91
   73
   84
   -3
   78
  -47
   -3
  125
  117
   97
   68
   -9
  120
 -109
   68
   47
 -112
  -17
  -52
   24
   41
   53
   54
 -118
   31
   68
   19
   28
   21
  -33
 -108
   76
   -9
   23
   -3
 -124
  -10
   20
   40
   40
   38
  120
 -101
  -78
   92
  124
  -39
   53
   68
   78
   -9
   -8
  -47
  -48
  108
   84
   15
   87
  100
   97
   24
  -37
   -3
   76
 -105
 -122
   17
  -29
   44
  -84
  -92
 -110
 -115
  -93
  -46
   66
  -60
  -29
  -70
   36
   21
 -123
   53
  -62
  -68
   69
   35
    5
  -31
   52
  -50
 -100
  -30
   81
   52
  -86
   67
  109
  -74
  -75
  -47
   26
  103
  -65
 -112
   33
   88
   -2
   91
  -59
  -78
    2
   42
  -81
  -61
  -79
   90
  -26
   74
  -57
  -44
  -78
 -123
  115
    3
   60
    5
  -48
  126
   99
   82
   69
  -29
  -44
   89
   59
   -7
  102
   24
   30
   68
   29
   98
  123
 -120
   37
    0
 -102
  -80
  -89
   46
  -90
  -82
 -101
    1
 -114
   -4
  -15
   74
   10
  102
   38
   32
  -96
    4
  -95
   71
   -1
   22
   27
  -85
 -104
  109
   13
  -47
 -109
  -55
   44
 -117
  -63
   71
   21
   76
   35
 -112
  120
  -25
   47
   70
  -54
  103
  -45
  124
   10
   29
  116
  120
 -116
  -58
   22
  124
   76
   51
  -80
   53
   54
   34
   60
  -36
  -98
  -88
  -96
  118
  -65
  -67
  108
 -123
  -74
    1
    4
   93
  110
  104
  -27
   14
   75
  103
   53
  -48
 -124
   96
  115
 -110
   94
  -46
  -48
  -95
  -61
   69
   24
  -71
   78
  125
  -51
   -5
   25
   74
   60
    1
 -106
   55
  115
  -71
   61
   79
  -21
  -13
 -112
   92
  -62
  108
   68
  101
   12
  -32
  -28
   95
   45
   84
  -84
 -125
  -73
   30
  -17
   34
   14
  -52
  102
  127
 -119
   64
   70
  -15
    9
   19
   26
   51
  -21
   99
 -123
   84
 -119
  103
   45
   20
   11
 -104
  -13
  114
  -36
   88
   21
   92
   77
   12
   59
  -34
   74
  -21
   64
   69
   84
   94
   13
   62
  106
  -47
  -10
  -27
   43
   90
  -38
  101
 -107
  -36
   16
  -71
   -3
    7
   81
   99
   26
   51
  -45
   24
  -69
  118
   -1
  105
  -20
  114
   -1
    3
   69
   53
   49
   -9
  -98
  118
  -22
 -103
   24
  -36
  -43
 -111
   34
  -55
  -69
  127
   37
  -40
   27
   55
   74
  -21
  -10
   81
  -27
   99
  -35
    8
  -41
  115
   82
  -79
   17
  123
  -22
   17
   15
    7
  -15
   23
  -37
  123
  -73
 -101
 -118
   19
 -110
  -11
   13
  -43
   14
 -122
   11
   -9
   86
    7
 -114
  -20
  108
  -57
  -59
  126
  -96
  -17
    8
    7
  117
 -117
   68
  -27
  -46
   18
   10
 -119
   49
  -31
   54
   23
  -18
   39
   59
  -41
    4
  111
  -45
 -126
   91
  -66
 -100
   12
  -26
    4
  -75
  -71
   -3
   62
  -29
    0
   60
  -22
  -81
  124
   44
  116
  -68
  -97
   47
  -53
  126
   60
  -15
  -94
   33
   67
  -74
   68
   83
  101
  -90
 -104
  -51
   71
 -121
  -54
  -45
 -122
   92
  117
  109
  116
   38
  104
  -78
  118
  -65
  -65
  -66
   35
  120
  -67
    7
   50
  107
  -35
  -98
  -94
  -11
  -33
  -68
   54
  114
   51
 -118
  121
  -41
   55
  113
  -61
   75
   89
   -2
   75
 -109
  110
   74
   10
   99
  -41
   85
  111
   12
  -34
  -69
  -31
   65
  106
  -48
   66
  -54
  105
 -105
  -33
 -105
 -102
 -117
  -28
  -30
 -109
  -89
  -64
   53
  -85
    0
   76
   99
   38
  -36
   54
  -99
  -96
   68
  -90
 -105
   -8
  -11
   13
   84
   55
   82
   60
  107
  -66
  -89
   66
 -117
  -57
  103
  -13
    9
 -107
   96
   48
   60
   66
  -61
  -74
   86
   33
  -76
  116
   16
   78
  -73
  -51
  -86
   64
   11
 -105
  -29
  127
  110
  -23
  -18
  -82
  -43
  -46
  -47
    5
   78
  -99
    0
   12
  -95
  113
 -118
  -35
   11
   63
  -88
   34
    5
  106
    5
   97
 -117
 -115
  -77
   80
   53
   30
   52
  -51
  -14
   88
  -35
  -37
  -80
   63
  100
  -43
   95
   -4
   72
  -61
 -106
  -86
  117
  100
   24
  -52
   20
    1
  -74
 -127
 -105
  108
 -107
  -10
    3
  111
  -22
  108
  -69
  107
 -106
  -63
    9
  -96
  -99
   91
  -44
  -81
   12
   80
  127
   12
  -60
   45
   99
 -126
 -126
    4
  116
  -41
  108
  -76
  110
  -49
   95
  -35
   86
   91
   -2
   75
  -17
  -47
  -56
   28
  -19
   80
  -88
  -46
   97
  -40
   89
   74
   75
   25
  -59
  115
   78
 -118
   28
  -29
   40
  101
 -127
   99
   13
  -92
   13
 -102
 -116
   75
  -27
  -74
 -115
  104
  -59
   69
  -19
 -120
  -75
  -48
   32
  118
    6
  -18
  -23
   97
  104
 -100
  -81
   59
  100
   69
   55
  -85
  -77
  -42
  116
   88
  -72
  -89
   94
  -84
    4
  -13
  -45
 -110
   46
   49
  -82
   82
   54
 -108
   63
  -23
   92
  -26
 -123
   80
  115
  -54
  -63
  -48
   40
   78
   22
   48
   88
   97
 -122
   21
  -17
   82
   59
  -59
  -41
   26
   12
   83
   32
  -12
  110
  -32
  -77
  -76
  -45
   32
   51
   58
 -120
   44
   91
  -34
   -7
   81
   34
  -90
  120
  -35
  -24
  -45
  125
 -101
  -39
  -27
   56
   45
   46
   82
   51
  -53
 -119
   57
  124
  -71
  -82
  -38
  -27
  102
  -80
  -82
  -10
    6
   81
  -14
   88
 -100
   62
  -99
  126
  -27
   91
  108
 -107
 -110
 -112
 -108
   52
   -5
   25
  -97
   85
   76
  -66
    3
  -70
  -98
   62
    4
 -112
  -22
  -48
    5
  -43
   39
   87
 -123
 -100
   88
  -51
   67
  -48
   30
 -110
  -56
  -80
 -127
  -89
 -115
   89
   46
  127
 -108
   28
  -91
  -74
  -80
   -4
   71
  -32
   72
   39
   63
   86
   75
   -8
  -72
   -9
  -24
  109
   50
  -69
   54
  101
   47
  -95
  -91
   75
 -120
   52
  -68
  119
  -99
  -20
  -26
  -87
   31
   82
   34
   67
   35
  -91
   93
   58
  -36
  -29
  -44
   41
  -65
  126
  -29
  -63
  -61
  -41
   85
  -34
  -69
   21
   65
  -43
  -72
 -108
  -34
  109
   24
   85
 -118
    0
   46
  -63
   78
  -38
  -79
   98
   39
   74
 -108
   48
  -91
   14
  -51
   17
  -87
 -120
  -85
   -8
  -93
  103
   55
   82
   71
  -95
  -91
  -70
   28
  -42
  -67
 -105
   87
   75
 -105
  -37
   46
  116
 -121
   31
   68
   -8
  -49
   60
    9
  -88
   64
 -112
  -99
  -58
   95
  100
  -43
 -114
   46
   49
   99
  -22
    3
   90
   -9
  -41
   13
   21
    6
  -94
 -126
  -33
  -23
  123
 -127
  -34
  -88
 -116
 -105
  -55
  -95
  -36
  104
   34
  -72
   65
  -67
  -37
  -65
  -28
   98
  113
  -93
 -114
 -117
  -70
  116
  -16
   64
    7
  -52
  -12
  103
  -13
 -103
  122
   94
   -3
  -45
  115
   -7
  120
   62
  -95
  -99
   42
 -109
    3
  -50
   83
  126
   33
 -105
  -83
  -36
   49
   10
   64
  -69
   52
  101
  -28
 -111
  -51
   12
  -25
   72
   43
 -123
   32
 -113
    8
   57
  -11
  -51
  -64
  -96
  -49
  -93
   40
    4
  120
 -120
  -27
  -33
   28
 -107
  -34
  -77
   26
   67
   82
   83
  -27
  -20
   44
  -38
  -78
  -23
   97
   -8
   59
   56
   96
  -93
   -8
  -68
    3
   -2
  111
 -120
  -16
   55
  124
  -62
   -8
    9
   -2
   71
  114
   84
 -109
   -1
  127
 -100
  -34
  -45
  -78
  -37
  -99
  -18
   32
   45
   94
   75
  -65
   33
 -120
   -5
   -2
  -64
  -95
  123
   -4
  -96
  -22
  125
  120
   99
 -105
  -74
  110
   78
  -39
  -72
   99
   33
  -63
   38
  -93
 -102
   97
    5
  -35
  -82
 -117
 -106
  -59
 -112
   94
  -24
    9
  115
   52
  -98
  -80
   67
  121
   66
  -67
 -121
   35
   49
  -37
    9
   91
  -68
    0
   76
   32
   38
   72
  -10
 -101
  -80
  -98
  -84
  -90
  -40
  119
  -70
  -52
  -52
   26
  -16
   81
   66
  -83
  -24
   16
  -32
   63
  -63
   67
   71
 -124
 -124
   62
 -120
  -31
 -108
 -110
  -40
    7
  -77
  117
   -5
  -23
   26
   55
  -69
   82
  -13
 -108
   22
  122
 -121
   81
   19
  -98
  -78
  111
  -19
   23
  111
    0
   34
  -45
  -26
    7
  -16
  -87
   62
   28
 -100
  -34
  -79
    1
  113
 -114
  -95
   74
  119
  -35
 -101
  -76
  -18
   47
  -85
  -34
   46
   35
  118
   96
  113
  -64
   96
  -77
  -77
   62
   49
  -31
   58
   65
   29
  -82
  -17
 -104
  -22
  -48
  -15
  -35
  -12
   79
  -12
   53
   90
  123
  111
  -92
  -93
  -87
 -110
   59
  -43
   -3
   41
  120
   40
  -98
  -95
  -41
   17
   86
  -79
   61
  -90
  -56
   44
  -98
  100
 -100
  -31
   75
   14
   70
   97
   -4
   27
   99
  -25
  -14
    6
   70
   66
  111
  123
  -33
   56
   59
   34
  -51
  -51
   77
   -1
  120
 -106
   48
   35
 -116
   15
   51
   89
 -110
  -85
    6
 -118
  -25
 -101
  -85
  -29
  -98
   16
  -88
  -73
   -9
   97
  -67
  100
  -99
  -61
   76
  -97
  -29
   90
  -11
   79
  102
  -42
  -47
  -88
    8
   64
  -53
  -63
  -63
   58
   45
  -51
   11
 -105
 -111
   47
   46
   61
 -104
  -26
  105
  -84
  -55
    4
   50
    0
  -92
   75
  -37
  -99
   40
  -13
   37
  111
   86
  -57
    9
   97
   -7
  -82
   12
    4
  -71
   25
  -52
  -45
   -8
   80
   50
   51
  -79
  107
  -73
   94
  115
  -15
  -44
   20
  -61
   34
   -2
  -36
  101
   15
 -102
  116
    3
   33
  -53
  -73
   19
   19
  -29
 -127
  -30
  -29
  -17
  -38
 -104
  -65
   88
  -56
  -87
 -105
  -82
  -75
   23
   63
   33
   18
  -70
    8
   -1
  -27
   50
   53
   82
    7
   52
   39
  111
  -63
   13
   59
   -5
    4
  122
   74
  101
   69
   85
   23
  -21
 -122
   13
  117
  -90
  -24
   92
   -4
  -70
 -122
  -79
   65
  -61
  -41
   94
  109
   44
   31
  113
   23
  116
   28
  -32
  -41
   49
   52
 -103
  -37
  -37
  -37
  120
   75
   89
  -24
  -68
  -58
 -126
   -2
   23
   86
  111
  101
  -66
  -30
  116
  -51
   -4
  114
  -84
   91
   12
  111
  -66
   58
  -72
  -64
  -16
  -93
  -54
  -95
  127
  -64
   -7
  -57
   50
   58
  117
   24
    0
   63
  -86
  -53
   -2
  111
  -15
  -50
   81
  -59
  -57
 -107
 -111
  -88
  -93
   47
 -108
  -95
  -43
  -58
 -105
  -18
   51
   67
  -24
  -19
   92
  -86
  121
   59
   45
  101
  -76
  -62
   61
  110
   13
   36
  123
   85
 -107
  -81
 -126
   42
    7
  -28
  -10
  -37
   14
  -69
  -17
   -4
  -97
   35
  110
 -117
  -17
  -51
   40
   38
  115
   78
  -73
  100
  -52
  -50
 -121
 -104
  -89
   96
   83
   77
 -115
   12
   -4
   -2
  -18
  114
  -88
  -31
  -18
    0
  -36
   56
   16
  -56
 -125
 -116
  -37
  -56
   17
   13
  -50
  -36
  112
  -33
 -101
  116
  127
 -113
  -16
 -108
  118
  124
   67
    5
   32
 -114
   47
   99
  -36
   85
  -42
 -101
   36
  -12
  -80
 -103
  118
    7
   43
 -100
   70
 -112
  113
  -66
  114
  -36
   30
   26
  -71
   45
  109
   70
   17
  -75
  110
   47
  -23
   91
   51
  -99
 -106
   28
  -48
   17
  127
   60
   32
   28
   19
   16
  -86
   63
  -48
    3
   52
  -70
 -123
  -77
  -72
 -113
  -35
  -32
    1
   11
  -22
 -108
  -84
  -24
  118
  -58
  -11
  -69
  -12
   75
  -88
  -60
   19
  -65
  107
 -112
    5
 -127
   -9
   16
 -110
  -67
  -25
   28
  101
   54
  -63
   33
   61
  -86
   79
 -100
  -57
   16
   44
  -69
    3
  110
   -3
  -13
 -111
  -34
   -2
   33
  -58
   42
   83
   -8
  -13
   33
  -14
   75
  117
  -46
  -12
  -54
  -81
   21
   22
   15
   67
  -24
    1
   36
 -114
  -42
 -124
  126
 -121
  108
   81
   80
  115
   77
 -118
   -5
   31
   73
  -64
   44
  -49
  -53
    4
   97
  -35
   84
   -1
   -2
  -59
  107
   54
   21
  -78
 -103
   30
   62
  -81
  -95
  -33
  -53
   39
 -124
  -74
   67
   29
  -24
   46
  -43
   98
  -53
   83
  105
  110
   67
   30
  -52
  -43
    0
  -90
 -101
   55
   52
  -21
  -48
   88
  -83
   -6
 -127
   68
  -59
   19
  -21
   35
  -14
   10
 -112
   19
  111
   98
  -92
  -13
  -58
   93
   -6
   47
   46
   66
   22
   25
   59
    3
  100
   97
   68
  -40
   71
  -42
  -87
 -116
    2
  -75
  121
    4
   91
  -99
   15
  -79
 -124
   30
  -57
  -27
  -97
  -29
 -107
  -67
   54
  -13
  -31
 -114
   95
   22
 -116
  -65
   12
 -106
   -7
   34
  -12
   23
  -58
   71
  108
   44
   78
   88
  -70
  111
  -19
  -17
    7
  -25
 -102
  -88
  -29
   16
   57
   47
  -20
  -39
   57
   46
  -14
  -60
   61
  -89
  -79
   84
  -80
  -20
   71
  -12
   83
 -127
  111
   78
  -12
   78
 -109
  -22
  -83
  -26
  -26
   15
   -7
   57
  -93
 -113
    7
  121
   37
   66
 -113
  104
   92
   64
  -19
  -19
   38
   83
  -64
   68
  118
  -64
    5
  114
   99
  -75
   38
   12
   69
   71
    6
   -1
  -15
   16
    7
  -17
   58
   53
  -11
   86
  125
 -114
   45
   38
  -62
  -16
  125
  -40
 -104
   37
   32
  -15
    5
   16
   18
   43
   69
 -119
  -85
  107
  -67
   44
  -47
   32
   91
  -25
   10
  110
  -52
  -59
   84
   96
   53
   58
   35
   37
  -36
  -33
 -115
 -123
   14
  -12
   52
   45
  -63
   -2
  -86
  116
  -76
  -86
  -64
   49
  124
   -3
   90
   -7
 -110
  -61
  -92
  100
   56
  -55
  -31
   91
   -4
   88
  -11
  -33
  -97
  -71
   -5
 -121
   79
   61
   -5
 -115
  -69
   -4
   78
   69
 -117
 -103
   -1
   49
  -71
   24
  -39
   31
    9
   91
  -75
  -62
    2
   84
   20
  -88
   98
   60
  116
  -77
    6
   12
  -85
  -96
   32
   -1
  -85
   97
  -53
   -4
   11
   22
 -106
  -25
  -25
  -99
   44
  -12
 -119
   53
   -7
   58
  -61
 -102
   61
 -127
  109
   56
  -34
  -49
  107
   41
  -64
  -21
  -33
   85
  123
   69
 -120
   -6
 -117
   25
  -59
  -75
  -63
   89
  -50
   73
  -75
  121
   63
   15
   60
   76
  -17
  -82
   80
 -102
  -65
    4
   72
  -98
  -68
  -81
 -114
  117
  -16
   -6
   46
  -37
   52
   49
  116
 -123
   78
   82
  -66
   77
  119
  -79
  -82
   50
   88
  -56
    6
 -107
  -47
  -29
  -45
   56
  -41
   39
  -58
  -59
  -90
    0
   67
  -56
  -43
   86
  -25
   62
   19
   33
  -31
  -47
  -86
   11
 -122
   -7
   27
   38
  122
  -54
 -101
   91
  -48
   85
  -40
  -94
    6
   43
  -58
  -30
  -61
   30
 -123
 -102
  117
    5
  -46
  -23
 -107
  103
   97
   14
  -49
  103
  -69
   28
  -89
  -46
  -50
   72
   17
  -17
  -75
  -79
   49
  -74
 -104
  -69
  124
   62
   60
  -36
  -27
  -45
   91
 -108
   14
  107
  -47
   48
  -86
   51
   49
  103
   69
   88
 -107
   44
  -65
 -117
   30
  -86
   62
 -104
   72
  -69
  -16
   77
 -113
  -55
   -2
  -34
  -16
   46
   36
 -118
 -105
   41
  -17
  -19
  115
   66
  -99
    4
   50
  112
 -108
   69
 -114
  -40
 -115
   31
    3
  -15
  -55
   46
  119
 -115
   68
  -36
 -121
 -111
  -98
  -11
   69
   33
  -95
   98
   55
  -87
  -29
   88
   52
 -117
    8
  -80
   28
  -74
   -9
  119
  -45
   91
   21
   17
    3
   52
   44
   22
 -119
  -34
  -67
   21
    4
  -63
  101
   76
  -92
 -103
 -112
    4
   85
 -111
  -28
  -83
    1
   28
    6
   11
   74
  -89
   86
  -29
  104
  116
   98
  -65
   91
   78
 -125
  118
  127
 -117
   59
  -76
 -102
  -41
   30
   58
   94
   11
   34
  117
  -62
   56
  117
 -123
  107
  121
   99
   29
   96
  111
   -9
   76
  -83
 -104
  -53
 -100
   50
   83
   56
  101
  126
   97
   23
   94
   37
   10
 -121
  -11
   77
   38
  -38
  -28
  -34
  -84
  -28
   19
  -37
   34
  -83
    8
  -20
  -35
  -42
  -79
 -108
   -9
   83
  -33
   -7
 -115
 -106
  -21
    1
  -90
  -13
  -10
   11
  -22
 -121
  -80
 -114
  -32
  -98
   -4
  104
  -27
 -114
   61
   77
 -107
  -74
   17
  -57
  114
   44
 -104
  -59
  -63
  -67
   22
   85
   -1
   18
   30
   74
   93
  -55
  124
  -58
 -125
  -74
   81
  -52
  -98
   17
  -39
   17
  -52
  -24
  -36
  -40
   74
 -115
 -105
  -61
  102
  -26
  -37
   66
   -5
 -125
 -121
   38
   84
  -33
 -121
  -92
 -113
 -116
  -97
   21
   56
   77
  -84
   63
 -126
   28
    1
  -82
  106
  -36
  110
   32
  127
 -118
  123
   32
  125
   35
   96
  -32
   35
 -117
  -40
  -10
  -84
   68
  -27
 -119
  -61
  119
  -96
   61
   98
   72
  -82
   29
   66
  -90
  -78
   17
   34
  -20
  -69
  -52
  -23
   29
  -27
   86
    8
   70
  -44
   36
  108
  -85
  -38
   43
  -92
  -29
  -20
  -11
 -120
  -51
  -10
   99
   92
   47
   53
 -104
   38
  118
   92
   81
  109
  -22
 -101
   76
   99
  -63
   92
   87
  -10
 -104
  122
   58
   33
  -38
  102
    1
  -51
  -96
  -86
   -8
  -76
   54
 -103
  -89
  125
   26
  106
  -24
  107
  -86
 -104
  -27
   57
   16
 -121
  -18
 -105
   75
   81
 -103
  -71
 -105
  -10
  -66
 -102
  121
  -54
  -86
  -71
  -44
   11
  -13
   -5
  -64
   39
    0
 -124
   95
    7
   77
   80
   -2
  106
  104
   30
   79
  118
  -25
   97
   72
    5
  120
   12
 -124
 -106
   47
  -74
  -23
 -116
 -120
  -38
   16
   96
   64
  125
   58
  118
   53
  -81
  -76
  -51
 -125
   71
  -24
  -27
 -103
  -20
   43
   69
  -72
   17
   33
 -124
   35
  -35
  -76
    3
   -7
   37
   -8
   49
  -54
   11
  109
  -32
  -91
   41
  -14
   75
  112
   79
  126
  -33
  -60
   99
   28
   29
  122
  -42
  122
  -51
  121
  -92
  -48
  -27
   -3
   27
  -76
  -31
 -110
  122
 -105
  -57
  -35
  -20
 -109
   82
  -72
   18
  -71
  -95
  109
   69
   -1
   67
  -11
   28
   32
   47
 -124
  -24
    2
   37
  -43
   90
  -41
 -118
   -6
   55
 -125
  117
  -78
   37
  -76
  -82
  -29
  118
 -120
  117
 -127
   88
  -96
 -112
    5
   67
   68
 -117
   -4
  -95
  125
  -73
  127
   79
   46
   95
  125
  -25
  -95
  106
 -125
  127
   -7
 -113
  -88
  -25
   11
  115
   90
  -48
   87
   32
  -58
    3
   70
   34
  -88
  -49
  121
  -24
   12
  124
  -77
   74
   95
   23
  113
   22
 -104
   73
  -19
   -2
  -81
   58
   97
  -43
  -55
  -10
  -56
   52
  112
   81
   90
   96
   50
 -119
   -6
  -45
  -18
   92
 -123
   19
 -105
  -51
   80
 -104
  107
 -119
  -42
   31
  111
  -12
  103
  109
  -75
  -65
  -27
   -2
  -30
   97
 -108
 -119
   79
   99
   47
   65
   63
  -82
   38
 -110
  -40
  -34
 -110
   31
  116
  -23
  116
  113
   98
   24
  110
   29
   47
  -62
   14
  -20
  -54
  -12
   45
    8
   44
    6
  -32
  -57
   93
   26
   63
   55
  -74
  -47
   48
   81
  -21
   61
  -46
  -93
 -106
 -121
    6
  -20
   80
   77
   13
  -38
   79
  115
  -86
 -113
   21
  -90
  -79
   11
    3
  -96
  120
  -97
 -105
  -27
   89
  -52
    3
 -110
  -72
  -56
  126
   91
  -82
   12
  108
   -8
    2
   25
  -77
  -24
    4
  -93
  116
 -120
  117
  101
  109
  107
  126
   30
   35
   27
  -78
   87
  -64
   -8
   48
  -93
   -7
  -26
  -55
  -67
   91
 -110
 -113
  -73
   34
  -96
  -57
   -8
   64
   24
  -22
  123
  -14
   88
   83
  -71
  -73
 -101
  -50
  -79
   89
  -40
  117
   73
    6
   76
    7
   55
   91
  -97
 -124
  123
   10
  -52
  -13
  -23
   35
   59
   28
   -8
   65
   95
    2
  -93
    6
   99
  -77
   26
  -69
   15
 -114
    3
 -107
  -23
   19
  118
  -68
 -116
  -78
  105
   74
   29
   40
  -78
 -111
   30
  -52
  -77
  120
  111
 -107
  118
  -75
  -50
   42
  -27
   38
  -61
  -50
   40
   72
   -5
 -110
   42
  -21
    0
   80
   97
   50
 -126
  118
   40
   75
  -19
  -62
 -106
    6
   43
  -58
  115
 -113
  -30
    1
  -79
   51
  -40
  119
   -8
  -78
  -87
  -97
  -82
  -23
  -34
  -49
   52
   42
   13
  108
  -47
   -7
  -84
   43
  120
   88
  -42
  -40
   15
  122
  -67
  -14
   -5
   18
  -14
  -69
  121
  104
  -82
  126
  -61
   33
   76
   55
   51
   89
   29
  110
   24
  -71
   80
  -82
  -86
  -20
   74
   61
 -119
  127
  123
   77
   19
   -1
   86
  107
  102
  -61
   62
   10
   15
 -121
   63
  126
  106
   47
  104
 -126
   -4
  105
  105
    0
  126
 -103
  -37
   49
   57
 -104
  -15
  121
  -49
 -118
   62
 -114
  105
   -8
   21
    2
  109
    7
  -98
   89
   62
   22
   15
 -110
   23
 -116
   62
  -91
 -112
  -17
  -68
  -83
 -126
  -63
   62
 -103
   80
   73
 -104
 -122
   13
  -71
  126
   -8
  -53
   16
   75
   90
  -34
  -27
  -79
 -110
  -27
   14
  -98
   48
 -119
   63
   18
   57
 -120
 -100
   60
  -94
  -78
  -66
  -68
  -58
 -108
 -119
  -45
  -98
   99
   73
    3
  -62
  122
  -16
   83
  -39
  -75
   80
   76
  -19
  119
   12
 -111
  -94
   75
  -66
   26
   36
   43
   10
  -45
   16
   37
   25
  -39
 -106
   65
  108
   -1
    1
 -121
 -125
   21
    2
  -68
  -98
   93
   -9
  121
   99
  -35
   49
  100
  105
   47
  125
  -73
  -51
  -84
  -10
  -15
 -112
  -44
  -23
  105
   82
  -52
  119
  114
   22
   52
  -80
  -11
   40
 -126
   76
   35
 -124
   -9
    9
   33
  -21
  -76
  -24
   44
 -123
   68
   80
  -86
  -65
   45
 -107
   55
  121
  -57
   74
   75
   36
   48
  121
   29
  -72
  -16
   87
    2
  123
  108
    8
   53
  -40
 -126
  -25
  -95
   52
  106
  -53
  -43
  -55
  100
   -3
   76
  -86
 -121
  -70
   48
  -51
   94
  104
  122
    2
   59
   92
  -73
  -38
  -94
  -29
   51
 -106
   87
 -123
  -74
  126
   54
  -96
  -18
   25
  -34
  -83
   99
  -47
  112
  -46
   40
   99
   96
  -93
    0
 -126
    4
   67
   81
  -75
   80
   65
  -67
  -53
  119
   14
    2
  -85
 -114
 -111
  -26
   -2
  -79
  -29
 -115
  -13
   -5
   25
   33
   27
   34
  113
  -94
    7
  -51
   -2
 -125
 -117
    9
   -6
   74
  122
   98
  -11
 -100
  -17
  -42
 -108
  -39
  -16
  -85
   90
  -30
 -113
 -110
   -8
   66
 -100
   59
   11
   -2
  -96
   31
   86
  -22
   34
   14
   11
   25
  -80
  -84
  -91
  -67
   -4
    7
   32
 -110
  -21
  118
   39
  119
  -35
 -106
   31
  -26
  -26
   79
  -15
 -114
  122
   11
 -110
   17
  -19
   71
   47
 -102
 -100
   98
 -115
  -87
  -71
    7
  -79
  118
  -19
   38
  -63
   17
   30
   78
   85
  -47
  122
   24
  -36
  107
   50
   60
  -58
   40
  -63
  -36
  107
 -105
 -114
  112
   36
  100
  -73
  -91
  -68
   97
   39
  121
   64
   67
  -41
  -55
   18
   29
   -4
   21
 -110
  -75
  -92
  109
   15
    9
  -74
  107
 -111
  109
  -45
  103
  -53
 -104
   39
  -97
  115
  -42
   10
  -43
  121
   55
   -6
   40
  114
  105
  -11
   43
 -121
   64
   -3
   60
   51
   38
  100
 -113
  -11
   16
   -9
  109
   39
  -41
  -95
   73
   97
 -107
    4
   68
   63
   14
  -81
  101
   53
   39
  112
   26
  -69
  -87
   96
  -19
   83
  122
  -81
    4
   86
  -33
  118
  -45
   58
 -124
    9
 -102
  -73
    7
  -68
   85
   38
   89
   20
   63
   99
   42
  -60
  -48
   14
   77
   61
 -113
   90
  118
   11
  122
   11
    5
   -7
    8
  117
   90
  111
  110
   -9
  127
 -115
  -70
   74
    5
  -31
   40
   -8
   84
  -20
   21
  -17
  -69
   77
   90
   58
   28
  -92
 -102
   13
  122
  -66
   33
   15
  124
  -93
   41
   18
  111
   -7
  126
  -85
  112
   30
   52
   38
 -121
   26
 -125
  106
  124
  -40
  -65
  110
   10
  -64
   15
  125
   81
  -78
  -75
   70
   53
   73
   25
  -27
  -88
  -35
   64
  -84
  -85
  116
   57
  -64
  -95
  -85
   37
 -111
   97
   10
  -36
  -34
   71
   81
 -124
  -14
  -18
  -99
 -109
   66
    2
  116
    3
   73
  121
  -12
   28
 -120
  -96
 -113
  -25
  118
   65
  -55
  -57
   76
   -6
   33
   36
   61
   49
  -88
   -3
  -41
    5
   79
  -36
  -38
   40
  -90
  -26
   34
  -21
 -115
  -16
  -64
    7
   21
  102
   43
   55
   22
  -17
    3
  126
  121
  -46
   -7
   80
  -92
   15
  -12
   91
   57
  -66
   95
  101
   46
  -41
  -13
  -83
   72
 -111
  -31
   55
  -83
   17
  105
 -126
  104
   82
   48
    0
   45
   72
  -29
   37
    7
  107
  -57
  119
    9
  -33
   66
  -80
   13
  -11
  -10
  -98
  -36
  -19
    0
 -122
  -84
   78
   -2
   53
   -1
  -80
  -86
   81
    7
    1
   -5
   97
   81
   44
   76
  -84
  127
   58
 -101
 -117
   59
   78
   86
   62
 -113
  -95
   78
   56
 -120
  -38
  125
   41
  -24
   -7
    7
   -7
   43
  -48
   85
    8
  -74
   65
 -127
   -6
  109
  101
   28
  106
  -67
 -107
   44
  -95
   88
   25
   97
   46
   40
  -80
   52
  -56
   45
  -71
   -4
   62
  126
  -23
 -116
  123
  -64
  123
  -22
  -99
  -19
 -115
  -59
  -23
    0
   92
   -2
  -43
   26
  -51
  -92
  109
  -71
    9
  -22
 -119
  -32
  -65
  105
  -68
  -79
   11
   92
  -60
    0
   73
   29
  -74
 -111
  119
   -8
   58
   20
  -75
  109
  -15
  105
  -69
  122
  -73
  -99
   33
  -64
  -94
   57
  -54
  101
  -89
   51
   94
  -14
  -55
  -23
  -10
   58
  -25
  -36
  -35
  -25
   74
    6
  107
  114
   45
   15
   77
   37
  -77
  109
   35
  -83
 -107
    8
  -55
   20
   70
  -97
  -47
 -112
   55
  -10
   67
   29
  -66
   33
  -91
   34
  -37
  115
   -4
  -10
  -99
   65
  -75
  -25
   12
  -59
  -99
  118
  -68
    1
  -81
   51
  -52
  117
    5
  -20
   41
  -23
   58
   78
   72
   44
  -93
  -92
   73
   35
    8
  -64
   95
  125
  -28
   -3
  -50
  -33
 -120
  -68
   44
    2
   46
   -3
   44
 -126
  -22
  -46
  121
 -113
  -43
  118
   93
   -2
   81
  -82
   44
   76
  -77
   75
   42
    9
   84
  -16
  -48
  -85
  115
  -90
  107
  -94
 -121
   44
 -117
   79
  -77
   75
   22
 -111
  -73
   41
  -80
  -61
  -23
   34
  -31
 -112
  -50
  114
   86
  116
  -78
  101
  -83
   26
   19
  -84
   77
  -79
 -123
  101
   79
  -66
 -118
  107
  108
   82
   52
   27
  -82
   56
   54
  105
   93
    0
  -49
  -49
  110
  -39
  -12
  -51
  -18
  -64
  124
   63
  -54
  -18
  127
  -93
  -21
   30
   95
   -4
  108
    1
  -57
  -86
  -57
  101
  -35
  -11
  -44
  -21
   97
  122
   95
 -123
   94
   60
   62
  119
   43
   38
 -119
  -42
   94
  -24
 -124
   33
  -62
   -6
  -10
  -89
    8
   21
  -33
  -20
   49
   72
 -118
   42
   96
 -107
   -6
  -51
  108
   22
  116
 -111
  -95
   85
   28
   52
  101
    3
  -92
  -10
  -69
   30
 -107
   74
  -69
  -62
   46
    7
   25
  -62
  -41
  -44
  -40
  -57
  -87
   25
  107
  105
  -28
  -75
   96
 -104
   14
  -86
  -86
  -54
   17
  127
 -115
  -58
   27
   50
   12
  -90
  -12
   69
 -102
  -65
   45
   94
 -119
  -51
 -104
   32
 -112
  -45
   94
   71
   17
  -75
 -127
  -76
   86
   59
   49
  102
   39
   82
  -40
   26
  -48
  -62
  -43
  -24
 -116
  -94
  107
   71
   73
  103
   45
   29
   77
  -53
    5
   -9
   66
  -77
  -22
   88
   43
  116
   96
   63
  -60
 -101
   12
  106
  -20
    2
  -31
  -60
  -53
  -89
   79
   55
  103
  111
   37
  -96
  115
  111
  -25
    6
   29
 -118
   84
   51
   58
   16
  -76
  118
   68
   23
 -120
  -54
 -101
 -118
  -23
  101
  120
  -57
  -74
  -33
   47
   55
   30
  -70
  -34
  112
  125
   10
  -83
   48
  -68
  -60
   44
  -25
   52
 -106
 -116
   51
   98
  104
  -54
  -10
   -4
  100
   13
   26
   79
   89
   84
  -41
  -22
  -87
   61
  -60
  -25
   71
  -47
 -110
  -71
  -97
    2
   51
   79
   25
    4
   11
 -127
  -64
   81
   82
   71
  -21
 -108
  -76
  -53
 -118
   77
   51
   76
 -103
   82
  101
 -103
  -86
   55
 -116
  -55
   -1
   66
   31
   75
  -61
  -39
   88
  -27
   71
 -119
  -40
   62
  -16
  -71
   -3
  116
   73
   97
  120
   79
  127
   41
 -101
   66
  -26
  -52
 -103
   60
   37
   63
 -119
  -23
  -43
  -81
  127
   26
   49
   49
    8
   55
  124
   46
    7
  -86
  115
   43
 -114
   27
   55
 -112
  -14
   72
    5
  -84
  -29
   85
  113
   25
  -27
  -82
  110
  101
 -125
  -84
  -80
   71
  -66
   73
   33
   66
  -53
  -91
   82
   79
  -12
   77
   73
   77
 -103
  -97
  -68
   18
   80
   68
  112
 -124
   64
   22
  -12
  -84
  -12
   29
 -108
  121
  101
  -28
  -99
 -117
  -24
   95
  -19
  -35
   70
  -97
   83
   28
  -75
  105
  116
 -107
   57
   44
    7
   28
  119
  -92
 -100
   70
   61
  -65
   86
  122
 -102
   70
  -13
   25
 -112
  -92
   55
   40
 -123
    6
  111
    5
  118
  109
    5
  126
  -62
   79
   22
  -33
  -59
  -56
  -49
  -28
  -51
  -85
  118
   26
  -72
   77
   45
   92
   78
 -119
  111
   52
   -9
  -41
  -43
   49
  -45
  -78
   56
  111
   27
   33
   95
  -75
  -64
   -2
  -27
   94
 -113
  -54
   84
   52
  -66
   98
   25
  114
   78
  -13
 -120
  -39
   50
  -29
  -98
   54
  -28
   -9
  -16
  115
  -61
  -20
  -49
    1
  -90
   92
   48
   27
   87
   61
   93
   -5
  -78
  -36
  101
  -69
   90
 -123
  -41
   10
  -56
   27
 -123
 -118
 -101
  -16
  -26
   69
  -41
   41
  -16
 -104
  126
 -109
  -93
   -8
    4
   66
  -39
   39
  114
  -29
   79
  106
 -117
 -114
  104
  126
   52
  -92
    4
   16
  -50
    8
  -88
 -106
   68
  106
  -89
   57
 -127
  -56
 -120
   29
  -49
   -2
  -77
  120
  120
 -127
  -99
 -103
   85
  -39
  -67
  -62
  125
   49
  -81
  116
  124
  -40
    8
  -12
  -41
   63
  -99
  -55
   -5
   14
  -24
  -16
   68
  -62
   68
   83
   50
  106
   -8
   47
   52
  109
  -83
  120
   72
  -19
  -40
   17
  -50
  -42
   50
   -7
  -49
  -89
  -75
  -94
   13
  107
  -69
  120
   52
  103
  -36
 -126
  118
  -66
   60
  -32
  -76
  -78
   -3
   68
   62
   87
  -66
 -107
  108
   44
 -105
 -111
  -52
   15
  116
 -120
  -21
  -79
  -81
  -97
 -101
  -15
 -112
  -26
   52
    7
  -61
  -29
   40
  -83
 -103
  -96
  -39
  -84
   85
   16
  -27
 -120
  -13
  120
  102
  118
  -51
  127
  -81
 -120
   59
  -87
  -39
  -19
  120
   50
   32
  -41
  -26
   16
   52
  -89
   14
 -108
   18
  -56
  -64
   41
  -71
   58
   29
  108
  -62
  -35
  -67
  102
  -90
  -49
   82
  -54
  -48
   59
   22
   32
    1
  -21
  -64
  -91
   45
  -53
 -103
  -38
  -93
  -65
 -100
   86
 -118
 -108
  -48
    4
   41
  -14
   39
   45
   73
 -109
  -93
   56
   47
  -31
  -80
   26
   11
  -55
  -83
  -73
  -64
   93
    6
 -101
   85
  -60
   92
   23
   68
   -2
 -112
 -112
  -62
   26
 -124
   82
   60
   82
  -82
  -12
  101
  -33
  -58
  104
 -125
   61
  -52
  -60
  -11
   12
 -107
 -116
   80
 -101
  -51
  -94
 -104
  120
   50
  104
  104
  121
  -80
   10
  -79
 -120
  113
 -102
   70
  101
  126
  -42
  -67
  -99
  -39
    5
 -109
   52
  -51
  -24
   55
  100
   95
   77
   71
   44
   64
  -55
   23
 -120
  -40
  -75
 -101
   51
  -22
   90
 -116
 -109
  -44
   22
   37
   98
   90
 -122
    5
  -56
   59
  -37
   54
   56
  116
  125
   33
  -52
  -62
  -83
   83
   24
  115
  -91
    4
   90
 -123
   84
  -66
    9
 -109
  -26
    0
   61
   -2
   62
   29
 -124
  105
   66
  -60
  -58
  -79
  -27
   46
 -101
  -71
  -36
   69
  -28
   73
  -85
    7
   44
  -85
   44
  -44
   55
   41
  104
   57
  -80
  126
   70
  -99
   -2
 -125
  -64
  108
   29
  -65
  125
  109
  -60
   32
   -6
 -119
 -103
  124
  -77
   -1
 -106
  -85
  -95
 -121
  -78
  -96
   42
 -116
    0
  -89
  -35
   49
   29
  -15
  -39
  114
  -30
 -117
 -114
  -21
   71
  -27
   72
   38
  118
  -65
   73
  -87
  -59
  -87
  108
  114
 -125
  -42
  -77
  -75
  -90
  -58
  101
   65
   46
   21
    8
  -30
  111
   27
   98
   11
   60
   37
   24
   85
   43
    8
 -104
  121
   72
  -39
   49
   31
  -30
   91
  109
  -51
   72
  -64
   42
   68
  126
  -79
  -47
  -15
   -5
   58
 -116
  -25
  -42
 -124
   83
   20
   67
  -79
   72
  -73
   -7
 -100
 -102
    6
  120
  -30
   67
 -112
   11
   71
   37
  -50
  -25
 -127
  -86
   55
  -68
 -118
    0
   -7
   11
   69
 -124
  -53
  -99
   19
 -109
  -56
   -7
   26
  111
  -72
  -73
   70
 -102
  -55
  127
  -63
   58
   60
  112
   96
   63
  120
   13
  -42
   22
   -1
  -73
    3
  -46
   87
 -108
   42
   -2
    7
   -5
   70
   90
    1
  -83
   36
 -127
    7
  -59
    3
  -17
   90
  -63
  -89
   50
   61
   65
   23
   40
   81
  -44
  -99
  -98
   23
  -40
 -105
  -93
   14
 -126
   91
   36
   51
  -52
   13
  -68
 -116
 -102
 -102
   68
  -26
  -83
  -32
   98
  -17
   30
  -46
   11
  -36
   81
   28
   59
   52
   84
 -110
   12
  114
   64
   28
  111
  127
   -3
  -12
   22
   64
   99
   80
  114
   39
    5
  -53
  -17
   53
 -117
 -124
  125
  -13
   26
  -47
  125
  -24
  -26
  -53
    6
   67
  -68
   83
    2
  104
  -97
   26
   94
    7
    2
   29
   -6
  -71
   32
   51
    5
   11
  -78
  102
 -112
  121
  -92
 -104
   -4
   83
   98
 -102
   55
   55
   62
  -59
  -37
   79
  -40
    6
  -75
   36
   78
   88
 -122
   17
   -9
  -47
 -102
   67
   46
  -36
  103
   90
   -3
   77
   26
  -50
   29
   22
   18
   82
   69
  -46
  100
    9
   12
  -88
  -37
  122
  -79
   10
  -46
   53
 -107
  -10
  -61
   26
  -44
  -77
   59
  -10
   47
   54
  -13
  -79
  -80
  118
   72
  125
   70
  -74
 -127
  -16
  -33
 -117
  -69
   15
   36
   61
  -70
 -112
  -30
  -89
   11
  -45
  -51
  -78
  -37
  -58
  -62
   35
   -7
   99
  -33
   32
   -4
   93
   63
  -74
  -93
  -72
  124
   55
   26
   37
  -43
  -86
   88
  105
  -35
   39
   86
  -14
  -49
   65
  -95
  127
   45
  -22
  -73
  -70
   54
   19
  -33
  119
   66
  -16
  -98
   91
   79
  -31
  -83
 -108
 -110
  -11
 -117
   85
 -101
   28
  116
   62
 -126
 -122
  125
   -2
   72
   49
 -127
  -38
   11
 -116
  -98
   36
   98
   -3
   73
   29
    4
  -39
  -55
 -114
   14
  116
  -18
  -52
 -122
  -77
  117
   -6
    4
  -68
   69
  -89
  114
   50
   27
   28
  -11
   24
  -29
  -37
  103
   97
   56
  -12
  -80
  -97
  104
  -42
 -121
   26
   77
   66
  -38
   90
  126
  -16
   24
  -20
  110
  -14
  -22
 -109
  -15
  -56
   28
  -52
  107
  106
  -31
  127
   72
   71
  -20
  125
   -4
   80
  -73
   -9
    4
  -88
  -47
  116
  -39
  113
   50
   53
  -99
  -10
   84
  -43
 -102
   -5
   32
  -78
   77
 -119
   50
    8
  -34
  120
   88
 -122
   56
   31
  -12
  -32
   91
   11
 -127
   23
 -118
  -26
   20
  109
  -61
  -37
 -116
  104
   56
   86
 -118
  -77
  126
  106
   83
   36
   39
   69
 -105
   52
  -69
  119
  -58
 -121
 -123
   72
  -43
  -94
   44
   86
    5
   69
   93
   61
  106
 -103
 -110
  -36
  -76
   -4
   11
   69
 -115
  -71
 -113
  104
  -69
  -10
  -23
  -73
   69
 -107
 -101
 -104
  -33
 -104
  -26
  -78
    7
   69
  106
 -101
   44
  -45
  120
  104
  -29
    3
   16
    8
    4
    9
  -12
   65
 -112
   89
  -13
   64
 -115
  -75
 -124
   46
  -26
   19
   70
   21
  -32
  -71
   23
  -58
   77
   56
  -76
  112
   59
  -16
  111
   42
  -76
  -60
   46
   85
  -59
  -52
 -116
   -3
   82
   82
   26
  -50
   87
  -23
  105
  120
  -82
  120
   95
  -66
 -106
   39
   -6
  -97
  -92
   46
  -43
  -96
   57
 -124
  126
  -88
   91
   69
    4
  -29
 -122
   69
  -74
   96
  -86
  101
  -86
   -3
   38
  -36
   37
  107
  124
  -33
   92
  -86
 -118
   23
   82
  -64
   -2
 -119
  107
   92
   47
   18
  -73
  -13
  -17
  -12
  101
  102
   95
  -23
  -93
  -64
  -59
  -58
    8
  -27
  -94
   -8
  -89
  -50
   73
  -11
  -23
  -25
 -117
 -100
  -79
  -50
  -67
   -2
    3
  -75
   18
   65
  -85
  -79
   81
  -60
 -111
  -37
    0
  104
  -73
  -92
   95
   40
   32
 -120
 -120
   69
  -11
  -16
  -37
  -65
  -18
   49
  -84
   22
   35
   40
   -8
   47
  -73
   39
 -101
   15
  -15
 -127
  -55
 -110
  119
   60
  -53
  -37
   29
   52
   19
   82
  -87
   97
 -119
   47
  -38
 -104
  -98
   56
  -51
  -11
  123
  123
   92
  -64
 -115
  106
    0
  -23
    8
   53
   76
  -66
  -66
   26
  107
    6
  -69
   -5
 -126
   99
   49
  -33
 -100
   92
   66
   21
 -105
   74
   22
   59
   41
 -110
   80
 -120
 -108
  -77
  -25
  -11
   25
   91
  111
 -100
   98
   93
   93
   42
   91
  -69
  -85
  -77
   -8
  -58
  102
  102
   -5
  -54
  103
  -64
  -79
    6
  -71
   37
  -33
  -99
   -1
   25
   -5
 -117
 -100
  107
   38
  108
   -1
  -12
   73
  -52
  125
  -42
  -32
   87
   37
  -46
   28
   98
  111
  -46
  -73
  -65
  -38
   51
  -14
  -55
  -91
  -39
 -111
   15
   -1
 -109
   31
  100
    6
   63
   89
   17
  -51
    4
  -55
  -99
  -18
  -59
  -75
  -51
 -123
  -47
  -69
  -77
  -33
   90
  -13
    9
   87
  -71
  127
 -123
  -21
   38
  110
  -85
   79
  -31
   73
   26
  119
  -63
    0
 -117
  103
  -69
   72
 -118
  -93
   77
   99
   74
 -110
   88
 -110
  -91
 -111
    8
   98
   22
   47
  -60
   31
   -2
  107
   64
  -37
    4
  -72
   72
  127
  -92
   19
   92
   -1
  -91
   19
   -7
   14
   80
  -54
   75
  -99
  -47
 -112
   34
   11
   84
 -113
  -48
  -95
  -24
  110
   52
  101
  -82
  -19
  -66
    4
   51
   97
   98
  -88
   85
   82
  -50
  -68
  -70
  101
  -72
  -68
   20
  -51
  -45
  -48
   57
  102
  108
 -105
  -17
    0
   12
   62
  123
   43
   78
   11
  -71
  -47
   26
  -87
  -75
   69
  -41
   74
   65
  -97
  -55
   33
   67
  -50
  -11
   25
   51
   50
   41
  -15
 -123
  -20
   19
   18
  -84
   67
 -102
  -50
  -95
  -70
   75
   54
  -17
 -123
    3
 -122
 -109
   29
 -113
 -102
  127
 -107
 -102
  -10
 -103
   14
  -89
  116
   85
   28
   94
   72
  100
  104
  -51
    4
   75
   15
  -71
 -107
  123
  -57
   21
  113
   30
  -31
  -34
  125
  -47
   -6
  -65
 -107
  101
  -35
  -53
   81
  -61
    8
  104
 -117
  -78
  -55
   -7
   90
  -50
  -17
  -48
  114
   20
   82
  -67
   64
   78
  120
   27
   97
  -46
  108
 -125
  -53
   47
   98
   53
 -102
  -16
  -93
  -70
   80
   63
  -69
  101
   96
   48
   86
   82
  -49
    8
   55
   -2
  -81
   -2
   25
  -77
   45
 -105
    3
 -126
   44
 -103
 -118
   19
 -121
   17
  -45
   18
 -125
  -73
  -61
 -108
  -17
   53
  102
  -33
  -47
  -69
  -29
 -102
   84
  -64
   67
  -65
   23
  -55
   -7
  -94
 -124
  -15
  -89
   20
  -46
   75
 -125
 -114
  102
  -62
  -38
 -123
    5
  -51
  -63
  -87
   55
   31
   67
  105
  -24
  107
   11
  -75
  -92
  -53
  -93
 -114
   93
  -24
  111
   24
 -116
  124
  100
 -109
   93
   95
   45
  -23
   54
   67
  124
   21
   22
   32
   30
  -78
   74
    8
   84
    2
  105
   51
  -17
  -27
   87
  107
  -57
  -48
 -101
   16
   41
   26
  111
   19
   12
   31
  118
   -8
    5
   94
  -19
    1
  -70
   -6
  -73
 -127
  -90
   80
   43
 -125
  -33
   29
  102
   11
 -125
 -126
   71
    0
  100
   38
  -75
  -99
   79
   27
   56
  114
  -86
   80
   38
    8
  -58
   28
 -100
   39
  -16
   63
  -24
    3
  122
   70
 -109
   27
   36
   37
  -89
  -80
  -74
   36
  113
   -9
   12
  -42
   27
  -38
 -119
   96
   41
  -69
   67
   38
   57
   20
   41
   30
   66
  -13
  -61
  -78
  127
    6
  -51
   38
 -109
  106
  -18
  -27
  -85
   95
  -97
    4
  -51
  -87
   67
   -2
   73
   49
  -93
   64
   -7
   27
  -22
   17
    3
   34
 -108
  -52
 -107
    4
  -90
  109
  -51
   96
   19
   78
   91
  -46
   91
   72
   53
   -8
  117
  -38
  126
    0
   18
  -80
  -66
  -85
  -59
  -35
   15
   79
  -48
  -32
   70
  101
  -97
 -101
   -1
  -99
   36
  -29
  -16
 -121
  -57
   50
   74
  -25
 -113
  -48
  -62
  -27
  -83
  -44
  -95
  116
   43
  -66
  110
   92
  -79
  -81
   29
 -127
  126
  -20
 -104
 -111
  -66
  -41
 -114
  -99
  -20
  -75
  -49
   60
   15
  -10
   96
   -6
 -125
  -99
 -123
   49
  -24
   39
  -78
   43
 -114
  -86
  -30
 -103
   57
  -61
   84
   90
  -49
   26
 -123
   -7
  113
  -70
  -26
  -48
  -88
   48
   38
  113
 -103
  -34
  125
   39
  -78
   38
  -96
   75
  -75
 -125
 -103
 -112
    9
  -26
    4
  -22
  -34
   88
  125
  -83
  -97
   97
   98
  -22
  -82
   43
   41
   35
  -53
   51
 -102
  -26
  -54
  -42
    3
  -32
  -42
 -124
  -13
  101
  -75
   72
   40
  111
   84
  -59
 -108
   78
   44
  -36
  -24
  119
   54
 -109
  -50
   93
  -29
   22
  110
 -104
   84
  -98
  117
  -18
   64
  -44
  -41
  -38
   14
 -127
  126
 -101
  -42
  100
   88
  123
   44
   67
  123
  -38
   77
  -30
  -35
  113
  -45
   32
  -24
   71
  -55
  -57
   65
   -2
  -74
   91
  -22
  -35
   33
   16
   45
   18
   -1
  -53
   65
   42
  -24
  117
   53
  -43
   71
  126
    3
   68
  -74
  -24
  108
   84
 -127
  -27
   78
   72
  -88
   95
  -60
  -28
   39
  117
   86
 -102
   26
  -91
 -118
  -47
   47
  -38
   43
  -64
  100
  114
  -33
   47
  125
  -59
  -97
   48
    8
  -68
 -118
   64
   87
   36
   13
  -68
  102
 -127
   21
  -51
   14
   69
  123
    4
  101
   87
  -46
 -124
  -32
  -43
  -91
   71
  111
   -4
 -122
  -41
   83
   98
  -44
  -15
   87
  -73
  108
  -99
   34
   40
    9
   59
   55
  -16
  102
   21
  118
  -98
   87
  121
  123
  127
  -85
  -92
  -16
  -89
   23
   90
  -14
   53
  -83
   50
  -99
 -123
 -111
 -117
   54
  -69
   67
  110
  -54
   51
   79
  -44
  105
  -75
 -124
  -17
   -7
  120
   21
  -71
  -67
  116
   -2
  -41
   90
   59
  -78
  103
  115
  -39
  -78
  -67
  -71
   94
 -118
   33
  -13
   71
   -3
  119
 -121
  110
 -119
   51
   31
   -3
 -107
  -84
   70
  -89
  127
 -107
   98
  -10
    4
  -14
  116
   30
  -42
  -14
   63
   14
   62
   33
  -86
   26
  -27
   24
  -91
  -23
   58
   28
   16
 -125
  -92
   53
  -62
   57
   15
  -42
  -25
   80
  -37
  -12
   53
  119
   74
  -13
   90
  -34
  127
 -106
  -23
  -34
  -30
   18
   75
 -122
  -41
  118
   -2
 -124
  -27
  -36
    0
   58
  -20
  111
   41
 -102
   99
   78
   49
   97
   57
   15
 -109
   40
 -122
 -110
  106
   82
  -32
  -60
   12
  -68
  120
   11
   -5
 -121
   43
  124
   83
   73
  -95
  127
  -22
  117
  -79
   63
  112
  -45
 -127
   61
  -17
   60
   18
 -122
 -115
  -95
   13
  -47
   33
   84
   66
  -61
   94
   63
  101
   84
  -63
   22
  -30
   18
  -26
   16
    3
 -115
  -54
  -96
  -58
   84
  102
    8
  -60
    5
  113
  -41
   97
   53
  113
  106
  119
  -86
   86
  118
   63
  109
 -127
   70
   50
 -103
   19
  120
   77
  -88
   91
  100
   -9
 -120
  125
 -127
  101
  -69
   48
   30
  -33
 -122
  125
 -106
   70
   77
  -49
   49
   57
   84
 -116
   23
   27
  -67
    1
   10
 -114
  -37
  -56
   55
   61
   72
   -8
   61
  125
 -122
    1
   90
  -24
   77
  -90
   -1
   40
  -29
  -56
  -49
  -81
  102
  -43
   86
  -73
  -38
   87
  -28
  -23
  -73
   21
   97
   99
  122
  -53
 -116
  104
   64
   31
  -72
   52
  -89
  -16
  -73
   30
  -97
  126
 -118
  -58
   70
   95
  113
 -101
  -41
    0
   -7
   26
   49
  -93
   36
  -29
  -70
 -100
   18
  -64
  -66
  -55
  121
  -54
  103
   46
   81
  -30
   91
 -125
  106
   43
  103
  108
   77
   95
  111
   98
  -80
  -42
    8
  -48
   35
   65
  -40
  -65
  -54
   74
   -1
 -127
  113
  -97
   42
 -125
  101
   14
  -13
  -13
    1
  -67
  -26
  -53
   -2
  -93
  113
  107
    9
   29
   76
   98
 -113
  -20
    9
   67
   49
   53
   99
  -97
 -105
  -43
   39
  -62
  -59
 -109
  -70
  124
   83
  102
  -39
  -62
  -72
   70
   14
  108
  -15
 -100
  119
  -56
  118
  -34
   58
 -115
  -30
  -13
  102
 -103
 -103
  -62
   36
  119
  -63
  -99
   23
  -89
  -90
   36
  -36
  -71
 -100
   60
 -126
   51
  107
   46
  121
  -37
   70
   -9
   -6
  103
   65
  109
  -56
   -5
   14
   74
  -83
   52
  -95
 -126
   19
 -123
  -49
  114
  -42
  -39
   46
   -3
  123
  -91
  -42
  -21
   61
  -97
    8
   65
  124
  -50
  -31
  -23
   42
  -32
   40
   35
  -81
   76
   77
   32
   84
   13
   53
 -118
 -116
  111
  -75
  -66
  -65
   61
  -39
  -88
  -19
   18
   52
   93
  124
 -112
   10
   32
  -19
   87
  -17
  120
   10
   48
   56
  -52
  124
  -55
  -80
   90
   83
  -39
   51
  113
  -44
    7
  -29
  -17
   70
  -35
   -4
  101
   88
  -41
 -102
  -38
   25
  -93
  -17
  -93
  -12
  -29
   61
   89
 -119
  -33
   55
  -75
  -81
   29
  -33
   16
   41
   70
   33
   42
 -111
  -87
  -23
   72
  114
   79
  -71
  111
 -101
  -71
  -86
  119
  -26
  -41
 -125
   63
  -56
   -6
   82
  -70
  -16
   46
  124
   50
   54
   36
  120
    0
   85
   83
 -112
  -71
   38
  -21
 -125
   -1
  -18
   22
  106
 -102
 -113
   36
  -22
  -12
   42
   37
   26
   90
  -99
   -2
   60
  -34
  120
  -90
  -58
   62
   88
   23
   86
   52
  -80
  107
  -59
  105
   69
  -38
   67
  -85
  -16
  -67
 -120
   76
  -18
   64
  -61
  -16
  -10
 -105
 -104
  -28
  112
  100
   65
  -11
  -92
  -29
   86
  -91
   20
   37
   56
    8
    2
   40
   67
   39
   74
   32
  114
   41
   61
 -122
   93
  -86
   -1
  -78
 -117
    0
   43
  127
  -68
  -43
  -26
  120
   86
  -53
  -96
  -30
  -34
  -94
 -124
 -104
   13
 -117
   52
 -121
  -65
  -36
  -64
  -83
   87
  -33
  -90
   89
    8
  -78
 -102
  117
   55
  -86
   16
   36
   19
   19
   27
 -102
   36
  -55
  -66
  -60
   24
   56
   66
  -23
   90
  -45
  -48
  127
  120
    7
  -14
    7
  -98
   37
  -74
  -13
 -125
 -100
  -16
  -44
   13
   64
   78
   47
 -123
   30
   98
  -99
  -88
  -33
  -25
   68
  -42
   54
   67
  -99
  -96
   91
   19
  112
  -72
   65
   25
   -6
  116
   93
 -108
 -114
  -85
  -41
  -19
  -48
  115
 -108
 -100
  -69
  -93
  -43
  -87
  -72
  -67
  -54
   55
  -33
   98
   42
   11
  -65
  126
  -66
    2
  -83
   -4
  -52
  100
   32
   60
   60
  -46
 -127
  -12
  -58
 -127
  117
  -53
   77
   76
   27
   90
  -67
  -30
  -18
   98
  -44
 -124
  -13
   64
  123
  -10
  -75
   47
 -124
    5
   68
   -1
  -42
 -110
   43
  -11
   94
   33
   11
   89
  -79
  -31
   44
   30
  -17
  -87
   63
  123
   29
   86
  -63
  -39
  -35
   93
    6
   98
   25
   37
   26
  -78
  -13
   85
 -110
  -45
  -83
  -98
  -42
  -79
  -73
   93
    7
 -116
  -77
  118
  -85
  -79
   82
   61
 -120
  -52
  -32
   35
  -60
  -14
   51
   61
 -125
 -125
 -127
   26
  -17
  -54
   36
   17
 -102
  -60
   15
  -76
 -110
   42
  -80
  -90
 -127
 -113
  -83
  -82
  107
 -109
 -125
  -80
  -29
  -66
   33
   38
   82
  112
   69
  115
 -100
   50
   58
   36
  -10
   57
   90
   63
   61
  124
 -117
 -122
  -79
   34
   67
   69
   61
  117
   23
  -60
  105
   26
  114
  126
   27
   31
 -103
   32
   23
 -112
   53
  113
  101
   27
  -17
  -43
  127
  -79
  -89
  102
  104
   92
   -1
   62
  -44
 -113
  -42
   86
    7
  -86
  -28
 -121
  -66
  -42
  101
   26
   36
  -34
   29
 -106
   31
   58
  100
  -16
   61
 -107
  105
  105
   97
   16
   -5
  -98
  -37
   97
   48
  -42
   35
   99
  -92
 -120
