 -115
  -50
   60
  -50
  -37
   15
  -79
   23
 -117
   77
  -34
  -65
   15
   32
  -50
   -7
   22
   95
  -84
   -4
    8
   86
  104
 -127
  -73
  -61
   37
  116
   79
   29
  -43
  -23
   22
  -37
  -26
 -127
   45
  108
  126
  -68
   95
   51
 -104
 -116
   95
  116
  118
  -95
   60
  121
  -34
    2
  -47
  -95
   81
   63
   25
   19
  -61
 -111
  -16
   13
   38
  -17
  -21
 -114
  -87
   72
  -90
  104
   23
   99
 -114
   -9
  -99
  102
  116
   80
  -43
  -58
 -114
   99
  124
  -35
   37
 -120
  -69
   56
  108
   17
   86
  109
  -63
 -119
   57
 -115
   14
 -113
  102
    6
   57
  -92
  -61
  -63
   74
  101
   -7
   25
  -16
   -6
  -87
  -52
   24
   79
  110
   23
   96
  -54
  -17
   -6
    2
    6
  127
   94
  -94
  -70
   -7
  -96
  -76
   -7
   64
   50
 -102
  -30
  -16
  -64
   26
  103
    6
  104
   87
  -61
  112
  -65
    7
 -107
  -69
   -9
   97
  120
  -26
  102
 -113
  -48
   91
   91
   21
  -67
   16
  118
   25
  113
   17
  -81
   45
   -6
  -98
  105
   74
   11
   62
  108
   42
   -2
  -89
  -66
  121
  103
   55
  -80
  -63
    2
   42
   41
  110
   71
  -55
 -117
   93
  113
 -108
  -55
 -113
  -74
   -6
    7
  -73
  -82
   61
   11
 -118
  -94
 -107
   96
   88
    0
   93
    1
   15
    1
   90
  -72
  -45
   43
  -20
   10
   42
    3
   58
   90
  103
 -127
   -9
    9
  -68
  -56
  -84
  -88
  -20
  -67
   95
  -53
  -96
   83
  -89
  -59
  -17
  118
   76
   27
   24
   35
   79
  107
  102
  -83
  -86
 -119
  -41
   62
 -118
  -39
   70
   -3
 -103
 -102
   53
 -103
   45
  -84
   76
  -74
   39
  -26
   -5
   11
   41
  -78
  -48
  -74
 -116
   76
   82
   62
   -2
   18
  -34
   86
  102
   41
   71
 -127
   94
 -110
   19
   23
   82
   29
   10
    9
  121
  -94
   18
  -18
 -109
  -53
  107
 -101
   31
  -10
  119
  125
   84
    0
   89
   97
    1
    8
  -86
   39
  -76
  113
  126
  104
    3
  -40
   86
 -106
 -104
   31
  -92
  124
 -107
   19
   38
   -4
   90
  -29
 -111
  -80
  -30
   63
  -74
  -14
  -77
  -54
   96
   23
  -73
   -4
   53
  -58
   66
   10
  -96
  -94
   -1
 -121
  -71
  -37
  -86
   66
   84
 -101
  -39
 -125
   31
  -73
  -94
   93
  -79
 -100
   -2
   59
   94
  -34
   19
  -64
   97
 -116
   25
  -65
   91
   71
  -30
   16
 -105
   23
  -31
 -113
  -23
    2
  -99
  -87
   86
   73
  -27
   82
   80
   59
   11
 -121
  -19
   73
    2
   29
   -9
   28
   48
  -64
    8
  -15
   27
  122
  -75
   52
  -22
   62
   43
  -82
   -4
   91
   -8
  -21
   43
   28
  126
  -33
   91
   76
  -80
  -36
 -102
  112
 -109
  -35
   80
 -107
  -55
   54
   27
  124
   59
   55
   43
   25
  -71
  -81
 -116
   31
   -2
   27
  100
   95
  108
  -25
 -102
   54
  110
  -82
   22
  116
   35
   97
 -121
 -106
   61
   82
  -57
  -85
 -101
  121
 -118
   98
  117
  -38
  -59
  117
   98
  -20
   37
 -111
  -20
  -14
  -96
  -26
   19
   17
  -50
  -66
  -18
    9
   21
   32
   55
    0
  -57
  -35
  -49
    3
  -77
 -105
   73
   -1
   15
  -27
  124
   52
  -58
 -126
   40
   -5
   99
 -105
  115
 -105
   17
  -49
  -99
 -126
 -105
   63
 -115
  -80
  -42
  -89
 -118
  -50
 -100
  109
   74
 -104
   94
    7
  -29
   -1
  -66
   20
   90
  -99
   79
   58
  -87
   40
 -113
  -49
  -37
 -120
  -27
  -90
  -87
  104
   63
    3
  115
   57
  -86
  -80
  -76
 -117
  111
 -104
  118
 -127
   27
  119
   48
  112
   -1
   26
   64
   -3
 -120
 -111
   99
  -36
  -33
  -96
   66
  -86
  -39
  -62
   -5
   37
    7
  110
  -60
   29
   58
  -75
  -26
   82
   29
    1
   11
   -2
   87
  -18
   23
  114
  -45
  -95
   29
   34
  -28
  -80
  -83
   80
   71
   27
  -48
   29
  -12
   26
   34
   63
 -116
  -12
  117
  -24
   -3
  -21
  -15
  108
  -49
   15
 -108
  115
  -96
  -32
  107
  112
   54
   -3
  -37
  108
   25
  -54
   24
   16
    0
  -10
    3
   -8
   16
   41
   -9
  -33
  -84
  107
  -77
  -57
  -66
   73
   16
  116
  -33
 -114
   32
   -9
   63
  102
   87
  -43
  -51
  -70
 -123
  101
   58
  -57
   48
 -101
  114
  -52
  -51
    0
   94
  122
  -72
  127
   45
  -54
  109
 -120
 -104
  -85
    6
   15
  125
  -28
  -45
  -88
  -88
  -36
   54
  -70
  -93
   63
  109
  126
   19
   36
   15
  102
 -122
  -36
  -90
  -17
   36
 -127
    2
  -29
  -14
  -95
  -64
    0
  -59
   -5
  -73
   35
   36
  127
  -58
 -113
  -57
  112
   13
   12
   65
   25
   53
  -71
  -20
  -55
  110
   70
  122
 -105
   24
   39
   25
  -72
    1
  124
 -126
   -5
   25
   -4
  105
  -69
  -45
 -114
   17
   89
   63
   -4
   -7
  -57
   17
   76
    3
  126
   46
  -18
   14
  -66
  -44
   86
   69
  112
  101
  106
   91
  122
   -7
  112
  126
  -85
  106
  -30
  106
 -119
   65
  -83
  -80
  -91
   74
 -101
   74
  -72
  -32
  -98
 -126
  107
  -30
  -63
   -6
  -44
  -49
  -80
   -4
   -1
  -52
   79
   57
  -84
  -49
   48
  -37
  -93
  -86
   51
  118
   89
  -37
   27
   93
   82
   91
   -5
   49
  -81
  -87
  126
 -111
  126
  -72
   98
  -42
  -47
  -48
   54
   42
   56
 -101
   51
 -107
  100
   49
  -16
   40
  114
   69
   98
  -40
  -48
    2
    3
   21
  -50
  -66
   55
   69
   74
   59
 -115
  -54
   38
   13
   52
  115
  -25
   96
 -110
   77
  -41
   70
 -112
   19
   13
   76
  -31
    9
  115
  -97
  -35
  -91
   23
   12
  -42
  -52
   18
   77
  -26
   48
  104
  -98
  -98
   33
  -96
   50
 -102
   -2
  -23
  102
    4
   44
  -74
    8
    5
   14
  -92
   98
  -96
  -85
  -21
    0
   87
  114
   66
   16
   17
   -3
  -31
 -107
   24
   19
  -76
   31
  -43
  -42
  -27
   33
  -15
  -77
  -63
   74
 -104
 -113
  -38
 -105
    3
   82
  -71
   25
 -106
 -117
  113
  -11
  116
   79
   -8
   84
  -71
  112
  -52
  107
  -49
   65
  -39
  -72
 -127
  127
  -21
   39
   59
   61
  -57
  -90
  -63
   12
  115
  -24
 -105
  -57
  -42
   16
   30
  100
  -83
   77
 -108
 -119
   41
  -50
   38
  -15
   19
  -41
  -60
  101
   28
  -21
  118
  -54
  100
  -30
  108
   22
  -38
  -52
  -41
   34
  -91
   71
  -56
  -52
  -27
  -47
  -68
  -67
  -31
 -108
   77
  -69
  -78
  -61
 -107
   64
  -71
   31
 -106
   74
 -123
  -91
   15
  -77
   44
  -64
  -22
   28
  -69
   10
  -84
  -10
  -61
  -58
   26
   62
  -32
  110
   64
  -41
   72
  -74
   71
   65
  -45
   10
   -6
   -3
 -102
  -52
  -89
    2
   29
  -17
   85
  -67
  -77
  -97
   89
 -111
   92
 -113
  123
    0
  -15
  -16
  -53
  -45
  124
  126
 -110
  -20
   11
  -50
  -61
  -38
   67
  -82
 -127
   -3
  -56
  -21
   99
 -126
   90
  -36
    7
   82
  113
  -90
  118
   83
   27
  -43
   64
   92
  -11
   -6
 -118
   92
   -9
    0
   69
   92
 -101
    8
  126
   53
   55
   46
   26
  -15
  -90
  -37
  -74
  -75
   51
  -82
   -7
   85
   91
  104
   66
 -108
  106
   55
   45
   10
  125
  -96
  100
 -121
  -15
 -124
   48
   38
   12
   51
  -69
  -88
  -88
   10
 -107
  110
  -90
   -2
   94
  -48
 -118
  -64
  -31
  104
   90
   57
  -96
  -10
  -27
   26
  112
   16
   27
   46
  -63
    9
  -91
   31
    8
 -110
 -120
  -79
  -74
  -17
    1
 -123
   49
  -91
  124
  117
  -22
  -64
   -5
  112
  -79
 -111
  -76
  -61
 -117
  106
  -39
   33
  118
 -124
  -22
   99
   95
   79
  -10
  -68
   38
  -80
  -73
  -92
  127
   81
   40
   23
   24
  -18
    7
  -43
  -66
   90
  106
  -31
  -30
    6
  -72
  117
  -79
   27
   98
  -21
  -44
  -55
  -34
   72
  -51
  105
  -62
   19
 -105
    4
  117
  -77
   91
   15
   -8
    0
   90
 -103
   61
  -84
  -82
  -43
  -73
 -123
   43
   -2
  -21
  -36
    2
 -103
   15
   21
    3
  -20
   -9
  -85
   -6
  -26
  127
  -72
  -45
  -56
  -59
   43
  -62
   25
   50
  -18
 -119
    4
  -78
   32
  -48
  -69
 -105
 -111
  -58
   32
  -59
   92
  103
   -7
   25
   35
  -64
   -1
   38
 -125
    6
   78
  -52
 -107
   51
   68
 -111
  116
   29
   -5
 -121
   67
  110
  -87
  111
  -55
  -63
  -64
  -80
   81
    8
   43
  -90
   89
  -20
 -116
 -117
  103
  -84
   91
  -70
    1
   77
  100
   59
  105
  -70
  -26
  -92
   -9
  -28
   71
 -103
  -76
   79
 -127
  102
   18
  -89
   58
   56
 -110
    7
  -80
  -77
   49
  -47
   93
   19
  -77
   36
  -26
 -124
  -37
  -32
   58
 -117
  106
  109
   14
  -18
  106
  123
  -99
   52
  -87
  -86
   35
  -71
    9
  -38
    1
   -3
  111
 -110
   97
   14
  -83
   93
   46
   78
   70
  -18
 -116
   34
 -111
   19
  -86
   55
  -32
  -72
  112
 -105
 -100
   95
   66
 -103
   25
   53
   -5
  104
 -104
  -51
   25
  120
   65
   50
  -66
  -19
   22
  -13
  -39
   86
   85
  109
   -1
   51
  -68
 -116
  -66
  -27
  -58
  -98
   -3
   78
  119
  -27
  -94
   69
  -97
   31
   26
  -68
  -47
  104
    7
   78
   21
  -41
 -113
  -92
   57
   65
   42
   21
   61
   65
  -59
  107
   73
  116
   80
    3
   56
   65
   34
  -85
  -55
  -27
   61
   20
 -117
 -116
  -97
   97
  -70
  100
   72
   60
 -107
  -22
   74
    9
  102
 -125
  -29
  -98
   58
   95
  118
  -52
 -123
 -122
  -96
  -68
 -116
  116
   59
  -10
   11
   57
 -120
 -124
   62
  -42
  -89
  -67
   23
   77
   29
  -28
   20
 -116
    7
 -126
  -35
  -53
   86
  -81
   80
   79
   54
  114
   67
   38
   21
  -54
 -118
  -92
  -11
  -82
  -45
  -81
   83
   90
  -34
  -98
  -18
  107
    0
  -94
  -11
  108
   11
   89
  -61
 -111
   27
  -45
  -70
  -28
   41
 -116
    5
 -119
 -117
    2
   52
   -4
   60
  111
  114
   29
  111
   -3
   14
  -52
   87
    2
  -27
   41
 -114
    0
   81
   91
   74
   66
  -74
   85
   90
  -74
   43
  106
  -33
 -116
   -9
   52
  110
  -72
  -66
  -59
  -81
  -26
 -103
  -91
   97
  -39
   96
  -43
   81
  107
 -116
   57
  124
  -43
  -21
  103
  -10
 -116
  -57
   -9
  -30
  -49
   15
 -108
  -39
  126
  -37
   -5
    7
   93
    2
  114
  113
   51
  -77
 -125
  107
   -1
  -68
  -70
   69
  -21
   69
  -64
   76
   -9
 -100
   90
   15
   97
  -86
  106
   43
 -103
  -85
  -16
   10
   78
  -62
    5
  -69
   84
   92
   19
  118
  -26
   97
 -118
  -50
  -34
 -102
  -91
  -92
  108
   66
   86
   52
   55
  115
   36
  -83
   90
   48
  -55
   55
   77
  -62
  -70
  -60
   54
   87
  -96
   52
  -88
   53
 -118
  102
  -67
   12
   76
  103
   95
   25
  -48
 -116
  -23
  -96
  -81
   82
 -127
 -115
   69
  -51
   31
  -97
   94
  102
  -50
  -21
   42
  -96
  123
  -51
   11
 -124
   88
  -28
    5
  -97
   82
   93
   86
   30
  -46
  127
   20
   51
  124
   15
  -23
 -124
  123
   19
  -47
   60
  -78
  -54
  -44
   48
   68
   34
 -102
   43
  -41
   75
  -30
  -58
   96
  124
  118
   56
   16
   10
    6
  -25
  -87
   92
 -127
   18
   77
 -117
  -32
   41
  -28
   20
  -51
   60
  109
  122
 -121
  105
  -25
   36
   81
    6
 -125
  127
   77
   53
   37
    7
  -37
   55
  115
   72
   95
  127
  103
    9
  111
  100
   19
    9
    7
   53
 -126
 -124
   62
  -22
   36
  -24
  127
  -20
 -103
   12
  -38
  -53
   65
  -38
 -102
  -44
   71
 -103
  -44
   70
  -49
  -79
  109
   18
  -75
  -76
  -47
   98
   56
    7
 -111
 -114
  -15
   13
 -120
   44
   61
  113
   35
  -21
  -63
   -2
  100
   38
  117
   45
   74
  -24
  -38
  -50
   81
    6
  -76
  -25
  -67
  -26
   56
  -21
   30
  -76
 -117
   14
 -114
  -18
  -19
    5
 -107
   84
  -58
   -2
 -102
  -32
  -69
   -4
   -4
   -7
  116
   70
  -89
    9
   57
 -106
  -97
   10
   52
  -34
 -103
   34
    3
  -81
   68
  -46
 -104
  102
   52
  -36
   -8
  -78
   94
  102
  119
   74
   77
 -127
    4
  -66
 -127
  -29
 -106
    3
    7
  100
  -17
   12
   23
  110
  -91
 -122
  -85
  104
  124
  -64
  116
   56
  110
  -67
   35
   29
   22
   98
   26
   11
   94
  -18
 -122
  -20
   15
   57
   38
  -54
  -61
   41
 -126
  -91
   59
   24
  -68
  -18
  -15
   69
  124
   56
   87
  -97
  -79
   62
  -25
  -20
   -3
   91
   53
 -115
   -7
   88
  114
   99
  113
  -86
  -79
  -17
  -24
  -51
 -103
  -68
   58
   57
 -100
  -25
  121
  101
  127
  -26
 -100
  112
  -31
  -78
  -11
  -98
  -40
   96
  -75
 -118
  -27
 -124
  -43
  -41
 -111
  109
   23
   55
   56
 -113
   67
  124
  -50
 -109
   21
  116
  124
 -105
  -39
   -3
  101
   -9
  109
 -121
 -112
  -79
  -94
  -83
  -30
  -11
   59
   87
  -92
  116
   46
   10
  112
  -20
   34
  -19
   39
  -82
  107
  -33
   85
   93
   98
   16
   65
 -120
 -107
   19
  -37
  -47
  -67
  -65
  -89
  -96
   16
    7
   64
  -86
  -91
 -100
  111
 -125
  -76
   36
  -20
  117
  -55
   99
 -111
   88
  -57
   18
   38
   96
   -3
  -80
  -38
  -17
   27
   20
    2
  -64
    9
   70
   13
   61
  114
   75
  -61
  127
  -46
   79
   60
   57
 -109
   43
  -18
   63
  -48
   93
  -93
   60
   19
    9
   24
   61
   45
   93
  -94
   -1
  108
  -75
   81
   -9
  -70
 -103
   17
   -4
   50
 -123
   55
   19
   17
  126
  -79
  -30
   35
  -95
   62
   72
 -125
   79
  115
   -9
   59
  -50
 -114
   97
   29
 -127
  118
   37
   -3
  -82
  -28
   28
   39
   90
   -5
   12
 -124
  124
 -118
  -78
  -15
  -65
   41
    5
   56
 -101
  -76
  114
  115
   38
 -118
  -96
  -53
   46
   37
  -80
  -21
   72
  -99
  -22
   70
  -16
  -28
 -115
 -105
 -105
  -83
   29
   40
  -92
   54
  121
  -89
 -104
  -69
 -105
   53
  120
  -27
  -15
   80
  116
   86
  -54
   83
  126
   60
  -75
   55
  -84
  -55
  -78
 -106
  -64
  -76
  -56
  116
  -34
  -71
   73
  -25
  -54
  -20
   37
  -84
   95
   55
  -87
 -105
  -97
  127
   29
  -59
  -64
   64
  -40
   57
   69
  126
  -46
   -7
  -75
   73
  -30
  -68
  -15
 -119
   84
   96
  114
  -26
  -36
   96
  127
  -85
  105
  124
   74
   81
   16
   43
   28
   85
  103
   80
   95
  117
  -29
   28
  -75
   21
  -81
   50
   58
   16
 -110
 -114
   -7
  -56
   88
   40
  119
   56
  -46
  121
   12
   10
   82
  -18
  126
  -87
   24
   17
  -55
  100
    5
  -38
  -59
  -95
   17
  121
 -112
   65
  -50
 -113
   -4
  123
   26
   81
  -21
   89
  -92
   14
  118
   96
  -54
  -34
   -6
  -38
  -31
  -49
 -110
  -15
   15
   78
    4
  -78
  -21
   -6
  -40
  -12
 -108
   76
  -73
  -87
  -35
   15
  -49
   -8
    6
 -114
  -99
  -80
   29
  124
   92
  -50
  -80
  105
  -61
   44
  -57
  -93
 -107
  -17
  -46
  -66
  107
  -81
    1
   25
  -14
  -60
  -43
  -72
  -69
  -31
   71
    5
  -92
   34
   68
  -12
   36
   93
  -85
   30
   18
  -87
   73
  -28
   91
   97
   13
   51
  127
  -54
   54
  -27
   51
   58
 -122
   23
  -15
   21
  -54
   74
 -106
   26
  -10
   -7
   97
   66
 -114
   35
   74
 -106
  114
   72
  -70
  -32
   92
   64
  -40
   77
   25
 -101
   61
 -124
  111
  -69
   38
   35
   32
  -84
  121
   48
  -57
  -79
    4
  105
   80
   46
   90
   65
   41
  -43
   -7
 -113
  -64
   62
 -106
   15
  116
  113
  -34
  -87
 -104
   80
   46
  -12
   19
  104
  103
  -96
 -104
  -57
    5
  -38
   30
   95
 -125
  118
   88
 -104
   99
    2
  107
  -77
   56
   45
   46
 -118
   79
  -43
 -116
 -107
   29
  -26
  118
  123
  -43
 -105
   67
  -25
 -127
   86
  -52
  -20
  -90
  -87
   27
   17
  -82
   52
  -72
  -65
  -29
   83
   83
  -24
   -7
   -9
  -97
   59
    8
   59
  -60
  -57
   36
   93
   -4
  -81
   63
   11
  -15
 -106
   23
   45
   69
   83
    0
  -47
   61
 -103
  -75
  109
    5
  -64
  -21
  -25
  -72
   35
  -57
   50
  -49
   71
   81
  -25
   31
  -71
  -63
   27
   10
   18
  -71
  -78
    4
  -63
   26
 -110
   34
  -93
  -12
  -57
  -64
   90
   23
   14
  -75
   88
   27
   72
  -85
 -101
    9
   84
    9
   63
  -91
  -90
  109
   39
   99
    7
  -24
   83
  -54
  -85
   -9
   28
 -122
  101
 -100
  -13
  -86
   88
   25
  -41
  -54
    1
   -5
   91
  -49
  123
    8
   -2
   58
  -81
   98
   46
  -97
   42
   79
   20
   18
  -61
   97
   64
  -64
  -89
   11
   84
  -69
 -104
  -70
  125
 -116
  121
  -25
  -24
   61
  -65
  -65
   31
   98
  -67
  -42
   24
 -109
   56
  -31
  107
   32
    2
   46
 -107
 -111
  -89
   20
    0
  -86
  -83
  -84
  -31
  -50
  -17
   98
  -33
 -108
   45
  116
   -3
  -94
   72
  -39
  -32
  -82
  -94
  -11
  104
  -30
  114
  116
  124
   -1
 -120
   90
 -127
   65
  -60
   97
  -11
  -38
   50
   93
   42
   32
   -8
 -105
   47
  -85
   85
   10
   48
   62
   12
   19
  -25
  -39
  -79
   72
   39
   -7
   32
 -127
   81
   20
  117
  116
   51
   73
    5
  111
   49
   58
  -77
  -17
  126
  -34
  -44
   97
   89
   26
  -11
  -76
  109
 -123
  -81
  125
   75
  -74
   88
  111
 -100
  -89
   11
   90
   -9
    1
  127
  -79
  -57
  -31
 -116
  -97
   -2
  -49
  -71
 -119
 -123
  -44
   -1
   72
  -43
   77
   96
  -47
   50
  108
   99
   25
  -98
  -92
  -38
 -109
   -1
 -111
   57
   62
  -20
  -14
   25
  -53
   42
 -100
 -100
  -66
  -33
 -101
  -83
  -63
  100
   61
   -5
   26
 -124
  -72
  -33
   51
   12
  114
  115
   45
    5
  -84
 -120
 -118
   98
  -68
 -115
  -89
  -36
   60
   83
   41
   54
  -55
   11
   55
  108
   26
  -21
 -113
  116
  -34
  -97
   43
  -77
  -62
  -37
  -30
   -3
   57
   93
    4
  111
   53
   -5
  -35
   34
   33
  101
   56
  -42
   88
    4
   73
  -24
   92
   47
   -2
   59
 -105
  -92
   49
   56
   93
  -45
    0
   42
 -105
   69
   79
   -5
  -36
  112
  -74
 -103
   16
  -85
   61
  116
  -70
  -55
  -65
   -4
  -76
  -44
  -89
  -10
   40
 -108
  -38
  -73
   96
   14
   98
  -37
  124
   82
   92
  -84
  -49
   62
   88
  124
  -88
   95
   69
   52
   -1
  -70
   53
  -97
  -58
  -10
 -102
  -45
   -5
  -62
  -80
   34
  124
   85
   26
  -76
  -59
   14
 -118
  120
  -74
   -8
   53
  -25
  -62
  -60
  -47
  119
   21
  -83
 -115
  -45
  -42
   -9
   14
   93
  -69
   10
    6
  -81
  -80
  126
   94
   37
   16
 -101
   31
  -66
   11
   96
   86
  -10
  -88
  -21
   46
  -40
  -87
  -16
  -77
   92
  -57
   49
  -41
   39
  -15
   60
    2
   54
   -8
  -13
   11
 -103
 -124
   24
   65
  -84
  -75
  101
   12
   78
   -8
 -116
   14
   33
   23
  -53
  -67
   -8
  -25
  107
 -120
   61
   40
   49
 -116
  -67
   97
  -66
   84
  -26
  -31
  -86
    1
  -90
  -38
 -127
  -62
  -10
   34
  -18
  106
   59
  107
   32
 -102
   63
 -104
  -16
  123
  100
    2
   32
   -2
  -43
 -127
   87
   -7
  115
   22
  -61
 -110
 -107
   42
   71
  -77
  -19
   39
  115
   55
  -38
  -20
  -82
  -47
  -90
  -83
  -40
   58
  -48
    8
  -58
    5
  120
 -112
  -64
  -72
  -56
   83
  -42
  -71
  -85
  -48
  -36
  -45
  -57
  -52
  -30
   93
   52
   62
  -67
  -95
  -50
   85
   -7
  -75
   16
   65
   56
   58
   64
  -13
  -71
  109
  126
   69
   40
   61
   -7
    7
  -38
  110
   -9
   13
 -126
  -50
   12
  -60
   31
  125
   99
   96
   65
   49
   46
    5
  -19
   55
  -41
 -102
  127
   53
    5
 -105
  105
   -8
   12
 -119
  -96
  -12
  -82
  -29
  -75
  -38
   93
   48
   54
 -120
   22
   14
  117
  107
   66
  -67
   53
  -85
  -35
 -105
  -73
  -66
  -65
   29
 -103
 -105
  -77
   64
   60
  -11
   89
  -80
  115
 -122
  -95
   39
   95
  115
  117
   12
  -98
   76
   70
   70
   52
   70
 -127
   80
 -115
  112
  -88
   58
  -88
 -111
  -29
  -11
 -102
  -57
   56
  -35
  -29
 -104
  118
   35
   76
   40
   91
   99
  -51
   55
  -45
  -55
  -66
   85
    8
  -20
  -22
   83
   56
   25
  -47
  -86
 -106
  -87
   71
 -119
   92
  -88
  -37
 -127
   94
 -126
   76
  -57
 -118
  -69
   36
  -70
  -99
 -106
   17
   92
  -95
   59
  -79
  -84
  -85
   77
   -9
   94
  -50
  -60
  -70
  112
   90
   18
 -119
    5
  123
   44
   89
  -85
  -31
 -107
  111
  122
   60
   12
   69
   56
  -50
  -57
  -83
   44
  -86
  -54
  -15
   24
 -102
   61
  -94
   71
   84
  121
  -58
  126
  121
   60
   44
   63
   37
  116
  -89
  -87
  101
  -70
   91
   95
 -119
  -33
 -118
  -67
  -17
  124
  -82
   66
    9
   27
  -87
   66
   99
   88
  -50
  -44
  -88
 -105
  -99
   85
   40
   57
   36
  -10
  -77
 -103
  -45
  -62
  -75
  -17
   72
  -33
  -79
   55
   85
  124
   79
   13
 -125
  -99
 -117
 -110
  -85
   42
   87
   54
   26
  114
   64
  -54
   -2
  -48
  -93
  116
   66
 -111
  -14
   75
  105
   90
  -90
   58
  -75
  121
  101
 -119
   73
   33
   15
  100
    9
   47
  116
   59
  -41
  -48
  -75
   20
   79
   33
  -18
  -36
  106
  -88
  -45
  -76
   88
   -9
  117
 -124
  -94
  106
  -78
  -16
  -44
   66
  -78
   56
  -72
   33
   13
 -100
   38
  110
    3
  -10
  -85
   48
  -30
   18
  -71
    8
  -81
  -40
  123
  -23
   47
  -97
    1
   65
  -58
  -80
  113
   81
  -41
   95
   61
  -92
  -72
  -59
  125
  112
    5
   96
  -72
  108
  102
  -96
   39
    0
  103
   76
  -88
 -109
  -89
   50
   63
  -31
   11
  -48
  -27
  114
   30
   81
   15
  -55
   79
  -88
   96
  -58
  122
   33
  -75
    9
   75
   38
   64
 -115
  -69
 -118
 -101
  -28
 -121
  -54
  102
   26
 -113
   51
  -92
   35
   51
   76
   37
  114
   96
   61
  -26
  -31
  -46
  -75
   65
  115
  -20
   96
  -96
   61
  -56
  -33
  124
   57
  124
   29
  -69
  -68
  -36
 -105
  -84
   70
  -12
  -16
 -123
  -26
   50
   72
   48
  101
  -24
   -3
  105
   18
   56
   36
   23
   62
   72
  -72
  118
  -70
   19
   13
   39
   60
  -36
   -8
  124
  -19
   53
  -69
 -107
 -122
  126
  -11
   39
   72
   -3
   86
  -40
   -2
  -68
  -43
  -34
    7
  115
  -81
  -87
    8
  116
  -69
   79
  -12
   55
    1
   41
  104
   -8
   70
  -79
  -51
  -59
   -6
  125
 -112
 -101
  -46
   66
   39
  -23
  -95
   93
 -104
   57
 -108
  -57
  120
   90
  106
  125
   39
  -56
  -12
 -108
   13
  -75
    7
   91
  -10
  -79
 -105
  -22
  -70
  105
 -113
    1
   63
  -33
   18
  -48
  -53
 -110
  -39
  124
  -92
   35
   -2
   20
   27
  -55
  -77
  -16
  -19
   60
    5
  -80
  -13
  -56
  107
  118
   77
   84
  -68
   20
    5
   82
   52
   21
   -5
  -32
   96
  -80
  -16
  -19
   84
   40
  -36
  -24
  -42
  -13
   16
   17
  106
   45
  -65
  118
   22
  101
  -69
  -18
  109
   30
   92
  -36
   14
   13
   63
   27
    1
 -100
    1
   26
   90
 -126
   73
   50
   71
  -60
  -10
   84
  -15
 -112
   67
  112
 -124
 -115
 -107
  -23
  -17
  -84
   17
  116
  -37
   -1
  119
  122
  -71
   97
  -70
   -6
   94
  104
   40
   97
   56
  -66
  122
  -60
 -111
  -34
  -44
  -46
  -63
 -114
 -120
  -67
   59
   58
   81
   43
  111
   23
   82
   36
  100
   67
   74
  -29
   57
  -43
   62
  -81
  -62
  -96
  -24
   26
   92
 -111
   62
   13
   -7
   -5
  -74
   42
   28
  123
 -107
   29
   69
  -56
 -125
  -97
 -113
   63
  111
 -118
  -93
  -81
   93
  -34
   14
   84
   24
 -114
   66
   59
   29
 -118
  -32
  -31
   22
  -71
   34
  -72
 -110
   43
  102
  126
   43
  110
   13
   49
   -4
  -84
  -32
   72
  -67
   70
 -108
  -59
  -96
  -30
   82
  -61
 -105
 -118
  -30
   52
   89
   80
 -120
   35
  111
    3
  -84
   34
   49
  122
   76
  -22
   68
  -33
  118
   10
  -38
   66
  123
  -30
  122
 -107
  -25
  -83
   -4
 -107
 -121
   16
  -21
  -68
 -111
 -124
   72
   43
  -56
  -24
  -44
  102
  -23
   38
   52
 -104
  -38
   52
  -10
   27
  -74
    9
  -25
  -47
  -32
 -116
  -97
 -124
  -36
   51
   58
  -62
   85
    0
   -8
  -83
  -89
   -8
  -51
   19
  118
  111
   60
   78
  -78
    0
   71
   64
 -113
   53
 -116
  -78
    0
  -99
    7
  -60
   28
   -6
   49
  -19
  -76
   99
   58
   57
   32
 -107
  -22
  -98
  -91
  -94
   99
  -80
  -54
   -9
   80
  -45
   72
   10
   91
  110
  -39
   11
   92
 -104
 -110
  126
   35
   71
  -40
   -1
  -26
   85
  -29
  108
  -28
   26
  -48
  -60
   99
    5
   26
   28
   91
    2
   58
  105
  102
  103
   53
  122
   47
    5
   69
   71
  -40
  -96
   16
  -71
  -40
 -124
 -118
  -76
   73
   37
 -104
  -73
    7
   26
 -124
  -47
  -56
   76
   29
   -1
  -23
   10
  -98
    4
  -91
  -26
  -47
  -54
  -42
  118
   13
   97
  -35
  -18
   64
  -23
    9
  -81
  -42
  -21
   19
  -89
  -53
  105
   68
 -111
  126
   34
  124
  113
  -92
   56
  121
 -102
  -24
  -71
   28
 -116
 -108
  107
   39
   30
   42
  115
  -61
  -40
   40
 -110
  -43
  -15
  -14
   51
  -77
   81
   25
   16
  -20
  -51
  -95
   16
   64
  -13
  101
  -49
   26
  -83
 -115
 -122
  -57
  -33
  100
  -85
   45
   73
  -87
   47
  -40
   38
   54
   -3
   19
  -84
  -38
  -16
   24
  116
   57
   63
   42
 -125
   11
  -89
   -2
 -121
  -89
  107
  -11
   -5
  -96
  -65
  111
   70
   -1
  -39
   82
  -85
  -76
  -10
  118
  116
   94
  -51
   84
  -61
   -2
 -114
  -28
   99
   29
   58
   46
   17
   82
  -16
  101
  -48
   56
  -69
  -85
  -86
   10
   62
  -83
   60
   38
   80
  113
 -100
   60
   29
  -46
   74
 -109
  -46
 -121
   -7
   44
  -72
   95
  -35
   42
   34
  -93
  -74
  -94
   78
 -109
 -118
   76
 -126
 -114
   53
  -10
   51
 -100
   94
   81
   42
   29
  127
 -121
   72
   44
  103
   56
 -109
  -21
  104
  -90
 -104
    2
  -15
   85
 -118
 -106
  124
 -118
  -70
  107
   76
 -102
  -51
   60
  109
  124
  -77
   37
 -102
  -76
  -42
   64
  -81
   38
  -81
   31
   65
  -65
 -105
   85
    9
 -108
   -6
   71
 -113
   13
  -20
  -89
  126
   92
   87
   89
   76
   -9
   -2
  -83
  -94
   89
   -5
  108
  -96
   36
  -88
  125
  -64
   90
   73
  101
   87
  -78
  113
  -76
   -2
 -102
 -104
  -78
   14
   74
    5
  -40
  -59
   11
 -102
   20
  -87
  -81
  -88
 -127
  -89
   98
    8
   83
 -119
   87
  -47
   65
  -37
 -125
  110
  120
   36
  -26
   79
  -74
   72
  -97
  -58
   20
   -8
  109
    9
  -50
   12
 -127
   34
   47
  -18
  -49
   -5
  104
 -101
    3
 -101
  103
  106
  -94
  -70
   62
  -76
   21
  -97
  -37
  -91
  -82
 -110
  -54
   33
   78
  -69
  112
  -84
  -79
  -14
  -34
   31
 -109
   17
 -124
  -69
  -19
   75
  -36
  -74
   26
  -17
   65
    1
   86
 -121
   71
  -43
   -5
   54
   78
  107
 -126
   67
   21
  -44
  -47
   46
  -89
  -40
  121
  -36
   95
   24
   35
  -48
  -92
   34
   76
   -6
  -24
  -75
  -71
  -65
   65
   95
  -81
   99
  -45
  -99
  -57
  -52
   56
 -101
  -44
   92
    6
  -33
  -63
   26
   40
 -120
  -91
  127
  -95
    0
   22
  -97
 -121
  115
   33
   39
   51
  -42
   63
   38
  112
 -123
  -25
  111
  107
   61
  -79
  121
   55
  -49
   74
  -48
   74
  100
 -127
  -98
  -73
  -41
 -112
   74
 -107
  -83
   67
  -81
  -91
   66
  -82
  112
  -74
  -55
  122
   -6
  -59
 -117
   65
  -65
  103
  -10
   57
 -112
 -124
  -25
  126
  111
   57
  112
  -57
  -27
  -67
   70
 -110
   -1
 -105
   31
  -47
 -104
  107
  -92
  127
   88
   48
  110
   18
  -54
   27
  -10
  -67
   84
  -56
   95
 -100
  -89
   56
 -113
 -123
  -46
   46
   83
  -79
  107
    3
   38
  -48
   10
  112
   62
  -99
   72
   93
   -1
   88
  -77
  -23
   12
   -4
   91
   16
   90
  -16
  -39
  -26
  -45
  -77
  -18
   98
   25
   74
 -116
   96
  -76
 -122
   96
   70
   88
  113
    7
 -107
 -121
  -95
   31
 -113
  -68
   13
   -1
   39
  124
 -119
 -113
  119
  -43
    8
  103
   83
  -51
   30
  102
   98
 -108
   33
  109
   54
  -12
   83
  -90
  -56
   59
  -23
  -24
  105
   65
   -3
  -67
  -32
   97
   90
 -103
  -71
   62
  -16
   93
 -104
   74
   48
   45
  -45
  -20
 -125
 -125
   24
 -117
 -103
  -94
   37
   67
   94
    4
  121
   38
  -36
  100
   56
   10
 -111
  121
 -126
  126
  -28
   86
   78
   93
   91
  108
   89
   98
 -124
  -72
  -77
  117
  -29
  107
   64
  -29
  116
    4
  -92
  -26
   95
  -49
   52
   27
   44
  -36
   -7
   14
  -38
    2
  114
  -67
   51
   22
    6
  -55
   46
   36
  -53
   46
   99
  105
  101
 -123
   59
   79
  -71
  -89
  116
   77
  -72
   64
 -106
 -106
  -34
  113
  -83
   81
  -61
 -126
   40
 -101
   33
   81
   47
  -51
   53
   41
  107
  102
  -45
  -43
   66
  102
   45
  -50
 -119
  -85
  119
  -18
   74
  -14
   56
  -87
   34
 -110
    1
   87
 -127
   32
 -111
  110
   85
   82
   68
   50
   76
  102
    5
  -68
 -126
  -31
   13
  -15
   27
 -104
  -16
  120
  -66
   41
  -87
  -47
 -111
  -64
  -16
   51
  104
 -111
  -36
  -59
  102
  -96
   62
  120
 -112
   32
   18
 -114
   87
   60
   78
   16
  103
   14
   35
  -10
  -73
  127
  -62
  -70
  111
  -44
   97
  -44
  -13
    1
   10
    3
 -111
   26
   29
  -30
   11
  -22
 -125
   35
   60
   74
  -10
  -58
  -69
   98
   39
 -121
  -30
   97
  -29
   91
   88
  -21
   -2
  108
  104
  -21
   47
  -85
 -127
   23
   76
   88
 -102
  -10
   51
  -24
  -81
   46
   -6
   95
  -54
   26
  -20
   72
   13
 -123
  -43
   64
   45
  -12
 -115
   76
   76
   61
   72
 -107
   83
   11
  -34
   33
  -35
 -107
 -115
   40
  111
  109
  -24
   72
    8
  116
   58
  107
   72
   18
  -95
    9
    0
  -78
  -72
   30
   67
  -99
   49
 -112
   57
  -63
 -119
   30
    5
 -124
   89
  -33
  -60
   75
   -2
   69
   -7
 -115
   11
 -111
  -36
  -83
  -93
   -7
   43
  -67
  -78
   48
   21
   71
  -29
 -126
 -100
 -104
   67
   75
   -4
  -40
   62
  -98
  -35
   86
  119
  -22
    8
 -119
 -126
   53
  -83
   41
   61
  -70
  -47
  -54
  -23
 -105
  -36
   82
  -91
  -91
   75
   81
   92
   43
   82
   70
  -65
   -5
   10
  -44
  -39
   27
  105
  -90
   34
   96
   10
   65
   -5
   13
  -44
 -115
   70
   55
   74
   88
  120
  -60
 -123
 -103
  -30
 -123
   64
  -29
    0
  103
  -13
  -46
 -109
  108
   73
  -73
   52
  -73
   50
 -124
   85
   81
   85
   65
   76
  -28
   98
   90
   21
  -49
   16
   54
  -25
  -80
   12
  108
   16
  119
  -68
  -46
 -117
 -109
  -88
   38
  -43
 -110
  112
  -48
   97
  -47
   73
 -111
  -27
   66
  -32
  -17
  -86
  121
  -25
  -62
   87
  126
  -21
   -7
  100
   84
   14
   60
   77
  -45
  100
   98
    2
  -77
   28
  -27
   74
   -7
  -11
 -111
  -48
 -123
  -21
   39
  -75
  -86
   50
  123
   38
   36
   87
   65
  -42
   74
  -28
  108
   89
  -25
  -24
  -90
 -114
    7
 -105
   86
  -89
  -35
  -59
  -45
   23
  -41
  -76
    0
  -42
   92
   30
  121
  -32
   80
  -94
  -88
   66
   29
   73
   79
  -81
  -84
  -66
  -17
   96
   65
  -29
   56
  -41
  -97
  -54
  -51
   83
    0
   10
    4
  -82
   44
   12
  -85
 -112
  -92
  119
   13
   25
    0
  -43
  120
   44
  -99
   55
  101
  124
   85
   68
  -89
 -114
    9
   66
  -98
  -39
   61
   17
  -72
   19
  -34
   96
  -96
 -107
  115
   24
  -23
  126
   88
   41
   84
  -57
  -96
  -47
  -36
  -82
  113
  -11
  117
  103
  109
   42
   95
   55
  -26
  -92
    2
  -38
   19
   59
  -12
  122
   70
  -75
  -47
  -74
   93
   73
  -72
  -53
   96
  -37
  111
   78
   91
    7
  -46
   86
 -125
   66
  -37
   23
   -3
 -103
 -115
   -5
  115
   74
   26
   93
  125
  -96
  -44
   71
   21
   15
   65
  -52
  -53
   97
  114
    4
  -90
 -124
  -92
  -36
  -94
  103
  121
  -75
 -107
  121
  -76
  -38
   27
   12
  -93
   32
 -104
   35
    0
  -30
   10
  -52
  -90
   40
 -123
   30
  -93
  121
 -102
   90
   41
  -92
   90
   63
  -47
  -97
  -49
  -28
  -84
   65
  -92
  116
   26
  103
 -111
 -112
  -32
  -31
   41
   24
   22
  -32
   11
   -9
   88
  -46
   12
  114
  110
   38
 -114
  -93
  123
  -40
  -29
   48
   -6
    7
 -114
   69
  -78
   21
  -68
    4
 -107
  101
   35
   75
  -99
 -101
  -19
   44
   -8
   44
  -39
   74
  -68
  -43
  -92
   56
   67
    5
   37
  106
   52
  -60
 -104
   18
   15
   28
  -86
  126
  -39
  -15
   47
   45
  -56
  -90
 -118
   94
  -38
  108
   14
   63
    4
  -92
  -99
   97
   66
  -61
  -64
   92
 -125
  -52
   19
  115
   18
   10
  -10
  -53
   11
  -94
  120
 -108
  108
   45
  -31
  -53
  122
  -15
  -88
  111
  -91
  106
  111
   95
  -51
  125
  -53
  -61
    3
  -32
   94
 -109
   63
 -115
  -67
  119
  106
   32
  123
  120
 -104
 -121
 -115
   44
   83
  -45
   -8
 -103
  -88
   55
   17
   65
   98
   13
  112
  -11
   96
  -39
  -65
 -107
   67
  -37
  -63
   83
  -50
  -57
   66
  112
   55
  -86
   39
  -40
  -53
   45
  -19
   97
  -13
   62
 -125
  107
 -120
   71
  -83
   48
  -80
  -67
  -81
    9
  -38
  -84
   28
   13
  -66
   87
  -82
  -22
  -50
   33
    1
   28
  118
  -28
  -95
   81
  -35
  -63
   75
  -47
  -82
  -67
  110
   35
  -14
   64
  -58
   -2
   40
   85
   80
   -5
   60
   40
   86
   18
 -113
   75
  -72
  112
 -118
   98
  -76
  126
  -36
  127
  -87
   46
   59
   22
  -71
  -55
   -9
   36
  -45
 -120
  -15
   49
  -46
 -100
   -6
  -76
   47
  116
   89
 -109
   18
  -56
   -2
  -28
  107
   42
  -20
  114
   80
   85
 -123
    3
 -118
  -10
  -30
   32
  -10
  -69
  -53
   97
  -72
    6
  103
   91
  113
  -88
  -28
  127
  -81
  -19
  -61
  -44
 -101
 -105
  -85
 -114
   97
  -44
   40
   13
  105
  -21
  -17
   64
  -16
   49
  -61
 -107
  -54
  117
   90
 -121
  -13
  -96
  -69
   79
  -37
   95
  -81
   22
 -111
   47
   71
  126
  -42
  -69
   66
   93
   63
    1
   20
  -53
    4
 -116
  -27
   93
   81
   39
  -65
  126
   -1
   35
   86
  -68
   86
  -94
   46
  120
  -29
 -125
   26
   40
 -127
   22
  -86
  -99
  -97
   72
   75
 -114
 -117
  -81
   -6
   -4
   74
  -31
  -38
   55
  -84
  -83
  -60
  124
 -105
   91
  -29
  -59
   73
  -75
  125
  -15
  -74
  106
 -100
   -3
 -114
  -36
  -70
   73
  -28
  -84
   59
 -118
    5
  -33
   64
  -58
 -101
  -32
   52
   24
  103
 -105
  -10
  -32
    0
  116
    1
   51
   81
  -50
   49
    4
   -5
   50
   -1
   37
   87
   39
   -8
  -61
   74
  -92
   67
   68
 -106
  -77
  -49
   10
  105
  -34
   84
  -59
  118
  101
  106
   62
   83
  -11
   38
  -38
 -118
  -14
   -6
   81
  -12
  -68
   -7
   92
   34
  101
   61
  -32
   37
 -110
   80
 -112
   80
  117
   22
  -77
   14
  -42
  -88
  -82
  109
   67
   65
   -1
  -87
   33
   69
   55
  108
   35
   -9
  -88
  -17
   77
   98
  104
   98
   43
   54
   63
  -63
   -2
  116
  -28
  -51
   75
  -79
  -82
  -76
   26
  -88
   88
   18
   63
   31
   82
   27
   55
  117
   61
  -29
 -105
   47
  -84
   23
  -43
  -17
    2
  -22
  -51
  -65
  -56
   82
  108
   70
  114
  -86
  108
  -21
  -44
   18
 -122
  -16
  -34
  105
  -58
  -32
  105
 -109
 -101
   42
   41
   83
  -88
   55
  -99
   95
   16
   41
  -16
    5
   43
  -35
   51
  -71
  106
   65
 -122
  -31
   62
    5
   13
  -56
   36
   47
   30
  -16
   81
   20
  -36
  -82
   87
  121
   48
    4
  121
 -103
  -71
 -106
 -108
   16
 -104
  -39
   11
  -42
   31
  -13
   56
   25
   39
  116
  -40
  114
   64
  106
  -71
   34
   94
  111
  -24
 -113
   76
  108
   10
   87
  -53
  118
  -47
  -89
  -79
  -95
  102
  -84
  -34
   63
  -50
  -10
 -113
  -86
   43
  -42
   88
   57
  120
   14
  -23
  -29
  -77
  -15
  -54
   70
  -27
  126
   -4
   -7
  -71
   16
   -5
   46
    1
   33
  122
   71
 -109
   55
 -122
  -68
   56
   95
  -66
  -94
   78
   45
   68
  -49
    7
   19
   76
   91
   53
 -112
  -56
  -41
  -74
   67
   58
  -15
  -96
   51
  121
  -45
   74
 -105
   39
  105
 -109
  -24
   88
   -7
  109
   49
  -77
   11
  -78
  -60
  118
  -63
 -112
  -44
   55
 -115
   10
   22
  -99
  114
   52
  -14
   40
  -29
  -85
   14
   98
  -29
   67
  -68
   90
   -6
   37
  -65
   53
   30
  112
  -84
   43
   16
   21
 -107
  -60
   27
  -22
   12
   68
  -73
   28
   14
   38
  -16
   71
  -98
  -45
  119
   92
   95
  -58
    9
    6
  -72
  -34
   38
  -56
   68
  -91
   20
  112
 -108
   13
   93
  -62
  -56
   45
  -86
  -42
  -68
   70
  -17
  -30
   37
   55
  106
  -49
  -32
  102
   54
  113
  -37
   25
   -6
 -122
  -76
  -55
  -78
   11
   -8
  -39
  -75
  -32
 -113
 -127
  -74
   45
  -17
  123
  126
 -108
   -1
  123
   18
  -38
  -37
  -17
  -26
   64
  -56
   87
   71
   17
   96
  -97
   91
  106
  -68
  116
 -112
   18
  -18
   37
   76
   84
   77
 -115
  -72
  -85
  -43
   50
  -19
   26
  117
  -14
  -62
  -23
   84
    3
  109
   40
  -84
  -20
  -99
 -108
  -10
 -111
   31
 -127
  -51
 -117
  -38
  -80
  -57
  -91
  -61
  -35
    5
  -29
  -18
  -34
  -22
   79
  -89
   51
   70
  110
  107
   41
   48
  -74
  -22
 -101
   73
   -4
  -17
   21
   24
 -104
  124
   37
  -35
   64
 -124
 -115
  -61
  125
   57
 -127
  -12
  -34
   11
 -116
  115
   37
  -26
   -2
   22
   56
   48
   76
  -51
   73
  -52
  112
  -97
   91
   55
   70
 -105
  -30
   -5
  -79
  -31
    2
  -22
   87
  -68
   13
   15
  117
  -79
  -93
   79
  -47
  -75
  101
  115
    6
    2
  101
  -12
  -29
   15
  -72
 -123
  -33
 -113
   75
   78
   13
   -3
   47
  118
   45
   37
  -20
   42
  107
   20
  -91
  -71
   27
  -94
   61
    3
  -32
 -114
  118
 -116
  112
  -86
  127
 -102
   83
   47
  117
   -4
   73
   65
   57
  -60
   48
  110
 -104
   18
   20
   83
  -43
 -126
   44
  -66
   94
   90
  122
   83
 -115
  100
  -40
 -105
  109
   91
   83
  -60
   68
  -82
   10
   87
  -80
  124
   86
   11
   78
  -32
  -19
   55
  -87
   10
   16
    4
  120
  -71
  -75
  -78
  -35
   -3
   25
  103
 -106
   80
  -10
 -103
  -93
  -73
  -64
  -65
   -5
 -118
   57
   93
  -82
  122
  -43
 -122
    9
  -43
  -63
 -109
 -106
    4
   23
   64
    3
   14
  -56
   72
  -14
   91
   47
    8
 -121
   54
  115
  -66
  -99
 -118
  -95
  119
    4
   24
   60
    8
  114
  -30
   17
 -101
   33
  -33
   54
   55
 -113
  100
  110
   91
  -80
  -48
  -20
  -25
 -102
  -57
  -31
  126
  -19
  -59
 -117
 -124
 -124
 -102
   35
 -115
  105
  -27
  -52
    0
  -16
 -112
  100
  125
  -92
   52
   47
  110
  -55
  -12
   96
  -77
   18
  -25
  -22
  -79
   50
   52
  100
  -86
  -60
  -20
  115
   56
  -95
  106
  -80
  -53
   33
 -111
   87
   99
  114
  -37
  -16
   70
   62
   67
   13
   72
   87
    5
   -6
  -15
   55
   64
   78
  110
  -10
  121
   18
  -38
  -94
    6
 -107
   19
  121
  114
 -102
  -20
   42
   79
   92
   68
   87
   65
   17
   26
  -96
  -42
  120
    3
  -46
   14
  -40
   37
   22
  -23
  -61
  -92
   54
  -12
   88
 -118
  -51
 -107
  -76
  -98
  -75
  112
  -59
  -88
   40
  -22
   27
  -91
   76
   70
  -85
  -65
   80
   98
  -24
   21
  -47
   59
    7
   50
  -11
  -30
   97
   39
   -1
   85
   67
  124
   29
  -92
   39
   58
  -11
  -62
   96
   49
  -54
   50
   18
  103
 -107
  -89
   65
   36
  121
   60
 -113
   24
   94
  -23
  108
   41
   20
   86
 -108
  -84
  -78
   -1
  -50
  -30
   30
  -91
  -56
  -54
  -18
  105
   23
   31
   25
 -124
  -69
 -123
 -105
   50
   15
   16
 -126
   36
   32
   21
   66
  -94
  -11
 -113
   65
   65
  -55
   20
   41
  -95
   70
 -125
   80
   24
  123
  -73
  -15
   -9
  -30
  -28
  -61
  -13
  -22
   26
   -8
 -118
  -88
   -6
   66
 -122
   75
  -60
  -14
  -79
  -94
    7
   87
   88
 -114
   -7
  106
  -56
   77
 -105
  -43
  -65
  -57
    1
  -27
 -100
  104
  -22
  110
  -33
  -39
   29
  -63
  -20
  -40
   -4
   13
  -48
  125
   14
   30
 -122
  105
   31
  -19
 -105
  -55
  -65
  -78
  -93
   37
  -82
  -91
   -5
 -112
   66
   -7
   49
  -53
  -98
   56
   62
  -46
   91
  -16
   96
   72
   26
  -28
   38
  123
  -18
   96
 -102
   32
  -50
   -2
   62
   61
  -48
   57
  -24
    8
  -83
   50
  -42
   81
  -44
  -37
  -25
  124
  -76
 -102
   50
 -117
   21
  -75
    7
   65
  -28
   57
  -58
  -91
  -78
  -55
  -98
 -112
   56
  126
  -58
  106
 -115
   69
   69
   32
   38
   60
  -72
  -81
  -16
 -104
   68
  -15
  -95
  -55
   19
  118
   47
    3
   60
   22
 -124
  -25
    3
 -119
   -3
  110
  -70
   62
   16
 -100
   41
   45
  -69
   22
  121
  -72
   61
  113
 -116
  -30
   62
  112
  -85
  -38
   22
  -49
   94
   14
  123
  -68
   90
  -22
  -36
   18
  -35
   41
  -46
  -93
   98
 -100
   74
   23
  106
   84
 -127
   41
  -75
   97
  -50
 -103
 -105
  -36
  -97
    6
   25
   21
  -66
   36
 -124
  100
   15
  -23
   51
   -9
  -13
   97
  122
   23
   31
   48
 -127
 -118
   70
  107
   38
   33
   19
   31
 -107
  -81
  -37
  -97
   93
  -23
   84
  -33
   93
  -55
  -34
   97
  -19
 -110
  112
  -80
  123
  -87
   93
   36
  -49
 -121
  114
   18
  -62
  -85
  -15
  -82
 -109
  -31
  -13
  -41
  -20
  -86
  -88
  105
  -72
  103
  104
   -6
  -23
  122
   56
  -67
  -76
   49
 -104
   98
  -32
   39
  -11
  -32
   11
   27
  -87
   80
  -58
  -68
   67
   -4
 -113
  -85
  126
   74
   -2
   61
  -91
 -117
  -89
   65
  -58
  -87
  -58
 -101
 -101
    5
  -75
  -98
   69
   98
  -94
   63
  -12
   59
   64
   63
   69
   64
   59
  -28
  127
 -119
   71
  102
  -66
 -120
  114
  -13
 -101
  -42
   67
  -30
   23
    1
   74
   50
   62
  117
   20
  118
  127
  -59
   20
 -104
 -101
   65
  -84
  -80
  -82
   18
   12
  -16
  109
  -54
   -2
  -45
  -11
 -124
   81
  114
  -71
   -9
 -112
   75
   -4
  101
   77
  -91
  -43
 -109
 -107
   90
  -47
  -79
   37
   53
  -17
   96
  101
  -89
  -43
    3
  100
 -127
  114
  -47
  -39
   16
  -40
    5
  -42
  -85
  -13
  -64
   75
  117
   -6
  -83
   50
  -48
  -41
  -82
  117
  -69
   63
   96
 -102
 -116
  107
  107
  101
 -103
  100
  -77
   39
  -72
 -106
  -10
 -111
  -83
  -89
  -82
   80
   63
  113
   46
 -104
 -101
   68
 -127
   85
  -41
   95
 -124
  -65
   72
  -74
   51
 -105
   83
  -17
  -49
   86
  -11
 -107
 -100
  123
   29
  -56
 -113
  -27
  -83
  -28
  -27
  -80
  -36
  -51
 -102
   15
  -82
  -93
  -76
 -125
   90
   28
 -119
 -107
   83
   50
 -104
  -88
   79
   71
  -77
   59
   86
  114
  -70
   28
 -118
    8
   -4
   -4
 -126
 -110
   17
  119
   68
  121
  -67
  -39
   91
 -110
   14
   44
   -1
   39
  -75
  -80
   92
 -122
  -69
   71
  -13
    6
   66
   38
   64
   43
  -21
  -98
  -47
  -95
   52
   47
 -117
   95
   38
  121
  -73
  -70
   31
  -26
   10
  -29
  -61
   46
   57
  -57
 -122
   47
  -18
  -40
 -101
  -69
 -101
    6
 -126
  -74
  -39
 -119
  117
   47
   33
    8
  -21
   44
  -55
 -113
  -94
   40
  -39
   65
  -52
  -74
  -52
   10
   -4
 -113
   -4
  -36
  -96
   58
  -81
   15
  -73
   80
  100
   19
  -16
   36
  -35
  110
  -65
  116
  -15
    3
   65
  -79
   98
  -24
 -112
   24
  -51
   28
   52
  109
 -113
   43
  -10
  118
 -105
   78
  -72
  -63
  -96
  -26
   78
 -121
   78
  -27
  119
  114
  122
  -78
   56
  -60
   17
  -83
  -12
    0
  -23
   85
   22
  -12
  -63
  -18
 -116
  -74
  -67
 -119
  -57
   -7
  -85
  120
  -47
  -16
   57
   41
  -58
    3
  122
  -80
  -92
  102
  -75
 -109
   73
   96
   10
   12
   52
   93
   94
  -65
  -70
  -97
  -87
  103
  -76
   43
   84
  -53
   98
   31
   -5
   32
   -1
   71
  119
   80
  -16
  -54
   75
 -117
  -82
  -29
   84
   61
   33
  -92
  109
    5
   37
  115
   82
  -57
  -90
   85
   18
  -21
   95
 -124
   83
  -75
  -90
  -22
   87
   81
  126
   44
 -104
  -86
   99
 -107
 -101
  -10
  -61
  -76
  -65
   47
   38
  -29
  123
  -76
   36
   -8
  -15
  -45
   48
  -63
  -95
  -85
 -123
  -95
  -72
   36
  -16
  -61
   92
 -110
    8
  101
   14
   95
   -6
   56
   12
  -65
   73
   -4
    3
  111
  -31
  -88
  -41
 -120
   52
   59
 -105
 -125
   52
    0
  -66
    6
  -21
  -55
   37
 -116
  -39
  122
 -106
  -33
   94
   -5
 -104
  123
  -39
  -26
   32
    5
  -27
  120
  -61
  -80
  -97
   33
  118
   14
  -49
  101
  -47
   -4
 -105
   90
   24
   56
  -64
   13
  -38
  115
 -101
  -97
    2
  -33
 -102
  -70
   20
    0
  -54
    8
   86
  -38
   40
   64
  -39
  125
   26
 -126
  125
   45
   45
 -122
   82
  -50
  -89
  -56
  -43
  -50
    5
   74
  -41
   23
   17
  -71
   71
  -24
  -83
  -50
   78
  106
   92
  109
   77
  -22
  -49
  -40
   -2
   88
 -101
   16
  -63
  -96
 -101
   50
   96
  123
  112
    0
   19
    2
  114
 -118
  -82
   39
  -79
 -105
  -14
  -50
   -6
  -38
  -33
   99
  -28
  -79
  -93
  -10
  -30
   84
  -51
   88
  114
 -126
   34
  106
 -126
  -95
   57
   78
   83
  -44
  -45
  -88
  -55
  -23
  113
    9
  -44
  116
   82
  116
  -22
  -94
   -2
  -38
 -114
   67
   -2
  -85
  -43
   77
  -85
   21
 -118
  -27
  -38
 -106
 -103
    4
  -49
   34
  -83
  -31
   83
    6
  -63
  -72
   95
  -93
 -123
   50
   10
  -76
 -121
  103
  112
  124
 -101
   16
  -15
   10
   65
  -25
  -49
   12
  -22
    7
  -53
   -3
   96
  -67
   55
  -48
   53
 -112
  117
   -6
  -70
   -1
  -25
   66
   22
  -19
  117
 -117
  -73
  -14
   51
  -15
   10
   -7
   84
   98
 -120
  -54
 -108
  125
  -40
  -88
   53
  -56
   24
  -66
  111
  -89
   -1
   67
  115
  -66
   48
 -123
  106
  103
  -44
   95
   22
   42
   47
   48
   -3
  -60
  -76
   -4
  125
  -12
  108
  -10
  -45
   84
   24
  -98
 -106
  -24
  -63
   64
  124
  -59
  -23
  -71
   74
    8
  -48
   41
 -100
  -77
  -90
  -61
   84
  -97
  -63
   63
  127
  -90
   41
  -95
  -66
  112
  -92
 -104
 -103
   76
  -92
 -101
   -6
 -107
   24
  -90
  104
  -38
  -52
  -12
   47
 -118
   44
   59
  -98
  -21
   46
  -13
  -37
   23
  -13
   52
 -127
    8
   10
   62
   99
  -63
   68
  -95
 -118
  -24
  -83
   80
   -2
  -24
  108
   72
   40
  101
   36
  -23
  -56
 -125
  -74
  -11
   75
 -100
   45
  -85
   -8
 -114
   35
  -67
  -73
    8
 -113
   -8
 -117
   97
  115
 -117
   94
   33
   71
   -8
  120
   61
   37
  119
   14
   47
  117
  -46
   68
   35
 -122
 -104
   71
 -120
  -98
 -110
  -32
  -96
 -117
   23
  123
  109
  -61
  -69
  111
  105
  127
   42
   14
   89
   58
  -66
   57
  -66
  -77
   -9
  -10
  -10
  -10
   44
  -69
   -1
   95
  -15
   15
 -121
   17
  -46
   -5
  117
 -106
  112
   72
  -25
 -115
  -83
  106
   34
  -32
  -46
 -125
   80
    2
   41
  123
  107
  -75
  -42
  -44
   65
  -77
  -49
  -90
   38
  -72
  -66
  -86
  122
   54
  -28
 -107
  -93
   57
 -113
   25
  119
   91
    0
  -81
  -11
 -116
   13
  107
   15
    0
   53
  112
  -95
  119
   -2
  -78
   24
   70
   13
  -84
   76
 -108
   95
    9
 -111
  -73
   41
  -71
   38
  -98
  -99
   95
  -46
  123
  121
  -25
  118
  -99
  -46
  127
   41
  -23
  -74
  116
    6
  112
  -14
 -106
  -68
   66
  -18
   26
   11
   56
   10
   66
  117
   17
  -27
 -101
   56
  -89
  -61
   51
   21
   94
  -39
   71
  -82
    7
  -36
  -62
   53
   68
   24
  -12
  120
   83
  -77
  -32
  -17
  105
  118
   12
  -41
   98
   51
  123
  115
   81
   -5
   22
  -70
  -13
   13
   33
    8
   11
    9
  -61
  -85
   59
   38
   73
  -78
  -27
  -69
  121
  122
  126
   36
   73
 -119
  -46
 -105
   26
  -22
   46
  -38
 -127
  127
  113
   21
  -32
  -28
   16
  122
   34
   72
  112
  -93
   40
   64
   70
 -106
  -44
   10
   18
   96
 -118
 -124
  -78
  -35
  -90
  -86
 -112
  -36
  124
   59
   59
   76
   81
   37
 -101
    7
  -57
   55
  -69
  -93
  -62
  -71
   10
   36
   16
  118
   67
 -112
   28
  -80
   -1
  -64
  -17
    2
 -114
  -82
  -15
  -36
   55
   83
   86
   68
   90
   83
   91
  -74
   91
 -120
 -116
   10
   -3
  -36
  -47
  -28
  -68
   37
  -88
  -40
   90
  105
  126
  -43
 -112
 -115
  -39
  -81
  102
   20
  -69
 -125
   37
   57
  -48
   21
  127
 -115
  -56
  -34
  -36
  -29
   50
   59
  -25
   46
  124
  -53
  116
  -10
  -13
  -66
   72
   87
  -11
  -20
   36
   55
   80
 -119
    1
   97
  -11
  122
   57
   51
  -33
   69
 -103
  -91
 -104
   26
  -64
   62
  -42
   66
   84
   64
  -45
   78
  -18
    3
  -91
  108
  -10
  -60
   75
 -112
  -88
   35
   12
   95
  -75
  -94
   56
  -55
   49
  -78
   27
   34
    5
  -49
  -41
 -111
   43
   49
  -27
    3
   -4
 -121
  -47
  -37
  110
  -58
  -55
  -37
  -75
   89
   94
   14
   87
   11
   -4
   35
   74
   77
  -18
   48
  -51
 -127
 -125
  111
  -98
  -63
   95
  -22
   67
  -57
  -87
  -55
  -64
 -101
  -50
  -28
   53
  -60
  121
   -9
  -28
  -34
  -96
  -26
   86
  114
   21
   52
  -65
  114
  -58
   -3
    3
  -52
   -7
 -125
  -14
  -93
  121
  -19
  -27
   18
 -106
  -61
 -124
   47
   51
  -48
   38
   19
  101
 -122
  -16
  119
   64
    5
  -17
  108
  -47
  -43
  -23
 -126
  -71
  -80
  -77
  -56
   57
  -48
  -74
  -78
   31
  -36
   56
  -24
  110
  123
  -94
  -15
   57
  -18
  -94
   61
   91
   91
   25
   84
  -39
   49
 -103
  -42
   67
  -58
   34
  126
   18
 -122
   53
  -80
  -98
 -118
   23
  117
  -97
  -60
   -3
  -65
  -74
   -2
 -115
   63
    5
  -24
   21
   93
 -120
   75
  -60
   15
   73
  -88
   80
   47
   -4
 -118
   96
    3
  -67
 -119
  115
 -100
  -69
  -30
   91
  -87
    6
   60
   89
  -47
   13
  -87
  -44
   29
  109
   32
  127
 -104
 -118
 -122
  -68
  -73
  -37
    4
  109
  -82
   97
   43
  106
   18
  118
  -32
    5
  -79
   59
  -20
    1
   -5
   67
   14
  -29
   67
  -77
  -65
   59
  -40
   -7
  -22
    9
  111
  119
   38
   73
 -115
   45
  -75
  -29
   90
  -55
    7
  -31
  115
  -37
  -71
  -57
   53
  -13
   59
 -106
   87
  -55
 -126
   66
  -44
 -127
  -86
   98
   42
  -72
   26
   61
  116
  -40
   76
  -78
   22
  101
  109
   28
   29
   80
  114
   74
   98
  -39
  103
   47
   90
   41
   37
  -21
   34
 -102
  -89
  -23
  -73
   56
  -73
 -119
  -43
  -52
  -76
  -68
   -2
   42
  -64
  -92
   11
 -102
  -65
 -109
   29
 -107
    6
   -1
  -90
  -49
  -82
  112
   85
   36
   46
   35
 -104
  -93
  -46
  -70
   94
  -72
  -68
   17
   45
 -123
  116
   81
  -90
  -83
  -16
 -108
  102
  -70
   45
   84
   70
   83
   44
   29
   44
  -46
  -16
  -41
 -102
  -97
   17
    0
  -24
 -111
 -108
  -94
   83
 -109
  -77
  -13
  125
   43
  -12
 -111
   33
  -80
 -112
   69
  -74
   45
   70
   66
  105
  102
   22
  -13
   87
  110
  105
  -28
   86
  -25
 -123
  -21
   19
  -79
   65
  -22
   -3
   31
   78
  -88
  127
  -28
   11
   20
  -24
  -59
   32
   55
  -47
  -92
  -51
  -31
   52
 -102
  -25
   54
   50
 -120
 -109
   23
  -58
  -99
  -84
   33
  -60
  -80
  -28
   64
  109
  111
  -10
  -46
  -99
 -115
   97
   11
   25
  116
  -35
 -102
   76
  -71
 -115
   75
   53
   22
  -21
   60
   71
  -82
    6
  -84
 -125
  112
  -89
  121
    0
  113
   72
   44
  -47
  -38
  -42
  -24
  -85
  -82
  -34
   -5
   31
   94
  -77
   89
   41
   34
  -20
  117
    4
   73
  -87
   98
   81
  -29
   86
   91
  -70
   32
  123
  -26
   43
   71
   18
   -9
   90
  -37
  -15
  -11
    6
   26
   78
 -121
  -24
  -47
   23
  -47
  -53
  -39
   46
   34
  -94
   56
   17
  124
   78
   81
  -20
  108
  -60
  113
  117
  -52
  118
  102
  -75
   66
  -19
  -54
 -126
    6
   95
  -71
  -27
   31
 -113
  -79
  -85
  -12
 -101
   33
  113
   97
  -22
  124
  -77
  -94
   21
 -111
  116
    8
    0
  -14
  105
  -97
   21
  -52
   68
 -127
  122
   -8
 -105
   65
   13
   98
  -59
  107
  -59
  122
 -106
 -103
   40
   95
  -68
   15
  126
  -65
  -56
  -55
 -116
   72
 -100
   86
   70
   38
   69
  -99
  -63
  -60
   10
  -31
 -105
   51
  -32
   28
  -44
   11
   69
  -22
  -58
  -73
   -9
   30
    3
  -56
  -34
   82
  116
 -102
  -18
  106
   91
   68
 -115
  106
  -48
  -80
   40
   77
   54
   93
  -81
 -115
   58
   71
  -59
   23
  -81
   41
  -18
  121
  -20
  -70
   79
   29
 -124
   65
  -65
   22
  -25
  -88
   51
   83
 -100
  -67
   40
   53
  -53
  -59
  -44
   -7
  -59
   22
  101
  100
  -52
  -69
  100
   13
  -32
  -33
  103
  -78
  -56
   38
    5
   94
   -1
   34
  -15
   83
  -39
  -18
 -105
   27
  -50
   -7
  -40
   41
 -118
   96
   23
   86
   48
  -75
 -115
  -22
  -39
 -127
  -87
   66
  -57
   50
  -81
  -21
  100
  -39
  124
   -6
   -9
   86
   57
  109
    9
   69
   70
   65
   29
   86
  -57
   -8
  -40
    3
  103
   11
  -29
  121
 -126
  -66
  -87
    4
   74
  -42
  -54
  -66
  117
  101
  118
   64
   -9
 -127
  -47
  -89
  124
   99
   90
   88
  -52
  104
  -51
   64
   19
   46
  -71
  -29
   99
 -110
  -47
 -107
    6
  -24
  -62
 -125
   -9
  -90
  -70
 -118
  113
  -42
   92
 -127
  -60
 -118
   73
   10
  -34
 -116
    2
  102
   19
 -127
 -118
  -52
  104
  -80
  -29
   -9
   50
  -65
   86
  -25
   20
  -88
  -20
   18
    1
   89
   69
  106
    4
    0
  -35
   45
  -55
  -33
   -2
   33
   -3
    2
   54
    4
  108
  -92
  102
  103
   32
  101
   55
  120
  -31
   75
  -36
   79
   73
 -121
  -69
  120
   42
  -69
  -95
   60
   39
  -41
  -76
   10
   13
  -45
 -113
   34
   49
  -84
    9
  122
  -46
 -103
  -66
  -20
  -64
  -67
   76
   84
   25
  -89
    2
  -82
    2
   61
  -45
   84
   39
   45
  122
 -118
  -43
  -93
  -40
 -117
  -63
   22
   29
  112
   20
  -54
 -127
   61
  -92
   93
 -104
   16
 -119
   56
  -51
  120
   87
 -107
   22
  -32
  -74
   -9
  -53
   23
   -4
  102
  -61
   47
  115
  -49
  -48
   45
  113
  -97
   97
   52
  110
  -22
  -97
  -89
    4
   47
  -35
   92
  -38
  -90
  107
  120
  -87
  124
 -101
   39
    8
 -125
   97
  -95
  -43
  -48
  -94
  108
  -46
   68
 -111
  -97
  -81
  114
  -78
   24
   85
   22
  -32
  109
   93
   74
  -10
  114
    0
 -122
  -51
  109
  -67
  -61
   26
  -42
   -7
    8
  -91
   69
   48
   96
   82
  -18
  -92
   33
  102
   69
  101
  121
  -69
  121
  -89
  106
  -50
   99
 -105
   83
  -48
   33
   -8
  102
   91
 -118
   70
   -7
  -87
   59
 -115
  118
   24
   24
 -111
  -25
   73
   90
  -39
   74
  101
   93
   49
  -29
  -68
   67
  -63
 -127
  -46
   99
  109
  -10
   27
  -44
   32
   21
 -124
 -123
   18
  -78
  -18
   84
   87
   -6
  -55
   -8
 -117
 -123
  -23
   79
  -55
  -12
  -56
  123
  -50
   80
 -107
  101
  -64
  -63
   47
   18
  -73
  107
  -88
  -39
   86
  -44
   -5
   32
  -32
   63
  104
  123
   93
  103
 -111
   83
  -77
  107
  -14
   19
  -86
  -30
   46
  106
  -84
  104
   32
  -23
  -88
  112
   57
   57
   87
   51
 -111
  -64
 -119
 -106
   77
 -112
   35
   64
   59
 -110
  108
 -116
   -4
  101
   29
  -37
  -16
   89
 -107
  -87
  100
   42
  -67
   76
   60
    8
 -104
 -105
    2
  -99
   90
   59
  116
   10
  100
   95
   16
  -14
  -29
  121
   -1
   -3
   89
   33
  124
  -92
 -126
   36
  -78
  -28
  108
  -54
   69
  -32
  -98
  -83
  -54
  -55
  112
    2
  123
  -68
  111
  -57
   55
   46
  -91
   36
  -81
  -34
  -60
  -65
  127
  107
   68
   38
  125
 -103
  -86
   71
  -34
 -109
  -26
 -117
   90
  -50
   24
  -54
  -49
   16
  -71
   43
   27
   75
 -115
  -97
   25
   17
  -36
   68
   22
  -73
  126
  -45
   31
   60
   35
   39
   23
  -45
 -114
   95
   45
  115
  -94
  -87
  -35
  126
  -78
  -20
   70
  -18
   44
  122
  -99
   90
 -118
  -42
   49
 -104
   98
   -7
   57
   46
 -120
 -126
  -49
  114
  112
   36
   14
   42
  106
 -111
  -26
  -86
   29
  103
   48
  -13
  -46
  -37
  -78
  -81
  -74
  -28
  117
  -68
   -1
  -88
  -21
   91
 -126
 -103
  110
  -53
  121
   -8
  107
   97
  -20
   67
  -20
  -77
   99
  -37
  104
   -3
 -121
  -34
   41
  -30
  -78
    3
   93
  -13
  -30
   41
   -4
   16
 -111
  113
    5
   68
  -89
   61
  -68
   -4
  -82
   70
  -63
  -25
  -74
  -64
 -121
 -117
 -102
  -24
 -101
   -4
  -34
  -64
  -65
   87
 -124
  125
 -102
  123
   16
  112
  -89
    6
   20
 -125
   36
  102
   16
   10
   98
   60
 -100
  109
 -103
  109
   -7
  -70
  124
  -77
  -69
   52
   13
    6
   42
  -59
   -4
  -10
  -69
   38
  -45
   52
  -20
  116
  -22
   67
   32
  101
   88
  -62
   14
  127
   70
 -105
   12
  107
  -21
 -124
  108
   -7
  116
  -88
 -103
  -74
  -23
 -108
  -97
  -82
  123
   31
  -41
   88
   95
   90
  -58
   25
   -2
   63
  -71
   84
   -6
   87
 -125
  -97
   -8
 -112
   11
  -54
   11
   75
   -3
  -45
  -34
    8
  -20
 -103
  -40
 -105
   86
   36
   -1
  126
   98
  -84
 -108
   34
  -70
  107
   15
   88
    0
   75
  -87
   39
 -110
   39
    3
  -43
  -14
  -22
 -103
  -42
 -103
 -112
   99
 -126
   31
    2
   30
  101
   87
  -93
  -13
  -40
  127
  123
  -20
   91
  111
  -12
  -91
   67
   63
   85
   60
  -77
   57
   16
  -30
  106
  -69
  110
   22
    1
  -25
   43
  -65
  -39
   29
   70
  -17
  -32
  -70
  -58
   20
   85
   -9
  -39
   62
    6
   -6
   -3
  -77
   72
  -85
   75
    1
   43
  -18
 -102
  -31
 -103
  105
  116
  -85
  -35
   21
  -69
   78
  -29
  102
  -91
   36
   11
   63
   86
  115
  -65
   60
  -61
  -82
  -12
   60
   97
 -108
   19
  -46
   75
  -33
 -120
  118
  104
  113
   73
   74
  -26
  -70
  -92
  -49
   67
 -114
  -96
  -70
 -119
  -14
   12
  -65
   -7
   12
   65
   56
   35
  -14
   12
  -74
 -110
  -94
  -41
  -12
  -47
 -102
   64
  -38
  120
  112
   96
  -82
  -55
    6
  118
   68
    7
   40
  -30
   17
   97
    0
   -9
   -9
   73
   -9
  -22
   87
  -29
   97
   62
   64
    7
   -3
  -91
  119
   99
    9
  108
   60
  -20
 -123
  -39
  -83
  -39
   48
  -41
  -82
   17
   68
    9
 -112
  115
 -112
   -5
   68
  -73
  -16
  109
 -117
  -26
  -59
   70
  121
   99
 -100
   13
   41
  -85
  -19
  -71
   37
 -101
   61
  -99
 -101
  104
    5
   17
   -6
   61
  -13
   91
  -34
 -114
  111
    2
  111
  -39
   44
 -125
   45
  103
  -64
  -32
  -42
 -112
  -90
  -56
  -94
  104
  -96
   65
 -110
 -108
  -54
  -70
  -27
   10
   -2
  -60
  112
  -19
  -29
   60
  -36
  -33
   14
  114
   41
   35
   44
   -8
    0
  -48
  -95
  -31
  -10
  113
  -96
  -88
 -100
   80
   11
  -23
  -40
   63
  -67
 -119
  -95
   81
  -93
   54
   40
  -41
   69
   57
 -107
   76
 -114
  -22
   85
  121
   42
   -4
   62
  -49
   63
  -51
  -38
  -57
  -64
   71
  -69
   37
   98
   67
   95
  -21
  -60
 -120
   99
  101
   86
  -11
  111
 -123
 -112
    0
  101
  -88
  -69
  117
  -58
   35
   35
   -4
   28
  113
   40
 -106
   -8
  -57
   19
  -28
   28
  -70
  123
  -57
  103
  119
   15
  108
  -93
  -83
   72
 -118
 -119
 -110
   24
   60
   13
   -9
  -40
    0
  -55
   19
  -88
   79
  105
 -106
   -7
   56
  112
  -86
  -92
  -22
 -124
  -44
  -41
  102
  -57
  -45
   22
  -10
    4
  -36
 -121
  104
 -100
  -74
  -33
   49
   -9
  -68
  -82
  -46
  -60
   27
   98
  -92
    9
  120
 -122
   49
   19
  -94
  111
  -80
   66
   75
 -101
   67
  -11
  -99
  -92
  -26
 -124
 -111
  127
  -50
  -26
  -51
  -93
  -12
  125
   19
   81
  -56
  -94
   12
 -113
 -119
  -55
   31
   46
   33
   96
  -65
  -76
  -10
   63
  -85
   50
   13
  -64
  -53
   82
  -27
  -48
    4
   23
  -78
   52
  112
   96
   91
  -79
  -72
 -104
  -26
   67
   83
  111
   -3
 -104
  -55
 -121
 -114
  -34
 -124
  -98
   11
   57
   33
  -74
    3
  115
   85
   -8
   45
  -17
   -7
  102
   47
    2
 -119
  -40
  -31
  -55
  -23
  -74
  -96
  -32
  104
   73
  -25
  -63
 -120
   95
   36
  112
   69
   50
 -103
   62
 -102
  -51
 -110
  -45
   80
   71
   59
   37
  103
  -94
  -29
   54
  -28
   54
  -91
  118
  117
   35
  -42
  -54
   41
  110
  -39
  -20
   11
   48
  -53
  -41
  -58
   71
  -56
   73
   67
 -105
  -90
  -58
   87
  -70
 -117
   61
  -71
   95
  127
  -19
  -65
 -110
  -17
  -45
  -47
   24
   37
 -119
   48
  -23
   31
  -54
  -36
   35
    0
   16
   59
  -38
   46
  121
  -48
 -117
  -19
  -42
   -5
   89
  -81
  -62
 -124
   38
   45
  -46
  109
  -23
  -61
   22
  -81
   83
   45
  -29
  -13
 -120
  -12
   90
  -48
  104
  -30
  -22
   43
  -54
  111
  -40
 -125
 -112
  -94
   40
  -80
  118
 -106
  -67
  -99
  122
  -56
   96
   70
 -107
    4
   25
    3
  107
 -120
  -97
  -90
   39
   31
 -102
   13
  -48
  -64
   96
  -73
 -110
   41
   69
  -40
  -48
  -18
  116
  109
  -96
  -42
  -16
   52
 -111
 -117
 -107
  -82
   74
 -107
  -34
  -54
  -55
  -60
  110
   51
  -54
  -97
  -63
   42
   10
   72
  -37
  -67
   35
  -20
   99
    2
   10
  -85
   80
  104
   89
   78
  -96
  -25
   63
   71
 -116
   94
  -91
  -37
   82
  -85
   79
   35
  -92
   16
   24
  120
  -17
   39
  -71
   27
  -84
  117
  120
  -78
  -93
   -1
  -12
 -115
  -22
  113
  -43
   16
  101
    1
  -27
   19
  -97
 -115
   -4
   30
   92
   25
    7
   59
 -110
 -122
  -82
   -4
 -100
   40
   99
  -79
 -104
  -17
  -72
   53
  -52
   58
  -62
  104
  -92
   48
 -107
  125
   10
 -113
   65
 -119
  111
  104
  -37
  -53
  106
 -106
   81
  -22
  -65
 -107
 -102
 -103
  -29
 -118
  -71
   91
  123
  -19
  122
   27
   46
   97
  -97
  -64
   91
  -43
   59
   88
  -54
  -61
  -32
   86
 -125
    3
   66
  -30
  -59
  103
  116
   80
  -20
    5
   99
  -83
   55
  -34
   69
   34
   84
   76
  -13
    5
 -110
 -109
  -17
  -95
   45
 -106
   50
  -67
   32
   26
  -31
  113
 -127
   58
   10
  -72
  -79
   -3
   52
 -109
  122
  -16
   34
  -39
 -125
   95
 -124
  -78
   15
  -50
  -59
  -42
   86
  -36
 -119
  -91
  -50
  -33
  -75
  111
  118
   97
   42
 -122
  -57
 -117
  127
   60
  -22
  -22
   89
  -74
  -73
   98
  -82
  -56
  -33
  -86
  -86
   13
 -127
  -85
   15
   52
   -7
 -105
  -35
   32
   95
   17
    4
  -25
   36
   71
  -87
    8
  -59
   68
   96
   15
  -54
  -30
  -10
  -87
   30
  -21
   78
   26
   38
  107
   55
   58
  -62
  -89
 -127
   22
   12
  -33
  116
   31
   51
   -8
  127
   -7
  125
  113
  -93
  -45
   70
 -126
  112
  -10
   -8
  -22
 -124
  -74
   21
   14
  -28
   97
   19
  110
   24
   10
  -46
  126
   97
   -1
    0
   27
   70
  100
   67
   49
  109
  -69
  -14
   24
   63
   56
   40
   22
  111
   35
  -70
  -84
  -28
  -10
   88
    8
 -109
  -37
  109
  -22
  -33
   89
   76
  -38
   70
 -115
   23
  -87
  112
  -74
  -23
   15
  -22
  -59
   68
  -75
   29
  112
  -23
 -121
    1
 -122
  -61
  -85
   84
  -19
  -77
   79
   33
  -68
 -123
  -41
  -33
   78
    7
  -81
   36
  -85
  -74
  -25
 -127
   22
  -86
    3
    8
   69
  -27
 -100
   51
   -6
  113
  -89
 -123
   77
 -101
   -1
 -118
   -1
   90
 -106
  -36
  -19
 -126
   35
  -42
  -56
  -51
  -72
  -19
 -101
    8
   13
    4
    9
   19
   14
  118
   67
   39
  -35
  -61
  117
   61
  -87
  -67
    6
  -87
   91
   56
   25
  -31
    7
  -54
   94
    3
  -96
  -93
   70
  118
   41
  -21
  -66
   89
  -55
   43
   88
   21
 -110
    1
    3
  -90
   63
  108
  -89
  -36
  -55
   14
  -24
  107
  -23
  -43
   54
  -43
   11
  -70
   48
 -101
  -35
 -119
  113
  -15
  -81
   94
   21
 -114
   99
 -112
  104
    8
  -21
  -27
  107
   75
   76
  -63
   55
  -31
   32
  -42
    4
   90
   10
  106
   95
  -11
  -19
  -16
  -62
 -124
  109
   62
    1
 -121
   66
  -49
 -111
  -87
  107
  -28
  -79
   63
  -12
  106
  -76
   92
   70
 -109
  -69
 -120
  124
   48
  -88
   49
   45
  120
   77
 -109
  122
   20
   -7
  -75
   87
   27
  -43
   52
   32
  -66
   25
  102
   59
   34
  -75
 -103
   19
  -47
   98
   -5
  -41
  -27
   39
  -61
  118
   74
 -102
   14
  -22
  -60
  -10
  -76
   50
 -122
  -83
   35
   39
   60
   44
 -117
  126
  -51
   78
  -81
   -7
    3
  109
   14
    5
  -29
  -79
  -16
  -64
  -13
  109
  -37
  126
   71
   97
   25
 -102
  109
  -55
  -50
  -16
  100
   20
  -50
 -121
   92
  110
   20
  -40
  -66
  -86
   39
  -73
  -31
   54
   18
   28
  -33
 -104
  111
   86
  108
  -40
  -39
  -51
   50
   66
  -99
   73
  -58
    5
  -55
  -93
   31
   -8
    8
  -14
   79
   41
  127
  -19
  -48
  -81
   49
  -51
  -14
  -26
   99
  -35
  -80
  107
 -126
    1
   92
  -60
   -3
   13
  -94
  -61
  -41
   29
   81
  -17
 -123
  -80
   45
   49
  -90
   11
 -105
   -1
  -30
   51
   60
  -36
  122
  -76
  -70
   76
  -35
  -85
   -5
   -7
  -87
  -46
 -115
  -61
   40
  -21
  -59
    2
  -58
   72
  -89
  -16
   30
   66
  -12
   -2
  -16
   -5
  -19
  -58
  -35
   19
   47
   92
  -42
 -106
   72
   10
   18
   34
  -66
   20
   66
    7
 -117
  -60
  -44
   27
  -99
  -40
   36
  -88
  -68
   95
  -32
  -68
   83
   92
 -114
   -1
   54
   18
   89
  -97
   77
  -32
  125
   96
   92
  123
 -104
  -18
    5
   22
  -56
  -59
   68
   83
   88
  -99
   56
   74
  -13
  -99
   74
  117
   70
 -102
 -110
  -63
 -127
   27
   38
   13
  -67
  -78
   77
  -84
   94
   17
  -73
   86
  108
  -54
   -1
  -18
    7
  122
  101
  117
  -70
  -96
   43
   85
  -74
   44
   87
  117
   70
  -96
   21
  -42
   93
   87
  -48
   82
   15
   48
   30
  104
  -75
 -110
  106
  -99
   70
   -8
  -61
   39
  -20
  -47
  -99
  -93
  -91
   49
   33
  118
   26
   69
  -27
   62
  118
  -33
 -127
 -105
  -99
 -125
  -76
  108
  -75
    0
   -5
  126
  108
  -26
  -18
  -98
  108
   30
  -45
   14
  -68
  -87
 -109
  113
   33
  -32
   70
 -110
  112
  102
   -6
 -105
   58
 -112
  -96
  -88
  -13
 -101
   83
   95
   47
   74
  -83
   15
  -88
   44
  127
 -122
  -45
  -14
   41
   88
  -56
   27
  -47
  -88
   79
  -70
 -102
   79
 -122
   61
  -13
   68
   87
   41
   21
   24
  -45
  -70
  -38
  -37
 -102
  -28
  -96
   93
 -127
  -84
  -53
   -4
 -113
  -94
    2
  -49
   47
 -105
   28
   76
   -8
   79
  -71
   57
  -35
    7
   23
  -56
  113
  -20
  -70
  -73
  -34
   62
  115
    7
  -73
  -40
  -55
 -125
  -27
  105
  -80
    6
  -40
  -68
   59
  -32
  111
   80
 -125
   91
   13
 -107
   56
   29
  111
   51
 -112
 -126
  -86
   40
  108
  -32
  100
  119
  -68
   40
   27
   69
  -16
  -95
 -122
  -77
  -52
   54
    5
   -1
  106
   31
   36
   22
  118
   26
   70
  -50
   88
 -122
   91
   92
   -4
   52
   70
 -110
  -82
   -3
   91
  120
  109
   74
  -28
  -83
  -48
  -93
    8
  -37
  120
   78
   35
 -124
  -24
   64
   -4
   63
   69
   47
  -92
   59
   14
    5
   71
  -65
   26
  -89
   17
   14
  -90
   27
   57
  115
   81
  -18
  -27
  -41
   18
  -96
   83
  122
   55
   54
  -68
   52
 -114
   37
  -84
  -34
   38
   60
 -118
  113
  -86
 -122
   28
    0
  -44
   97
  120
 -107
 -123
  108
  -59
  -42
   33
   66
   28
   79
  125
  -95
  -72
   31
  -58
  -23
   24
  -81
   95
  123
  119
 -126
   99
   76
   62
   15
    6
  -38
  -33
  -26
   84
   79
   33
  125
  -81
   19
   58
 -111
  102
  -45
   15
  108
  -31
  118
  -67
  -16
  -51
  118
  -42
   -5
  -11
   57
   88
   -3
  -69
   -7
    6
  -98
  -72
   44
   92
 -109
   -5
   67
  -12
   -2
   57
   42
  -65
   98
   86
  119
  -82
 -111
   19
  -17
 -111
   40
   53
   28
   25
   55
  -45
  -45
  -70
  107
   88
   -2
  -61
   58
   82
  125
   25
   66
  -88
   48
   85
   68
 -119
  -69
  -28
   76
  -78
    4
  -33
  -25
  -47
   26
  114
  -21
  -43
   65
   13
  -56
   22
   98
  -42
  -57
 -110
   46
 -100
   87
   18
   47
    1
 -112
   89
    7
  -55
   54
 -106
  -63
  -87
  104
 -127
   52
  -30
  -17
 -117
   48
   78
    2
  -81
   90
   95
   43
 -104
  -46
   57
   36
  -38
    0
   60
    5
   79
   26
 -123
  -64
 -105
  -63
   66
  -15
   12
   78
   10
  122
  -75
  108
 -101
  -94
   31
   -3
  118
   60
  -69
   38
  -86
 -120
   94
  -86
   74
 -106
  -66
  -82
   92
  -29
   19
   46
  -42
  107
   60
  -35
  -85
    6
  -74
  -13
   42
  119
 -124
   86
   45
   76
   -6
   74
   39
   12
    4
  -98
    1
  -50
  -14
  107
  114
   24
  -41
   76
    2
  -67
   65
  114
   75
   61
   96
   24
    8
  -82
   -3
  -39
   43
   19
   29
  -64
   32
    1
   22
   69
   36
   44
 -123
  101
   96
  -49
  -16
  106
   23
  -51
  112
  104
   12
  -13
  114
  -95
   17
  -82
 -104
  -99
  108
 -105
   33
  -16
 -116
  120
   37
   26
   55
  117
   93
  -36
  -38
   17
   89
  -84
   35
  -27
  -20
   83
  108
   54
   31
   24
   35
  -80
  122
  -11
  -18
   51
 -120
  -39
  -50
  -73
  107
   10
   99
  -82
  -24
   71
 -116
  121
  103
   36
   20
   68
  -87
  -58
 -110
 -106
   62
  -99
    3
  -74
  -39
  -43
  -86
  -77
  -32
 -102
   22
  -75
  111
   88
  -83
   43
  114
 -106
   22
  -89
  127
  123
   92
  -13
   -6
  -16
  106
 -117
  -99
  -76
  101
 -102
  -84
  -40
  -10
   50
  -29
   94
  -38
   59
 -125
   -9
  110
   64
   73
   21
  126
   92
 -118
  -54
 -116
   33
   40
   11
 -122
  -61
  -73
  -49
    0
   52
   80
   71
  -83
   44
  102
   -3
  127
   35
   78
  -95
  112
  -30
   39
  -74
  -97
  -64
  -93
  -89
   -4
   -9
   60
   22
  -43
  -18
 -117
  -55
  -51
 -110
   -7
  -51
   -7
  -84
   71
  127
   32
  -97
  -44
   85
  118
  -91
  -47
  -98
    5
  -27
   40
   39
   28
  -48
  -27
  -58
 -101
 -109
   44
   47
  103
  -70
  -37
  -84
   97
  -47
  -17
   24
  -91
   91
   50
  -26
   80
   79
    9
 -107
  108
   56
  -83
 -124
  -99
   52
  105
  -83
  -15
  -53
  -96
  -91
   -2
 -125
   -6
  -15
   85
   13
   34
   86
  -65
  -57
   81
  -84
  120
  -60
 -101
  -11
  -55
  -21
 -124
   -1
  106
 -127
   89
   67
   30
 -126
 -120
  -64
   91
  -17
   69
  -34
   53
  -68
  -56
   66
 -102
  -26
  -57
   43
   -2
  -89
  -70
  -21
   73
   -3
   96
  -64
  -71
    8
 -109
  -21
   80
  110
  116
    8
 -126
  -39
  -83
    1
   40
 -126
   33
  -55
 -116
  -63
    4
   -9
   80
  -25
  -52
   45
 -109
   89
  -45
 -124
  -31
   55
   25
  -88
   90
   70
   17
   89
   81
   71
  -70
   37
 -112
  102
  -53
    5
   25
  -84
   83
  -31
  -35
   -5
 -117
  -13
  -63
  -59
  -15
   58
  -24
  -71
  -34
  122
   88
  -47
  103
  122
   15
 -122
   34
   83
  116
 -122
   37
  -10
   30
 -106
  -70
  -46
   68
  -41
   -6
   96
   34
 -111
   21
  -12
  125
  -92
   48
   84
  -31
   28
 -125
  -52
   65
   44
  125
   -1
  125
  -80
   80
  -71
   62
 -126
  -64
  -19
   80
   86
  -92
  -49
  121
   49
   74
   20
   74
   33
  107
   44
   95
  108
  -79
  102
   45
   48
   39
   17
   95
   45
   28
   87
  112
  -87
 -118
   -1
   32
  126
  -47
   -7
   85
  -23
   -5
  -23
   98
  101
  -73
    6
   52
   83
  -89
    1
    6
  -16
   28
    9
 -115
   20
 -109
   13
   12
   97
 -116
    6
 -101
  117
   89
   44
  -41
 -110
   -3
  -70
  113
   42
  -29
  -70
  -23
  102
   -6
  -70
  -62
   42
   87
   73
   10
  103
  -54
   29
  -25
   12
   -7
 -115
   -8
  -62
  119
   63
 -111
  -18
   54
   18
  -86
   70
 -113
 -126
   99
 -107
  -38
   72
 -108
   -4
  -34
   67
   87
    9
 -115
  -63
  -94
   35
   17
  -27
  -57
   -3
   20
  -25
  -30
 -103
   12
  -47
  -97
  120
   84
   78
 -116
   -7
   41
   41
   83
   25
   13
  -31
 -108
 -112
   63
   71
  -74
 -118
   35
   21
  115
   82
   34
  123
  -13
  114
   -6
  -10
 -115
 -107
   66
   38
   22
  117
  -79
 -125
   60
   37
  -84
 -108
   -9
 -124
   75
   36
  -68
  -41
  -59
  -62
  -10
  -76
  127
  -40
   96
  115
  -94
  -19
  -72
  -46
 -126
   23
    2
   27
   97
   35
  106
  -53
   43
   29
  -27
  -86
    9
  108
   67
   73
   70
  -43
 -110
  105
 -115
  -63
  -50
 -113
   84
  -16
 -122
  -64
   11
  106
 -122
   89
  107
   39
  119
  115
   65
 -112
   34
  -14
   12
  -55
  -12
    3
  -72
   76
  -83
   47
   87
  103
 -106
   36
   -9
  -56
 -109
  -36
  120
  -13
   38
  -39
    7
  -13
   46
  125
  119
  -49
  -77
   89
   12
   96
  124
 -119
  -31
   -1
   82
   18
   46
  101
  -32
   52
   66
  -66
    3
  -63
 -122
   94
   42
   99
  112
  -17
    8
  -47
   50
  116
   46
   80
  100
   96
 -110
   68
   -9
  116
   -7
 -115
  -99
  -73
   75
  -67
  108
  -27
    6
  -29
   56
  108
   43
   -4
   74
 -125
  104
  -91
   66
 -126
  -86
 -120
  -45
   88
   71
   -5
  -28
  -22
   93
  -15
  120
   52
   97
  -88
  -48
   86
  -53
   84
   99
  -92
   51
  -88
 -101
  117
 -124
  -75
  -85
   99
  -49
  105
  126
 -117
  -59
 -122
  -70
   89
   18
  -88
  -76
   42
  -49
  -42
  -44
  -50
  -66
  -69
  -70
   -1
   47
   96
  -77
  -28
   12
  -65
   29
  -58
  -30
  -22
  -72
   -2
    0
  -63
  -16
  -93
   44
   10
   20
  -65
   -5
  -87
  -97
   74
  -26
   -1
  -46
  -31
  -26
   58
   -6
   39
   28
   56
   89
  -96
  121
  -74
 -115
   97
 -106
 -100
  -71
   87
  -60
 -127
   75
 -114
   28
 -101
  -65
  -26
   79
   54
   66
  117
   65
  117
  -57
   44
   95
 -110
    2
  -69
   76
  -40
 -120
   97
   63
  -27
  122
   73
  -56
 -121
  106
   33
  -16
 -119
 -101
   85
  -10
   49
   80
  -51
  -49
   21
   56
 -116
  -68
    2
  -66
  -19
  126
  114
   55
   -7
   76
 -119
   14
   93
  -24
   58
 -124
  -60
   59
  -64
  -68
  -68
 -117
    7
  -37
   37
  -45
   89
  -25
  -73
   30
  -26
  -68
  -73
 -123
  -52
   64
  -30
  -33
 -124
  -43
 -107
  -12
  -46
  108
   13
  -50
 -115
 -118
   63
  -37
  -59
   97
   61
  114
  -21
 -102
  -24
 -100
   -8
   53
  126
   67
  -29
  -79
  -22
   35
 -107
 -118
 -121
   90
  -81
  -39
  112
  -62
   78
   42
   49
  121
   29
  -77
  106
   30
  -87
  -37
   30
 -102
   91
  -96
    5
  -77
  -98
  -29
  117
   10
   47
  109
  -65
 -102
  -19
   17
  -15
  -20
   72
  111
  -34
  -33
   66
 -107
   80
   74
  -71
    6
  -46
   11
   49
 -115
  117
  119
  -96
  -34
  -35
   64
   88
  -58
  103
 -118
   -9
   24
   39
   35
   -3
   17
   75
   86
   57
  -70
 -107
   38
   51
    5
   89
  109
 -108
  -32
  -83
  -97
   26
   58
   10
   61
  123
  -57
   51
   21
  123
  -45
  116
 -116
 -112
  -98
  -43
   48
    1
  106
  -71
  -97
    5
   18
   13
   36
  -61
    1
 -108
  -70
   48
  -27
   22
  -23
  -77
  -56
   65
   -9
   34
  -64
   39
   -8
  -10
  -23
   66
 -102
   98
   71
  -31
  -33
  -17
   68
   71
   -9
   48
  110
  -21
   64
 -122
   90
  -97
  -93
  -44
   98
    3
   23
  121
   10
   -8
  -17
  -72
   47
  109
  -58
 -122
   30
 -119
   99
  -53
 -115
  -72
  -99
   26
  -80
   85
  -17
   59
  -79
  -77
  -64
 -124
  -14
   13
  -20
   43
  -56
   99
   81
   61
   66
  -15
   23
 -111
  -51
  -40
  -91
   54
  -99
  104
   95
  121
   10
   35
  126
   11
  -10
 -122
 -113
   56
    3
   13
 -126
   28
  109
   39
   47
   -2
 -121
 -110
   66
 -117
   34
  105
   56
   79
  119
  -19
   75
   78
 -125
   -4
 -123
   61
  -53
 -116
   30
   26
  117
  -40
   42
 -122
  -51
  -45
   81
   12
  -26
  -62
   24
 -126
   92
   16
   -6
  -47
 -115
   70
 -118
   -3
   -5
    2
    5
  -51
  -10
  -14
   45
  -48
  -79
  -84
 -126
  119
  -96
  -47
  -67
  -39
  -69
   81
  -29
   72
  -32
  -21
   53
  125
   46
   91
   -5
 -115
   17
  -68
   72
  -91
   14
  -25
    1
   96
   92
    6
   61
   31
   25
   34
  -34
   26
  -30
  -82
  -45
  -67
  127
   64
   58
  -81
   95
   57
  -26
  -44
  -37
  -84
   63
   69
   -5
   84
   17
  109
  -28
  -35
 -101
  -97
  -62
  -47
  -16
  -66
   91
  -51
  -74
   97
  -15
   21
  111
  -85
  108
  -84
  112
  -66
   -1
   89
  -47
 -114
   29
   19
  -81
  -83
   96
   38
    5
   48
   40
   56
   72
   42
 -105
  -31
   44
  -68
  -92
   90
   58
  -44
 -107
   62
   54
  -16
  -74
   98
  112
  -64
   26
   35
 -115
   22
   23
  -30
  102
   46
   87
   95
    3
 -104
   67
   18
    4
  116
   61
  -22
  107
   30
   14
 -110
   83
 -111
  -18
   86
  -41
  -79
   90
 -111
  -37
   11
  -74
  126
  -54
   96
  -33
  -28
  -71
  -60
   91
 -123
   56
  -83
  -34
   87
   86
  126
   40
  -52
 -118
   16
   46
   88
  119
  112
   29
  107
   63
  -13
 -102
  -30
  -86
  -38
   40
  -24
   71
 -100
  115
  -74
  121
    1
    2
   90
 -117
  -58
   43
  116
  122
   31
   68
  -50
  -25
    9
  111
  -76
   30
   54
 -115
   23
   28
  -81
   -3
  -63
 -109
   23
   84
  -52
  -68
 -114
 -101
   65
   57
  -18
  -97
  -25
   -2
   -2
  -45
  -84
  115
    8
   61
    2
   95
   24
   21
  125
  -76
   -4
 -115
  -28
  -44
   38
  -30
   48
  -46
 -100
   97
  112
   86
  111
  123
  -49
   89
   29
    0
   97
   78
   78
 -108
   34
 -104
  -83
  -54
   16
  -65
   81
 -110
  103
   59
  -77
   43
    9
  -90
  -18
  110
  -79
  -75
   21
  -57
   71
  -68
  -93
   69
 -127
  100
 -104
 -125
   75
   -9
    0
 -120
   73
  -13
   55
 -104
  118
  -66
   13
  -95
 -126
  113
    5
  -83
  -10
  -31
   18
 -101
  -41
  -77
  -67
  -60
   -7
  122
 -126
   64
  104
 -109
   41
  -23
 -126
   27
  -72
  -80
 -119
   27
   49
  -51
  -24
 -125
    4
   37
   84
  -20
   12
  -58
   39
 -108
   48
  -44
   -5
   41
    2
  -60
    7
   34
   56
  -80
 -105
   78
  -54
   22
 -110
   10
  101
  -23
  -26
   67
   79
    9
   73
  127
  122
   -4
  -97
  -21
   35
   11
   -2
  -12
   28
  -29
 -123
  -11
  -81
   53
  -51
 -122
  -96
    1
  114
   66
   27
   50
  117
  113
  -55
  -72
  -10
  -71
   56
  -32
  -32
  -88
  -86
  -29
  -70
   86
   88
   83
   67
   78
   97
  -95
  101
  -27
  -70
   -2
    5
  -64
   43
 -114
  -16
   86
  -35
   62
 -116
 -115
  -19
   85
  -16
  109
  -90
   -4
 -112
   26
  124
 -106
   73
  127
   33
  -18
  109
  -35
   94
  -63
  -54
  -21
   75
    4
  -26
   14
 -119
  -13
   56
  101
   -4
  -35
   59
   30
  109
  -35
   87
    5
   95
   -5
  -37
 -112
  -97
   81
   28
  108
   44
 -122
   17
   84
  -78
  -70
   10
  -98
   45
  -96
  -79
  -22
   75
  104
  -28
 -119
   99
   81
   52
  124
   71
  115
 -125
 -101
  -71
  -76
   54
   69
  -96
    9
   72
  -33
  -56
 -116
   34
   59
 -116
 -104
   31
   -8
  -16
   96
  -44
   20
  -24
   14
   38
   23
   92
 -119
   83
  118
   19
  -94
   71
  122
   21
   77
  -64
 -125
  110
  -29
   23
   -3
  -70
   49
   67
  -43
   36
   34
 -105
  -58
  -97
   77
   44
  -80
 -113
   98
 -107
  -55
   91
 -115
   79
  -53
   -7
 -102
   52
  -72
  -99
 -123
  -68
   -1
   52
  -62
  -73
   29
  -41
  126
   -3
   87
   75
  -58
   86
  -14
  -24
  -25
   96
   -9
   80
   11
   71
  -89
   19
  126
   40
   54
   18
  113
  -81
    9
   80
   76
   68
 -103
   87
   17
  -65
  115
   29
   56
   89
 -122
 -107
   81
   40
   32
  -55
  101
   15
  123
   -9
   74
  -41
  -73
   19
 -119
  -38
   50
 -119
   60
  -47
  -55
 -106
  -76
  -29
  -23
 -124
  106
  115
  -42
    0
 -112
 -109
 -104
   95
   57
  -12
   19
 -112
 -107
  -21
   50
  -34
  -17
  -48
 -100
   37
   76
   27
 -124
  -21
  119
  -42
  -12
  -98
 -117
  127
   19
  -21
   76
  -36
   18
  114
   19
 -110
  -88
   67
 -116
   63
 -115
  -79
  106
 -123
   63
  121
 -107
   87
  118
  -71
 -112
    2
  119
  -42
  -44
  -52
  105
 -104
  -51
  -29
  -11
 -100
   35
  -49
   96
   77
   77
   19
   10
   73
    2
  122
   38
   35
   93
 -109
  -72
  113
   46
  -43
  -19
   19
  -11
 -120
  -93
    2
    0
  -28
  120
  -93
   -4
   17
   23
  -27
   90
 -126
   34
   50
  101
   35
   49
   89
   12
   18
   27
   44
  -41
  -73
  -40
 -107
  -96
   93
   83
 -111
   18
  -23
   28
   74
  -77
  -50
  -68
   91
  106
  -52
  -16
    0
   13
   63
  -24
  -67
   45
   60
 -108
   80
    9
  -77
  -87
  -37
  109
   -6
  124
  -16
 -124
  -42
  -58
  -18
   50
   54
 -116
  -92
   59
 -105
   79
   48
 -119
  -21
   74
  -47
 -107
  -72
  -90
   61
   49
   69
   92
  -55
   21
  -55
   -3
 -116
   31
  104
   58
   64
  106
  -47
   73
  -33
    9
   -1
  -31
   89
  -61
  -89
    1
   77
 -120
  -17
  -68
   76
   65
  113
   65
   78
  -97
   55
 -114
  112
  -78
  -34
    4
   95
 -119
    1
  -65
   70
   38
  -95
  -57
  103
  109
    6
 -121
  -74
   -9
   82
  -43
   78
  -74
   68
  -99
   -5
   11
   -6
  -95
 -108
   85
   59
   -5
 -110
   13
   -2
  127
  -27
   51
  -36
  126
  -68
 -103
   67
   91
  -27
  -76
  -67
 -127
  -13
 -106
  106
  -16
  -31
   48
   39
  -60
   17
   42
   61
 -121
   -9
  -93
   64
   66
  -64
  118
  -64
   98
   -7
  -36
 -110
  -37
   24
  -37
   38
   12
  -71
  -67
  -46
   27
   22
  -11
  -60
  -59
  126
   37
   -5
   33
   89
  -65
  -92
  -54
   33
  -76
   40
  -24
   88
   68
  124
   88
  105
   -4
   -6
  -35
  106
 -112
  126
  -30
  -30
   29
  -51
   35
   87
  107
  -26
  -28
 -100
   -9
   27
   -6
  100
  -25
  -94
  -67
   35
 -127
 -126
  127
   61
   90
  -51
  -87
   12
  -18
  -89
  -46
   72
   65
  -13
   20
  112
  -59
  -20
   12
  -98
  124
  -28
    1
   77
  118
   18
  -99
   59
   84
  108
  -13
   86
   38
  -38
   91
   48
  102
 -100
   50
  -75
   72
   13
  -79
 -100
   14
   20
  -59
   78
   33
   47
  110
  -74
  -20
  -17
  -80
   60
  -61
  104
  -19
  -77
  -31
   11
   75
   50
   11
   -9
    8
  -60
  -18
   20
   69
  -50
  -93
   94
  100
  107
  -34
  -41
  107
  127
  117
 -102
  -32
   29
   66
   33
  105
 -119
   90
 -125
 -116
  -76
   84
  -34
   -9
 -115
  -44
 -104
  -17
  109
   63
   -7
  -68
  -18
   27
  -19
  -62
    3
   90
   97
   45
   42
  116
  -11
   82
    1
  120
   -3
   55
 -107
  -17
   58
  -40
   54
   -5
 -123
  -79
  -15
  104
  112
   16
   28
  100
    2
  -73
   52
   78
   44
    8
  105
  -50
  -50
    5
  -31
  -21
   53
   -8
  112
   66
   -2
 -113
  118
   -2
    0
   20
  -46
  -47
  -70
  -90
    9
   58
   15
 -100
   99
  -79
   77
   17
  -65
  -42
   50
   83
  -57
   -8
 -111
  -42
   68
  -29
   37
  -52
  -19
   27
  109
  124
   69
   13
  -29
 -109
   75
 -124
   -5
 -112
 -115
  -29
    8
   80
  123
   68
  -12
  -67
   87
   41
  -80
   -3
   33
 -116
   17
  -95
 -118
  -16
   24
   93
    5
  127
 -113
   38
   64
  121
 -103
  -52
   81
  109
   62
   18
 -117
   77
  -12
  110
   78
  114
   73
   93
  121
  -21
 -123
  -76
  104
  -75
   29
   92
  -72
 -114
   17
   69
   67
  -47
  -44
   46
  -62
   79
   41
   29
   14
  -23
    3
 -102
  112
   78
 -115
 -116
  -22
    6
   34
  -57
   27
   83
   79
   33
  -26
  -14
  -57
   98
  -62
  -44
  -96
 -123
  -85
  -74
   84
    7
  -85
   49
  -74
   29
   22
 -115
  -18
   90
  -20
  -68
   39
 -109
  -90
 -124
  -17
   90
   22
   24
   44
   96
 -111
  -74
  -11
  -77
   41
  -28
   16
   10
   30
  -82
  -44
 -121
  113
   45
  -50
  -52
 -109
   64
    8
  -49
  -24
  -12
  103
  -59
  -46
   38
   74
   98
 -118
   52
   55
 -100
  -68
   14
  -36
    2
 -101
  -39
   26
   44
  -13
   14
   -4
 -122
  -61
  -48
  108
  -57
   64
   42
   -6
  -41
 -119
   22
 -114
  -68
   -3
   77
  -97
   33
   14
   98
  125
 -119
  -20
  -31
  -31
   20
   20
  124
   67
  -55
  -64
  121
 -121
  -13
   48
  -14
   49
  -90
  -48
  -95
   40
   91
   17
   80
  -46
   11
  115
  115
 -116
   58
  -61
  113
   32
  -23
  -48
  -10
   59
   87
  -88
   32
   27
  102
   72
 -126
   79
 -105
  117
 -125
  -70
   11
   38
  -78
   32
   10
  114
  -71
  -34
  -28
  -86
   -8
  -18
    8
    5
  -40
  -36
   41
  119
  -22
   96
  -63
  123
   39
  -72
  -72
  -97
  -86
  -34
 -127
   81
  -11
  -78
   75
  -41
 -103
  102
   73
  126
  111
   14
  -62
    1
   -9
  -87
  101
  -66
   47
   15
   96
  -41
 -106
   59
 -126
  -41
  -15
  -83
  -13
   75
 -105
  -22
   20
  104
 -125
   69
   34
   65
   56
   46
   -1
   63
   70
  -72
   27
   71
   -3
  113
   19
 -119
   55
   49
   98
  -79
  103
 -110
 -108
  -21
   50
 -106
  -99
   88
  -30
  -58
   -4
   66
  -33
   14
 -101
  123
   64
 -111
  124
  -19
 -120
 -103
  -43
   44
  101
   97
   95
   29
   -6
 -118
  -92
   88
 -122
  -74
   39
  -86
   80
   73
  -31
 -108
   56
  -16
  112
   12
   47
  -78
   47
  124
 -108
    4
 -111
   45
  -39
   35
  -34
 -102
  -72
  121
   35
  -57
  -61
    2
   17
   57
  -64
  118
  -82
   47
   64
  -84
  105
  -65
   15
 -102
  -93
   41
  124
 -103
   61
  -16
   98
  -37
   -1
  -53
  120
   72
   -3
  -67
   23
  124
   25
  -27
   38
  116
  -97
  103
   17
  -65
  -23
 -117
 -115
   61
   45
   50
   29
  -18
  -44
   78
   95
   74
  109
   86
  -14
  -30
  -77
    2
 -114
   57
  -60
   31
   -4
  -37
   12
   77
   55
  -21
   48
  -11
   24
  -57
   96
   91
   26
  -46
  -85
   69
 -121
  -76
  -66
  -16
  -92
  -21
  -76
   73
  -14
   70
   53
   99
  109
  -28
   25
  -50
  107
  -66
   94
  -92
   64
   90
   54
  -98
  -41
   40
  -95
  -45
   40
  -11
   14
  -69
  -43
   97
   72
  -21
  -38
  103
   62
   93
   72
   31
 -116
  127
 -103
   62
  -40
 -112
  -66
   24
  -78
   73
   88
  -56
    1
 -108
   13
   92
 -108
   62
  101
   96
   13
   63
 -107
  -58
   59
   27
  -71
  127
  120
   67
  -64
   19
   27
  -41
  -78
  108
  -51
  113
  -67
  -62
  -64
  -85
 -112
   89
  -46
  -92
 -106
  123
 -109
  123
  -97
  -61
   28
  -55
  -52
   84
   36
  -79
   20
   86
  -89
   71
   45
  -23
   -6
   24
   99
    9
  -98
 -124
  -13
   97
   96
 -114
   69
   86
   65
  -21
  -76
  -35
  -42
  116
 -111
   85
  -12
  -89
   54
   68
  120
  121
 -126
   64
  -79
  -45
   22
  -68
   -1
  -67
   56
  -14
   -8
  -52
  -22
 -124
   83
  -49
  -55
   15
   63
  115
   76
  -98
    7
  113
   34
   86
  -26
  -38
  -75
  114
   92
  -15
  -81
   21
   -6
  -28
    3
   28
   41
  -46
    0
  109
  -90
   70
   25
  -36
  -10
   28
  -16
 -122
   12
   77
   14
  -26
   53
   44
   38
 -108
  -87
   13
   77
 -112
  -44
   60
   56
  -68
   16
   80
  -98
  100
   94
   26
   72
   48
   71
   29
  -85
   57
  -78
   27
   93
  -75
   -6
   93
  -68
  112
  -40
 -107
   90
   74
   20
  -87
   59
   34
   74
   36
   83
 -118
   70
   84
  -36
  -89
 -120
 -103
  -50
  120
   92
 -114
  -32
  -81
   68
 -124
   77
  109
   85
 -104
   65
   -7
  -55
  -18
  -20
   -7
   23
   17
  -40
  -21
  119
   74
  126
 -121
 -115
   -3
   73
  -72
  -52
  122
  -52
 -119
  -45
  -34
   22
  -84
 -112
  -95
   49
  -20
   57
   36
   31
  -93
  -38
  104
 -109
  -56
  119
    8
   30
  -29
  -97
   28
  -18
   66
 -120
  126
  -52
  -91
  118
    0
  122
   88
  127
   40
  -13
  -69
  -70
  111
   21
   44
   52
   41
  123
  -58
 -103
   27
  -67
   98
  -92
  103
 -121
    4
   -2
   95
  -43
   98
  -85
  -75
  -93
   -6
  100
  -93
  124
   66
  117
 -119
   -2
  -71
  -58
   82
 -103
 -117
  -78
   44
   29
    2
   60
   38
   64
   56
 -111
  112
  -70
   56
   94
  -76
  -47
  -52
 -117
   89
 -108
  -54
 -117
  101
  -77
  109
  102
  127
   90
   54
  -22
 -124
   15
   86
 -103
 -106
   67
   28
 -122
  -33
 -117
  -79
 -126
   87
  121
  -26
   44
   55
  102
  -47
   60
  -71
  -28
  -83
   88
  -15
   79
  -35
  123
  -38
 -111
    3
   85
   54
  -72
  119
   83
  -57
   11
   27
  -71
   26
   87
  -11
   13
   46
  -50
  111
   94
   27
 -110
   32
  -97
  -14
   53
  -85
   85
   77
   32
  107
  101
   94
 -114
  117
   -2
  -55
  -16
   66
  -98
   13
  112
   18
   -7
  -36
  -11
   67
  104
    7
  -50
    3
  106
   70
   66
   78
   77
   10
  -42
 -117
 -103
  -87
  100
   -1
  -49
   45
   49
 -122
  126
  -77
  -74
  -89
  105
  -80
   17
    4
  102
  103
  108
 -107
   77
 -122
  103
   91
  -82
  -24
 -112
 -103
    9
   55
  -74
    9
   48
  109
   98
   37
   88
  -11
  -50
  -70
   51
   47
 -121
   40
   96
  109
   68
  -66
  127
  -46
   10
  124
  -69
  -43
 -111
   77
   10
  -71
  119
  -81
   66
   99
  -21
   87
    4
  -54
   92
  -72
  103
 -104
  104
   23
  -49
    1
  113
  109
   37
 -105
  113
  -49
  -40
  -22
  -25
   97
  -43
    7
  -91
  109
   59
   93
  123
  -92
   97
  104
  -54
   16
   -9
  112
 -121
   88
 -122
    1
  -87
  -45
  -21
   84
   84
  -78
 -120
 -117
  -46
  -32
   77
  117
   71
   26
   75
   -2
    4
  -55
  -12
   96
  -67
    1
   21
  -50
  -94
  -31
  -75
   22
  -60
  -83
   -5
  -74
   10
 -102
  -12
  119
   57
    1
  -89
  -32
 -112
   38
    0
  -86
  -25
   62
  -24
   83
  110
    9
  -18
  -77
   23
  -13
 -107
  -36
  -61
  -29
    1
   74
  -26
  121
  -38
  -38
   75
 -108
  -66
  -52
  125
  -11
   37
  116
   41
   47
  -10
   35
 -113
   98
  -26
  120
   38
  -39
  -52
  100
   21
  -88
 -124
  118
    4
   97
  122
  -92
  -82
  -91
  -63
  -82
  -75
  -63
   -8
   52
  -63
  -48
  -38
   32
 -112
   65
    8
   60
   -9
  127
  111
    2
    2
   71
  -63
  106
 -105
   15
  -57
   39
  -30
  -15
 -116
    8
   58
   12
  -97
  114
   64
  -51
  -59
  -86
   93
 -107
  106
   17
   82
   77
   73
  122
   75
    4
  -79
  -73
  -70
  126
  102
   89
    5
 -123
 -113
 -127
   -7
  -85
   69
 -127
  -43
   88
  -71
  -75
  117
   65
   -9
  -49
   84
   -5
  105
  106
  116
   99
  -88
  -31
  122
  125
  -68
  -72
   32
  -88
  -34
   17
  -78
   78
  -63
  106
   99
   89
  -50
  -60
 -122
    9
  -91
  109
  -44
 -111
  112
   31
  -96
  -62
   20
  124
   99
   66
 -107
  -71
  -52
   16
   98
  -57
 -102
  -60
  -30
  -87
  -75
  -97
 -126
 -112
  -62
  -61
 -124
   30
  -34
  -25
  -50
  -81
  110
 -124
  -86
  -97
  -82
   74
 -112
  -44
  -66
   77
 -113
  105
   12
 -121
   87
  -13
    6
   59
 -105
 -118
  -39
  127
  106
 -111
  -76
  -81
  114
  -89
 -105
 -104
  -19
  -74
   13
   -8
 -106
  126
  105
 -118
  -83
   39
 -113
   37
  -35
  -25
   -7
    5
  119
  -93
   74
  -41
   -8
    7
   93
   66
   66
   92
   81
  -28
  -71
   31
  102
  -23
   29
  124
   47
  -98
  -13
   79
 -114
   31
  105
 -117
  -74
   87
   36
 -125
 -121
  -87
 -127
  -86
  126
   -5
  -13
   35
   -5
  -94
    7
  -21
  117
  -78
   95
   60
   19
   72
   84
   35
    6
   24
  -48
   91
  -64
   24
  -53
  -55
 -103
  -70
  116
 -107
 -112
  114
   53
  -69
 -106
   85
  -65
 -103
  -79
   61
   23
   62
   35
  104
 -123
   63
 -107
  -82
   69
  116
  -12
   35
   90
  -78
   33
  110
  -78
  -90
  -87
   13
  109
  -88
  -83
   97
  -99
    7
  -19
  -88
  -28
  -60
  -61
  -80
  -23
   67
   49
  -73
 -104
  -21
   94
 -110
 -103
  -19
  -83
   30
  -83
   60
  123
 -124
   51
 -111
  -17
   93
  110
   78
   68
  -43
  111
  -80
 -115
  111
   10
  115
  -29
   77
 -112
  -50
   49
  120
  -70
  111
 -104
  -43
 -123
  102
  -66
  -80
  -20
  107
   86
   64
  -29
  -15
   58
  -61
    4
 -117
  -41
  -81
   75
   95
  107
  -61
  121
  -92
  -92
   -9
   33
  -36
  111
   50
   51
   89
  -60
  -77
  -96
    2
 -126
  -69
 -120
  -65
   31
   91
   14
  -14
  -63
  124
   -3
   61
    4
 -110
  -63
   28
 -123
  101
   16
  106
 -122
   67
   68
  -54
    2
    7
  126
   64
   94
   75
   59
  -47
   41
 -123
  -36
   16
   50
   -6
   67
   58
  -36
  -48
   50
  -23
  114
 -108
  -79
   30
  -74
   17
  118
  -25
   73
  -17
   61
  -98
    0
  -45
 -106
  -11
  -64
 -119
  -80
   46
    9
   84
  -57
  121
    9
 -117
  -79
   54
   46
   72
 -122
  -16
   81
  -22
    8
   49
   31
   -5
   17
  -22
  -73
 -101
  -15
   38
   28
  115
 -116
   67
   46
  103
   64
  -67
   97
  -85
   84
 -125
 -120
  -33
   33
   -1
 -107
   68
  -11
  -74
  -10
  115
  102
  -20
  -84
  -83
   12
   95
  -79
 -121
  -30
 -119
  -62
   29
  123
  -82
  119
   48
  -45
  -95
   58
  120
   68
  -25
   98
   60
  -28
   84
   60
   38
  -62
  -43
    7
  -58
  -37
   51
  118
   60
  -71
   98
  -80
   96
  -75
    4
  -90
  117
   98
  -13
   61
  -78
  118
   -1
  -80
  100
  -73
  -61
  -78
   59
   40
   77
  -12
    7
   63
  -85
  -92
   97
   38
  125
  -43
   63
  117
   69
   37
   -2
   84
   23
  -57
   76
  -85
  -30
 -126
  -12
  125
  -95
  -74
  -22
   83
  110
  -54
  -56
  -23
   82
   -4
   -7
  -41
   32
 -113
   84
   -8
  -40
  -67
   45
  113
 -102
   51
  -28
 -108
   83
   52
   27
 -111
   24
  -27
  119
   14
   -5
   15
 -125
  -48
  -63
   85
   84
 -120
  -34
   -2
  126
 -100
  113
  -58
  -30
   39
  -86
 -100
  114
   75
   88
 -107
   24
 -114
  -11
   88
  -78
 -115
   69
  -49
   60
 -101
  -84
 -123
  126
  103
  -35
   34
  -37
  -92
   75
  -90
  -56
  -54
   63
  -97
  122
   -8
  -38
 -106
 -125
    1
  -12
  114
 -111
 -118
  -56
    6
  -92
  -81
 -112
   21
 -111
  -29
   49
  120
  -33
  111
  103
  -60
   26
   21
   94
  -15
  105
  -75
   -1
 -115
   58
   72
  -83
   60
  -51
  -46
   92
  -77
  121
  108
  -87
   50
  -53
  124
  -78
  -30
   79
  -42
  -32
   -5
 -125
   30
   90
  -25
  -13
  -90
   48
  116
   81
  118
    4
  -53
   56
  109
    0
   33
   12
   54
   47
  -92
   57
   28
   46
    7
 -118
   88
   -7
  -70
 -121
 -101
 -106
   46
   12
    8
  -73
   18
  124
  -53
   90
  -81
    1
   33
 -105
   93
   82
 -113
   90
   92
   26
   -2
   23
 -106
  -42
  101
 -116
  -60
   51
  -46
   24
   73
   88
  -48
  109
   23
    8
  -71
  -63
   14
   -1
 -104
  -23
   43
  -67
  -75
   43
   83
 -101
 -126
 -103
  -60
  -33
  103
 -120
  127
  -34
   68
  -24
   97
   62
  -57
  108
   66
   78
  -43
 -109
  -45
 -127
   99
  -36
  -90
  -26
  -90
 -112
 -127
   24
  -97
 -122
   22
  -13
  107
  -41
 -122
  -52
  -35
   73
  -98
  -38
  -83
   82
   93
  105
   57
   14
  -27
   23
  -40
  -14
  -44
  116
  121
  -35
  -73
   26
  103
   91
 -107
  -73
 -104
   -2
 -119
  -16
   -8
  124
  121
  -64
   27
   77
  -65
  -13
  -36
   90
  101
   36
  100
  -54
    6
 -105
   90
   67
   88
   -5
   64
  -50
  -60
  -64
  -93
  -17
  103
  -26
   93
   85
   19
   18
  -37
   97
  -43
  -27
   30
   73
  -26
  -82
  124
   70
    9
  -37
   11
  -97
   68
  -43
   -6
   34
  -28
 -102
   54
  -68
  113
  -59
  111
   20
   82
   37
  -78
  -66
  -84
   81
   83
   18
  -24
 -108
   85
  -82
   -5
   41
 -108
  -50
  -83
  -34
   24
  123
  -61
  -87
   31
  -48
   77
   46
 -123
  100
   -3
  -84
   51
   34
   94
  113
  -83
  -36
 -112
  -11
 -104
   69
 -118
  -71
  -16
  -89
  -56
   -1
   32
   70
  -78
   93
 -123
 -113
 -101
   59
   58
   68
   55
 -118
   60
  -93
   73
   -3
  -84
  117
   18
  125
 -113
   84
   71
   57
  -33
   60
 -106
   36
  -87
  -45
  -22
  -71
 -117
  108
  -16
   29
   61
   20
    3
   20
   10
  -84
  102
   70
   64
   47
 -100
   80
   36
   59
 -119
 -114
  103
  -11
  -38
  -61
  -92
   70
   79
  -76
   99
  -38
 -108
 -121
 -123
 -113
  -64
    5
   90
   25
   -6
   21
  127
 -101
  -66
   80
   58
 -114
   67
  -54
    1
  -76
   81
  126
   82
   21
  101
   56
   42
  -85
  -27
   10
   44
   69
  -56
  126
  122
   98
   97
   43
   46
 -106
   30
  -90
  106
   78
 -126
   62
 -126
   92
  -27
 -122
  -64
   29
  -92
  -14
   74
   83
  -13
   94
  -75
  -92
  -99
   28
  -35
   36
 -119
   18
   77
  -19
   83
  -40
 -108
  -11
 -110
  -24
  107
  -29
 -116
   42
   -4
   69
  -39
   70
   21
   35
   86
   16
   87
   12
   11
  107
 -110
  -93
  -66
  106
   -9
    0
 -118
   97
  -21
  -68
   -8
   30
   -7
   36
  -84
  -12
  -34
  107
   17
 -102
   17
  -45
   79
   56
   82
  -44
  -55
  113
  -18
  -42
  -68
   40
   80
  -32
  115
   43
  -46
 -118
   66
  115
    9
  116
   34
   22
   12
  -90
  -19
   37
 -102
  -24
   78
   48
   85
 -122
  -73
    0
    4
   80
   93
 -105
   56
   97
   93
    8
   98
  -52
   65
  105
  -65
  -70
   21
    5
    2
  -34
   26
  -88
  -19
   -1
 -123
  -55
   49
  109
  -13
   65
   20
  -96
   65
  -28
  117
 -114
   95
   84
   89
  -53
  100
   11
   97
  -32
   59
   10
   65
 -114
 -113
  -50
   -4
 -116
  -99
  110
   34
   15
  -85
   20
 -106
  -58
  -55
 -100
  -83
  -27
  -38
  -50
 -125
   75
   24
  -18
   38
  101
  -63
  -27
   10
   99
  -63
   74
  109
  -40
  -74
  -31
  -55
   46
  -94
  -89
   88
  110
   91
   26
   13
    3
 -124
  -67
 -104
   77
  -69
   69
   39
  -33
  102
   81
    2
  -60
    3
  -42
 -103
 -124
 -112
   75
 -126
  -76
  -91
  -71
  -41
  119
  -25
   15
 -118
   60
  -80
   42
    9
   71
  -16
   63
  -97
   33
  -51
  110
   51
  -21
  -46
  -65
  -73
    4
   39
 -111
  -63
   81
  124
  -92
   44
  -30
  -72
   32
  -43
   44
 -119
  105
   62
  -36
  102
  -31
 -113
  -59
  118
  -20
  -90
   22
 -108
  -64
 -121
 -124
   59
   20
    8
  -28
  -91
   -4
   63
   83
   -5
 -122
  -68
  110
  -56
   51
  -20
  -56
  -58
  111
  -49
 -103
 -101
  -45
  -11
    9
  -14
  100
  118
  -57
   63
  -74
    2
   -4
   10
  -88
  102
  -63
  112
  -82
 -125
  -86
 -118
  -81
  -45
    6
  -86
  116
    5
   69
 -101
 -111
  -96
  126
   67
 -125
   98
   43
   81
   -8
   94
  -40
   15
   46
   72
    1
   86
   78
   98
  -79
 -109
   10
   51
 -124
  -12
  -65
   92
  -50
 -113
 -116
  -86
  114
    0
   85
  -11
   70
  -74
  -92
  -34
   31
   62
 -116
  111
   58
  120
    5
 -104
  -27
 -122
  -40
   42
  116
  -85
  -43
 -121
   83
  -46
    6
   -6
   71
  -12
   34
   82
  -18
   63
   14
   35
  -24
  121
   -9
  -68
  -97
   48
  -19
 -127
   18
  -93
   41
  -86
   59
   22
 -124
  -32
   74
  -26
  -14
  -38
  107
   54
   26
   93
   62
   -1
  -30
   94
   65
  -48
   42
   20
   96
   66
  -51
  -12
  -61
  127
 -100
  -27
   52
  -68
   41
 -118
  106
   79
  102
 -122
  101
   93
  -32
   -7
   56
  -90
  -23
   61
   -8
   43
    6
  -97
   99
  114
 -107
 -122
   44
  123
   91
  -64
  -42
    7
  -10
   30
   45
  -74
    4
  118
   87
  -71
  -99
   44
   58
   40
  116
 -124
  -28
  113
   82
   77
   83
 -108
   89
  -77
  -94
  -56
  -51
   98
   28
  103
   38
  -50
  -17
   21
  102
  -92
   72
 -116
  -40
   62
   94
  126
  -61
   61
  -74
   13
  -98
  126
   78
   -2
   20
  118
   65
  -46
 -100
  -77
    2
 -121
   63
 -123
   40
  -68
  122
   97
   30
 -107
   73
  114
 -109
  -97
   51
  -86
  118
   42
  -18
   51
  114
  -70
 -115
 -119
  -27
   10
  -55
   94
  -24
   84
  123
  -98
  108
   88
 -105
 -126
  -56
  -33
   -4
   59
   18
   36
  -37
   61
  -85
  102
  -70
   80
   29
  -29
  -23
  121
  -51
 -126
  -35
   70
  -14
   25
 -124
   57
  -60
  -58
   32
   18
  -93
  100
   21
  -65
   87
 -101
    4
  -14
   30
   92
   76
  -52
  -63
 -124
  -55
  -28
   97
   79
  124
  105
  -36
   69
  104
  -52
   76
   -3
 -105
  -16
   17
   18
  122
  -83
  -81
  -88
  -50
  -45
   87
  -60
  111
  123
  -21
 -109
   70
  -28
 -114
   10
    5
  -76
 -113
  -59
  107
   87
    4
   66
  127
   30
   -5
  -62
  -99
  -49
  -98
   -7
   51
  110
  111
   -1
  -56
  -53
   57
 -112
  -77
   10
    0
   17
 -107
 -119
   24
   52
    7
  112
  121
  100
    7
   -5
  -71
  -40
   38
  -70
   24
  -12
   55
   55
 -110
  -10
  -38
   -7
  118
   62
 -108
    4
  -56
  -21
  102
   42
 -103
 -115
   86
   -3
  115
 -100
   22
  -61
  -27
  115
   58
   79
  -18
    1
   82
   89
   84
   99
 -106
   37
   52
  102
   75
  -23
  -82
   23
   -3
   16
  -57
   93
   26
   33
  -88
  -58
  111
   12
  120
  -44
 -120
  -86
  -21
  -48
  -47
 -107
  120
    3
  -77
  -68
   43
   37
  127
   31
  -24
  107
  115
   39
   56
   73
  -60
    4
   64
   87
 -119
   78
 -120
    8
  -46
  -53
   21
  -66
   81
   94
  118
   57
   54
  -20
   86
 -125
    7
   89
   25
   33
  -38
  -66
   93
  -71
   51
  -10
  -69
   86
  -57
   13
   37
 -116
  111
  -85
  -35
  -57
   44
 -123
 -108
 -103
   98
 -106
 -122
   27
   39
 -116
  -81
   59
  -36
  -59
   62
   44
  -54
  -60
   52
  -80
    2
   50
  100
 -125
  -30
  -48
   75
  -96
  -91
  102
   45
  -35
   74
  -68
  -31
   77
 -126
  -57
  103
  101
 -103
 -105
 -100
  120
    1
  108
  -35
 -122
   86
   88
   39
   22
   68
   72
  122
  -31
  -94
  -99
  123
 -103
   26
   84
 -113
  -76
   25
   46
   58
  -31
   98
  -91
   60
   12
  -36
  -59
   95
   55
  -63
  -13
 -118
  -76
   13
 -118
   95
    8
  125
    0
 -114
   68
  -62
  -68
 -100
  -19
  -33
   14
  -94
  -72
  105
   69
  -15
   71
   92
  -31
  -81
   30
   81
  -18
    3
   57
  -91
    0
  -69
  -78
  -19
  -25
   63
   20
  111
  -49
   47
   -5
   46
  -60
   14
   23
  116
   92
  -15
   69
   13
  -73
   27
  -97
   29
 -118
   57
  -42
   69
  113
   66
   -6
   43
   62
  -39
  101
 -120
   45
  -92
    8
   33
 -116
  -88
    7
   49
  123
 -113
  119
   68
   25
   29
  -78
  -26
  -95
  -62
  -71
  -25
    5
  103
  -45
  -21
   53
   89
  -76
   89
  -10
 -105
  118
  -77
  -46
   61
 -120
   46
   90
  -78
 -118
  -79
    3
   55
   20
  -39
  -86
   46
   96
  -63
   35
   14
 -107
   21
   17
  106
  -95
  -17
    7
   48
   29
   46
   83
    2
  -89
  103
  117
    3
   47
   94
  -62
   64
  119
   49
   73
   52
  105
  -65
  -23
  -20
  -83
  -98
   87
   53
 -102
   -3
  127
  -77
   21
  -24
  -67
  -23
  120
   79
   39
  -72
  -28
   13
   26
  -16
   85
    9
  -53
  -70
    1
  120
  -10
  -81
  -50
  122
   67
  -17
  -88
  -41
  -34
  -94
  -75
    6
   56
   -8
  114
 -102
   96
  -78
  -52
   70
 -112
 -109
  -47
  -63
 -118
   77
  -97
   83
   48
  -27
   30
   60
   54
  -81
 -102
   78
    9
  -92
  -62
   86
  -90
  -77
   19
   72
   26
  -88
  -56
  -62
  100
 -127
  -32
  -98
 -117
  -65
  -72
  -60
  122
  -24
   28
  -30
 -108
   20
   35
  116
   70
   55
  103
   19
  -22
   14
  -75
   67
  -34
   12
  -99
   -6
  -88
  100
    3
   79
  113
   15
   76
   99
  -23
 -102
  -39
   61
  -19
   75
 -125
 -120
   21
  -33
   85
   -1
  121
  -25
   11
   53
   23
    3
  113
   37
  -73
   83
  -35
   72
  -76
 -118
  -38

